%YAML:1.0
---
opencv_ml_svm:
   format: 3
   svmType: C_SVC
   kernel:
      type: LINEAR
   C: 1.0000000000000001e-01
   term_criteria: { epsilon:1.1920928955078125e-07, iterations:1000 }
   var_count: 100
   class_count: 2
   class_labels: !!opencv-matrix
      rows: 2
      cols: 1
      dt: i
      data: [ 0, 1 ]
   sv_total: 1
   support_vectors:
      - [ -7.93773029e-03, 2.45145876e-02, -1.05638392e-02,
          3.02396864e-02, -1.20804869e-02, -1.89528205e-02,
          -1.23979673e-02, 5.32438140e-03, 5.74224591e-02,
          -2.16195360e-02, 6.97289314e-03, -1.72018390e-02,
          -2.42997073e-02, -1.26789995e-02, -2.51565706e-02,
          7.89592192e-02, 1.43533573e-03, 1.09654320e-02,
          -1.18303839e-02, 1.73051041e-02, -2.29198933e-02,
          -2.68556662e-02, 2.84500346e-02, -6.40266994e-03,
          -1.23831518e-02, -7.82831106e-03, -1.22708678e-02,
          -7.89151341e-03, -1.86808594e-02, 2.79110447e-02,
          -2.12918464e-02, -7.21305376e-03, 4.15485213e-03,
          1.40379574e-02, -2.62118597e-02, 1.77711658e-02,
          -1.90034136e-02, -1.32281017e-02, -1.47166746e-02,
          -7.66599877e-03, -1.66516379e-02, 2.82593071e-02,
          -2.33947150e-02, -9.49482061e-03, 6.73082396e-02,
          -1.16218161e-02, -3.23485807e-02, 5.82439452e-02,
          3.48060504e-02, -1.41996965e-02, -1.23315426e-02,
          -3.27737555e-02, 3.35371378e-03, -5.68813551e-03,
          1.14065101e-02, 2.71499460e-03, -2.65696123e-02,
          1.89929213e-02, 2.52704732e-02, 3.67798582e-02, 2.89189201e-02,
          9.55550838e-03, 5.36725670e-02, -2.03795973e-02,
          -7.48462277e-03, -1.89854000e-02, -3.18800583e-02,
          -4.73289564e-02, -4.54834327e-02, 6.66164085e-02,
          -1.07164467e-02, -6.83891959e-03, -1.16971238e-02,
          1.41276149e-02, -2.43569743e-02, 5.83419763e-03,
          -1.74533725e-02, 9.96353757e-03, 5.05716018e-02,
          -1.32262241e-02, -8.67797993e-03, 2.34978441e-02,
          -1.25169698e-02, -1.20088616e-02, 3.37378085e-02,
          9.85538494e-03, -1.69583466e-02, -1.66050941e-02,
          -1.95142440e-02, -1.01548908e-02, -1.85184870e-02,
          -1.69469807e-02, 2.17772853e-02, 2.49243043e-02,
          3.80964912e-02, 1.53267225e-02, -3.67942010e-03,
          -1.87325664e-02, 4.59352566e-04, -2.50326544e-02 ]
   uncompressed_sv_total: 30
   uncompressed_support_vectors:
      - [ 0., 1.38339922e-02, 0., 0., 1.18577080e-02, 0., 0.,
          3.35968398e-02, 0., 0., 9.88142379e-03, 0., 3.95256933e-03,
          1.58102773e-02, 0., 5.13834022e-02, 0., 3.95256951e-02, 0., 0.,
          0., 0., 1.97628476e-02, 0., 1.97628466e-03, 3.95256933e-03, 0.,
          5.92885399e-03, 0., 3.16205546e-02, 0., 1.18577080e-02,
          9.88142379e-03, 1.97628476e-02, 0., 0., 0., 0., 0.,
          3.95256933e-03, 3.95256933e-03, 4.15019765e-02, 0., 0.,
          6.32411093e-02, 4.15019765e-02, 0., 5.92885390e-02, 0., 0., 0.,
          0., 2.17391308e-02, 1.38339922e-02, 1.97628466e-03,
          4.15019765e-02, 0., 0., 1.97628466e-03, 8.49802420e-02, 0.,
          2.96442695e-02, 1.97628466e-03, 0., 0., 0., 0., 0., 0.,
          4.54545468e-02, 0., 1.77865624e-02, 0., 1.38339922e-02, 0., 0.,
          0., 9.88142379e-03, 5.92885390e-02, 0., 7.90513866e-03, 0., 0.,
          0., 9.88142379e-03, 1.58102773e-02, 1.97628466e-03, 0., 0., 0.,
          0., 0., 2.37154160e-02, 0., 7.11462498e-02, 0., 0., 0.,
          2.76679844e-02, 0. ]
      - [ 0., 0., 0., 4.00843844e-02, 0., 0., 0., 0., 3.37552726e-02, 0.,
          0., 0., 0., 0., 0., 1.47679314e-01, 0., 0., 0., 0., 0., 0., 0.,
          0., 0., 0., 0., 0., 0., 2.10970454e-03, 0., 8.43881816e-03, 0.,
          0., 0., 8.43881816e-03, 0., 0., 0., 0., 0., 0., 0., 0.,
          1.09704636e-01, 0., 0., 1.37130797e-01, 4.21940908e-03, 0., 0.,
          0., 0., 0., 0., 0., 0., 0., 0., 1.26582272e-02, 0.,
          1.05485227e-02, 8.43881816e-02, 0., 0., 0., 0., 0., 0.,
          1.32911384e-01, 0., 1.47679318e-02, 0., 0., 0., 0., 0., 0.,
          3.79746817e-02, 0., 0., 3.16455662e-02, 0., 0., 4.64134999e-02,
          0., 0., 0., 0., 0., 0., 0., 3.79746817e-02, 3.79746817e-02,
          5.90717271e-02, 2.10970454e-03, 0., 0., 0., 0. ]
      - [ 2.32142862e-02, 0., 0., 4.64285724e-02, 1.07142860e-02, 0.,
          2.32142862e-02, 0., 0., 0., 0., 7.14285718e-03, 0., 0., 0.,
          4.46428582e-02, 7.14285718e-03, 5.35714300e-03, 2.67857146e-02,
          0., 0., 0., 2.67857146e-02, 0., 0., 1.07142860e-02,
          7.14285718e-03, 0., 0., 3.92857157e-02, 1.07142860e-02,
          1.42857144e-02, 0., 2.85714287e-02, 0., 7.14285718e-03, 0.,
          1.78571430e-03, 0., 0., 0., 0., 0., 1.78571437e-02,
          5.71428575e-02, 5.35714300e-03, 0., 1.78571437e-02, 0., 0.,
          1.25000002e-02, 0., 1.78571430e-03, 0., 0., 0., 0., 0., 0.,
          1.00000001e-01, 0., 7.14285718e-03, 0., 7.14285718e-03,
          1.60714295e-02, 5.35714300e-03, 0., 0., 0., 2.85714287e-02, 0.,
          1.07142860e-02, 4.64285724e-02, 0., 0., 0., 1.96428578e-02, 0.,
          6.60714284e-02, 1.60714295e-02, 1.78571437e-02, 5.00000007e-02,
          0., 0., 4.46428582e-02, 0., 0., 0., 0., 0., 5.35714300e-03,
          3.57142859e-03, 1.60714295e-02, 1.96428578e-02, 6.60714284e-02,
          0., 0., 0., 0., 0. ]
      - [ 1.42857141e-03, 0., 1.14285713e-02, 0., 0., 0., 0.,
          3.14285718e-02, 7.00000003e-02, 0., 3.57142836e-02,
          4.28571412e-03, 0., 2.14285720e-02, 0., 5.00000007e-02, 0.,
          2.71428563e-02, 0., 0., 0., 2.85714283e-03, 5.14285713e-02, 0.,
          0., 0., 0., 0., 0., 1.57142859e-02, 0., 0., 3.99999991e-02,
          5.71428565e-03, 2.85714283e-03, 0., 0., 0., 0., 0., 0.,
          3.85714285e-02, 0., 8.57142825e-03, 2.57142857e-02, 0., 0., 0.,
          8.57142881e-02, 0., 5.71428565e-03, 2.42857132e-02,
          3.85714285e-02, 1.42857141e-03, 1.57142859e-02, 2.14285720e-02,
          0., 0., 0., 0., 5.71428575e-02, 2.14285720e-02, 8.28571394e-02,
          1.28571428e-02, 9.99999978e-03, 0., 0., 0., 0., 1.42857144e-02,
          0., 2.85714283e-03, 0., 0., 0., 3.14285718e-02, 0.,
          2.42857132e-02, 0., 2.85714283e-03, 1.99999996e-02, 0., 0., 0.,
          0., 1.42857144e-02, 0., 0., 0., 1.71428565e-02, 0.,
          2.85714283e-03, 0., 0., 1.42857141e-03, 0., 0., 0.,
          4.71428558e-02, 0. ]
      - [ 0., 0., 1.08359130e-02, 0., 0., 0., 0., 0., 1.26934975e-01, 0.,
          1.23839006e-02, 0., 0., 4.79876138e-02, 4.64396272e-03,
          3.09597515e-03, 0., 1.39318882e-02, 0., 0., 0., 0.,
          1.39318882e-02, 0., 0., 1.23839006e-02, 0., 0., 4.64396272e-03,
          0., 0., 2.47678012e-02, 5.88235259e-02, 2.16718260e-02, 0., 0.,
          0., 0., 4.79876138e-02, 0., 0., 3.71517017e-02, 0.,
          1.39318882e-02, 2.78637763e-02, 1.54798757e-03, 3.09597515e-03,
          0., 1.26934975e-01, 0., 9.28792544e-03, 2.16718260e-02,
          3.25077400e-02, 1.54798757e-02, 0., 0., 0., 0., 0., 0., 0.,
          1.54798757e-02, 6.19195029e-02, 2.32198127e-02, 9.28792544e-03,
          1.39318882e-02, 0., 0., 1.39318882e-02, 2.32198127e-02, 0.,
          3.09597515e-03, 0., 0., 0., 2.16718260e-02, 6.19195029e-03,
          1.85758509e-02, 0., 0., 2.63157897e-02, 0., 0., 0.,
          1.54798757e-03, 2.16718260e-02, 0., 0., 7.73993786e-03, 0., 0.,
          0., 0., 0., 0., 0., 0., 0., 3.40557247e-02, 4.64396272e-03 ]
      - [ 1.78571430e-03, 8.57142881e-02, 2.67857146e-02, 0.,
          3.57142859e-03, 0., 0., 0., 0., 0., 0., 0., 5.17857149e-02,
          2.14285720e-02, 0., 0., 0., 3.57142859e-03, 0., 1.42857144e-02,
          0., 8.92857183e-03, 1.25000002e-02, 0., 0., 2.67857146e-02,
          3.57142859e-03, 1.78571430e-03, 0., 3.57142859e-03,
          5.35714300e-03, 2.32142862e-02, 1.25000002e-02, 8.39285702e-02,
          0., 0., 1.78571430e-03, 1.07142860e-02, 0., 3.57142873e-02,
          2.50000004e-02, 2.85714287e-02, 5.35714300e-03, 1.60714295e-02,
          0., 1.96428578e-02, 0., 0., 0., 0., 7.14285718e-03, 0.,
          1.78571430e-03, 6.60714284e-02, 0., 0., 0., 0., 1.03571430e-01,
          1.07142860e-02, 0., 2.14285720e-02, 0., 8.92857183e-03,
          1.07142860e-02, 1.78571437e-02, 0., 0., 7.14285718e-03, 0., 0.,
          2.14285720e-02, 0., 0., 0., 0., 7.14285718e-03, 2.14285720e-02,
          2.50000004e-02, 0., 2.14285720e-02, 0., 0., 1.78571430e-03, 0.,
          3.03571429e-02, 0., 0., 0., 0., 0., 0., 1.07142860e-02,
          3.57142859e-03, 5.17857149e-02, 0., 0., 0., 1.60714295e-02, 0. ]
      - [ 0., 0., 0., 3.69047634e-02, 0., 0., 0., 0., 0., 0.,
          1.90476198e-02, 1.19047624e-03, 0., 3.57142882e-03, 0.,
          3.69047634e-02, 6.78571463e-02, 2.85714306e-02, 0., 0., 0., 0.,
          3.69047634e-02, 0., 0., 0., 0., 0., 0., 3.09523828e-02,
          2.14285720e-02, 0., 0., 1.54761914e-02, 0., 5.59523813e-02,
          1.19047624e-03, 0., 0., 1.19047624e-03, 3.57142882e-03, 0., 0.,
          0., 7.14285765e-03, 0., 0., 1.66666675e-02, 0., 0., 0., 0.,
          1.07142860e-02, 0., 6.19047657e-02, 0., 0., 9.16666687e-02,
          1.42857153e-02, 0., 1.00000001e-01, 2.73809526e-02, 0., 0., 0.,
          0., 0., 0., 0., 2.50000004e-02, 0., 0., 0., 7.85714313e-02, 0.,
          0., 0., 0., 3.80952395e-02, 7.14285765e-03, 0., 5.00000007e-02,
          0., 0., 2.97619067e-02, 0., 0., 4.76190494e-03, 8.33333377e-03,
          0., 1.19047624e-03, 1.19047624e-03, 2.85714306e-02,
          1.19047624e-03, 7.14285765e-03, 0., 2.85714306e-02, 0., 0., 0. ]
      - [ 0., 0., 0., 2.02702712e-02, 0., 0., 0., 5.57432435e-02, 0., 0.,
          2.36486495e-02, 0., 0., 3.37837846e-03, 0., 5.40540554e-02,
          1.68918923e-03, 3.71621624e-02, 0., 0., 0., 0., 4.22297306e-02,
          0., 0., 0., 0., 0., 0., 3.20945941e-02, 0., 0., 3.37837846e-03,
          1.35135138e-02, 0., 1.68918930e-02, 0., 0., 0., 1.01351356e-02,
          0., 3.54729742e-02, 0., 0., 4.39189188e-02, 8.44594650e-03, 0.,
          4.72972989e-02, 0., 0., 0., 0., 2.02702712e-02, 0.,
          4.22297306e-02, 3.71621624e-02, 0., 3.04054059e-02, 0.,
          9.79729742e-02, 1.68918923e-03, 2.53378376e-02, 0., 0., 0., 0.,
          0., 0., 0., 4.22297306e-02, 0., 0., 3.37837846e-03,
          3.88513505e-02, 0., 0., 0., 2.53378376e-02, 5.06756753e-02, 0.,
          1.68918923e-03, 1.35135138e-02, 0., 0., 3.37837860e-02,
          5.06756781e-03, 0., 0., 0., 0., 0., 0., 3.37837860e-02,
          6.75675692e-03, 3.20945941e-02, 0., 0., 0., 8.44594650e-03, 0. ]
      - [ 0., 5.04885986e-02, 0., 2.93159597e-02, 0., 0., 0., 0.,
          1.75895765e-01, 0., 0., 0., 0., 0., 0., 9.60912034e-02, 0., 0.,
          0., 6.67752400e-02, 0., 0., 0., 0., 0., 1.62866444e-03, 0., 0.,
          0., 0., 0., 2.44299658e-02, 0., 3.90879475e-02, 0., 0., 0., 0.,
          1.62866444e-03, 0., 0., 0., 0., 0., 1.46579798e-02,
          3.25732888e-03, 0., 1.79153085e-02, 5.86319193e-02, 0., 0., 0.,
          0., 0., 0., 0., 0., 0., 2.76872963e-02, 0., 0., 0.,
          1.69381097e-01, 0., 0., 1.62866444e-03, 0., 0., 0.,
          1.05863191e-01, 0., 6.51465775e-03, 0., 0., 0., 0., 0., 0., 0.,
          0., 0., 3.25732888e-03, 0., 0., 3.58306170e-02, 0., 0., 0., 0.,
          0., 0., 0., 1.95439737e-02, 3.74592803e-02, 6.51465775e-03,
          6.51465775e-03, 0., 0., 0., 0. ]
      - [ 0., 1.94642857e-01, 1.96428578e-02, 0., 0., 0., 0., 0., 0.,
          1.96428578e-02, 0., 0., 0., 1.78571430e-03, 0., 0., 0., 0., 0.,
          1.64285719e-01, 0., 1.96428578e-02, 0., 0., 0., 8.92857183e-03,
          0., 0., 7.14285718e-03, 0., 1.78571430e-03, 1.96428578e-02, 0.,
          1.25000002e-02, 0., 0., 0., 0., 0., 0., 7.14285718e-03, 0., 0.,
          0., 0., 0., 1.78571430e-03, 0., 0., 0., 0., 7.14285718e-03, 0.,
          9.82142836e-02, 0., 0., 0., 0., 1.14285715e-01, 0., 0., 0.,
          1.60714295e-02, 0., 0., 1.96428578e-02, 0., 0., 3.75000015e-02,
          0., 0., 7.14285718e-03, 0., 0., 2.14285720e-02, 0., 0., 0., 0.,
          0., 8.92857183e-03, 0., 0., 0., 1.78571430e-03, 0., 0., 0.,
          3.03571429e-02, 0., 0., 0., 0., 1.07142860e-02, 0.,
          1.44642860e-01, 0., 0., 0., 3.57142859e-03 ]
      - [ 0., 8.42857137e-02, 9.99999978e-03, 0., 0., 0., 0., 0.,
          2.71428563e-02, 0., 0., 5.71428565e-03, 0., 1.57142859e-02, 0.,
          0., 0., 0., 0., 5.14285713e-02, 0., 1.42857144e-02, 0.,
          2.85714283e-03, 0., 3.71428579e-02, 2.85714283e-03,
          8.57142825e-03, 0., 0., 4.28571412e-03, 3.14285718e-02,
          3.57142836e-02, 0., 0., 0., 0., 5.71428565e-03, 5.28571419e-02,
          0., 1.28571428e-02, 2.99999993e-02, 0., 1.71428565e-02, 0., 0.,
          0., 0., 5.57142869e-02, 0., 1.42857141e-03, 0., 0.,
          1.28571428e-02, 0., 0., 1.42857141e-03, 0., 1.07142858e-01, 0.,
          0., 1.71428565e-02, 8.42857137e-02, 1.42857141e-03,
          2.85714283e-03, 2.85714287e-02, 0., 0., 0., 5.99999987e-02, 0.,
          2.28571426e-02, 0., 0., 0., 0., 9.99999978e-03, 3.14285718e-02,
          0., 0., 1.57142859e-02, 0., 0., 4.28571412e-03, 8.57142825e-03,
          2.71428563e-02, 0., 0., 0., 5.71428565e-03, 0., 4.28571412e-03,
          1.14285713e-02, 1.42857141e-03, 0., 0., 0., 0., 3.42857130e-02,
          0. ]
      - [ 8.92857183e-03, 0., 0., 6.25000000e-02, 0., 0., 5.35714300e-03,
          0., 0., 0., 0., 0., 0., 0., 0., 5.35714291e-02, 3.21428590e-02,
          0., 0., 0., 0., 0., 0., 0., 0., 3.57142873e-02, 1.78571430e-03,
          0., 0., 2.67857146e-02, 7.14285718e-03, 3.57142859e-03, 0., 0.,
          0., 8.92857164e-02, 0., 2.50000004e-02, 0., 0., 0., 0., 0.,
          1.07142860e-02, 2.14285720e-02, 0., 0., 3.57142873e-02, 0., 0.,
          3.57142859e-03, 0., 0., 0., 0., 0., 0., 6.78571463e-02,
          5.35714300e-03, 0., 1.30357146e-01, 0., 0., 0., 7.14285718e-03,
          0., 0., 0., 0., 4.10714298e-02, 0., 8.92857183e-03, 0., 0., 0.,
          0., 8.92857183e-03, 0., 7.32142851e-02, 1.78571430e-03, 0.,
          6.25000000e-02, 0., 1.25000002e-02, 5.17857149e-02, 0., 0., 0.,
          0., 0., 0., 0., 2.85714287e-02, 6.96428567e-02, 0., 0.,
          7.14285718e-03, 0., 0., 0. ]
      - [ 0., 0., 0., 3.37552726e-02, 0., 0., 0., 0., 1.68776363e-01, 0.,
          0., 0., 0., 4.21940908e-03, 0., 0., 0., 0., 0., 0., 0., 0., 0.,
          0., 0., 6.32911362e-03, 0., 0., 0., 0., 0., 1.47679318e-02, 0.,
          4.00843844e-02, 0., 0., 0., 0., 1.68776363e-02, 0., 0., 0., 0.,
          0., 1.58227846e-01, 0., 0., 3.16455662e-02, 9.49367061e-02, 0.,
          0., 0., 0., 0., 0., 0., 0., 0., 0., 0., 0., 0., 1.98312223e-01,
          1.89873409e-02, 0., 0., 0., 0., 0., 6.75105453e-02, 0.,
          2.10970454e-03, 0., 0., 0., 0., 0., 0., 0., 0., 8.43881816e-03,
          1.05485227e-02, 0., 0., 4.85232025e-02, 0., 0., 0., 0., 0., 0.,
          0., 8.43881816e-03, 4.85232025e-02, 1.89873409e-02, 0., 0., 0.,
          0., 0. ]
      - [ 0., 0., 0., 2.73224036e-03, 8.19672085e-03, 0., 0., 0., 0., 0.,
          5.46448072e-03, 0., 0., 8.19672085e-03, 0., 1.69398904e-01, 0.,
          2.45901626e-02, 0., 0., 0., 0., 3.82513665e-02, 0., 0.,
          2.73224036e-03, 0., 5.46448072e-03, 0., 3.27868834e-02, 0.,
          1.36612020e-02, 1.91256832e-02, 5.46448072e-03, 0., 0., 0., 0.,
          0., 0., 0., 5.19125685e-02, 0., 0., 9.56284106e-02, 0., 0.,
          1.42076492e-01, 0., 0., 0., 0., 1.09289614e-02, 0., 0., 0., 0.,
          0., 0., 1.91256832e-02, 0., 1.09289614e-02, 0., 0., 0.,
          2.73224036e-03, 0., 0., 0., 4.91803251e-02, 0., 1.91256832e-02,
          0., 0., 0., 0., 0., 1.36612020e-02, 9.28961709e-02, 0.,
          2.73224036e-03, 0., 0., 0., 5.46448072e-03, 4.91803251e-02, 0.,
          0., 0., 0., 0., 0., 5.46448072e-03, 2.18579229e-02,
          6.28415272e-02, 0., 0., 0., 8.19672085e-03, 0. ]
      - [ 0., 0., 0., 3.04054059e-02, 0., 0., 0., 6.75675692e-03, 0., 0.,
          3.37837860e-02, 0., 0., 5.06756781e-03, 0., 8.27702731e-02, 0.,
          4.05405425e-02, 0., 0., 0., 0., 4.72972989e-02, 0., 0., 0., 0.,
          0., 0., 6.41891882e-02, 0., 0., 0., 5.06756781e-03, 0., 0., 0.,
          0., 0., 0., 0., 2.53378376e-02, 0., 0., 6.25000000e-02, 0., 0.,
          7.93918967e-02, 0., 0., 0., 0., 2.19594594e-02, 0.,
          2.70270277e-02, 1.52027030e-02, 0., 0., 0., 9.45945978e-02, 0.,
          2.87162177e-02, 0., 0., 1.68918923e-03, 0., 0., 0., 0.,
          6.25000000e-02, 0., 0., 0., 4.22297306e-02, 0., 5.57432435e-02,
          0., 3.37837846e-03, 6.25000000e-02, 0., 1.68918923e-03,
          1.35135138e-02, 0., 0., 2.53378376e-02, 2.36486495e-02, 0., 0.,
          0., 0., 0., 0., 2.53378376e-02, 0., 1.18243247e-02, 0., 0., 0.,
          0., 0. ]
      - [ 2.76872963e-02, 1.22149829e-02, 4.07166127e-03, 0., 0., 0.,
          7.65472278e-02, 0., 0., 1.95439737e-02, 0., 1.46579798e-02,
          1.46579798e-02, 1.05863186e-02, 1.54723125e-02, 0.,
          7.08469003e-02, 0., 2.19869707e-02, 0., 1.22149829e-02,
          1.38436481e-02, 0., 0., 0., 1.46579798e-02, 8.14332254e-03, 0.,
          1.30293155e-02, 0., 1.05863186e-02, 1.38436481e-02, 0.,
          1.62866444e-03, 0., 0., 5.45602590e-02, 1.79153085e-02, 0.,
          1.87296402e-02, 1.71009768e-02, 0., 1.87296402e-02,
          1.38436481e-02, 0., 4.39739414e-02, 0., 0., 0., 8.79478827e-02,
          1.05863186e-02, 0., 0., 3.42019536e-02, 0., 0., 1.79153085e-02,
          0., 0., 1.95439737e-02, 0., 3.25732888e-03, 0., 1.30293155e-02,
          9.77198686e-03, 1.79153085e-02, 8.95765424e-03, 2.28013024e-02,
          3.58306170e-02, 0., 0., 1.30293155e-02, 7.32898992e-03, 0.,
          1.62866451e-02, 0., 8.14332254e-03, 0., 0., 1.71009768e-02,
          1.14006512e-02, 0., 0., 1.30293155e-02, 0., 0., 0.,
          1.05863186e-02, 1.05863186e-02, 0., 3.17589566e-02,
          1.14006512e-02, 0., 0., 0., 0., 0., 0., 0., 6.51465775e-03 ]
      - [ 0., 2.80777533e-02, 2.05183588e-02, 0., 0., 0., 0., 0., 0., 0.,
          0., 0., 0., 1.83585305e-02, 4.10367176e-02, 0., 0., 0., 0.,
          3.56371477e-02, 3.13174948e-02, 4.85961102e-02, 0., 0., 0.,
          5.39956801e-03, 0., 0., 2.15982716e-03, 0., 0., 1.51187899e-02,
          2.26781853e-02, 4.21166308e-02, 0., 0., 1.94384437e-02, 0.,
          1.65226772e-01, 0., 0., 1.07991358e-03, 0., 0., 0., 0., 0., 0.,
          0., 0., 0., 1.07991358e-03, 0., 2.15982720e-02, 0.,
          3.23974062e-03, 0., 0., 1.40388766e-02, 0., 0., 1.72786172e-02,
          1.40388766e-02, 1.61987040e-02, 0., 5.39956801e-02,
          9.50323939e-02, 3.88768874e-02, 3.99568006e-02, 1.07991360e-02,
          0., 0., 0., 0., 1.40388766e-02, 0., 0., 6.47948124e-03, 0., 0.,
          9.71922185e-03, 0., 2.15982720e-02, 0., 0., 2.05183588e-02, 0.,
          1.18790492e-02, 1.72786172e-02, 0., 0., 0., 1.07991360e-02, 0.,
          0., 0., 1.07991358e-03, 0., 4.10367176e-02, 2.26781853e-02 ]
      - [ 6.88073365e-03, 1.60550456e-02, 1.14678890e-02, 0., 0., 0.,
          4.58715577e-03, 0., 0., 1.94954127e-02, 0., 1.60550456e-02,
          3.32568809e-02, 1.83486231e-02, 1.72018334e-02, 0., 0., 0.,
          5.73394448e-03, 0., 1.60550456e-02, 2.29357779e-02, 0.,
          1.03211002e-02, 0., 1.60550456e-02, 1.03211002e-02, 0.,
          1.37614673e-02, 0., 2.29357779e-02, 2.52293572e-02, 0.,
          2.29357788e-03, 0., 0., 1.83486231e-02, 2.75229346e-02, 0.,
          2.75229346e-02, 2.52293572e-02, 0., 1.83486231e-02,
          1.94954127e-02, 0., 5.27522899e-02, 2.40825675e-02, 0., 0.,
          3.44036683e-03, 1.14678890e-02, 3.09633017e-02, 0.,
          2.40825675e-02, 0., 0., 2.98165120e-02, 0., 3.44036683e-03,
          1.94954127e-02, 0., 4.58715577e-03, 0., 2.52293572e-02,
          1.03211002e-02, 1.94954127e-02, 1.14678890e-02, 4.93119247e-02,
          5.61926588e-02, 0., 0., 1.72018334e-02, 9.17431153e-03, 0.,
          1.83486231e-02, 0., 1.14678890e-02, 2.29357788e-03, 0.,
          9.17431153e-03, 1.83486231e-02, 0., 0., 1.14678890e-02, 0., 0.,
          0., 1.60550456e-02, 1.83486231e-02, 5.73394448e-03,
          2.63761450e-02, 1.72018334e-02, 0., 0., 0., 0., 0., 0., 0.,
          1.72018334e-02 ]
      - [ 9.90098994e-03, 1.48514844e-02, 1.73267331e-02, 0., 0., 0.,
          6.18811883e-03, 0., 0., 2.84653455e-02, 0., 2.59900987e-02,
          2.35148519e-02, 1.85643565e-02, 1.23762377e-02, 0., 0., 0.,
          3.71287111e-03, 3.71287111e-03, 8.66336655e-03, 2.35148519e-02,
          0., 4.95049497e-03, 0., 2.47524753e-02, 1.98019799e-02, 0.,
          1.85643565e-02, 0., 1.98019799e-02, 2.59900987e-02, 0.,
          2.84653455e-02, 0., 0., 0., 1.98019799e-02, 4.95049497e-03,
          1.60891078e-02, 2.10396033e-02, 0., 2.10396033e-02,
          2.10396033e-02, 0., 4.70297039e-02, 1.60891078e-02, 0., 0., 0.,
          2.47524753e-02, 2.72277221e-02, 0., 2.97029689e-02, 0., 0.,
          2.47524753e-02, 0., 0., 7.42574222e-03, 0., 2.47524749e-03, 0.,
          2.35148519e-02, 1.23762377e-02, 2.22772267e-02, 1.36138611e-02,
          4.33168299e-02, 4.95049506e-02, 0., 0., 1.98019799e-02, 0., 0.,
          2.35148519e-02, 0., 2.10396033e-02, 0., 0., 1.60891078e-02,
          1.85643565e-02, 0., 0., 8.66336655e-03, 0., 0., 0.,
          7.42574222e-03, 1.98019799e-02, 0., 4.45544533e-02,
          1.98019799e-02, 2.47524749e-03, 0., 0., 0., 0., 0., 0.,
          1.11386133e-02 ]
      - [ 6.25000009e-03, 0., 1.96428578e-02, 0., 2.14285720e-02,
          5.89285716e-02, 8.92857183e-03, 2.50000004e-02, 0., 0.,
          2.05357149e-02, 8.03571474e-03, 0., 2.23214291e-02, 0., 0.,
          8.92857148e-04, 1.69642866e-02, 0., 0., 0., 0., 3.57142859e-03,
          8.03571474e-03, 1.78571437e-02, 8.92857148e-04, 0.,
          1.42857144e-02, 7.14285718e-03, 0., 0., 4.46428591e-03,
          2.32142862e-02, 8.92857148e-04, 5.98214306e-02, 0., 0., 0.,
          4.46428591e-03, 0., 0., 1.78571430e-03, 0., 1.25000002e-02, 0.,
          0., 6.69642836e-02, 0., 0., 0., 7.14285718e-03, 5.89285716e-02,
          2.23214291e-02, 1.78571430e-03, 5.35714300e-03, 2.94642858e-02,
          0., 0., 0., 0., 0., 1.33928573e-02, 0., 1.87500007e-02,
          1.42857144e-02, 8.03571474e-03, 8.92857148e-04, 3.12500000e-02,
          2.85714287e-02, 0., 2.41071433e-02, 0., 5.89285716e-02,
          8.92857148e-04, 0., 2.58928575e-02, 7.14285718e-03,
          1.51785715e-02, 0., 1.16071431e-02, 1.51785715e-02, 0., 0., 0.,
          0., 4.46428591e-03, 2.76785716e-02, 3.57142859e-03,
          7.14285718e-03, 2.32142862e-02, 0., 8.03571474e-03,
          8.92857148e-04, 0., 0., 0., 0., 4.19642851e-02, 2.85714287e-02,
          2.05357149e-02 ]
      - [ 1.19047621e-02, 8.33333377e-03, 7.14285765e-03, 0., 0., 0.,
          9.52380989e-03, 0., 0., 3.09523828e-02, 0., 1.78571437e-02,
          2.38095243e-02, 1.19047621e-02, 3.33333351e-02, 0.,
          4.76190494e-03, 0., 4.40476201e-02, 0., 2.50000004e-02,
          2.73809526e-02, 0., 0., 0., 2.02380959e-02, 1.90476198e-02, 0.,
          2.38095243e-02, 0., 4.64285724e-02, 2.38095243e-02, 0., 0., 0.,
          0., 3.33333351e-02, 4.88095246e-02, 1.19047624e-03,
          3.57142882e-03, 2.26190481e-02, 0., 3.21428590e-02,
          1.19047621e-02, 0., 7.14285765e-03, 0., 0., 0., 1.54761914e-02,
          1.90476198e-02, 0., 0., 2.50000004e-02, 0., 0., 2.50000004e-02,
          0., 4.76190494e-03, 4.76190494e-03, 0., 2.38095247e-03, 0.,
          2.02380959e-02, 1.07142860e-02, 1.90476198e-02, 1.90476198e-02,
          2.02380959e-02, 3.33333351e-02, 0., 0., 1.66666675e-02, 0., 0.,
          2.14285720e-02, 0., 3.57142873e-02, 0., 0., 1.90476198e-02,
          1.90476198e-02, 0., 0., 2.50000004e-02, 0., 0., 0.,
          2.14285720e-02, 1.90476198e-02, 0., 1.90476198e-02,
          2.02380959e-02, 0., 0., 0., 0., 0., 0., 0., 1.42857153e-02 ]
      - [ 1.83673464e-02, 1.02040814e-02, 5.10204071e-03, 0.,
          7.14285672e-03, 0., 2.04081628e-02, 0., 0., 2.44897939e-02, 0.,
          2.04081628e-02, 2.95918360e-02, 1.12244897e-02, 3.06122433e-02,
          0., 1.32653052e-02, 0., 2.85714269e-02, 0., 2.04081628e-02,
          2.65306104e-02, 0., 6.12244848e-03, 4.08163248e-03,
          1.53061217e-02, 1.73469372e-02, 6.12244848e-03, 1.63265299e-02,
          0., 3.36734690e-02, 2.04081628e-02, 0., 0., 0., 0.,
          4.79591824e-02, 2.04081628e-02, 1.02040812e-03, 2.24489793e-02,
          2.14285702e-02, 0., 3.16326506e-02, 1.42857134e-02, 0.,
          3.06122424e-03, 0., 0., 0., 3.06122433e-02, 1.83673464e-02, 0.,
          0., 2.14285702e-02, 0., 0., 2.75510196e-02, 0., 1.32653052e-02,
          1.02040812e-03, 0., 0., 0., 1.93877537e-02, 8.16326495e-03,
          1.63265299e-02, 1.93877537e-02, 1.63265299e-02, 3.06122433e-02,
          0., 8.16326495e-03, 2.24489793e-02, 0., 0., 2.14285702e-02, 0.,
          3.16326506e-02, 0., 0., 2.24489793e-02, 1.53061217e-02, 0., 0.,
          1.83673464e-02, 0., 0., 0., 1.73469372e-02, 1.53061217e-02,
          9.18367319e-03, 2.24489793e-02, 1.73469372e-02, 0., 0., 0., 0.,
          0., 0., 0., 8.16326495e-03 ]
      - [ 0., 0., 1.19047624e-03, 0., 0., 0., 0., 0., 1.30952382e-02, 0.,
          1.78571437e-02, 0., 1.19047624e-03, 3.09523828e-02,
          2.50000004e-02, 0., 0., 3.80952395e-02, 0., 1.66666675e-02,
          2.50000004e-02, 2.97619067e-02, 0., 0., 0., 0., 0., 0.,
          3.57142882e-03, 0., 3.57142882e-03, 3.57142882e-03, 0.,
          2.38095247e-03, 0., 0., 0., 0., 4.28571440e-02, 0.,
          3.57142882e-03, 0., 2.02380959e-02, 0., 5.95238106e-03,
          5.95238106e-03, 8.33333377e-03, 0., 5.00000007e-02, 0., 0., 0.,
          5.95238134e-02, 3.57142873e-02, 3.57142882e-03, 0.,
          8.33333377e-03, 0., 5.95238106e-03, 0., 0., 2.02380959e-02,
          1.11904763e-01, 1.19047624e-03, 0., 1.19047624e-03,
          3.21428590e-02, 4.64285724e-02, 2.97619067e-02, 5.95238106e-03,
          0., 0., 0., 0., 4.40476201e-02, 0., 0., 0., 0., 0.,
          3.57142882e-03, 0., 1.03571430e-01, 0., 5.95238106e-03, 0., 0.,
          0., 2.73809526e-02, 0., 0., 0., 4.76190494e-03, 0., 0., 0.,
          7.14285746e-02, 0., 0., 2.85714306e-02 ]
      - [ 0., 2.50000004e-02, 1.19047621e-02, 0., 3.45238112e-02, 0., 0.,
          0., 1.19047624e-03, 3.21428590e-02, 0., 1.19047621e-02,
          5.59523813e-02, 2.02380959e-02, 1.30952382e-02, 0., 0., 0., 0.,
          1.78571437e-02, 1.78571437e-02, 2.61904765e-02, 0., 0.,
          2.50000004e-02, 2.26190481e-02, 4.76190494e-03, 1.90476198e-02,
          1.78571437e-02, 0., 5.59523813e-02, 2.38095243e-02,
          3.57142882e-03, 2.02380959e-02, 0., 0., 1.19047624e-03,
          1.19047624e-03, 5.95238106e-03, 2.38095247e-03, 3.21428590e-02,
          0., 2.61904765e-02, 1.19047621e-02, 0., 0., 1.42857153e-02, 0.,
          2.38095247e-03, 0., 7.14285765e-03, 3.33333351e-02, 0.,
          1.54761914e-02, 0., 0., 3.57142873e-02, 0., 2.73809526e-02, 0.,
          0., 8.33333377e-03, 7.14285765e-03, 2.26190481e-02,
          8.33333377e-03, 2.14285720e-02, 1.90476198e-02, 2.26190481e-02,
          2.38095243e-02, 0., 1.90476198e-02, 3.09523828e-02,
          3.57142882e-03, 0., 2.50000004e-02, 0., 3.57142882e-03, 0., 0.,
          2.38095247e-03, 1.78571437e-02, 0., 0., 0., 0., 2.38095247e-03,
          1.78571437e-02, 1.42857153e-02, 2.02380959e-02, 1.19047624e-03,
          4.76190494e-03, 8.33333377e-03, 0., 1.19047624e-03, 0., 0., 0.,
          0., 0., 1.66666675e-02 ]
      - [ 7.14285672e-03, 5.10204071e-03, 2.14285702e-02, 0.,
          2.55102031e-02, 4.59183641e-02, 1.02040814e-02, 1.02040814e-02,
          0., 2.04081624e-03, 8.16326495e-03, 1.22448970e-02,
          4.08163248e-03, 2.44897939e-02, 3.06122424e-03, 0.,
          1.02040812e-03, 8.16326495e-03, 0., 1.02040814e-02,
          8.16326495e-03, 8.16326495e-03, 1.02040812e-03, 8.16326495e-03,
          2.65306104e-02, 6.12244848e-03, 5.10204071e-03, 1.53061217e-02,
          1.42857134e-02, 0., 0., 1.53061217e-02, 2.04081628e-02,
          1.53061217e-02, 5.71428537e-02, 0., 3.06122424e-03, 0.,
          8.16326495e-03, 0., 2.04081624e-03, 0., 1.02040812e-03,
          1.53061217e-02, 0., 0., 2.95918360e-02, 0., 4.08163248e-03, 0.,
          1.32653052e-02, 4.69387732e-02, 8.16326495e-03, 1.02040814e-02,
          1.02040812e-03, 1.22448970e-02, 2.04081624e-03, 0., 0., 0., 0.,
          1.02040814e-02, 2.04081624e-03, 2.24489793e-02, 1.22448970e-02,
          2.14285702e-02, 1.22448970e-02, 2.55102031e-02, 3.26530598e-02,
          0., 2.34693866e-02, 0., 3.36734690e-02, 0., 9.18367319e-03,
          1.32653052e-02, 1.12244897e-02, 1.12244897e-02, 0.,
          1.22448970e-02, 1.73469372e-02, 0., 0., 0., 0., 1.42857134e-02,
          3.57142836e-02, 8.16326495e-03, 1.22448970e-02, 1.93877537e-02,
          0., 1.02040814e-02, 2.04081624e-03, 0., 0., 0., 0.,
          2.65306104e-02, 2.44897939e-02, 1.93877537e-02 ]
      - [ 6.47948124e-03, 3.23974080e-02, 1.18790492e-02, 0.,
          3.23974062e-03, 0., 4.31965431e-03, 0., 0., 2.26781853e-02, 0.,
          1.29589625e-02, 3.56371477e-02, 4.31965431e-03, 2.59179249e-02,
          0., 0., 0., 4.10367176e-02, 3.02375797e-02, 1.72786172e-02,
          2.48380117e-02, 0., 3.23974062e-03, 0., 2.15982720e-02,
          9.71922185e-03, 0., 1.72786172e-02, 0., 2.26781853e-02,
          2.15982720e-02, 0., 1.51187899e-02, 0., 0., 1.51187899e-02,
          3.13174948e-02, 2.15982716e-03, 3.56371477e-02, 2.26781853e-02,
          0., 3.02375797e-02, 1.29589625e-02, 4.31965431e-03, 0., 0., 0.,
          0., 1.07991358e-03, 8.63930862e-03, 1.61987040e-02, 0.,
          1.40388766e-02, 0., 0., 3.13174948e-02, 0., 3.02375797e-02, 0.,
          0., 2.15982716e-03, 1.07991360e-02, 1.40388766e-02,
          1.18790492e-02, 1.61987040e-02, 1.94384437e-02, 2.05183588e-02,
          2.26781853e-02, 2.15982716e-03, 0., 1.61987040e-02,
          1.07991360e-02, 0., 1.61987040e-02, 2.15982716e-03,
          1.94384437e-02, 0., 0., 1.07991360e-02, 1.29589625e-02, 0., 0.,
          5.83153330e-02, 0., 0., 2.15982716e-03, 1.07991360e-02,
          1.61987040e-02, 2.15982716e-03, 2.69978400e-02, 9.71922185e-03,
          3.23974062e-03, 3.23974062e-03, 5.39956801e-03, 0., 0., 0., 0.,
          1.29589625e-02 ]
      - [ 9.17431153e-03, 6.88073365e-03, 1.26146786e-02, 0.,
          1.83486231e-02, 0., 8.02752282e-03, 3.44036683e-03, 0.,
          2.75229346e-02, 0., 1.60550456e-02, 3.09633017e-02,
          2.06422005e-02, 2.06422005e-02, 0., 1.14678894e-03, 0., 0., 0.,
          2.52293572e-02, 2.40825675e-02, 0., 9.17431153e-03,
          1.60550456e-02, 2.52293572e-02, 2.29357779e-02, 1.37614673e-02,
          1.49082560e-02, 0., 2.63761450e-02, 2.40825675e-02,
          5.73394448e-03, 8.02752282e-03, 5.73394448e-03, 0., 0.,
          3.44036683e-03, 4.58715577e-03, 0., 2.06422005e-02, 0.,
          1.60550456e-02, 1.49082560e-02, 0., 1.49082560e-02,
          2.98165120e-02, 0., 0., 3.44036683e-03, 2.06422005e-02,
          3.89908254e-02, 0., 1.49082560e-02, 0., 0., 2.75229346e-02, 0.,
          3.44036683e-03, 0., 0., 3.44036683e-03, 0., 2.63761450e-02,
          8.02752282e-03, 2.29357779e-02, 2.17889901e-02, 2.75229346e-02,
          3.66972461e-02, 0., 4.58715577e-03, 2.17889901e-02,
          1.60550456e-02, 0., 2.06422005e-02, 0., 2.17889901e-02,
          2.29357788e-03, 0., 1.49082560e-02, 1.83486231e-02, 0., 0., 0.,
          0., 6.88073365e-03, 1.60550456e-02, 1.94954127e-02,
          1.72018334e-02, 1.60550456e-02, 6.88073365e-03, 1.94954127e-02,
          0., 0., 0., 0., 0., 0., 1.14678894e-03, 1.94954127e-02 ]
      - [ 0., 0., 5.39956801e-03, 0., 6.47948124e-03, 5.07559367e-02, 0.,
          3.56371477e-02, 0., 0., 2.15982720e-02, 5.39956801e-03, 0.,
          3.13174948e-02, 2.15982716e-03, 0., 0., 4.75161970e-02, 0.,
          4.31965431e-03, 6.47948124e-03, 0., 0., 1.07991358e-03,
          1.07991360e-02, 0., 0., 9.71922185e-03, 4.31965431e-03, 0., 0.,
          2.15982716e-03, 2.37580985e-02, 0., 8.20734352e-02, 0., 0., 0.,
          1.72786172e-02, 0., 0., 0., 0., 0., 0., 0., 7.77537748e-02, 0.,
          0., 0., 0., 4.10367176e-02, 3.67170610e-02, 1.07991358e-03,
          2.48380117e-02, 4.31965441e-02, 0., 0., 0., 0., 0.,
          1.40388766e-02, 0., 1.51187899e-02, 0., 1.07991358e-03,
          2.05183588e-02, 4.96760234e-02, 4.10367176e-02, 0., 0., 0., 0.,
          3.13174948e-02, 4.31965431e-03, 0., 0., 7.55939493e-03, 0.,
          2.15982716e-03, 5.39956801e-03, 0., 0., 0., 0., 5.39956801e-03,
          3.13174948e-02, 1.29589625e-02, 9.71922185e-03, 1.51187899e-02,
          0., 6.47948124e-03, 0., 0., 0., 0., 0., 5.93952462e-02,
          4.64362837e-02, 2.80777533e-02 ]
      - [ 8.90585221e-03, 1.65394396e-02, 2.03562342e-02, 0.,
          1.90839693e-02, 1.27226464e-03, 3.81679391e-03, 0.,
          1.39949108e-02, 2.54452936e-02, 0., 1.65394396e-02,
          3.68956737e-02, 1.27226468e-02, 1.01781171e-02, 0.,
          2.54452927e-03, 0., 0., 5.08905854e-03, 1.14503819e-02,
          3.43511440e-02, 0., 7.63358781e-03, 1.01781171e-02,
          2.41730288e-02, 1.27226468e-02, 1.01781171e-02, 2.03562342e-02,
          0., 2.16284990e-02, 2.03562342e-02, 3.81679391e-03,
          1.39949108e-02, 0., 0., 0., 5.08905854e-03, 2.54452927e-03,
          1.27226464e-03, 2.54452936e-02, 0., 2.16284990e-02,
          1.27226468e-02, 3.81679391e-03, 8.90585221e-03, 1.14503819e-02,
          2.54452927e-03, 2.16284990e-02, 0., 1.27226468e-02,
          3.30788791e-02, 0., 6.36132341e-03, 0., 0., 3.30788791e-02, 0.,
          1.90839693e-02, 0., 0., 7.63358781e-03, 1.65394396e-02,
          1.78117044e-02, 1.52671756e-02, 1.78117044e-02, 1.39949108e-02,
          1.39949108e-02, 1.39949108e-02, 1.27226468e-02, 6.36132341e-03,
          2.92620864e-02, 1.90839693e-02, 0., 2.03562342e-02, 0.,
          3.18066142e-02, 1.27226464e-03, 0., 1.39949108e-02,
          1.90839693e-02, 0., 0., 3.81679391e-03, 0., 5.08905854e-03,
          1.52671756e-02, 7.63358781e-03, 1.78117044e-02, 1.39949108e-02,
          8.90585221e-03, 1.78117044e-02, 7.63358781e-03, 5.08905854e-03,
          2.54452927e-03, 0., 0., 1.27226464e-03, 0., 1.65394396e-02 ]
      - [ 2.04081624e-03, 8.16326495e-03, 1.42857134e-02, 0.,
          1.93877537e-02, 3.26530598e-02, 0., 0., 0., 3.06122424e-03,
          2.04081624e-03, 1.22448970e-02, 9.18367319e-03, 1.93877537e-02,
          6.12244848e-03, 0., 0., 0., 0., 0., 4.08163248e-03,
          4.08163248e-03, 0., 8.16326495e-03, 1.53061217e-02,
          2.75510196e-02, 8.16326495e-03, 1.22448970e-02, 1.12244897e-02,
          0., 0., 2.24489793e-02, 3.46938744e-02, 0., 6.02040775e-02, 0.,
          0., 0., 6.12244848e-03, 0., 5.10204071e-03, 3.06122424e-03,
          2.04081624e-03, 1.83673464e-02, 0., 1.22448970e-02,
          4.99999970e-02, 0., 0., 0., 9.18367319e-03, 5.30612208e-02, 0.,
          9.18367319e-03, 0., 0., 4.08163248e-03, 0., 0., 0., 0.,
          1.02040814e-02, 0., 2.04081628e-02, 1.12244897e-02,
          2.04081628e-02, 1.12244897e-02, 4.48979586e-02, 3.87755074e-02,
          0., 2.14285702e-02, 1.83673464e-02, 8.16326495e-03, 0.,
          1.02040814e-02, 9.18367319e-03, 2.34693866e-02, 2.04081624e-03,
          0., 8.16326495e-03, 1.73469372e-02, 0., 0., 0., 0.,
          2.95918360e-02, 2.55102031e-02, 9.18367319e-03, 1.32653052e-02,
          1.83673464e-02, 0., 1.53061217e-02, 0., 0., 0., 0., 0.,
          5.81632629e-02, 2.95918360e-02, 1.63265299e-02 ]
   decision_functions:
      -
         sv_count: 1
         rho: 1.7053774517990061e-02
         alpha: [ 1. ]
         index: [ 0 ]
