%YAML:1.0
---
opencv_ml_svm:
   format: 3
   svmType: C_SVC
   kernel:
      type: LINEAR
   C: 1.0000000000000001e-01
   term_criteria: { epsilon:1.1920928955078125e-07, iterations:1000 }
   var_count: 100
   class_count: 2
   class_labels: !!opencv-matrix
      rows: 2
      cols: 1
      dt: i
      data: [ 0, 1 ]
   sv_total: 1
   support_vectors:
      - [ 3.90879996e-03, 2.48521846e-03, 5.42735262e-03,
          -3.53010744e-03, 8.21717735e-03, 6.82294136e-03,
          -7.34601589e-03, -5.69587341e-03, -4.42270609e-03,
          -4.88817785e-03, -1.82444928e-03, -3.49981966e-03,
          -1.02861850e-02, 8.85029230e-03, -3.18455556e-03,
          1.33971833e-02, 4.48548328e-03, 7.55190896e-03, 1.04243793e-02,
          2.99631394e-02, 1.60286005e-03, -8.79770890e-03,
          2.50706933e-02, 6.25357963e-03, 2.08272450e-02,
          -7.11893337e-03, -6.99898554e-03, -7.87113793e-03,
          -6.68912008e-03, -9.58755426e-03, -3.72226513e-03,
          1.25948535e-02, -3.95542057e-03, -8.83022975e-03,
          1.68755502e-02, -7.93740060e-03, 4.16609982e-04,
          -1.08835781e-02, -1.94380875e-03, -7.18118390e-03,
          -1.02332735e-03, -1.26429023e-02, -3.11040250e-03,
          -7.65431114e-03, -8.33238475e-03, 8.16225912e-03,
          -9.72472038e-03, 1.73871091e-03, -5.74498717e-03,
          5.87733230e-03, -5.16494690e-03, 1.37938012e-03,
          2.42933929e-02, -2.31486675e-03, -2.02174368e-03,
          -1.64474675e-03, 2.14070710e-03, -7.18190661e-03,
          -3.01999498e-05, -8.56355950e-03, -6.31604251e-03,
          -3.66858346e-03, 3.01008089e-03, 1.78052275e-03,
          -9.28483345e-03, -4.63631324e-04, -4.22982452e-03,
          8.68593249e-03, -7.66107766e-03, 1.35141909e-02,
          -3.69441020e-03, -1.61893840e-03, 4.64721443e-03,
          1.27482181e-02, -1.51423644e-03, 4.90319508e-04,
          1.00953109e-03, -7.13878777e-03, 1.28068998e-02,
          -1.59580872e-04, 1.42259093e-03, 1.86580140e-03,
          -1.23384316e-03, -5.15887653e-03, -8.63236748e-03,
          -5.93804987e-03, -5.72581496e-03, -3.02519090e-03,
          -7.98520725e-03, 1.39067806e-02, -2.13826704e-03,
          -1.03282544e-03, -2.80799228e-03, -2.66794860e-03,
          6.60337368e-03, 1.27903624e-02, -4.90940642e-03,
          -1.26801315e-03, -8.53627268e-03, -5.88861899e-03 ]
   uncompressed_sv_total: 30
   uncompressed_support_vectors:
      - [ 6.80272095e-03, 1.36054419e-02, 1.36054419e-02, 0.,
          4.08163257e-02, 1.36054419e-02, 0., 1.36054419e-02,
          6.80272095e-03, 6.80272095e-03, 6.80272095e-03, 6.80272095e-03,
          1.36054419e-02, 6.80272095e-03, 0., 1.36054419e-02,
          6.80272095e-03, 2.04081628e-02, 3.40136066e-02, 7.48299286e-02,
          0., 0., 3.40136066e-02, 6.80272095e-03, 6.80272132e-02,
          6.80272095e-03, 0., 0., 0., 6.80272095e-03, 0., 5.44217676e-02,
          0., 6.80272095e-03, 2.72108838e-02, 0., 6.80272095e-03,
          6.80272095e-03, 1.36054419e-02, 0., 6.80272095e-03, 0., 0.,
          1.36054419e-02, 0., 2.04081628e-02, 0., 6.80272095e-03,
          6.80272095e-03, 5.44217676e-02, 6.80272095e-03, 0.,
          4.08163257e-02, 6.80272095e-03, 0., 0., 0., 0., 2.72108838e-02,
          0., 1.36054419e-02, 0., 0., 6.80272095e-03, 0., 6.80272095e-03,
          0., 6.80272095e-03, 6.80272095e-03, 2.04081628e-02,
          1.36054419e-02, 0., 0., 0., 0., 1.36054419e-02, 1.36054419e-02,
          1.36054419e-02, 4.08163257e-02, 6.80272095e-03, 0.,
          2.04081628e-02, 0., 6.80272095e-03, 6.80272095e-03,
          1.36054419e-02, 6.80272095e-03, 2.04081628e-02, 0., 0., 0.,
          6.80272095e-03, 0., 0., 0., 1.36054419e-02, 6.80272095e-03,
          6.80272095e-03, 0., 0. ]
      - [ 3.75000015e-02, 1.25000002e-02, 1.25000002e-02, 1.25000002e-02,
          0., 5.00000007e-02, 1.25000002e-02, 0., 0., 0., 1.25000002e-02,
          0., 0., 1.25000002e-02, 1.25000002e-02, 0., 0., 1.25000002e-02,
          0., 3.75000015e-02, 2.50000004e-02, 0., 1.25000002e-02,
          1.25000002e-02, 0., 3.75000015e-02, 0., 0., 1.25000002e-02, 0.,
          1.25000002e-02, 5.00000007e-02, 0., 0., 1.25000002e-02, 0.,
          1.25000002e-02, 0., 0., 0., 0., 0., 0., 0., 0., 0., 0.,
          1.25000002e-02, 1.25000002e-02, 0., 1.25000002e-02,
          1.25000002e-02, 2.50000004e-02, 1.25000002e-02, 1.25000002e-02,
          1.25000002e-02, 2.50000004e-02, 2.50000004e-02, 1.25000002e-02,
          1.25000002e-02, 0., 0., 0., 1.25000002e-02, 0., 1.25000002e-02,
          0., 1.25000002e-02, 0., 1.25000002e-02, 0., 3.75000015e-02,
          3.75000015e-02, 3.75000015e-02, 1.25000002e-02, 0., 0., 0.,
          1.25000002e-02, 0., 1.25000002e-02, 0., 0., 1.25000002e-02,
          1.25000002e-02, 0., 0., 1.25000002e-02, 0., 5.00000007e-02, 0.,
          0., 0., 0., 6.25000000e-02, 0., 3.75000015e-02, 0.,
          1.25000002e-02, 0. ]
      - [ 7.69230770e-03, 2.30769236e-02, 7.69230770e-03, 7.69230770e-03,
          0., 0., 7.69230770e-03, 7.69230770e-03, 1.53846154e-02,
          7.69230770e-03, 0., 1.53846154e-02, 0., 7.69230770e-03, 0.,
          1.53846154e-02, 7.69230770e-03, 3.84615399e-02, 1.53846154e-02,
          5.38461544e-02, 1.53846154e-02, 0., 1.53846154e-02, 0.,
          1.53846154e-02, 0., 7.69230770e-03, 1.53846154e-02,
          7.69230770e-03, 0., 0., 0., 7.69230770e-03, 7.69230770e-03, 0.,
          2.30769236e-02, 7.69230770e-03, 0., 1.53846154e-02, 0.,
          1.53846154e-02, 0., 7.69230770e-03, 2.30769236e-02, 0., 0.,
          7.69230770e-03, 3.84615399e-02, 1.53846154e-02, 1.53846154e-02,
          1.53846154e-02, 7.69230770e-03, 3.07692308e-02, 1.53846154e-02,
          7.69230770e-03, 7.69230770e-03, 1.53846154e-02, 7.69230770e-03,
          7.69230770e-03, 0., 1.53846154e-02, 0., 0., 0., 0.,
          2.30769236e-02, 1.53846154e-02, 0., 0., 7.69230770e-03, 0.,
          7.69230770e-03, 7.69230770e-03, 2.30769236e-02, 0., 0.,
          3.07692308e-02, 7.69230770e-03, 6.15384616e-02, 7.69230770e-03,
          7.69230770e-03, 0., 7.69230770e-03, 7.69230770e-03,
          7.69230770e-03, 0., 0., 1.53846154e-02, 7.69230770e-03,
          7.69230770e-03, 2.30769236e-02, 1.53846154e-02, 1.53846154e-02,
          7.69230770e-03, 7.69230770e-03, 0., 2.30769236e-02,
          2.30769236e-02, 0., 0. ]
      - [ 1.75438598e-02, 0., 0., 3.50877196e-02, 0., 0., 0., 0., 0., 0.,
          0., 1.75438598e-02, 1.75438598e-02, 1.75438598e-02, 0., 0., 0.,
          0., 0., 5.26315793e-02, 0., 0., 0., 0., 1.75438598e-02,
          3.50877196e-02, 0., 0., 1.75438598e-02, 1.75438598e-02,
          3.50877196e-02, 1.75438598e-02, 1.75438598e-02, 0.,
          1.75438598e-02, 0., 1.75438598e-02, 0., 0., 0., 0., 0., 0., 0.,
          0., 1.75438598e-02, 0., 0., 1.75438598e-02, 3.50877196e-02, 0.,
          3.50877196e-02, 3.50877196e-02, 0., 0., 0., 1.75438598e-02, 0.,
          3.50877196e-02, 0., 0., 3.50877196e-02, 1.75438598e-02, 0., 0.,
          1.75438598e-02, 0., 1.75438598e-02, 0., 3.50877196e-02, 0., 0.,
          0., 1.75438598e-02, 1.75438598e-02, 1.75438598e-02, 0.,
          1.75438598e-02, 1.75438598e-02, 0., 3.50877196e-02,
          1.75438598e-02, 3.50877196e-02, 0., 1.75438598e-02, 0., 0.,
          1.75438598e-02, 0., 0., 1.75438598e-02, 0., 1.75438598e-02, 0.,
          1.75438598e-02, 0., 5.26315793e-02, 1.75438598e-02, 0., 0. ]
      - [ 2.56410260e-02, 1.28205130e-02, 2.56410260e-02, 0., 0.,
          1.28205130e-02, 0., 0., 0., 1.28205130e-02, 3.84615399e-02, 0.,
          0., 3.84615399e-02, 1.28205130e-02, 2.56410260e-02,
          1.28205130e-02, 0., 0., 0., 2.56410260e-02, 1.28205130e-02,
          6.41025677e-02, 0., 1.28205130e-02, 0., 0., 0., 1.28205130e-02,
          0., 1.28205130e-02, 1.28205130e-02, 0., 0., 6.41025677e-02, 0.,
          1.28205130e-02, 0., 0., 0., 1.28205130e-02, 0., 1.28205130e-02,
          2.56410260e-02, 0., 0., 1.28205130e-02, 1.28205130e-02, 0., 0.,
          0., 1.28205130e-02, 1.28205130e-02, 1.28205130e-02, 0., 0.,
          2.56410260e-02, 1.28205130e-02, 0., 1.28205130e-02, 0., 0., 0.,
          0., 0., 2.56410260e-02, 0., 1.28205130e-02, 0., 3.84615399e-02,
          2.56410260e-02, 0., 2.56410260e-02, 1.28205130e-02, 0., 0.,
          1.28205130e-02, 0., 0., 2.56410260e-02, 1.28205130e-02,
          1.28205130e-02, 1.28205130e-02, 0., 0., 1.28205130e-02, 0.,
          1.28205130e-02, 1.28205130e-02, 1.28205130e-02, 2.56410260e-02,
          2.56410260e-02, 0., 1.28205130e-02, 0., 3.84615399e-02, 0., 0.,
          0., 1.28205130e-02 ]
      - [ 0., 7.81250000e-03, 1.56250000e-02, 0., 0., 0., 0.,
          7.81250000e-03, 3.90625000e-02, 0., 4.68750000e-02,
          7.81250000e-03, 2.34375000e-02, 7.81250000e-03, 2.34375000e-02,
          1.56250000e-02, 0., 4.68750000e-02, 2.34375000e-02,
          7.81250000e-03, 0., 2.34375000e-02, 2.34375000e-02,
          7.81250000e-03, 1.09375000e-01, 0., 0., 7.81250000e-03, 0., 0.,
          0., 7.81250000e-03, 0., 0., 1.56250000e-02, 1.56250000e-02,
          1.56250000e-02, 7.81250000e-03, 2.34375000e-02, 7.81250000e-03,
          0., 0., 0., 7.81250000e-03, 0., 0., 7.81250000e-03,
          7.81250000e-03, 0., 0., 0., 0., 3.12500000e-02, 7.81250000e-03,
          7.81250000e-03, 1.56250000e-02, 1.56250000e-02, 0.,
          2.34375000e-02, 7.81250000e-03, 1.56250000e-02, 7.81250000e-03,
          1.56250000e-02, 0., 7.81250000e-03, 7.81250000e-03,
          7.81250000e-03, 0., 0., 1.56250000e-02, 7.81250000e-03, 0.,
          1.56250000e-02, 0., 0., 2.34375000e-02, 3.90625000e-02,
          7.81250000e-03, 0., 0., 1.56250000e-02, 0., 7.81250000e-03,
          7.81250000e-03, 0., 7.81250000e-03, 7.81250000e-03,
          7.81250000e-03, 7.81250000e-03, 0., 1.56250000e-02,
          7.81250000e-03, 7.81250000e-03, 1.56250000e-02, 7.81250000e-03,
          1.56250000e-02, 1.56250000e-02, 7.81250000e-03, 0., 0. ]
      - [ 0., 1.68067235e-02, 5.88235334e-02, 8.40336177e-03,
          4.20168079e-02, 1.68067235e-02, 0., 0., 1.68067235e-02,
          8.40336177e-03, 0., 1.68067235e-02, 0., 8.40336177e-03, 0.,
          1.68067235e-02, 2.52100863e-02, 1.68067235e-02, 1.68067235e-02,
          8.40336177e-03, 8.40336177e-03, 1.68067235e-02, 2.52100863e-02,
          2.52100863e-02, 1.26050428e-01, 0., 8.40336177e-03, 0.,
          8.40336177e-03, 0., 0., 1.68067235e-02, 8.40336177e-03, 0.,
          2.52100863e-02, 8.40336177e-03, 0., 8.40336177e-03, 0., 0.,
          8.40336177e-03, 0., 8.40336177e-03, 8.40336177e-03,
          8.40336177e-03, 1.68067235e-02, 8.40336177e-03, 2.52100863e-02,
          0., 1.68067235e-02, 2.52100863e-02, 8.40336177e-03,
          8.40336177e-03, 1.68067235e-02, 0., 1.68067235e-02,
          8.40336177e-03, 0., 0., 0., 0., 0., 0., 1.68067235e-02,
          8.40336177e-03, 0., 0., 2.52100863e-02, 8.40336177e-03,
          3.36134471e-02, 8.40336177e-03, 0., 2.52100863e-02, 0.,
          8.40336177e-03, 1.68067235e-02, 8.40336177e-03, 8.40336177e-03,
          8.40336177e-03, 8.40336177e-03, 8.40336177e-03, 0., 0., 0., 0.,
          8.40336177e-03, 1.68067235e-02, 0., 0., 0., 8.40336177e-03,
          1.68067235e-02, 0., 0., 0., 0., 8.40336177e-03, 0., 0., 0. ]
      - [ 2.50000004e-02, 1.25000002e-02, 3.75000015e-02, 0., 0.,
          1.25000002e-02, 1.25000002e-02, 0., 0., 0., 1.25000002e-02, 0.,
          0., 1.25000002e-02, 0., 2.50000004e-02, 2.50000004e-02, 0.,
          1.25000002e-02, 0., 1.25000002e-02, 0., 1.25000002e-02,
          1.25000002e-02, 2.50000004e-02, 3.75000015e-02, 2.50000004e-02,
          0., 0., 0., 0., 2.50000004e-02, 0., 0., 2.50000004e-02, 0.,
          2.50000004e-02, 1.25000002e-02, 0., 0., 1.25000002e-02,
          1.25000002e-02, 1.25000002e-02, 0., 0., 1.25000002e-02,
          1.25000002e-02, 0., 0., 0., 3.75000015e-02, 1.25000002e-02,
          5.00000007e-02, 1.25000002e-02, 1.25000002e-02, 0.,
          1.25000002e-02, 0., 0., 0., 0., 0., 1.25000002e-02,
          2.50000004e-02, 0., 0., 1.25000002e-02, 2.50000004e-02,
          1.25000002e-02, 2.50000004e-02, 2.50000004e-02, 1.25000002e-02,
          1.25000002e-02, 6.25000000e-02, 0., 0., 0., 0., 0.,
          1.25000002e-02, 0., 1.25000002e-02, 0., 1.25000002e-02,
          1.25000002e-02, 0., 0., 0., 0., 6.25000000e-02, 0., 0.,
          1.25000002e-02, 0., 3.75000015e-02, 0., 1.25000002e-02, 0., 0.,
          0. ]
      - [ 3.53356893e-03, 1.06007066e-02, 3.88692580e-02, 7.06713786e-03,
          1.41342757e-02, 2.12014131e-02, 1.06007066e-02, 2.82685515e-02,
          3.53356893e-03, 0., 3.53356893e-03, 2.12014131e-02,
          1.76678449e-02, 0., 1.76678449e-02, 1.41342757e-02,
          7.06713786e-03, 1.06007066e-02, 3.53356898e-02, 3.53356898e-02,
          1.06007066e-02, 1.41342757e-02, 1.41342757e-02, 7.06713786e-03,
          3.18021215e-02, 0., 0., 1.06007066e-02, 7.06713786e-03, 0.,
          3.53356893e-03, 1.76678449e-02, 7.06713786e-03, 1.41342757e-02,
          1.06007066e-02, 7.06713786e-03, 1.41342757e-02, 7.06713786e-03,
          0., 0., 7.06713786e-03, 7.06713786e-03, 1.06007066e-02, 0.,
          3.53356893e-03, 2.12014131e-02, 7.06713786e-03, 3.53356893e-03,
          1.06007066e-02, 3.88692580e-02, 1.76678449e-02, 0.,
          6.36042431e-02, 3.53356893e-03, 3.53356893e-03, 1.41342757e-02,
          0., 3.53356893e-03, 7.06713786e-03, 7.06713786e-03,
          1.06007066e-02, 0., 0., 7.06713786e-03, 7.06713786e-03,
          3.53356893e-03, 3.53356893e-03, 0., 0., 3.53356893e-03,
          1.41342757e-02, 3.53356893e-03, 3.53356893e-03, 3.53356893e-03,
          1.41342757e-02, 3.53356893e-03, 3.53356893e-03, 2.12014131e-02,
          2.12014131e-02, 1.41342757e-02, 3.53356893e-03, 7.06713786e-03,
          7.06713786e-03, 3.53356893e-03, 7.06713786e-03, 3.53356893e-03,
          1.41342757e-02, 0., 1.06007066e-02, 0., 0., 3.53356893e-03,
          3.53356893e-03, 3.53356893e-03, 3.88692580e-02, 2.82685515e-02,
          1.06007066e-02, 3.53356893e-03, 0., 7.06713786e-03 ]
      - [ 1.28205130e-02, 1.28205130e-02, 0., 2.56410260e-02, 0., 0.,
          1.28205130e-02, 0., 0., 2.56410260e-02, 0., 0., 0.,
          2.56410260e-02, 1.28205130e-02, 5.12820520e-02, 2.56410260e-02,
          0., 2.56410260e-02, 1.28205130e-02, 1.28205130e-02,
          1.28205130e-02, 0., 0., 0., 1.28205130e-02, 0., 0.,
          1.28205130e-02, 0., 0., 3.84615399e-02, 0., 0., 2.56410260e-02,
          0., 3.84615399e-02, 0., 0., 0., 1.28205130e-02, 0.,
          1.28205130e-02, 1.28205130e-02, 0., 0., 0., 0., 0., 0.,
          1.28205130e-02, 2.56410260e-02, 3.84615399e-02, 3.84615399e-02,
          0., 0., 0., 0., 2.56410260e-02, 0., 0., 2.56410260e-02, 0.,
          1.28205130e-02, 0., 0., 0., 2.56410260e-02, 0., 3.84615399e-02,
          1.28205130e-02, 0., 0., 1.28205130e-02, 1.28205130e-02,
          1.28205130e-02, 0., 0., 1.28205130e-02, 1.28205130e-02, 0.,
          2.56410260e-02, 2.56410260e-02, 0., 1.28205130e-02,
          1.28205130e-02, 0., 0., 0., 5.12820520e-02, 0., 1.28205130e-02,
          0., 0., 1.28205130e-02, 2.56410260e-02, 5.12820520e-02, 0.,
          1.28205130e-02, 0. ]
      - [ 1.69491526e-02, 0., 0., 0., 8.47457629e-03, 0., 0., 0.,
          8.47457629e-03, 8.47457629e-03, 3.38983051e-02, 0., 0.,
          3.38983051e-02, 0., 0., 1.69491526e-02, 0., 8.47457629e-03, 0.,
          1.69491526e-02, 8.47457629e-03, 0., 8.47457629e-03,
          5.08474559e-02, 8.47457629e-03, 0., 8.47457629e-03, 0.,
          2.54237279e-02, 1.69491526e-02, 1.69491526e-02, 3.38983051e-02,
          0., 1.69491526e-02, 8.47457629e-03, 3.38983051e-02,
          8.47457629e-03, 1.69491526e-02, 8.47457629e-03, 8.47457629e-03,
          0., 0., 0., 8.47457629e-03, 2.54237279e-02, 0., 0., 0., 0., 0.,
          1.69491526e-02, 0., 8.47457629e-03, 0., 0., 0., 0.,
          2.54237279e-02, 8.47457629e-03, 0., 8.47457629e-03,
          8.47457647e-02, 2.54237279e-02, 0., 0., 0., 0., 2.54237279e-02,
          2.54237279e-02, 8.47457629e-03, 2.54237279e-02, 0.,
          8.47457629e-03, 8.47457629e-03, 0., 0., 0., 0., 0., 0., 0., 0.,
          0., 0., 0., 8.47457629e-03, 3.38983051e-02, 0., 1.69491526e-02,
          1.69491526e-02, 1.69491526e-02, 1.69491526e-02, 2.54237279e-02,
          8.47457629e-03, 2.54237279e-02, 5.08474559e-02, 0.,
          3.38983051e-02, 0. ]
      - [ 1.02040814e-02, 0., 2.04081628e-02, 0., 1.02040814e-02, 0., 0.,
          0., 0., 1.02040814e-02, 0., 0., 0., 0., 0., 4.08163257e-02,
          2.04081628e-02, 0., 3.06122452e-02, 3.06122452e-02,
          1.02040814e-02, 1.02040814e-02, 1.02040814e-02, 0.,
          1.12244897e-01, 0., 1.02040814e-02, 0., 1.02040814e-02,
          2.04081628e-02, 2.04081628e-02, 2.04081628e-02, 1.02040814e-02,
          1.02040814e-02, 3.06122452e-02, 0., 0., 0., 1.02040814e-02,
          2.04081628e-02, 3.06122452e-02, 0., 0., 2.04081628e-02, 0.,
          2.04081628e-02, 0., 2.04081628e-02, 0., 3.06122452e-02, 0., 0.,
          2.04081628e-02, 0., 2.04081628e-02, 2.04081628e-02, 0., 0., 0.,
          0., 0., 1.02040814e-02, 1.02040814e-02, 1.02040814e-02, 0.,
          3.06122452e-02, 0., 0., 0., 1.02040814e-02, 2.04081628e-02, 0.,
          0., 0., 0., 0., 4.08163257e-02, 0., 1.02040814e-02,
          2.04081628e-02, 0., 1.02040814e-02, 0., 1.02040814e-02,
          3.06122452e-02, 0., 0., 2.04081628e-02, 0., 1.02040814e-02, 0.,
          1.02040814e-02, 0., 1.02040814e-02, 0., 4.08163257e-02, 0.,
          1.02040814e-02, 2.04081628e-02, 0. ]
      - [ 4.69483575e-03, 4.69483575e-03, 6.10328652e-02, 9.38967150e-03,
          2.81690136e-02, 3.28638516e-02, 1.40845068e-02, 0., 0.,
          1.87793430e-02, 0., 0., 0., 1.40845068e-02, 9.38967150e-03,
          9.38967150e-03, 4.69483575e-03, 4.22535203e-02, 5.63380271e-02,
          2.81690136e-02, 0., 4.69483575e-03, 1.87793430e-02,
          2.34741792e-02, 4.22535203e-02, 0., 9.38967150e-03,
          9.38967150e-03, 4.69483575e-03, 0., 9.38967150e-03,
          2.81690136e-02, 1.40845068e-02, 4.69483575e-03, 0.,
          4.69483575e-03, 0., 9.38967150e-03, 0., 4.69483575e-03,
          4.69483575e-03, 9.38967150e-03, 1.40845068e-02, 4.69483575e-03,
          0., 1.87793430e-02, 4.69483575e-03, 4.69483575e-03,
          4.69483575e-03, 1.87793430e-02, 2.34741792e-02, 0., 0.,
          9.38967150e-03, 4.69483575e-03, 9.38967150e-03, 9.38967150e-03,
          4.69483575e-03, 4.69483575e-03, 0., 4.69483575e-03, 0.,
          4.69483575e-03, 9.38967150e-03, 4.69483575e-03, 4.69483575e-03,
          0., 4.69483575e-03, 9.38967150e-03, 1.87793430e-02,
          9.38967150e-03, 0., 4.69483575e-03, 9.38967150e-03,
          9.38967150e-03, 4.69483575e-03, 0., 9.38967150e-03,
          3.28638516e-02, 4.69483575e-03, 9.38967150e-03, 9.38967150e-03,
          0., 4.69483575e-03, 4.69483575e-03, 0., 2.34741792e-02, 0., 0.,
          1.40845068e-02, 0., 4.69483575e-03, 4.69483575e-03,
          1.40845068e-02, 0., 7.04225376e-02, 9.38967150e-03, 0., 0.,
          9.38967150e-03 ]
      - [ 0., 4.31034481e-03, 1.72413792e-02, 1.29310340e-02,
          4.31034490e-02, 3.01724132e-02, 4.31034481e-03, 4.31034481e-03,
          4.31034481e-03, 4.31034481e-03, 1.29310340e-02, 0., 0.,
          1.29310340e-02, 4.31034481e-03, 4.31034481e-03, 4.31034481e-03,
          2.58620679e-02, 3.44827585e-02, 4.74137925e-02, 4.31034481e-03,
          4.31034481e-03, 1.72413792e-02, 2.58620679e-02, 9.48275849e-02,
          0., 4.31034481e-03, 4.31034481e-03, 8.62068962e-03,
          8.62068962e-03, 0., 2.58620679e-02, 4.31034481e-03,
          4.31034481e-03, 2.15517245e-02, 0., 8.62068962e-03,
          4.31034481e-03, 4.31034481e-03, 8.62068962e-03, 0., 0.,
          4.31034481e-03, 8.62068962e-03, 0., 2.15517245e-02,
          4.31034481e-03, 0., 8.62068962e-03, 1.29310340e-02,
          1.29310340e-02, 4.31034481e-03, 3.01724132e-02, 2.15517245e-02,
          0., 4.31034481e-03, 4.31034481e-03, 0., 0., 8.62068962e-03,
          1.72413792e-02, 1.29310340e-02, 0., 0., 4.31034481e-03,
          1.29310340e-02, 8.62068962e-03, 1.29310340e-02, 4.31034481e-03,
          5.17241359e-02, 0., 4.31034481e-03, 4.31034481e-03, 0.,
          4.31034481e-03, 4.31034481e-03, 8.62068962e-03, 4.31034481e-03,
          4.74137925e-02, 0., 4.31034481e-03, 1.29310340e-02, 0., 0.,
          4.31034481e-03, 4.31034481e-03, 2.58620679e-02, 0., 0., 0.,
          4.31034481e-03, 8.62068962e-03, 4.31034481e-03, 8.62068962e-03,
          2.15517245e-02, 8.62068962e-03, 1.72413792e-02, 0., 0., 0. ]
      - [ 1.58730168e-02, 0., 0., 0., 1.58730168e-02, 0., 0., 0., 0., 0.,
          0., 0., 0., 0., 1.58730168e-02, 3.17460336e-02, 0.,
          3.17460336e-02, 3.17460336e-02, 0., 1.58730168e-02, 0.,
          9.52381045e-02, 1.58730168e-02, 9.52381045e-02, 0., 0.,
          1.58730168e-02, 0., 1.58730168e-02, 0., 0., 0., 0.,
          1.58730168e-02, 0., 1.58730168e-02, 0., 0., 0., 1.58730168e-02,
          0., 1.58730168e-02, 1.58730168e-02, 1.58730168e-02,
          1.58730168e-02, 0., 3.17460336e-02, 3.17460336e-02, 0.,
          1.58730168e-02, 1.58730168e-02, 1.58730168e-02, 0.,
          1.58730168e-02, 0., 1.58730168e-02, 0., 0., 0., 0.,
          1.58730168e-02, 4.76190522e-02, 0., 0., 0., 0., 3.17460336e-02,
          0., 0., 0., 1.58730168e-02, 1.58730168e-02, 3.17460336e-02, 0.,
          0., 0., 1.58730168e-02, 0., 0., 0., 1.58730168e-02,
          1.58730168e-02, 1.58730168e-02, 0., 0., 0., 3.17460336e-02,
          1.58730168e-02, 3.17460336e-02, 0., 0., 0., 1.58730168e-02, 0.,
          0., 1.58730168e-02, 0., 1.58730168e-02, 0. ]
      - [ 1.69491526e-02, 7.26392306e-03, 9.68523044e-03, 9.68523044e-03,
          4.84261522e-03, 1.21065378e-02, 1.69491526e-02, 9.68523044e-03,
          7.26392306e-03, 4.84261522e-03, 2.66343839e-02, 7.26392306e-03,
          7.26392306e-03, 4.84261522e-03, 7.26392306e-03, 9.68523044e-03,
          7.26392306e-03, 1.21065378e-02, 1.69491526e-02, 4.84261522e-03,
          7.26392306e-03, 1.45278461e-02, 9.68523044e-03, 4.84261522e-03,
          3.38983051e-02, 1.21065378e-02, 2.42130761e-03, 1.21065378e-02,
          7.26392306e-03, 1.21065378e-02, 7.26392306e-03, 1.45278461e-02,
          4.84261522e-03, 7.26392306e-03, 7.26392306e-03, 1.69491526e-02,
          7.26392306e-03, 7.26392306e-03, 9.68523044e-03, 7.26392306e-03,
          7.26392306e-03, 4.84261522e-03, 1.21065378e-02, 4.84261522e-03,
          2.42130761e-03, 7.26392306e-03, 1.21065378e-02, 1.21065378e-02,
          9.68523044e-03, 2.42130761e-03, 1.69491526e-02, 1.93704609e-02,
          1.45278461e-02, 1.69491526e-02, 4.84261522e-03, 1.45278461e-02,
          2.42130761e-03, 9.68523044e-03, 1.21065378e-02, 1.93704609e-02,
          1.69491526e-02, 4.84261522e-03, 4.84261522e-03, 0.,
          1.45278461e-02, 7.26392306e-03, 0., 1.45278461e-02,
          4.84261522e-03, 9.68523044e-03, 2.42130756e-02, 2.90556923e-02,
          1.21065378e-02, 2.42130761e-03, 9.68523044e-03, 4.84261522e-03,
          9.68523044e-03, 1.93704609e-02, 7.26392306e-03, 9.68523044e-03,
          2.42130761e-03, 7.26392306e-03, 7.26392306e-03, 1.21065378e-02,
          7.26392306e-03, 4.84261522e-03, 1.21065378e-02, 2.66343839e-02,
          7.26392306e-03, 4.84261522e-03, 9.68523044e-03, 2.42130761e-03,
          9.68523044e-03, 4.84261522e-03, 4.84261522e-03, 4.84261522e-03,
          2.17917692e-02, 4.84261522e-03, 1.69491526e-02, 7.26392306e-03 ]
      - [ 9.99999978e-03, 0., 1.99999996e-02, 1.50000006e-02,
          1.83333345e-02, 6.66666683e-03, 8.33333377e-03, 6.66666683e-03,
          9.99999978e-03, 8.33333377e-03, 9.99999978e-03, 8.33333377e-03,
          1.16666667e-02, 6.66666683e-03, 8.33333377e-03, 1.16666667e-02,
          2.16666665e-02, 4.99999989e-03, 1.33333337e-02, 8.33333377e-03,
          6.66666683e-03, 1.66666675e-02, 6.66666683e-03, 4.99999989e-03,
          3.99999991e-02, 9.99999978e-03, 1.16666667e-02, 9.99999978e-03,
          1.66666675e-02, 9.99999978e-03, 3.33333341e-03, 1.50000006e-02,
          1.33333337e-02, 8.33333377e-03, 8.33333377e-03, 8.33333377e-03,
          1.16666667e-02, 4.99999989e-03, 4.99999989e-03, 8.33333377e-03,
          6.66666683e-03, 4.99999989e-03, 4.99999989e-03, 1.83333345e-02,
          4.99999989e-03, 8.33333377e-03, 8.33333377e-03, 8.33333377e-03,
          9.99999978e-03, 9.99999978e-03, 8.33333377e-03, 1.83333345e-02,
          2.33333334e-02, 6.66666683e-03, 4.99999989e-03, 1.33333337e-02,
          9.99999978e-03, 8.33333377e-03, 3.33333341e-03, 6.66666683e-03,
          8.33333377e-03, 6.66666683e-03, 1.33333337e-02, 1.50000006e-02,
          1.16666667e-02, 1.50000006e-02, 6.66666683e-03, 8.33333377e-03,
          8.33333377e-03, 1.50000006e-02, 6.66666683e-03, 3.33333341e-03,
          6.66666683e-03, 9.99999978e-03, 4.99999989e-03, 4.99999989e-03,
          1.16666667e-02, 6.66666683e-03, 6.66666683e-03, 8.33333377e-03,
          1.50000006e-02, 6.66666683e-03, 1.50000006e-02, 0.,
          1.33333337e-02, 1.16666667e-02, 8.33333377e-03, 9.99999978e-03,
          6.66666683e-03, 9.99999978e-03, 1.16666667e-02, 9.99999978e-03,
          3.33333341e-03, 1.33333337e-02, 2.83333343e-02, 3.33333341e-03,
          1.50000006e-02, 9.99999978e-03, 6.66666683e-03, 6.66666683e-03 ]
      - [ 1.31578948e-02, 1.31578948e-02, 4.38596494e-03, 1.75438598e-02,
          0., 0., 8.77192989e-03, 0., 4.38596494e-03, 1.31578948e-02, 0.,
          4.38596494e-03, 0., 1.31578948e-02, 4.38596494e-03, 0., 0.,
          4.38596494e-03, 0., 8.77192989e-03, 2.63157897e-02, 0.,
          4.38596494e-03, 0., 0., 5.26315793e-02, 4.38596494e-03,
          8.77192989e-03, 0., 8.77192989e-03, 2.19298247e-02,
          2.19298247e-02, 8.77192989e-03, 8.77192989e-03, 0.,
          1.75438598e-02, 5.26315793e-02, 1.31578948e-02, 1.31578948e-02,
          1.31578948e-02, 8.77192989e-03, 4.38596494e-03, 1.31578948e-02,
          4.38596494e-03, 4.38596494e-03, 0., 0., 0., 1.31578948e-02, 0.,
          8.77192989e-03, 1.31578948e-02, 4.38596494e-03, 2.19298247e-02,
          1.31578948e-02, 0., 0., 4.38596494e-03, 8.77192989e-03, 0.,
          8.77192989e-03, 2.63157897e-02, 1.75438598e-02, 8.77192989e-03,
          1.31578948e-02, 0., 1.31578948e-02, 0., 1.31578948e-02,
          3.94736826e-02, 4.38596494e-03, 1.31578948e-02, 0.,
          1.31578948e-02, 1.75438598e-02, 8.77192989e-03, 0., 0.,
          4.38596494e-03, 0., 8.77192989e-03, 1.31578948e-02,
          1.31578948e-02, 1.75438598e-02, 8.77192989e-03, 2.63157897e-02,
          8.77192989e-03, 2.63157897e-02, 1.31578948e-02, 2.63157897e-02,
          1.31578948e-02, 4.38596494e-03, 1.31578948e-02, 8.77192989e-03,
          1.31578948e-02, 8.77192989e-03, 4.82456163e-02, 1.31578948e-02,
          0., 4.38596494e-03 ]
      - [ 1.25348186e-02, 5.57103055e-03, 1.39275764e-03, 1.81058496e-02,
          5.57103055e-03, 6.96378807e-03, 8.35654605e-03, 1.53203337e-02,
          1.11420611e-02, 8.35654605e-03, 9.74930357e-03, 5.57103055e-03,
          9.74930357e-03, 1.11420611e-02, 1.25348186e-02, 4.17827303e-03,
          5.57103055e-03, 1.81058496e-02, 4.17827303e-03, 5.57103055e-03,
          1.25348186e-02, 6.96378807e-03, 5.57103055e-03, 6.96378807e-03,
          2.78551523e-02, 1.53203337e-02, 9.74930357e-03, 1.11420611e-02,
          1.53203337e-02, 2.64623947e-02, 1.81058496e-02, 9.74930357e-03,
          1.11420611e-02, 5.57103055e-03, 5.57103055e-03, 4.17827303e-03,
          8.35654605e-03, 8.35654605e-03, 5.57103055e-03, 9.74930357e-03,
          1.25348186e-02, 1.81058496e-02, 5.57103055e-03, 8.35654605e-03,
          9.74930357e-03, 0., 8.35654605e-03, 1.25348186e-02,
          1.81058496e-02, 5.57103055e-03, 1.39275761e-02, 8.35654605e-03,
          6.96378807e-03, 1.67130921e-02, 8.35654605e-03, 6.96378807e-03,
          9.74930357e-03, 1.53203337e-02, 1.25348186e-02, 4.17827303e-03,
          1.67130921e-02, 8.35654605e-03, 1.67130921e-02, 9.74930357e-03,
          8.35654605e-03, 5.57103055e-03, 1.25348186e-02, 4.17827303e-03,
          2.78551527e-03, 1.67130921e-02, 2.78551527e-03, 4.17827303e-03,
          5.57103055e-03, 1.67130921e-02, 4.17827303e-03, 2.78551527e-03,
          9.74930357e-03, 1.39275761e-02, 1.39275761e-02, 4.17827303e-03,
          6.96378807e-03, 9.74930357e-03, 1.39275761e-02, 1.25348186e-02,
          9.74930357e-03, 5.57103055e-03, 4.17827303e-03, 6.96378807e-03,
          4.17827303e-03, 9.74930357e-03, 6.96378807e-03, 2.08913647e-02,
          1.25348186e-02, 1.25348186e-02, 1.25348186e-02, 6.96378807e-03,
          1.81058496e-02, 1.25348186e-02, 1.67130921e-02, 1.11420611e-02 ]
      - [ 7.23327324e-03, 7.23327324e-03, 5.42495493e-03, 1.44665465e-02,
          1.62748657e-02, 1.80831831e-03, 9.04159155e-03, 7.23327324e-03,
          9.04159155e-03, 1.44665465e-02, 1.62748657e-02, 7.23327324e-03,
          1.08499099e-02, 7.23327324e-03, 3.61663662e-03, 1.26582282e-02,
          3.61663662e-03, 1.44665465e-02, 2.16998197e-02, 3.61663662e-03,
          3.61663662e-03, 1.80831831e-02, 3.61663662e-03, 1.26582282e-02,
          6.14828244e-02, 2.53164563e-02, 7.23327324e-03, 1.08499099e-02,
          1.26582282e-02, 7.23327324e-03, 7.23327324e-03, 3.43580469e-02,
          7.23327324e-03, 9.04159155e-03, 1.08499099e-02, 9.04159155e-03,
          5.42495493e-03, 1.62748657e-02, 1.80831831e-03, 5.42495493e-03,
          3.61663662e-03, 7.23327324e-03, 1.26582282e-02, 1.44665465e-02,
          1.26582282e-02, 7.23327324e-03, 1.80831831e-02, 1.62748657e-02,
          0., 0., 7.23327324e-03, 7.23327324e-03, 9.04159155e-03,
          1.98915005e-02, 5.42495493e-03, 5.42495493e-03, 1.08499099e-02,
          7.23327324e-03, 2.16998197e-02, 7.23327324e-03, 1.08499099e-02,
          5.42495493e-03, 9.04159155e-03, 5.42495493e-03, 1.08499099e-02,
          5.42495493e-03, 3.61663662e-03, 9.04159155e-03, 0.,
          1.62748657e-02, 1.08499099e-02, 9.04159155e-03, 3.61663662e-03,
          3.61663662e-03, 9.04159155e-03, 9.04159155e-03, 7.23327324e-03,
          1.08499099e-02, 5.42495493e-03, 9.04159155e-03, 9.04159155e-03,
          0., 5.42495493e-03, 5.42495493e-03, 1.44665465e-02,
          1.26582282e-02, 1.80831831e-02, 7.23327324e-03, 7.23327324e-03,
          0., 1.08499099e-02, 3.61663662e-03, 7.23327324e-03,
          5.42495493e-03, 7.23327324e-03, 1.08499099e-02, 4.88245934e-02,
          7.23327324e-03, 5.42495493e-03, 3.61663662e-03 ]
      - [ 7.49063678e-03, 7.49063678e-03, 9.36329551e-03, 7.49063678e-03,
          7.49063678e-03, 9.36329551e-03, 7.49063678e-03, 3.74531839e-03,
          7.49063678e-03, 7.49063678e-03, 1.31086148e-02, 3.74531839e-03,
          1.49812736e-02, 1.49812736e-02, 5.61797759e-03, 5.61797759e-03,
          7.49063678e-03, 1.49812736e-02, 1.31086148e-02, 1.87265920e-03,
          1.12359552e-02, 5.61797759e-03, 7.49063678e-03, 3.74531839e-03,
          6.92883879e-02, 1.12359552e-02, 7.49063678e-03, 1.49812736e-02,
          3.74531839e-03, 1.68539323e-02, 1.12359552e-02, 1.12359552e-02,
          7.49063678e-03, 7.49063678e-03, 1.49812736e-02, 1.12359552e-02,
          1.12359552e-02, 1.12359552e-02, 0., 1.68539323e-02,
          1.12359552e-02, 1.31086148e-02, 1.12359552e-02, 1.68539323e-02,
          0., 7.49063678e-03, 1.31086148e-02, 5.61797759e-03,
          7.49063678e-03, 9.36329551e-03, 1.49812736e-02, 1.87265920e-03,
          1.31086148e-02, 1.12359552e-02, 1.87265920e-03, 7.49063678e-03,
          1.12359552e-02, 1.31086148e-02, 1.49812736e-02, 1.87265920e-03,
          1.68539323e-02, 2.05992516e-02, 7.49063678e-03, 3.74531839e-03,
          7.49063678e-03, 1.12359552e-02, 9.36329551e-03, 5.61797759e-03,
          1.49812736e-02, 5.61797759e-03, 1.31086148e-02, 9.36329551e-03,
          1.12359552e-02, 7.49063678e-03, 1.87265920e-03, 7.49063678e-03,
          1.68539323e-02, 1.12359552e-02, 9.36329551e-03, 5.61797759e-03,
          5.61797759e-03, 7.49063678e-03, 1.12359552e-02, 1.49812736e-02,
          1.31086148e-02, 5.61797759e-03, 1.87265910e-02, 9.36329551e-03,
          1.12359552e-02, 5.61797759e-03, 3.74531839e-03, 5.61797759e-03,
          3.74531839e-03, 1.12359552e-02, 7.49063678e-03, 1.31086148e-02,
          1.87265910e-02, 5.61797759e-03, 1.49812736e-02, 3.74531839e-03 ]
      - [ 1.08401086e-02, 2.71002715e-03, 3.25203240e-02, 1.08401086e-02,
          8.13008100e-03, 2.71002715e-03, 1.08401086e-02, 1.08401086e-02,
          1.35501362e-02, 1.62601620e-02, 1.62601620e-02, 1.62601620e-02,
          1.35501362e-02, 2.71002715e-03, 1.35501362e-02, 1.08401086e-02,
          1.08401086e-02, 2.71002715e-03, 1.62601620e-02, 8.13008100e-03,
          1.08401086e-02, 2.43902449e-02, 5.42005431e-03, 1.08401086e-02,
          4.87804897e-02, 1.62601620e-02, 1.35501362e-02, 5.42005431e-03,
          1.08401086e-02, 2.16802172e-02, 5.42005431e-03, 8.13008100e-03,
          1.08401086e-02, 5.42005431e-03, 1.35501362e-02, 5.42005431e-03,
          1.08401086e-02, 1.35501362e-02, 5.42005431e-03, 2.71002715e-03,
          8.13008100e-03, 1.35501362e-02, 2.71002715e-03, 1.89701896e-02,
          2.71002715e-03, 5.42005431e-03, 2.16802172e-02, 1.35501362e-02,
          8.13008100e-03, 1.08401086e-02, 2.98102982e-02, 8.13008100e-03,
          5.42005431e-03, 1.08401086e-02, 0., 2.71002715e-03,
          1.08401086e-02, 8.13008100e-03, 2.71002715e-03, 2.43902449e-02,
          0., 2.71002715e-03, 5.42005431e-03, 5.42005431e-03,
          1.08401086e-02, 1.62601620e-02, 2.71002715e-03, 0.,
          1.08401086e-02, 1.35501362e-02, 2.16802172e-02, 2.71002715e-03,
          1.08401086e-02, 0., 5.42005431e-03, 2.71002715e-03,
          8.13008100e-03, 1.62601620e-02, 1.35501362e-02, 1.35501362e-02,
          8.13008100e-03, 8.13008100e-03, 8.13008100e-03, 1.08401086e-02,
          1.35501362e-02, 0., 8.13008100e-03, 1.62601620e-02, 0.,
          5.42005431e-03, 5.42005431e-03, 5.42005431e-03, 2.71002715e-03,
          0., 5.42005431e-03, 8.13008100e-03, 2.71002715e-03,
          2.71002715e-03, 2.71002725e-02, 1.08401086e-02 ]
      - [ 6.55021844e-03, 4.36681230e-03, 1.96506549e-02, 6.55021844e-03,
          1.74672492e-02, 1.52838435e-02, 4.36681230e-03, 4.36681230e-03,
          6.55021844e-03, 2.18340615e-03, 0., 6.55021844e-03,
          1.74672492e-02, 8.73362459e-03, 1.31004369e-02, 1.74672492e-02,
          6.55021844e-03, 6.55021844e-03, 1.31004369e-02, 1.09170303e-02,
          2.18340615e-03, 4.36681230e-03, 2.18340615e-03, 6.55021844e-03,
          6.11353740e-02, 2.18340615e-03, 8.73362459e-03, 4.36681230e-03,
          1.09170303e-02, 1.09170303e-02, 1.52838435e-02, 2.18340605e-02,
          4.36681230e-03, 1.74672492e-02, 2.18340615e-03, 1.52838435e-02,
          1.09170303e-02, 6.55021844e-03, 0., 4.36681230e-03,
          1.09170303e-02, 1.96506549e-02, 1.09170303e-02, 2.18340605e-02,
          1.31004369e-02, 6.55021844e-03, 1.31004369e-02, 2.18340615e-03,
          2.18340615e-03, 2.18340605e-02, 1.52838435e-02, 1.31004369e-02,
          1.52838435e-02, 6.55021844e-03, 4.36681230e-03, 1.31004369e-02,
          8.73362459e-03, 4.36681230e-03, 2.18340605e-02, 8.73362459e-03,
          1.09170303e-02, 8.73362459e-03, 1.74672492e-02, 6.55021844e-03,
          1.09170303e-02, 6.55021844e-03, 4.36681230e-03, 2.18340615e-03,
          8.73362459e-03, 1.74672492e-02, 2.40174681e-02, 4.36681230e-03,
          2.18340615e-03, 4.36681230e-03, 0., 2.18340615e-03,
          1.09170303e-02, 8.73362459e-03, 6.55021844e-03, 6.55021844e-03,
          2.18340615e-03, 2.18340615e-03, 1.09170303e-02, 8.73362459e-03,
          6.55021844e-03, 4.36681230e-03, 1.96506549e-02, 1.31004369e-02,
          0., 8.73362459e-03, 1.09170303e-02, 6.55021844e-03,
          2.18340615e-03, 6.55021844e-03, 1.96506549e-02, 1.52838435e-02,
          4.14847173e-02, 2.18340615e-03, 1.96506549e-02, 2.18340615e-03 ]
      - [ 6.89655170e-03, 3.44827585e-03, 1.37931034e-02, 1.03448275e-02,
          6.89655170e-03, 1.03448275e-02, 3.44827585e-03, 0.,
          1.03448275e-02, 1.37931034e-02, 1.37931034e-02, 3.44827585e-03,
          1.03448275e-02, 1.37931034e-02, 3.44827585e-03, 1.03448275e-02,
          6.89655170e-03, 6.89655170e-03, 6.89655170e-03, 3.44827585e-03,
          1.03448275e-02, 1.37931034e-02, 6.89655170e-03, 3.44827585e-03,
          0., 1.72413792e-02, 0., 1.37931034e-02, 1.37931034e-02,
          1.37931034e-02, 2.06896551e-02, 2.75862068e-02, 1.37931034e-02,
          3.44827585e-03, 1.03448275e-02, 1.03448275e-02, 2.06896551e-02,
          2.06896551e-02, 2.06896551e-02, 1.03448275e-02, 1.72413792e-02,
          6.89655170e-03, 6.89655170e-03, 6.89655170e-03, 1.37931034e-02,
          1.03448275e-02, 6.89655170e-03, 1.72413792e-02, 1.37931034e-02,
          1.03448275e-02, 1.72413792e-02, 0., 0., 6.89655170e-03,
          3.44827585e-03, 3.44827585e-03, 1.03448275e-02, 6.89655170e-03,
          3.10344826e-02, 3.44827585e-03, 6.89655170e-03, 1.72413792e-02,
          2.06896551e-02, 1.03448275e-02, 0., 6.89655170e-03,
          6.89655170e-03, 6.89655170e-03, 1.03448275e-02, 6.89655170e-03,
          6.89655170e-03, 1.03448275e-02, 3.44827585e-03, 1.03448275e-02,
          1.37931034e-02, 6.89655170e-03, 0., 1.03448275e-02,
          6.89655170e-03, 0., 3.44827585e-03, 1.03448275e-02,
          3.44827585e-03, 1.37931034e-02, 1.37931034e-02, 3.44827585e-03,
          1.37931034e-02, 1.03448275e-02, 1.37931034e-02, 6.89655170e-03,
          1.37931034e-02, 6.89655170e-03, 1.03448275e-02, 1.37931034e-02,
          6.89655170e-03, 1.03448275e-02, 5.86206913e-02, 3.44827585e-03,
          1.37931034e-02, 3.44827585e-03 ]
      - [ 1.68350171e-02, 1.01010101e-02, 1.01010101e-02, 6.73400657e-03,
          3.36700329e-03, 1.01010101e-02, 1.68350171e-02, 1.34680131e-02,
          2.02020202e-02, 6.73400657e-03, 0., 1.01010101e-02,
          1.34680131e-02, 6.73400657e-03, 1.68350171e-02, 6.73400657e-03,
          1.01010101e-02, 1.68350171e-02, 1.34680131e-02, 1.01010101e-02,
          6.73400657e-03, 1.34680131e-02, 3.36700329e-03, 6.73400657e-03,
          1.68350171e-02, 0., 1.01010101e-02, 2.02020202e-02,
          3.36700329e-03, 6.73400657e-03, 1.68350171e-02, 3.36700329e-03,
          1.01010101e-02, 3.36700329e-03, 3.36700329e-03, 6.73400657e-03,
          1.34680131e-02, 0., 0., 1.34680131e-02, 3.36700329e-03,
          3.36700329e-03, 6.73400657e-03, 1.68350171e-02, 1.34680131e-02,
          2.69360263e-02, 1.34680131e-02, 1.34680131e-02, 1.34680131e-02,
          1.34680131e-02, 1.68350171e-02, 1.34680131e-02, 1.34680131e-02,
          1.34680131e-02, 6.73400657e-03, 6.73400657e-03, 3.36700329e-03,
          6.73400657e-03, 0., 2.02020202e-02, 3.36700329e-03,
          6.73400657e-03, 1.34680131e-02, 2.02020202e-02, 3.36700329e-03,
          1.68350171e-02, 6.73400657e-03, 6.73400657e-03, 3.03030293e-02,
          1.34680131e-02, 1.01010101e-02, 0., 1.34680131e-02,
          1.01010101e-02, 6.73400657e-03, 6.73400657e-03, 1.34680131e-02,
          1.68350171e-02, 3.36700329e-03, 1.34680131e-02, 1.34680131e-02,
          1.68350171e-02, 3.36700329e-03, 3.36700329e-03, 1.34680131e-02,
          6.73400657e-03, 0., 1.68350171e-02, 6.73400657e-03,
          2.35690232e-02, 0., 1.68350171e-02, 6.73400657e-03,
          6.73400657e-03, 1.68350171e-02, 1.34680131e-02, 1.01010101e-02,
          0., 6.73400657e-03, 0. ]
      - [ 1.49456523e-02, 2.71739135e-03, 2.71739140e-02, 6.79347850e-03,
          1.35869568e-03, 1.76630430e-02, 1.08695654e-02, 1.08695654e-02,
          5.43478271e-03, 9.51087009e-03, 1.08695654e-02, 1.49456523e-02,
          2.03804355e-02, 9.51087009e-03, 1.49456523e-02, 5.43478271e-03,
          8.15217383e-03, 1.63043477e-02, 1.76630430e-02, 6.79347850e-03,
          1.35869570e-02, 1.35869570e-02, 1.35869568e-03, 4.07608692e-03,
          1.08695654e-02, 1.08695654e-02, 1.22282607e-02, 1.76630430e-02,
          1.08695654e-02, 1.35869568e-03, 2.71739135e-03, 5.43478271e-03,
          1.63043477e-02, 1.22282607e-02, 1.08695654e-02, 1.49456523e-02,
          0., 1.22282607e-02, 0., 2.71739135e-03, 1.76630430e-02,
          1.08695654e-02, 4.07608692e-03, 1.63043477e-02, 9.51087009e-03,
          5.43478271e-03, 9.51087009e-03, 1.49456523e-02, 2.30978262e-02,
          1.63043477e-02, 2.17391308e-02, 4.07608692e-03, 1.08695654e-02,
          1.63043477e-02, 8.15217383e-03, 8.15217383e-03, 5.43478271e-03,
          9.51087009e-03, 1.08695654e-02, 9.51087009e-03, 1.49456523e-02,
          5.43478271e-03, 6.79347850e-03, 8.15217383e-03, 9.51087009e-03,
          2.71739135e-03, 5.43478271e-03, 4.07608692e-03, 1.35869568e-03,
          6.79347850e-03, 1.08695654e-02, 1.22282607e-02, 1.08695654e-02,
          4.07608692e-03, 6.79347850e-03, 6.79347850e-03, 1.49456523e-02,
          1.08695654e-02, 1.63043477e-02, 6.79347850e-03, 6.79347850e-03,
          1.08695654e-02, 8.15217383e-03, 1.76630430e-02, 1.08695654e-02,
          9.51087009e-03, 1.35869570e-02, 6.79347850e-03, 1.49456523e-02,
          4.07608692e-03, 1.49456523e-02, 1.76630430e-02, 8.15217383e-03,
          6.79347850e-03, 1.35869570e-02, 4.07608692e-03, 2.71739135e-03,
          4.07608692e-03, 1.35869568e-03, 1.90217402e-02 ]
      - [ 0., 2.02429146e-02, 2.63157897e-02, 1.01214573e-02,
          1.61943324e-02, 1.01214573e-02, 8.09716620e-03, 2.02429155e-03,
          6.07287465e-03, 1.01214573e-02, 8.09716620e-03, 1.01214573e-02,
          1.41700413e-02, 6.07287465e-03, 6.07287465e-03, 8.09716620e-03,
          0., 1.01214573e-02, 1.82186235e-02, 4.04858310e-03,
          6.07287465e-03, 1.41700413e-02, 8.09716620e-03, 2.02429155e-03,
          6.68016225e-02, 1.61943324e-02, 1.61943324e-02, 4.04858310e-03,
          1.01214573e-02, 1.41700413e-02, 8.09716620e-03, 8.09716620e-03,
          1.21457493e-02, 1.01214573e-02, 2.02429146e-02, 8.09716620e-03,
          1.01214573e-02, 1.41700413e-02, 4.04858310e-03, 8.09716620e-03,
          8.09716620e-03, 1.21457493e-02, 6.07287465e-03, 2.42914986e-02,
          8.09716620e-03, 4.04858310e-03, 1.01214573e-02, 2.02429155e-03,
          1.21457493e-02, 1.21457493e-02, 1.01214573e-02, 8.09716620e-03,
          2.63157897e-02, 8.09716620e-03, 6.07287465e-03, 6.07287465e-03,
          1.01214573e-02, 1.01214573e-02, 1.01214573e-02, 2.02429146e-02,
          4.04858310e-03, 4.04858310e-03, 8.09716620e-03, 2.02429155e-03,
          8.09716620e-03, 8.09716620e-03, 8.09716620e-03, 4.04858310e-03,
          6.07287465e-03, 1.01214573e-02, 2.22672075e-02, 4.04858310e-03,
          1.21457493e-02, 4.04858310e-03, 4.04858310e-03, 1.01214573e-02,
          1.01214573e-02, 6.07287465e-03, 1.41700413e-02, 4.04858310e-03,
          0., 8.09716620e-03, 4.04858310e-03, 4.04858310e-03,
          1.61943324e-02, 8.09716620e-03, 1.61943324e-02, 1.01214573e-02,
          4.04858310e-03, 2.02429155e-03, 1.01214573e-02, 1.01214573e-02,
          6.07287465e-03, 6.07287465e-03, 8.09716620e-03, 1.41700413e-02,
          2.42914986e-02, 6.07287465e-03, 1.21457493e-02, 6.07287465e-03 ]
      - [ 5.57620823e-03, 9.29368008e-03, 7.43494416e-03, 5.57620823e-03,
          1.85873604e-03, 7.43494416e-03, 5.57620823e-03, 7.43494416e-03,
          3.71747208e-03, 5.57620823e-03, 5.57620823e-03, 1.11524165e-02,
          1.67286247e-02, 0., 1.67286247e-02, 1.11524165e-02,
          7.43494416e-03, 1.67286247e-02, 2.41635684e-02, 1.85873604e-03,
          5.57620823e-03, 1.30111519e-02, 1.67286247e-02, 0.,
          1.22676581e-01, 1.85873604e-03, 1.11524165e-02, 7.43494416e-03,
          1.85873602e-02, 1.48698883e-02, 5.57620823e-03, 7.43494416e-03,
          9.29368008e-03, 1.11524165e-02, 3.71747208e-03, 7.43494416e-03,
          2.04460956e-02, 1.67286247e-02, 9.29368008e-03, 9.29368008e-03,
          3.71747208e-03, 5.57620823e-03, 2.41635684e-02, 1.11524165e-02,
          1.30111519e-02, 0., 7.43494416e-03, 1.85873604e-03,
          1.48698883e-02, 2.23048329e-02, 7.43494416e-03, 1.30111519e-02,
          5.57620823e-03, 1.85873604e-03, 1.85873602e-02, 2.04460956e-02,
          3.71747208e-03, 5.57620823e-03, 1.48698883e-02, 3.71747208e-03,
          7.43494416e-03, 2.41635684e-02, 7.43494416e-03, 5.57620823e-03,
          1.85873604e-03, 5.57620823e-03, 0., 9.29368008e-03,
          1.85873602e-02, 7.43494416e-03, 5.57620823e-03, 1.11524165e-02,
          5.57620823e-03, 0., 7.43494416e-03, 3.71747208e-03,
          7.43494416e-03, 1.48698883e-02, 1.48698883e-02, 1.11524165e-02,
          1.85873604e-03, 3.71747208e-03, 1.30111519e-02, 1.85873604e-03,
          1.30111519e-02, 7.43494416e-03, 9.29368008e-03, 7.43494416e-03,
          1.11524165e-02, 3.71747208e-03, 7.43494416e-03, 7.43494416e-03,
          9.29368008e-03, 7.43494416e-03, 1.85873604e-03, 1.67286247e-02,
          1.67286247e-02, 0., 9.29368008e-03, 0. ]
      - [ 9.17431246e-03, 6.11620815e-03, 3.66972499e-02, 9.17431246e-03,
          3.05810408e-03, 0., 1.22324163e-02, 2.14067288e-02,
          1.22324163e-02, 2.14067288e-02, 4.28134575e-02, 3.05810408e-03,
          6.11620815e-03, 0., 3.05810408e-03, 6.11620815e-03,
          9.17431246e-03, 1.22324163e-02, 2.75229365e-02, 3.05810408e-03,
          6.11620815e-03, 2.44648326e-02, 9.17431246e-03, 9.17431246e-03,
          0., 0., 6.11620815e-03, 0., 1.83486249e-02, 2.14067288e-02, 0.,
          6.11620815e-03, 6.11620815e-03, 1.52905202e-02, 2.14067288e-02,
          0., 9.17431246e-03, 2.14067288e-02, 2.44648326e-02,
          3.05810408e-03, 1.52905202e-02, 1.52905202e-02, 6.11620815e-03,
          2.14067288e-02, 6.11620815e-03, 3.05810408e-03, 9.17431246e-03,
          1.52905202e-02, 1.22324163e-02, 1.83486249e-02, 3.05810403e-02,
          0., 3.05810408e-03, 1.22324163e-02, 1.22324163e-02,
          6.11620815e-03, 2.44648326e-02, 9.17431246e-03, 0.,
          9.17431246e-03, 3.05810408e-03, 3.05810408e-03, 6.11620815e-03,
          3.05810408e-03, 6.11620815e-03, 2.14067288e-02, 9.17431246e-03,
          6.11620815e-03, 6.11620815e-03, 6.11620815e-03, 1.22324163e-02,
          3.05810408e-03, 0., 0., 0., 9.17431246e-03, 9.17431246e-03,
          2.14067288e-02, 6.11620815e-03, 1.52905202e-02, 3.05810408e-03,
          3.05810408e-03, 3.05810408e-03, 6.11620815e-03, 3.05810403e-02,
          1.22324163e-02, 0., 2.14067288e-02, 2.44648326e-02,
          3.05810408e-03, 3.05810408e-03, 9.17431246e-03, 3.05810408e-03,
          2.44648326e-02, 0., 6.11620815e-03, 0., 0., 2.44648326e-02, 0. ]
      - [ 6.98324014e-03, 6.98324014e-03, 3.07262558e-02, 5.58659201e-03,
          9.77653638e-03, 1.11731840e-02, 1.67597756e-02, 5.58659201e-03,
          1.11731840e-02, 9.77653638e-03, 1.25698317e-02, 8.37988779e-03,
          8.37988779e-03, 4.18994389e-03, 1.11731840e-02, 9.77653638e-03,
          6.98324014e-03, 1.25698317e-02, 1.39664803e-02, 8.37988779e-03,
          1.25698317e-02, 1.25698317e-02, 1.39664800e-03, 6.98324014e-03,
          3.35195512e-02, 1.81564242e-02, 1.39664803e-02, 9.77653638e-03,
          1.67597756e-02, 4.18994389e-03, 4.18994389e-03, 1.11731840e-02,
          6.98324014e-03, 1.11731840e-02, 6.98324014e-03, 1.11731840e-02,
          1.25698317e-02, 6.98324014e-03, 4.18994389e-03, 6.98324014e-03,
          1.11731840e-02, 1.53631279e-02, 2.79329601e-03, 1.25698317e-02,
          5.58659201e-03, 1.67597756e-02, 1.11731840e-02, 1.11731840e-02,
          6.98324014e-03, 1.11731840e-02, 1.25698317e-02, 9.77653638e-03,
          8.37988779e-03, 1.95530728e-02, 6.98324014e-03, 2.79329601e-03,
          6.98324014e-03, 6.98324014e-03, 4.18994389e-03, 4.18994389e-03,
          1.11731840e-02, 8.37988779e-03, 8.37988779e-03, 4.18994389e-03,
          8.37988779e-03, 2.09497195e-02, 1.39664800e-03, 6.98324014e-03,
          6.98324014e-03, 1.67597756e-02, 6.98324014e-03, 6.98324014e-03,
          8.37988779e-03, 5.58659201e-03, 1.11731840e-02, 5.58659201e-03,
          1.81564242e-02, 9.77653638e-03, 8.37988779e-03, 6.98324014e-03,
          8.37988779e-03, 1.81564242e-02, 4.18994389e-03, 4.18994389e-03,
          1.81564242e-02, 4.18994389e-03, 9.77653638e-03, 1.39664803e-02,
          9.77653638e-03, 4.18994389e-03, 1.11731840e-02, 1.25698317e-02,
          1.25698317e-02, 1.25698317e-02, 2.79329601e-03, 2.79329601e-03,
          3.35195512e-02, 9.77653638e-03, 5.58659201e-03, 9.77653638e-03 ]
   decision_functions:
      -
         sv_count: 1
         rho: 3.3045265125110634e-03
         alpha: [ 1. ]
         index: [ 0 ]
