%YAML:1.0
---
opencv_ml_svm:
   format: 3
   svmType: C_SVC
   kernel:
      type: LINEAR
   C: 1.0000000000000001e-01
   term_criteria: { epsilon:1.1920928955078125e-07, iterations:1000 }
   var_count: 100
   class_count: 2
   class_labels: !!opencv-matrix
      rows: 2
      cols: 1
      dt: i
      data: [ 0, 1 ]
   sv_total: 1
   support_vectors:
      - [ 5.81065007e-03, -8.05735309e-03, 4.12537195e-02,
          -9.96400043e-03, -1.29904952e-02, -6.92525739e-03,
          -9.81780607e-03, -9.13714152e-03, -7.86187034e-03,
          -4.20990121e-03, -3.91541608e-03, -4.89273807e-03,
          -6.65527582e-02, -9.00476705e-03, 1.21181586e-03,
          -6.57184655e-03, -5.09997085e-03, 3.26953037e-03,
          -1.35023007e-02, -1.79065450e-03, -6.70059072e-03,
          -1.12081654e-02, -1.53550587e-03, 5.39104082e-03,
          -1.29952822e-02, 2.09598616e-03, -7.02884886e-03,
          -1.69204737e-04, -9.45450924e-03, 3.20997685e-02,
          -2.68195197e-02, -4.60622227e-03, 2.17508748e-02,
          -5.19882014e-04, -1.53260061e-03, 1.98962372e-02,
          -2.73937825e-03, -2.90707732e-03, 2.63121747e-03,
          1.84712987e-02, 2.48070632e-04, 3.19826677e-02, 2.73243734e-03,
          6.12086803e-03, -3.40841827e-03, -5.97333489e-03,
          -4.37376415e-03, -7.01040961e-03, -1.19010611e-02,
          -5.79666672e-03, -9.29345656e-03, -2.03883667e-02,
          -1.30119896e-03, -1.05442498e-02, 7.68411253e-03,
          -5.05636260e-03, 7.63600925e-04, 2.66804770e-02,
          -2.71182624e-03, 7.47355982e-04, -6.74328534e-04,
          2.53710547e-03, 7.35089357e-04, 4.30369796e-03, 1.83220697e-03,
          1.00304391e-02, 1.28445122e-02, 1.01682115e-02,
          -8.91889271e-04, -1.05801113e-02, -4.16356837e-03,
          1.92933920e-04, 5.39990049e-03, -3.48669779e-03,
          8.45717173e-03, 1.34629831e-02, -1.36749223e-02,
          7.41853379e-03, 1.29142590e-02, 7.82230927e-04,
          -3.27281724e-03, -3.63982772e-03, -1.32267363e-03,
          1.36530250e-02, 3.96963358e-02, 2.01920117e-03,
          -5.13184257e-03, 1.29197713e-03, 7.77774956e-03,
          -2.75914348e-03, 1.96176600e-02, -2.80133309e-03,
          2.31007710e-02, -1.29304538e-02, -4.32308018e-03,
          -4.83917014e-04, -5.62600186e-03, 2.27329903e-03,
          -6.08714158e-03, 6.76893629e-03 ]
   uncompressed_sv_total: 30
   uncompressed_support_vectors:
      - [ 2.98507465e-03, 2.98507465e-03, 5.07462695e-02, 5.97014930e-03,
          1.49253737e-02, 8.95522349e-03, 2.98507465e-03, 1.19402986e-02,
          1.19402986e-02, 5.97014930e-03, 2.98507465e-03, 0.,
          5.97014930e-03, 2.98507465e-03, 2.98507465e-03, 5.97014930e-03,
          3.28358226e-02, 8.95522349e-03, 8.95522349e-03, 2.98507465e-03,
          2.98507465e-03, 5.97014930e-03, 3.88059691e-02, 0.,
          2.98507465e-03, 5.97014930e-03, 4.77611944e-02, 0.,
          5.97014930e-03, 9.85074639e-02, 5.97014930e-03, 5.97014930e-03,
          2.98507474e-02, 2.98507465e-03, 2.98507465e-03, 2.98507474e-02,
          0., 0., 0., 2.38805972e-02, 5.97014930e-03, 3.28358226e-02,
          5.97014930e-03, 8.95522349e-03, 5.97014930e-03, 1.49253737e-02,
          8.95522349e-03, 0., 5.97014930e-03, 2.98507465e-03,
          8.95522349e-03, 2.38805972e-02, 2.98507465e-03, 5.97014930e-03,
          5.97014930e-03, 5.97014930e-03, 5.97014930e-03, 2.98507474e-02,
          5.97014930e-03, 8.95522349e-03, 2.98507465e-03, 2.98507465e-03,
          5.97014930e-03, 2.08955221e-02, 2.98507465e-03, 5.97014930e-03,
          2.08955221e-02, 0., 0., 0., 5.97014930e-03, 0., 0.,
          8.95522349e-03, 1.79104470e-02, 1.79104470e-02, 2.98507465e-03,
          2.98507465e-03, 3.58208939e-02, 8.95522349e-03, 0., 0.,
          2.98507465e-03, 4.17910442e-02, 2.38805972e-02, 5.97014930e-03,
          1.19402986e-02, 0., 0., 0., 1.79104470e-02, 0., 5.97014930e-03,
          2.98507465e-03, 0., 0., 0., 0., 1.49253737e-02, 5.97014930e-03 ]
      - [ 2.66666664e-03, 2.66666664e-03, 1.59999989e-02, 0., 0.,
          1.06666666e-02, 2.66666664e-03, 7.99999945e-03, 7.99999945e-03,
          7.99999945e-03, 1.59999989e-02, 2.66666664e-03, 0.,
          2.66666664e-03, 0., 0., 1.33333337e-02, 7.99999945e-03,
          2.40000002e-02, 2.66666664e-03, 2.66666664e-03, 7.99999945e-03,
          3.99999991e-02, 2.66666664e-03, 2.66666664e-03, 7.99999945e-03,
          7.99999945e-03, 0., 2.66666664e-03, 5.33333328e-03,
          4.26666662e-02, 2.66666664e-03, 2.66666664e-03, 5.33333328e-03,
          1.33333337e-02, 6.39999956e-02, 2.66666664e-03, 0., 0.,
          3.19999978e-02, 2.66666664e-03, 6.39999956e-02, 0., 0.,
          7.99999945e-03, 7.99999945e-03, 5.33333328e-03, 0.,
          7.99999945e-03, 1.33333337e-02, 0., 2.13333331e-02,
          5.33333328e-03, 2.66666664e-03, 0., 2.66666664e-03,
          2.66666664e-03, 9.33333337e-02, 7.99999945e-03, 2.13333331e-02,
          2.66666664e-03, 2.66666664e-03, 0., 1.06666666e-02, 0.,
          5.33333328e-03, 4.53333333e-02, 5.33333328e-03, 0., 0.,
          2.66666664e-03, 0., 0., 1.33333337e-02, 7.99999945e-03,
          1.59999989e-02, 0., 0., 2.66666664e-03, 2.66666664e-03, 0., 0.,
          5.33333328e-03, 3.19999978e-02, 8.53333324e-02, 1.33333337e-02,
          5.33333328e-03, 1.33333337e-02, 0., 0., 2.93333326e-02,
          2.66666664e-03, 0., 1.59999989e-02, 0., 7.99999945e-03,
          5.33333328e-03, 0., 1.86666660e-02, 7.99999945e-03 ]
      - [ 1.74825173e-02, 3.49650346e-03, 5.94405606e-02, 5.94405606e-02,
          3.49650346e-03, 3.49650346e-03, 2.09790207e-02, 2.44755242e-02,
          3.49650346e-03, 0., 2.44755242e-02, 1.04895104e-02,
          4.89510484e-02, 0., 0., 6.99300691e-03, 2.09790207e-02, 0.,
          3.49650346e-03, 0., 1.39860138e-02, 1.39860138e-02, 0.,
          1.04895104e-02, 3.49650346e-03, 3.49650346e-03, 6.99300691e-03,
          0., 3.49650346e-03, 0., 3.49650346e-03, 0., 6.99300691e-03,
          1.04895104e-02, 0., 4.89510484e-02, 0., 1.04895104e-02,
          4.19580415e-02, 3.49650346e-03, 6.99300691e-03, 3.49650346e-03,
          0., 0., 3.49650346e-03, 6.99300691e-03, 0., 2.44755242e-02, 0.,
          1.39860138e-02, 5.24475500e-02, 0., 0., 2.44755242e-02,
          2.44755242e-02, 6.99300691e-03, 0., 4.54545468e-02, 0.,
          3.49650346e-03, 3.49650346e-03, 0., 1.74825173e-02, 0., 0.,
          3.49650346e-03, 1.04895104e-02, 3.49650346e-03, 3.49650346e-03,
          0., 0., 1.39860138e-02, 6.99300691e-03, 3.49650346e-03,
          2.44755242e-02, 0., 3.49650346e-03, 6.99300691e-03,
          5.59440553e-02, 0., 6.99300691e-03, 0., 3.49650346e-03,
          3.49650346e-03, 0., 0., 2.44755242e-02, 0., 0., 0.,
          2.79720277e-02, 3.49650346e-03, 6.99300691e-03, 5.59440553e-02,
          0., 0., 0., 0., 0., 0. ]
      - [ 8.60215072e-03, 2.15053768e-03, 3.65591422e-02, 1.50537640e-02,
          2.15053768e-03, 1.07526882e-02, 6.45161327e-03, 0.,
          8.60215072e-03, 1.50537640e-02, 1.07526882e-02, 6.45161327e-03,
          6.23655915e-02, 1.50537640e-02, 1.72043014e-02, 3.44086029e-02,
          1.07526882e-02, 2.15053768e-03, 1.29032265e-02, 1.50537640e-02,
          0., 4.30107536e-03, 4.30107536e-03, 6.45161327e-03, 0.,
          2.15053768e-03, 7.74193555e-02, 0., 1.29032265e-02,
          6.45161327e-03, 1.50537640e-02, 6.45161327e-03, 4.30107536e-03,
          0., 2.15053768e-03, 1.72043014e-02, 6.45161327e-03, 0., 0.,
          3.87096778e-02, 1.93548389e-02, 4.73118275e-02, 2.15053768e-03,
          1.93548389e-02, 1.07526882e-02, 1.29032265e-02, 4.30107536e-03,
          0., 4.30107536e-03, 2.15053768e-03, 0., 1.93548389e-02,
          4.30107536e-03, 0., 6.45161327e-03, 8.60215072e-03,
          1.29032265e-02, 2.36559138e-02, 2.15053768e-03, 6.45161327e-03,
          2.15053768e-03, 0., 2.15053768e-03, 4.30107536e-03, 0.,
          6.45161327e-03, 3.01075280e-02, 3.22580636e-02, 0., 0.,
          4.30107536e-03, 0., 2.15053768e-03, 4.30107536e-03,
          1.29032265e-02, 2.15053763e-02, 2.15053768e-03, 2.36559138e-02,
          0., 1.72043014e-02, 0., 2.15053768e-03, 0., 8.60215072e-03,
          3.44086029e-02, 4.30107536e-03, 0., 1.29032265e-02,
          6.45161327e-03, 1.29032265e-02, 1.07526882e-02, 1.07526882e-02,
          8.60215072e-03, 6.45161327e-03, 2.15053768e-03, 0., 0.,
          4.30107536e-03, 4.30107536e-03, 2.15053768e-03 ]
      - [ 4.36681230e-03, 4.36681230e-03, 3.93013097e-02, 1.74672492e-02,
          1.09170303e-02, 6.55021844e-03, 2.18340615e-03, 8.73362459e-03,
          2.18340615e-03, 2.18340615e-03, 1.09170303e-02, 2.18340615e-03,
          5.89519665e-02, 1.52838435e-02, 2.18340615e-03, 1.09170303e-02,
          3.49344984e-02, 1.31004369e-02, 1.09170303e-02, 6.55021844e-03,
          8.73362459e-03, 3.49344984e-02, 1.74672492e-02, 0.,
          4.36681230e-03, 1.31004369e-02, 8.73362459e-03, 0.,
          1.31004369e-02, 8.73362459e-03, 1.96506549e-02, 8.73362459e-03,
          8.73362459e-03, 1.31004369e-02, 0., 1.52838435e-02,
          2.18340615e-03, 0., 2.18340615e-03, 2.62008738e-02,
          1.96506549e-02, 1.96506549e-02, 0., 0., 3.05676870e-02,
          4.36681230e-03, 8.73362459e-03, 2.18340615e-03, 0.,
          2.18340615e-03, 0., 2.18340605e-02, 1.31004369e-02, 0., 0.,
          8.73362459e-03, 0., 4.36681230e-03, 1.31004369e-02,
          2.83842795e-02, 8.73362459e-03, 0., 8.73362459e-03, 0., 0.,
          1.09170310e-01, 2.83842795e-02, 2.18340615e-03, 0.,
          2.18340615e-03, 6.55021844e-03, 0., 0., 1.52838435e-02,
          1.09170303e-02, 2.18340605e-02, 6.55021844e-03, 0., 0.,
          2.18340615e-03, 2.18340615e-03, 4.36681230e-03, 0.,
          1.96506549e-02, 1.52838435e-02, 1.74672492e-02, 1.74672492e-02,
          2.18340615e-03, 0., 4.36681230e-03, 8.73362459e-03,
          6.55021844e-03, 1.09170303e-02, 6.55021844e-03, 0.,
          2.18340615e-03, 2.18340615e-03, 0., 8.73362459e-03,
          2.18340615e-03 ]
      - [ 0., 5.52486209e-03, 2.48618796e-02, 5.80110513e-02,
          1.65745858e-02, 1.38121555e-02, 2.20994484e-02, 2.20994484e-02,
          0., 2.76243105e-03, 2.20994484e-02, 1.38121555e-02,
          1.10497242e-02, 1.38121555e-02, 0., 1.65745858e-02,
          1.38121555e-02, 1.65745858e-02, 1.65745858e-02, 5.52486209e-03,
          1.38121555e-02, 1.38121555e-02, 1.93370171e-02, 0.,
          2.20994484e-02, 2.76243105e-03, 5.52486209e-03, 0.,
          1.10497242e-02, 8.28729291e-03, 2.76243105e-03, 0.,
          1.38121555e-02, 1.38121555e-02, 0., 5.52486209e-03,
          5.52486209e-03, 8.28729291e-03, 2.20994484e-02, 1.65745858e-02,
          1.65745858e-02, 3.86740342e-02, 0., 0., 1.10497242e-02,
          1.10497242e-02, 8.28729291e-03, 2.76243105e-03, 2.76243105e-03,
          5.52486209e-03, 1.65745858e-02, 1.93370171e-02, 5.52486209e-03,
          8.28729291e-03, 0., 0., 2.76243105e-03, 0., 1.38121555e-02,
          5.52486209e-03, 1.65745858e-02, 0., 1.38121555e-02,
          5.52486209e-03, 0., 2.20994484e-02, 1.38121555e-02, 0., 0.,
          1.10497242e-02, 2.76243105e-03, 2.76243105e-03, 0.,
          4.69613262e-02, 8.28729291e-03, 3.03867422e-02, 2.76243105e-03,
          0., 0., 2.76243105e-03, 2.76243105e-03, 2.76243105e-03,
          8.28729291e-03, 2.76243105e-03, 1.93370171e-02, 5.52486209e-03,
          5.24861887e-02, 2.76243105e-03, 0., 5.52486209e-03, 0.,
          1.10497242e-02, 2.20994484e-02, 1.38121555e-02, 5.52486209e-03,
          2.76243105e-03, 5.52486209e-03, 0., 8.28729291e-03, 0. ]
      - [ 3.65408044e-03, 9.74421483e-03, 2.43605371e-03, 2.43605371e-03,
          0., 3.65408044e-03, 6.09013438e-03, 2.43605375e-02, 0.,
          1.46163218e-02, 2.43605371e-03, 0., 1.58343483e-02,
          4.87210741e-03, 1.21802685e-03, 0., 9.74421483e-03,
          9.74421483e-03, 9.74421483e-03, 2.43605371e-03, 6.09013438e-03,
          2.43605371e-03, 2.31425110e-02, 2.19244827e-02, 7.30816089e-03,
          1.09622413e-02, 4.87210751e-02, 0., 1.21802685e-03,
          4.87210751e-02, 7.30816089e-03, 4.87210741e-03, 5.23751564e-02,
          4.87210741e-03, 3.65408044e-03, 7.30816089e-03, 3.41047533e-02,
          3.65408044e-03, 2.07064562e-02, 1.21802685e-03, 5.11571281e-02,
          3.28867249e-02, 3.65408044e-03, 9.74421483e-03, 4.87210741e-03,
          1.21802685e-03, 4.87210741e-03, 1.21802685e-03, 7.30816089e-03,
          1.21802685e-03, 8.52618832e-03, 0., 1.21802685e-03,
          4.87210741e-03, 6.09013438e-03, 6.09013438e-03, 1.21802685e-03,
          7.79537186e-02, 0., 6.09013438e-03, 3.65408044e-03,
          7.30816089e-03, 2.43605371e-03, 0., 1.21802685e-03, 0.,
          2.43605371e-03, 0., 1.21802685e-03, 6.09013438e-03,
          2.31425110e-02, 1.21802688e-02, 8.52618832e-03, 6.09013438e-03,
          1.21802685e-03, 8.52618832e-03, 7.30816089e-03, 1.21802685e-03,
          7.30816089e-03, 0., 2.43605371e-03, 1.58343483e-02,
          2.43605371e-03, 2.43605371e-03, 1.21802685e-03, 2.43605371e-03,
          7.30816089e-03, 1.21802685e-03, 1.82704031e-02, 0.,
          2.07064562e-02, 0., 1.18148603e-01, 6.09013438e-03, 0.,
          2.43605371e-03, 1.09622413e-02, 8.52618832e-03, 1.21802685e-03,
          1.46163218e-02 ]
      - [ 9.95024852e-03, 0., 6.46766126e-02, 0., 0., 0., 0.,
          3.73134315e-02, 0., 2.48756213e-03, 2.48756213e-03,
          2.48756213e-03, 1.49253728e-02, 4.97512426e-03, 1.24378111e-02,
          0., 0., 1.24378111e-02, 2.23880596e-02, 4.97512426e-03,
          2.48756213e-03, 7.46268639e-03, 0., 7.46268639e-03,
          4.97512426e-03, 2.48756213e-03, 5.47263660e-02, 0., 0.,
          1.29353225e-01, 2.48756213e-03, 0., 8.95522386e-02, 0.,
          2.48756213e-03, 4.97512426e-03, 0., 2.48756213e-03,
          2.48756213e-03, 1.99004970e-02, 7.46268639e-03, 9.95024852e-03,
          9.95024852e-03, 2.48756213e-03, 1.24378111e-02, 2.48756213e-03,
          4.97512426e-03, 0., 0., 7.46268639e-03, 7.46268639e-03,
          7.46268639e-03, 2.48756213e-03, 1.24378111e-02, 2.73631830e-02,
          7.46268639e-03, 4.97512426e-03, 2.23880596e-02, 0.,
          4.97512426e-03, 0., 0., 4.97512426e-03, 4.97512426e-03,
          4.97512426e-03, 7.46268639e-03, 0., 1.49253728e-02,
          9.95024852e-03, 0., 2.48756213e-03, 7.46268639e-03,
          1.24378111e-02, 1.49253728e-02, 0., 1.99004970e-02, 0.,
          1.74129345e-02, 1.99004970e-02, 2.48756213e-03, 2.48756213e-03,
          0., 2.48756213e-03, 2.48756213e-03, 9.95024852e-03,
          9.95024852e-03, 2.48756213e-03, 0., 1.99004970e-02, 0.,
          2.73631830e-02, 2.48756213e-03, 2.48756222e-02, 4.47761193e-02,
          0., 0., 0., 9.95024852e-03, 0., 1.74129345e-02 ]
      - [ 6.75675692e-03, 2.25225231e-03, 7.43243247e-02, 1.80180185e-02,
          2.25225231e-03, 1.35135138e-02, 4.50450461e-03, 9.00900923e-03,
          1.12612620e-02, 0., 1.35135138e-02, 0., 4.50450461e-03,
          2.25225231e-03, 4.50450461e-03, 1.35135138e-02, 2.92792805e-02,
          0., 1.35135138e-02, 4.50450461e-03, 9.00900923e-03,
          1.80180185e-02, 4.27927934e-02, 0., 2.25225231e-03,
          2.25225231e-03, 2.25225240e-02, 0., 9.00900923e-03, 0.,
          2.02702712e-02, 0., 2.25225231e-03, 6.75675692e-03,
          4.50450461e-03, 4.72972989e-02, 2.25225231e-03, 0.,
          2.25225231e-03, 6.30630627e-02, 0., 5.18018045e-02, 0., 0.,
          5.18018045e-02, 6.75675692e-03, 4.50450461e-03, 0., 0.,
          6.75675692e-03, 0., 1.80180185e-02, 1.35135138e-02,
          2.25225231e-03, 0., 9.00900923e-03, 0., 6.75675692e-03,
          4.50450461e-03, 4.50450461e-03, 0., 0., 0., 0., 0.,
          4.50450461e-03, 4.95495498e-02, 9.00900923e-03, 0., 0.,
          4.50450461e-03, 0., 0., 1.80180185e-02, 1.80180185e-02,
          2.92792805e-02, 4.50450461e-03, 0., 1.12612620e-02, 0., 0., 0.,
          0., 6.98198229e-02, 1.80180185e-02, 4.72972989e-02,
          4.50450461e-03, 2.25225231e-03, 0., 9.00900923e-03,
          4.50450461e-03, 1.80180185e-02, 0., 2.25225231e-03, 0.,
          2.25225231e-03, 4.50450461e-03, 0., 6.75675692e-03, 0. ]
      - [ 0., 3.43642617e-03, 1.71821304e-02, 1.71821304e-02,
          6.87285233e-03, 6.87285233e-03, 3.43642617e-03, 0.,
          4.12371159e-02, 1.03092790e-02, 1.71821304e-02, 0.,
          6.87285233e-03, 1.03092790e-02, 1.03092790e-02, 1.37457047e-02,
          4.12371159e-02, 0., 0., 1.03092790e-02, 3.43642617e-03,
          2.06185579e-02, 1.71821304e-02, 0., 0., 1.37457047e-02,
          3.43642617e-03, 0., 6.87285233e-03, 2.74914093e-02,
          1.37457047e-02, 0., 3.43642607e-02, 1.03092790e-02,
          3.43642617e-03, 6.87285233e-03, 6.87285233e-03, 0., 0., 0.,
          1.03092790e-02, 3.78006883e-02, 0., 0., 3.43642617e-03,
          2.40549836e-02, 0., 1.03092790e-02, 1.37457047e-02,
          2.06185579e-02, 0., 3.43642617e-03, 6.87285233e-03, 0., 0.,
          2.74914093e-02, 3.43642617e-03, 3.78006883e-02, 0.,
          6.87285233e-03, 1.03092790e-02, 0., 0., 0., 0., 4.46735397e-02,
          2.40549836e-02, 6.87285233e-03, 0., 3.43642617e-03,
          6.87285233e-03, 0., 0., 0., 6.87285215e-02, 1.37457047e-02,
          6.87285233e-03, 3.43642617e-03, 0., 3.78006883e-02, 0.,
          6.87285233e-03, 1.03092790e-02, 2.74914093e-02, 3.78006883e-02,
          1.03092790e-02, 0., 3.43642617e-03, 0., 2.40549836e-02, 0.,
          3.43642617e-03, 3.43642617e-03, 3.43642617e-03, 3.43642617e-03,
          1.71821304e-02, 2.06185579e-02, 0., 3.43642617e-03,
          6.87285233e-03 ]
      - [ 2.37529702e-03, 2.37529702e-03, 7.12589100e-02, 3.56294550e-02,
          7.12589081e-03, 4.75059403e-03, 4.75059403e-03, 0.,
          4.75059403e-03, 0., 7.12589081e-03, 2.37529702e-03,
          1.90023761e-02, 7.12589081e-03, 0., 1.66270789e-02,
          3.08788605e-02, 2.37529702e-03, 9.50118806e-03, 1.42517816e-02,
          4.75059403e-03, 1.18764853e-02, 1.66270789e-02, 0.,
          2.37529702e-03, 1.90023761e-02, 1.66270789e-02, 0.,
          2.85035633e-02, 7.12589081e-03, 1.66270789e-02, 4.75059403e-03,
          1.18764853e-02, 2.13776734e-02, 0., 4.03800495e-02,
          2.37529702e-03, 0., 2.37529702e-03, 3.32541578e-02,
          7.12589081e-03, 2.61282679e-02, 0., 0., 2.13776734e-02,
          9.50118806e-03, 7.12589081e-03, 4.75059403e-03, 9.50118806e-03,
          2.37529702e-03, 0., 2.13776734e-02, 1.18764853e-02,
          3.80047522e-02, 2.37529702e-03, 2.13776734e-02, 0., 0., 0.,
          1.18764853e-02, 9.50118806e-03, 0., 0., 0., 0., 1.66270789e-02,
          1.18764853e-02, 7.12589081e-03, 0., 2.37529702e-03,
          9.50118806e-03, 2.37529702e-03, 0., 9.50118806e-03,
          3.80047522e-02, 4.27553467e-02, 9.50118806e-03, 0., 0.,
          1.18764853e-02, 0., 0., 4.75059403e-03, 7.12589081e-03,
          3.08788605e-02, 2.37529706e-02, 2.13776734e-02, 2.37529702e-03,
          0., 2.61282679e-02, 0., 2.37529702e-03, 0., 4.75059403e-03,
          9.50118806e-03, 1.42517816e-02, 2.37529702e-03, 0.,
          2.37529702e-03, 0. ]
      - [ 1.51770655e-02, 2.69814506e-02, 1.85497478e-02, 0.,
          1.68634066e-03, 0., 1.51770655e-02, 0., 0., 2.02360880e-02, 0.,
          0., 0., 5.05902199e-03, 8.43170285e-03, 0., 1.68634066e-03, 0.,
          0., 3.37268133e-03, 0., 0., 0., 4.04721759e-02, 0.,
          2.36087702e-02, 3.03541310e-02, 0., 0., 2.36087702e-02, 0.,
          1.01180440e-02, 1.68634057e-02, 0., 1.68634057e-02, 0.,
          3.70994955e-02, 1.01180440e-02, 1.68634066e-03, 0.,
          4.55311984e-02, 3.37268133e-03, 5.05902199e-03, 1.85497478e-02,
          0., 0., 3.37268133e-03, 0., 1.01180440e-02, 5.05902199e-03, 0.,
          0., 0., 1.68634066e-03, 0., 0., 6.74536265e-03, 5.56492433e-02,
          8.43170285e-03, 0., 8.43170285e-03, 1.01180440e-02,
          3.37268133e-03, 5.05902199e-03, 1.34907253e-02, 0.,
          1.68634066e-03, 4.55311984e-02, 3.37268133e-03, 1.18043851e-02,
          3.87858339e-02, 3.37268133e-03, 1.68634057e-02, 8.43170285e-03,
          3.37268133e-03, 1.68634066e-03, 8.43170285e-03, 3.54131535e-02,
          5.05902199e-03, 5.05902199e-03, 3.37268133e-03, 1.51770655e-02,
          0., 3.37268133e-03, 2.36087702e-02, 0., 3.37268133e-03,
          1.68634066e-03, 1.01180440e-02, 3.37268133e-03, 8.09443519e-02,
          0., 9.44350809e-02, 3.37268133e-03, 0., 1.68634066e-03,
          5.05902199e-03, 5.05902199e-03, 3.37268133e-03, 2.19224282e-02 ]
      - [ 0., 1.68067235e-02, 8.12324956e-02, 0., 8.40336177e-03,
          5.60224103e-03, 0., 0., 5.60224103e-03, 1.40056023e-02,
          1.40056023e-02, 0., 1.12044821e-02, 3.64145674e-02,
          2.80112051e-03, 0., 5.60224103e-03, 0., 0., 1.12044821e-02,
          2.80112051e-03, 1.12044821e-02, 2.52100844e-02, 0.,
          2.80112051e-03, 1.12044821e-02, 0., 0., 5.04201688e-02, 0.,
          3.64145674e-02, 8.40336177e-03, 2.80112051e-03, 0., 0.,
          4.20168079e-02, 5.60224103e-03, 0., 0., 5.60224103e-03,
          3.36134471e-02, 2.52100844e-02, 0., 0., 1.68067235e-02,
          5.60224103e-03, 1.40056023e-02, 0., 2.24089641e-02,
          2.24089641e-02, 0., 8.40336177e-03, 1.40056023e-02, 0., 0.,
          2.24089641e-02, 5.60224103e-03, 0., 0., 2.80112047e-02,
          5.60224103e-03, 0., 0., 0., 0., 3.08123250e-02, 4.20168079e-02,
          0., 0., 8.40336177e-03, 1.40056023e-02, 0., 0., 0.,
          1.12044821e-02, 2.52100844e-02, 2.80112047e-02, 0., 0.,
          8.40336177e-03, 0., 8.40336177e-03, 0., 5.60224103e-03,
          1.09243698e-01, 1.40056023e-02, 0., 0., 0., 8.40336177e-03, 0.,
          2.80112051e-03, 2.80112051e-03, 0., 0., 2.80112051e-03,
          1.96078438e-02, 0., 1.68067235e-02, 0. ]
      - [ 8.23045243e-03, 0., 4.93827164e-02, 2.05761306e-02,
          4.11522621e-03, 4.11522621e-03, 8.23045243e-03, 2.46913582e-02,
          0., 0., 8.23045243e-03, 0., 1.23456791e-02, 4.11522621e-03,
          8.23045243e-03, 8.23045243e-03, 2.05761306e-02, 8.23045243e-03,
          2.05761306e-02, 4.11522621e-03, 1.23456791e-02, 8.23045243e-03,
          4.52674888e-02, 1.23456791e-02, 0., 8.23045243e-03,
          2.46913582e-02, 0., 1.23456791e-02, 0., 1.64609049e-02, 0., 0.,
          1.64609049e-02, 1.64609049e-02, 6.58436194e-02, 8.23045243e-03,
          8.23045243e-03, 1.64609049e-02, 3.29218097e-02, 0.,
          1.23456784e-01, 0., 4.11522621e-03, 1.23456791e-02,
          4.11522621e-03, 4.11522621e-03, 0., 0., 4.11522621e-03,
          8.23045243e-03, 4.11522612e-02, 8.23045243e-03, 0.,
          4.11522621e-03, 4.11522621e-03, 0., 2.88065840e-02, 0.,
          4.11522621e-03, 0., 0., 2.05761306e-02, 4.11522621e-03, 0., 0.,
          0., 0., 0., 4.11522621e-03, 0., 4.11522621e-03, 8.23045243e-03,
          8.23045243e-03, 0., 8.23045243e-03, 0., 0., 4.11522621e-03,
          4.11522621e-03, 0., 0., 0., 3.29218097e-02, 4.52674888e-02,
          1.64609049e-02, 2.05761306e-02, 8.23045243e-03, 0., 0.,
          1.23456791e-02, 0., 4.11522621e-03, 8.23045243e-03, 0., 0., 0.,
          0., 1.64609049e-02, 0. ]
      - [ 2.66343839e-02, 0., 5.56900762e-02, 4.84261522e-03, 0., 0.,
          7.26392306e-03, 0., 9.68523044e-03, 0., 0., 0., 5.56900762e-02,
          1.21065378e-02, 1.93704609e-02, 2.42130761e-03, 4.84261522e-03,
          0., 2.42130761e-03, 2.17917692e-02, 0., 7.26392306e-03,
          3.38983051e-02, 2.42130761e-03, 9.68523044e-03, 0.,
          6.53753057e-02, 0., 7.26392306e-03, 1.21065378e-02,
          4.84261522e-03, 4.84261522e-03, 9.68523044e-03, 2.42130761e-03,
          1.45278461e-02, 7.26392306e-03, 9.68523044e-03, 7.26392306e-03,
          2.42130761e-03, 2.42130761e-03, 2.42130761e-03, 3.63196135e-02,
          7.26392306e-03, 4.84261522e-03, 0., 2.42130761e-03, 0., 0.,
          2.42130761e-03, 2.42130761e-03, 0., 7.26392306e-03,
          4.84261522e-03, 2.42130761e-03, 0., 7.26392306e-03,
          2.17917692e-02, 1.93704609e-02, 0., 2.90556923e-02,
          4.84261522e-03, 7.26392306e-03, 2.42130761e-03, 2.17917692e-02,
          2.42130761e-03, 3.63196135e-02, 3.87409218e-02, 2.90556923e-02,
          0., 0., 2.42130761e-03, 0., 7.26392306e-03, 2.42130761e-03,
          7.26392306e-03, 4.11622301e-02, 0., 2.66343839e-02, 0.,
          1.45278461e-02, 7.26392306e-03, 0., 2.42130761e-03,
          1.93704609e-02, 4.84261513e-02, 0., 0., 9.68523044e-03,
          3.14770006e-02, 2.42130761e-03, 2.42130756e-02, 0.,
          7.26392306e-03, 1.69491526e-02, 0., 0., 0., 0., 2.42130761e-03,
          7.26392306e-03 ]
      - [ 1.87969930e-03, 5.63909765e-03, 7.51879718e-03, 1.69172939e-02,
          1.31578948e-02, 9.39849671e-03, 2.81954892e-02, 6.39097765e-02,
          0., 5.63909765e-03, 1.12781953e-02, 3.75939859e-03,
          1.12781953e-02, 5.63909765e-03, 0., 1.87969930e-03,
          3.00751887e-02, 1.31578948e-02, 5.63909784e-02, 3.75939859e-03,
          1.50375944e-02, 2.44360901e-02, 2.06766929e-02, 0.,
          1.87969934e-02, 3.75939859e-03, 0., 0., 1.69172939e-02, 0.,
          7.51879737e-02, 0., 1.87969930e-03, 1.50375944e-02, 0.,
          1.12781953e-02, 5.63909765e-03, 1.69172939e-02, 2.44360901e-02,
          1.31578948e-02, 1.87969930e-03, 5.63909765e-03, 0., 0.,
          2.25563906e-02, 1.12781953e-02, 9.39849671e-03, 7.51879718e-03,
          5.63909765e-03, 0., 2.25563906e-02, 1.87969934e-02,
          5.63909765e-03, 2.25563906e-02, 0., 1.87969934e-02, 0.,
          1.87969930e-03, 3.75939859e-03, 1.87969930e-03, 7.51879718e-03,
          0., 1.31578948e-02, 0., 0., 1.87969930e-03, 3.75939859e-03, 0.,
          1.87969930e-03, 1.31578948e-02, 1.12781953e-02, 1.87969930e-03,
          0., 5.26315793e-02, 1.87969930e-03, 3.75939859e-03,
          1.31578948e-02, 0., 0., 0., 2.63157897e-02, 0., 5.63909765e-03,
          0., 1.87969930e-03, 9.39849671e-03, 3.75939868e-02, 0., 0.,
          1.50375944e-02, 0., 3.75939859e-03, 1.87969930e-03,
          3.94736864e-02, 3.75939859e-03, 1.87969930e-03, 9.39849671e-03,
          0., 5.63909765e-03, 0. ]
      - [ 3.47222225e-03, 4.51388881e-02, 5.03472239e-02, 8.68055597e-03,
          1.56250000e-02, 8.68055597e-03, 0., 0., 6.94444450e-03,
          2.25694440e-02, 2.08333340e-02, 0., 0., 2.77777780e-02,
          1.04166670e-02, 3.47222225e-03, 5.20833349e-03, 8.68055597e-03,
          1.73611112e-03, 1.21527780e-02, 8.68055597e-03, 2.08333340e-02,
          1.38888890e-02, 0., 1.38888890e-02, 1.90972220e-02, 0., 0.,
          4.86111119e-02, 1.21527780e-02, 1.04166670e-02, 8.68055597e-03,
          1.04166670e-02, 5.20833349e-03, 0., 1.21527780e-02,
          2.25694440e-02, 0., 1.73611112e-03, 5.20833349e-03,
          2.77777780e-02, 3.81944440e-02, 0., 0., 1.04166670e-02,
          5.20833349e-03, 6.94444450e-03, 0., 3.29861119e-02,
          3.12500000e-02, 0., 2.43055560e-02, 1.04166670e-02, 0., 0.,
          2.60416660e-02, 6.94444450e-03, 5.20833349e-03, 0.,
          5.20833349e-03, 6.94444450e-03, 0., 0., 0., 0., 1.21527780e-02,
          1.04166670e-02, 1.73611112e-03, 0., 2.08333340e-02,
          3.47222239e-02, 0., 0., 3.47222225e-03, 8.68055597e-03,
          2.60416660e-02, 2.43055560e-02, 0., 0., 1.73611119e-02, 0.,
          1.56250000e-02, 3.47222225e-03, 1.21527780e-02, 8.68055597e-03,
          5.20833349e-03, 3.47222225e-03, 3.47222225e-03, 0.,
          1.73611119e-02, 3.47222225e-03, 1.73611119e-02, 1.04166670e-02,
          1.73611112e-03, 1.73611112e-03, 8.68055597e-03, 6.94444450e-03,
          3.47222225e-03, 1.38888890e-02, 0. ]
      - [ 0., 6.02409616e-03, 1.00401603e-02, 4.01606411e-02,
          1.60642564e-02, 2.61044167e-02, 1.60642564e-02, 8.03212821e-03,
          1.00401603e-02, 6.02409616e-03, 2.00803205e-02, 6.02409616e-03,
          6.82730898e-02, 1.40562244e-02, 4.01606411e-03, 1.20481923e-02,
          2.61044167e-02, 2.00803205e-03, 2.00803205e-02, 1.00401603e-02,
          1.40562244e-02, 1.80722885e-02, 4.41767052e-02, 0.,
          8.03212821e-03, 4.01606411e-03, 4.01606411e-03, 0.,
          1.80722885e-02, 0., 1.40562244e-02, 8.03212821e-03,
          2.00803205e-03, 8.03212821e-03, 0., 1.00401603e-02,
          8.03212821e-03, 1.00401603e-02, 1.40562244e-02, 8.03212821e-03,
          1.40562244e-02, 3.01204808e-02, 0., 0., 1.40562244e-02,
          1.60642564e-02, 1.40562244e-02, 1.60642564e-02, 1.40562244e-02,
          8.03212821e-03, 2.81124488e-02, 1.60642564e-02, 1.40562244e-02,
          1.20481923e-02, 0., 2.00803205e-02, 0., 1.00401603e-02, 0.,
          2.00803205e-02, 6.02409616e-03, 0., 6.02409616e-03, 0., 0.,
          4.01606411e-03, 1.40562244e-02, 0., 8.03212821e-03,
          8.03212821e-03, 1.60642564e-02, 1.00401603e-02, 0.,
          1.40562244e-02, 0., 6.02409616e-03, 2.00803205e-02, 0., 0.,
          2.00803205e-03, 2.00803205e-03, 2.00803205e-03, 0.,
          4.01606411e-03, 2.00803205e-03, 1.00401603e-02, 2.00803205e-02,
          0., 0., 6.02409616e-03, 0., 8.03212821e-03, 4.01606411e-03,
          3.21285129e-02, 4.01606411e-03, 2.00803205e-03, 1.60642564e-02,
          0., 1.20481923e-02, 0. ]
      - [ 0., 1.80722885e-02, 2.00803205e-02, 4.61847372e-02,
          1.80722885e-02, 1.00401603e-02, 2.00803205e-02, 1.40562244e-02,
          2.40963846e-02, 2.00803205e-03, 8.03212821e-03, 1.80722885e-02,
          2.40963846e-02, 1.00401603e-02, 0., 1.80722885e-02,
          3.81526090e-02, 2.00803205e-03, 2.00803205e-02, 8.03212821e-03,
          1.80722885e-02, 2.00803205e-02, 1.20481923e-02, 0.,
          2.00803205e-02, 2.00803205e-03, 0., 0., 1.00401603e-02, 0.,
          4.81927693e-02, 2.00803205e-03, 4.01606411e-03, 1.40562244e-02,
          0., 1.00401603e-02, 1.20481923e-02, 0., 0., 4.01606411e-03,
          2.20883526e-02, 2.00803205e-02, 0., 0., 1.40562244e-02,
          8.03212821e-03, 1.20481923e-02, 8.03212821e-03, 2.00803205e-02,
          1.00401603e-02, 4.01606411e-03, 4.61847372e-02, 2.00803205e-03,
          2.20883526e-02, 0., 6.02409616e-03, 2.00803205e-03,
          1.00401603e-02, 2.81124488e-02, 6.02409616e-03, 1.20481923e-02,
          0., 2.00803205e-03, 0., 0., 8.03212821e-03, 2.00803205e-03,
          4.01606411e-03, 2.00803205e-03, 2.00803205e-02, 8.03212821e-03,
          2.00803205e-03, 0., 1.40562244e-02, 1.40562244e-02,
          1.00401603e-02, 1.20481923e-02, 0., 0., 0., 1.00401603e-02,
          6.02409616e-03, 1.20481923e-02, 0., 1.40562244e-02,
          1.60642564e-02, 1.80722885e-02, 0., 0., 6.02409616e-03,
          4.01606411e-03, 1.00401603e-02, 2.00803205e-03, 3.01204808e-02,
          6.02409616e-03, 6.02409616e-03, 8.03212821e-03, 0.,
          4.01606411e-03, 0. ]
      - [ 1.69204734e-02, 1.01522841e-02, 3.38409469e-03, 1.69204734e-03,
          3.38409469e-03, 1.69204734e-03, 3.38409469e-03, 0.,
          1.69204734e-02, 5.07614203e-03, 6.76818937e-03, 0.,
          1.30287647e-01, 1.69204734e-02, 8.46023671e-03, 5.07614203e-03,
          3.38409469e-03, 0., 0., 2.36886628e-02, 0., 1.69204734e-03,
          2.36886628e-02, 2.70727575e-02, 0., 1.18443314e-02,
          1.16751269e-01, 1.69204734e-03, 2.19966155e-02, 0.,
          5.07614203e-03, 6.76818937e-03, 1.69204734e-03, 0.,
          5.07614203e-03, 2.36886628e-02, 1.52284261e-02, 0., 0., 0.,
          1.35363787e-02, 1.01522841e-02, 5.07614203e-03, 0.,
          1.01522841e-02, 2.36886628e-02, 3.38409469e-03, 5.07614203e-03,
          1.18443314e-02, 2.19966155e-02, 0., 1.01522841e-02,
          5.07614203e-03, 0., 0., 5.07614203e-03, 0., 3.55329961e-02, 0.,
          2.53807101e-02, 6.76818937e-03, 1.69204734e-03, 0.,
          1.69204734e-03, 6.76818937e-03, 3.55329961e-02, 3.89170870e-02,
          8.46023671e-03, 0., 0., 8.46023671e-03, 0., 3.38409469e-03, 0.,
          1.18443314e-02, 3.38409469e-03, 1.18443314e-02, 1.35363787e-02,
          0., 1.01522841e-02, 0., 1.69204734e-03, 0., 2.36886628e-02,
          2.53807101e-02, 5.07614203e-03, 0., 5.07614203e-03, 0.,
          1.01522841e-02, 3.04568522e-02, 0., 0., 0., 8.46023671e-03, 0.,
          1.01522841e-02, 0., 1.18443314e-02, 0. ]
      - [ 0., 2.29357788e-03, 1.60550456e-02, 2.52293572e-02,
          2.06422005e-02, 6.88073365e-03, 2.06422005e-02, 6.19266033e-02,
          2.29357788e-03, 1.37614673e-02, 4.58715577e-03, 6.88073365e-03,
          2.29357779e-02, 4.58715577e-03, 0., 2.29357788e-03,
          1.83486231e-02, 0., 5.04587144e-02, 0., 1.37614673e-02,
          1.83486231e-02, 9.17431153e-03, 0., 1.83486231e-02,
          2.29357788e-03, 0., 0., 1.37614673e-02, 0., 5.50458692e-02,
          2.29357788e-03, 0., 2.52293572e-02, 0., 2.29357788e-03,
          6.88073365e-03, 1.37614673e-02, 9.17431153e-03, 1.60550456e-02,
          2.29357788e-03, 2.29357788e-03, 0., 0., 5.04587144e-02,
          2.06422005e-02, 2.29357788e-03, 6.88073365e-03, 4.58715577e-03,
          6.88073365e-03, 5.73394485e-02, 8.48623812e-02, 1.14678890e-02,
          2.52293572e-02, 0., 2.29357788e-03, 0., 0., 0., 6.88073365e-03,
          9.17431153e-03, 0., 9.17431153e-03, 0., 0., 1.14678890e-02, 0.,
          0., 2.29357788e-03, 1.60550456e-02, 2.29357788e-03,
          6.88073365e-03, 0., 1.60550456e-02, 0., 2.29357788e-03,
          4.58715577e-03, 0., 0., 0., 6.88073365e-03, 4.58715577e-03,
          2.29357788e-03, 0., 6.88073365e-03, 1.83486231e-02,
          2.75229346e-02, 0., 0., 2.29357788e-03, 0., 0., 0.,
          6.19266033e-02, 2.29357788e-03, 0., 6.88073365e-03, 0.,
          9.17431153e-03, 0. ]
      - [ 0., 3.61663662e-03, 1.26582282e-02, 2.35081390e-02,
          1.44665465e-02, 5.42495493e-03, 5.06329127e-02, 1.98915005e-02,
          7.23327324e-03, 7.23327324e-03, 1.08499099e-02, 5.42495493e-03,
          8.13743249e-02, 3.61663662e-03, 0., 1.08499099e-02,
          3.25497314e-02, 0., 2.53164563e-02, 0., 5.42495493e-03,
          1.98915005e-02, 1.08499099e-02, 0., 3.43580469e-02, 0.,
          2.53164563e-02, 0., 9.04159155e-03, 1.80831831e-03,
          5.24412319e-02, 9.04159155e-03, 9.04159155e-03, 7.23327324e-03,
          0., 1.80831831e-03, 3.61663662e-03, 1.80831831e-02,
          1.26582282e-02, 3.61663662e-03, 1.26582282e-02, 1.08499099e-02,
          0., 0., 5.42495493e-03, 1.44665465e-02, 5.42495493e-03,
          1.26582282e-02, 1.08499099e-02, 0., 4.52079587e-02,
          4.15913202e-02, 0., 3.97830009e-02, 0., 7.23327324e-03,
          1.80831831e-03, 5.42495493e-03, 9.04159155e-03, 1.08499099e-02,
          3.61663662e-03, 0., 7.23327324e-03, 0., 0., 1.26582282e-02,
          2.71247737e-02, 0., 7.23327324e-03, 5.42495493e-03,
          1.80831831e-03, 1.08499099e-02, 0., 9.04159155e-03,
          5.42495493e-03, 0., 7.23327324e-03, 0., 3.61663662e-03, 0.,
          3.61663662e-03, 5.42495493e-03, 5.42495493e-03, 3.61663662e-03,
          5.42495493e-03, 5.42495493e-03, 2.35081390e-02, 5.42495493e-03,
          0., 5.42495493e-03, 0., 9.04159155e-03, 5.42495493e-03,
          3.43580469e-02, 1.80831831e-03, 0., 7.23327324e-03, 0.,
          3.61663662e-03, 1.80831831e-03 ]
      - [ 7.22021656e-03, 1.44404331e-02, 1.08303251e-02, 0.,
          1.80505414e-03, 1.08303251e-02, 0., 0., 7.22021656e-03,
          1.44404331e-02, 3.06859203e-02, 0., 0., 2.52707582e-02,
          1.62454881e-02, 1.80505414e-03, 7.22021656e-03, 0., 0.,
          2.16606501e-02, 1.80505414e-03, 1.62454881e-02, 9.74729210e-02,
          0., 0., 5.41516254e-03, 7.22021656e-03, 0., 5.41516254e-03,
          2.16606501e-02, 2.52707582e-02, 1.62454881e-02, 9.02527105e-03,
          1.80505414e-03, 5.41516254e-03, 5.77617325e-02, 1.08303251e-02,
          0., 0., 3.61010828e-03, 1.26353791e-02, 5.59566766e-02, 0.,
          1.80505414e-03, 1.44404331e-02, 1.62454881e-02, 3.61010828e-03,
          1.80505414e-03, 7.22021656e-03, 2.16606501e-02, 0.,
          2.34657042e-02, 3.61010828e-03, 0., 0., 1.26353791e-02,
          1.62454881e-02, 6.13718405e-02, 0., 0., 5.41516254e-03, 0., 0.,
          7.22021656e-03, 0., 5.41516254e-03, 1.26353791e-02,
          1.26353791e-02, 0., 3.61010828e-03, 1.08303251e-02, 0., 0.,
          3.61010828e-03, 1.44404331e-02, 9.02527105e-03, 1.80505421e-02,
          1.80505414e-03, 0., 2.34657042e-02, 0., 1.26353791e-02, 0.,
          3.61010842e-02, 1.98555961e-02, 1.26353791e-02, 0.,
          5.41516254e-03, 0., 1.62454881e-02, 9.02527105e-03,
          3.61010828e-03, 1.26353791e-02, 0., 0., 7.22021656e-03,
          3.61010828e-03, 0., 2.34657042e-02, 1.80505414e-03 ]
      - [ 0., 9.17431153e-03, 1.10091744e-02, 2.20183488e-02,
          9.17431153e-03, 1.28440373e-02, 1.10091744e-02, 1.83486240e-03,
          1.46788992e-02, 9.17431153e-03, 9.17431153e-03, 2.75229365e-02,
          4.03669737e-02, 1.46788992e-02, 0., 1.65137611e-02,
          4.03669737e-02, 1.10091744e-02, 3.11926603e-02, 1.83486240e-03,
          1.10091744e-02, 1.46788992e-02, 7.33944960e-03, 0.,
          2.75229365e-02, 3.66972480e-03, 1.10091744e-02, 0.,
          2.20183488e-02, 5.50458720e-03, 3.30275223e-02, 1.83486240e-03,
          5.50458720e-03, 3.66972480e-03, 0., 1.10091744e-02,
          3.66972480e-03, 3.66972480e-03, 5.50458720e-03, 1.46788992e-02,
          2.20183488e-02, 1.10091744e-02, 0., 0., 1.46788992e-02,
          7.33944960e-03, 1.28440373e-02, 5.50458720e-03, 1.46788992e-02,
          1.83486240e-03, 3.66972480e-03, 3.85321118e-02, 3.66972480e-03,
          1.83486240e-03, 0., 5.50458720e-03, 1.83486240e-03,
          1.83486240e-03, 2.75229365e-02, 2.38532107e-02, 5.50458720e-03,
          0., 7.33944960e-03, 5.50458720e-03, 0., 4.22018357e-02,
          1.83486231e-02, 7.33944960e-03, 0., 7.33944960e-03,
          2.20183488e-02, 0., 0., 2.20183488e-02, 1.83486240e-03,
          2.75229365e-02, 7.33944960e-03, 0., 1.83486240e-03,
          5.50458720e-03, 1.83486240e-03, 5.50458720e-03, 5.50458720e-03,
          1.10091744e-02, 1.83486240e-03, 1.65137611e-02, 2.56880745e-02,
          1.83486240e-03, 0., 5.50458720e-03, 0., 1.10091744e-02,
          5.50458720e-03, 3.30275223e-02, 5.50458720e-03, 1.83486240e-03,
          1.83486240e-03, 0., 5.50458720e-03, 1.83486240e-03 ]
      - [ 1.64744642e-03, 8.23723245e-03, 1.97693575e-02, 2.63591427e-02,
          2.47116964e-02, 1.64744649e-02, 1.64744642e-03, 9.88467876e-03,
          2.96540353e-02, 4.94233938e-03, 9.88467876e-03, 3.29489284e-03,
          1.33443162e-01, 1.64744649e-02, 0., 3.13014835e-02,
          2.96540353e-02, 0., 9.88467876e-03, 3.29489284e-03,
          9.88467876e-03, 1.64744649e-02, 9.88467876e-03, 1.31795714e-02,
          1.48270177e-02, 6.58978568e-03, 6.75453022e-02, 0.,
          2.63591427e-02, 4.94233938e-03, 1.48270177e-02, 3.29489284e-03,
          8.23723245e-03, 6.58978568e-03, 9.88467876e-03, 6.58978568e-03,
          1.15321251e-02, 0., 6.58978568e-03, 2.14168038e-02,
          1.64744649e-02, 3.29489284e-03, 1.64744642e-03, 0.,
          1.31795714e-02, 1.31795714e-02, 1.15321251e-02, 4.94233938e-03,
          1.48270177e-02, 4.94233938e-03, 1.64744642e-03, 6.58978568e-03,
          1.64744642e-03, 1.64744642e-03, 0., 1.15321251e-02,
          3.29489284e-03, 0., 6.58978568e-03, 2.47116964e-02,
          1.64744642e-03, 1.64744642e-03, 1.64744642e-03, 1.64744642e-03,
          0., 1.15321251e-02, 3.29489284e-03, 1.64744642e-03, 0.,
          6.58978568e-03, 1.97693575e-02, 1.64744642e-03, 0.,
          2.96540353e-02, 4.94233938e-03, 8.23723245e-03, 2.30642501e-02,
          6.58978568e-03, 0., 0., 1.64744642e-03, 3.29489284e-03,
          4.94233938e-03, 1.64744642e-03, 3.29489284e-03, 1.15321251e-02,
          8.23723245e-03, 0., 0., 0., 0., 6.58978568e-03, 4.94233938e-03,
          6.58978568e-03, 9.88467876e-03, 4.94233938e-03, 1.15321251e-02,
          0., 1.48270177e-02, 1.64744642e-03 ]
      - [ 2.75482098e-03, 1.10192839e-02, 1.10192839e-02, 3.85674946e-02,
          3.03030312e-02, 2.47933883e-02, 3.85674946e-02, 5.78512400e-02,
          2.75482098e-03, 2.75482098e-03, 1.92837473e-02, 0.,
          1.37741044e-02, 5.50964195e-03, 5.50964195e-03, 0.,
          2.75482088e-02, 2.75482098e-03, 1.37741044e-02, 8.26446339e-03,
          1.92837473e-02, 4.13223132e-02, 1.37741044e-02, 0.,
          2.75482098e-03, 1.10192839e-02, 2.75482098e-03, 0.,
          1.65289268e-02, 2.75482098e-03, 3.85674946e-02, 2.75482098e-03,
          2.75482098e-03, 8.26446339e-03, 0., 1.37741044e-02,
          8.26446339e-03, 1.37741044e-02, 8.26446339e-03, 5.50964195e-03,
          1.92837473e-02, 1.37741044e-02, 0., 0., 2.20385678e-02,
          1.10192839e-02, 8.26446339e-03, 1.10192839e-02, 1.10192839e-02,
          1.10192839e-02, 2.75482088e-02, 1.92837473e-02, 1.37741044e-02,
          3.85674946e-02, 0., 1.92837473e-02, 0., 5.50964195e-03, 0.,
          1.10192839e-02, 2.75482098e-03, 0., 1.65289268e-02, 0., 0., 0.,
          2.75482098e-03, 0., 5.50964195e-03, 1.10192839e-02,
          2.75482098e-03, 1.10192839e-02, 0., 0., 2.75482098e-03,
          2.75482088e-02, 1.65289268e-02, 0., 0., 2.75482098e-03,
          2.75482098e-03, 1.37741044e-02, 0., 1.37741044e-02,
          5.50964195e-03, 5.50964195e-03, 1.10192839e-02, 2.75482098e-03,
          0., 1.10192839e-02, 0., 1.10192839e-02, 2.75482098e-03,
          2.20385678e-02, 2.75482098e-03, 0., 1.37741044e-02, 0.,
          8.26446339e-03, 0. ]
      - [ 0., 3.35570471e-03, 2.18120813e-02, 4.02684584e-02,
          1.00671146e-02, 6.71140943e-03, 1.00671146e-02, 1.34228189e-02,
          2.51677856e-02, 6.71140943e-03, 5.03355730e-03, 8.38926155e-03,
          1.37583897e-01, 1.34228189e-02, 0., 2.85234898e-02,
          2.51677856e-02, 3.35570471e-03, 4.19463105e-02, 0.,
          1.51006710e-02, 2.34899335e-02, 5.03355730e-03, 0.,
          2.01342292e-02, 1.67785236e-03, 7.21476525e-02, 0.,
          1.17449667e-02, 0., 5.53691275e-02, 0., 0., 5.03355730e-03,
          1.34228189e-02, 5.03355730e-03, 6.71140943e-03, 3.35570471e-03,
          0., 1.00671146e-02, 5.03355730e-03, 3.35570471e-03, 0., 0.,
          1.84563752e-02, 1.67785236e-03, 5.03355730e-03, 5.03355730e-03,
          5.03355730e-03, 6.71140943e-03, 5.03355730e-03, 3.52348983e-02,
          3.35570471e-03, 2.18120813e-02, 0., 5.03355730e-03, 0.,
          3.35570471e-03, 3.35570471e-03, 1.51006710e-02, 3.35570471e-03,
          0., 3.35570471e-03, 0., 0., 2.18120813e-02, 8.38926155e-03,
          1.67785236e-03, 0., 1.67785231e-02, 6.71140943e-03, 0.,
          1.67785236e-03, 1.84563752e-02, 1.17449667e-02, 3.35570471e-03,
          5.03355730e-03, 0., 3.35570471e-03, 3.35570471e-03,
          3.35570471e-03, 1.67785236e-03, 1.67785236e-03, 5.03355730e-03,
          3.35570471e-03, 2.01342292e-02, 5.03355730e-03, 1.67785236e-03,
          0., 3.35570471e-03, 0., 0., 1.67785236e-03, 3.35570462e-02,
          1.67785236e-03, 1.67785236e-03, 1.00671146e-02, 0.,
          3.35570471e-03, 1.67785236e-03 ]
      - [ 9.78792831e-03, 1.79445352e-02, 3.26264277e-03, 1.63132139e-03,
          3.26264277e-03, 3.26264277e-03, 0., 0., 6.52528554e-03,
          4.89396416e-03, 1.30505711e-02, 0., 4.73083183e-02,
          4.07830328e-02, 2.93637849e-02, 1.14192497e-02, 0., 0.,
          3.26264277e-03, 1.95758566e-02, 3.26264277e-03, 1.63132139e-03,
          2.77324636e-02, 6.52528554e-03, 3.26264277e-03, 1.63132139e-02,
          5.87275699e-02, 0., 1.46818925e-02, 0., 4.89396416e-03,
          2.77324636e-02, 1.63132139e-03, 0., 4.89396416e-02,
          6.52528554e-03, 1.30505711e-02, 0., 0., 3.26264277e-03,
          2.77324636e-02, 6.52528554e-03, 0., 3.26264277e-03, 0.,
          1.46818925e-02, 9.78792831e-03, 0., 1.79445352e-02,
          3.26264277e-02, 0., 1.63132139e-02, 4.89396416e-03, 0., 0.,
          1.79445352e-02, 2.12071780e-02, 3.42577472e-02, 0., 0.,
          4.89396416e-03, 1.63132139e-03, 1.63132139e-03, 1.46818925e-02,
          0., 0., 1.14192497e-02, 1.30505711e-02, 0., 1.63132139e-02,
          1.14192497e-02, 0., 1.63132139e-03, 0., 3.09951063e-02,
          3.26264277e-03, 1.30505711e-02, 1.63132139e-02, 0.,
          3.26264277e-02, 0., 1.79445352e-02, 0., 1.30505711e-02,
          1.63132139e-03, 0., 0., 1.79445352e-02, 4.89396416e-03,
          2.12071780e-02, 1.63132139e-02, 0., 1.79445352e-02, 0., 0.,
          1.46818925e-02, 9.78792831e-03, 1.63132139e-03, 2.12071780e-02,
          8.15660693e-03 ]
      - [ 0., 4.70588217e-03, 2.11764704e-02, 3.99999991e-02,
          1.88235287e-02, 1.17647052e-02, 4.70588217e-03, 9.41176433e-03,
          1.41176470e-02, 2.35294108e-03, 9.41176433e-03, 4.70588217e-03,
          1.31764695e-01, 1.41176470e-02, 0., 3.05882338e-02,
          2.35294104e-02, 2.35294108e-03, 1.41176470e-02, 4.70588217e-03,
          9.41176433e-03, 3.05882338e-02, 1.88235287e-02, 0.,
          9.41176433e-03, 2.35294108e-03, 4.23529409e-02, 0.,
          1.17647052e-02, 2.35294108e-03, 3.29411738e-02, 0., 0.,
          9.41176433e-03, 2.35294108e-03, 2.11764704e-02, 1.88235287e-02,
          0., 2.35294108e-03, 2.35294108e-03, 1.64705869e-02,
          9.41176433e-03, 0., 0., 1.17647052e-02, 7.05882348e-03,
          7.05882348e-03, 1.17647052e-02, 1.88235287e-02, 4.70588217e-03,
          0., 2.11764704e-02, 1.88235287e-02, 2.11764704e-02, 0.,
          1.17647052e-02, 0., 2.35294108e-03, 4.70588217e-03,
          9.41176433e-03, 4.70588217e-03, 0., 4.70588217e-03, 0., 0.,
          1.88235287e-02, 2.35294108e-03, 0., 0., 4.70588217e-03,
          2.35294108e-03, 0., 0., 1.17647052e-02, 2.11764704e-02,
          1.88235287e-02, 3.05882338e-02, 0., 2.35294108e-03,
          2.35294108e-03, 0., 0., 9.41176433e-03, 2.35294108e-03,
          2.35294108e-03, 9.41176433e-03, 2.82352939e-02, 0., 0.,
          2.35294108e-03, 0., 9.41176433e-03, 2.35294108e-03,
          1.17647052e-02, 7.05882348e-03, 2.35294108e-03, 4.70588217e-03,
          0., 2.82352939e-02, 0. ]
      - [ 7.09219836e-03, 3.54609918e-03, 3.01418435e-02, 2.30496451e-02,
          8.86524841e-03, 7.09219836e-03, 0., 1.77304959e-03,
          1.77304968e-02, 3.01418435e-02, 1.24113467e-02, 5.31914877e-03,
          1.50709212e-01, 1.41843967e-02, 3.54609918e-03, 2.12765951e-02,
          1.41843967e-02, 3.54609918e-03, 1.77304959e-03, 1.06382975e-02,
          5.31914877e-03, 1.24113467e-02, 2.48226933e-02, 3.54609918e-03,
          3.54609918e-03, 1.59574468e-02, 8.33333284e-02, 0.,
          1.24113467e-02, 3.54609918e-03, 1.06382975e-02, 1.41843967e-02,
          1.24113467e-02, 3.54609918e-03, 1.06382975e-02, 1.06382975e-02,
          3.54609918e-03, 0., 3.54609918e-03, 3.54609918e-03,
          1.24113467e-02, 1.24113467e-02, 0., 1.77304959e-03,
          5.31914877e-03, 3.54609918e-03, 1.06382975e-02, 1.95035450e-02,
          1.59574468e-02, 8.86524841e-03, 0., 1.41843967e-02,
          8.86524841e-03, 1.77304959e-03, 0., 1.95035450e-02,
          7.09219836e-03, 1.77304959e-03, 0., 1.77304959e-03,
          5.31914877e-03, 0., 1.77304959e-03, 3.54609918e-03, 0.,
          7.09219836e-03, 3.54609936e-02, 3.54609918e-03, 0.,
          5.31914877e-03, 7.09219836e-03, 0., 1.77304959e-03, 0.,
          1.59574468e-02, 1.41843967e-02, 1.24113467e-02, 5.31914877e-03,
          1.77304959e-03, 1.06382975e-02, 1.77304959e-03, 1.77304959e-03,
          5.31914877e-03, 1.59574468e-02, 3.54609918e-03, 5.31914877e-03,
          1.41843967e-02, 3.54609918e-03, 3.54609918e-03, 1.77304959e-03,
          5.31914877e-03, 1.77304959e-03, 7.09219836e-03, 1.41843967e-02,
          8.86524841e-03, 7.09219836e-03, 1.24113467e-02, 0.,
          3.54609918e-03, 1.77304959e-03 ]
   decision_functions:
      -
         sv_count: 1
         rho: -2.0586062222719970e-03
         alpha: [ 1. ]
         index: [ 0 ]
