%YAML:1.0
---
opencv_ml_svm:
   format: 3
   svmType: C_SVC
   kernel:
      type: POLY
      degree: 2.
      gamma: 1.
      coef0: 0.
   C: 5.0000000000000000e-01
   term_criteria: { epsilon:1.1920928955078125e-07, iterations:1000 }
   var_count: 150
   class_count: 2
   class_labels: !!opencv-matrix
      rows: 2
      cols: 1
      dt: i
      data: [ 0, 1 ]
   sv_total: 30
   support_vectors:
      - [ 9.80392192e-03, 0., 1.96078438e-02, 0., 9.80392192e-03,
          9.80392192e-03, 0., 9.80392192e-03, 0., 0., 9.80392192e-03, 0.,
          0., 0., 0., 0., 0., 1.96078438e-02, 0., 0., 0., 0.,
          9.80392192e-03, 9.80392192e-03, 0., 0., 0., 9.80392192e-03,
          1.96078438e-02, 9.80392192e-03, 0., 1.96078438e-02,
          9.80392192e-03, 0., 0., 9.80392192e-03, 0., 1.96078438e-02, 0.,
          0., 0., 9.80392192e-03, 9.80392192e-03, 0., 9.80392192e-03, 0.,
          0., 0., 0., 0., 0., 0., 0., 0., 1.96078438e-02, 9.80392192e-03,
          4.90196086e-02, 0., 0., 1.96078438e-02, 0., 0., 0.,
          1.96078438e-02, 0., 0., 1.96078438e-02, 0., 0., 1.96078438e-02,
          0., 9.80392192e-03, 9.80392192e-03, 0., 0., 0., 0.,
          9.80392192e-03, 0., 2.94117667e-02, 9.80392192e-03,
          1.96078438e-02, 0., 0., 2.94117667e-02, 0., 1.96078438e-02,
          1.96078438e-02, 9.80392192e-03, 0., 0., 1.96078438e-02, 0.,
          9.80392192e-03, 0., 0., 0., 5.88235334e-02, 0., 0.,
          1.96078438e-02, 0., 9.80392192e-03, 0., 0., 9.80392192e-03, 0.,
          0., 0., 9.80392192e-03, 0., 9.80392192e-03, 0., 0., 0.,
          1.96078438e-02, 0., 0., 1.96078438e-02, 0., 9.80392192e-03,
          9.80392192e-03, 0., 9.80392192e-03, 0., 0., 5.88235334e-02, 0.,
          0., 0., 0., 0., 1.96078438e-02, 0., 0., 0., 9.80392192e-03, 0.,
          1.96078438e-02, 0., 9.80392192e-03, 0., 2.94117667e-02, 0.,
          9.80392192e-03, 0., 2.94117667e-02, 1.96078438e-02,
          1.96078438e-02, 0. ]
      - [ 0., 1.83486231e-02, 0., 0., 0., 0., 0., 0., 0., 0.,
          9.17431153e-03, 0., 0., 9.17431153e-03, 9.17431153e-03, 0.,
          9.17431153e-03, 1.83486231e-02, 0., 1.83486231e-02, 0.,
          8.25688019e-02, 0., 0., 0., 9.17431153e-03, 9.17431153e-03,
          1.83486231e-02, 0., 0., 9.17431153e-03, 0., 0., 0., 0., 0.,
          9.17431153e-03, 0., 9.17431153e-03, 0., 0., 9.17431153e-03,
          3.66972461e-02, 2.75229346e-02, 0., 0., 9.17431153e-03,
          9.17431153e-03, 3.66972461e-02, 0., 1.83486231e-02,
          9.17431153e-03, 0., 0., 0., 9.17431153e-03, 5.50458692e-02,
          9.17431153e-03, 9.17431153e-03, 0., 0., 2.75229346e-02,
          9.17431153e-03, 0., 0., 0., 0., 9.17431153e-03, 0., 0., 0.,
          9.17431153e-03, 9.17431153e-03, 0., 9.17431153e-03,
          9.17431153e-03, 9.17431153e-03, 2.75229346e-02, 1.83486231e-02,
          0., 0., 0., 0., 0., 0., 0., 0., 0., 0., 1.83486231e-02,
          1.83486231e-02, 9.17431153e-03, 3.66972461e-02, 9.17431153e-03,
          0., 1.83486231e-02, 0., 0., 0., 9.17431153e-03, 9.17431153e-03,
          1.83486231e-02, 0., 9.17431153e-03, 1.83486231e-02, 0., 0., 0.,
          2.75229346e-02, 0., 0., 2.75229346e-02, 1.83486231e-02,
          9.17431153e-03, 9.17431153e-03, 0., 0., 0., 0., 9.17431153e-03,
          1.83486231e-02, 0., 0., 9.17431153e-03, 9.17431153e-03, 0.,
          9.17431153e-03, 0., 9.17431153e-03, 0., 0., 0., 0., 0., 0., 0.,
          0., 9.17431153e-03, 9.17431153e-03, 0., 9.17431153e-03, 0., 0.,
          0., 1.83486231e-02, 0., 0., 0., 9.17431153e-03, 0. ]
      - [ 0., 0., 0., 0., 0., 1.63934417e-02, 0., 0., 1.63934417e-02, 0.,
          1.63934417e-02, 0., 3.27868834e-02, 3.27868834e-02,
          1.63934417e-02, 0., 0., 0., 0., 0., 0., 0., 0., 0., 0., 0., 0.,
          1.63934417e-02, 0., 0., 0., 0., 0., 0., 0., 1.63934417e-02,
          3.27868834e-02, 1.63934417e-02, 0., 0., 0., 0., 1.63934417e-02,
          0., 1.63934417e-02, 0., 1.63934417e-02, 0., 0., 0.,
          3.27868834e-02, 0., 0., 0., 3.27868834e-02, 1.63934417e-02,
          6.55737668e-02, 0., 0., 0., 0., 0., 0., 1.63934417e-02, 0.,
          1.63934417e-02, 0., 1.63934417e-02, 0., 0., 0., 0.,
          1.63934417e-02, 1.63934417e-02, 0., 0., 1.63934417e-02,
          4.91803251e-02, 0., 0., 0., 0., 0., 1.63934417e-02,
          1.63934417e-02, 1.63934417e-02, 0., 4.91803251e-02,
          3.27868834e-02, 0., 0., 0., 0., 0., 0., 0., 0., 8.19672048e-02,
          0., 0., 0., 0., 0., 0., 0., 0., 0., 0., 0., 1.63934417e-02, 0.,
          3.27868834e-02, 0., 0., 0., 1.63934417e-02, 0., 0., 0., 0., 0.,
          0., 0., 0., 0., 0., 0., 0., 0., 0., 1.63934417e-02,
          1.63934417e-02, 0., 0., 1.63934417e-02, 0., 0., 3.27868834e-02,
          0., 1.63934417e-02, 0., 0., 0., 0., 3.27868834e-02, 0.,
          3.27868834e-02, 0., 0., 0. ]
      - [ 0., 0., 0., 0., 0., 0., 0., 0., 2.83018872e-02, 0., 0.,
          9.43396240e-03, 5.66037744e-02, 0., 0., 0., 9.43396240e-03,
          9.43396240e-03, 0., 9.43396240e-03, 0., 0., 0., 9.43396240e-03,
          2.83018872e-02, 0., 0., 0., 0., 0., 9.43396240e-03, 0.,
          9.43396240e-03, 0., 0., 9.43396240e-03, 2.83018872e-02, 0., 0.,
          9.43396240e-03, 0., 0., 9.43396240e-03, 9.43396240e-03, 0., 0.,
          2.83018872e-02, 0., 0., 1.88679248e-02, 0., 0., 9.43396240e-03,
          9.43396240e-03, 9.43396240e-03, 3.77358496e-02, 2.83018872e-02,
          1.88679248e-02, 0., 2.83018872e-02, 0., 1.88679248e-02,
          9.43396240e-03, 9.43396240e-03, 0., 9.43396240e-03,
          9.43396240e-03, 9.43396240e-03, 0., 0., 0., 9.43396240e-03, 0.,
          0., 0., 0., 0., 2.83018872e-02, 9.43396240e-03, 0.,
          1.88679248e-02, 9.43396240e-03, 0., 0., 9.43396240e-03, 0.,
          9.43396240e-03, 9.43396240e-03, 1.88679248e-02, 9.43396240e-03,
          0., 0., 2.83018872e-02, 9.43396240e-03, 0., 9.43396240e-03,
          1.88679248e-02, 0., 0., 9.43396240e-03, 9.43396240e-03,
          9.43396240e-03, 0., 3.77358496e-02, 0., 1.88679248e-02, 0.,
          1.88679248e-02, 0., 9.43396240e-03, 9.43396240e-03,
          1.88679248e-02, 0., 0., 0., 0., 0., 0., 0., 9.43396240e-03, 0.,
          0., 1.88679248e-02, 0., 1.88679248e-02, 0., 0., 0., 0.,
          9.43396240e-03, 0., 0., 0., 9.43396240e-03, 9.43396240e-03,
          9.43396240e-03, 0., 0., 0., 9.43396240e-03, 0., 9.43396240e-03,
          9.43396240e-03, 9.43396240e-03, 0., 9.43396240e-03, 0., 0.,
          1.88679248e-02, 9.43396240e-03 ]
      - [ 0., 5.74712642e-03, 0., 1.14942528e-02, 0., 5.74712642e-03, 0.,
          0., 5.74712642e-03, 0., 5.74712642e-03, 0., 0., 1.14942528e-02,
          0., 1.14942528e-02, 5.74712642e-03, 5.74712642e-03,
          1.14942528e-02, 1.72413792e-02, 0., 5.74712642e-02,
          5.74712642e-03, 0., 0., 5.74712642e-03, 6.89655170e-02,
          5.74712642e-03, 0., 1.72413792e-02, 0., 0., 0., 0.,
          5.74712642e-03, 0., 0., 0., 0., 0., 5.74712642e-03,
          5.74712642e-03, 0., 0., 5.74712642e-03, 0., 5.74712642e-03, 0.,
          1.72413792e-02, 0., 1.72413792e-02, 0., 1.14942528e-02, 0., 0.,
          0., 2.29885057e-02, 0., 5.74712642e-03, 5.74712642e-03,
          5.74712642e-03, 1.72413792e-02, 5.74712642e-03, 0.,
          5.74712642e-03, 0., 1.14942528e-02, 0., 0., 5.74712642e-03, 0.,
          0., 5.74712642e-02, 0., 5.74712642e-03, 5.74712642e-03, 0.,
          1.14942528e-02, 5.74712642e-03, 0., 0., 0., 1.14942528e-02, 0.,
          5.74712642e-03, 0., 1.14942528e-02, 5.74712642e-03, 0., 0.,
          1.14942528e-02, 0., 4.59770113e-02, 1.14942528e-02, 0., 0., 0.,
          1.14942528e-02, 5.74712642e-03, 1.14942528e-02, 0.,
          5.74712642e-03, 5.74712642e-03, 5.74712642e-03, 5.74712642e-03,
          5.74712642e-03, 0., 5.74712642e-03, 2.29885057e-02,
          5.74712642e-03, 0., 1.14942528e-02, 0., 6.32183924e-02, 0.,
          2.29885057e-02, 5.74712642e-03, 4.02298868e-02, 0.,
          5.74712642e-03, 0., 5.74712642e-03, 5.74712642e-03, 0.,
          5.74712642e-03, 0., 1.14942528e-02, 5.74712642e-03, 0., 0., 0.,
          0., 0., 0., 0., 5.74712642e-03, 1.14942528e-02, 5.74712642e-03,
          0., 1.14942528e-02, 5.74712642e-03, 0., 0., 0., 4.59770113e-02,
          0., 0., 5.74712642e-03, 0., 2.29885057e-02 ]
      - [ 8.06451589e-03, 0., 0., 4.03225794e-03, 0., 0., 4.03225794e-03,
          0., 4.03225794e-03, 4.03225794e-03, 1.61290318e-02, 0.,
          1.61290318e-02, 1.20967738e-02, 0., 4.03225794e-03,
          8.06451589e-03, 4.03225794e-03, 1.61290318e-02, 1.61290318e-02,
          4.03225794e-03, 2.82258056e-02, 0., 8.06451589e-03,
          4.03225794e-03, 1.20967738e-02, 0., 4.03225794e-03,
          8.06451589e-03, 8.06451589e-03, 4.03225794e-03, 8.06451589e-03,
          0., 0., 0., 8.06451589e-03, 0., 0., 4.03225794e-03,
          4.03225794e-03, 1.61290318e-02, 8.06451589e-03, 1.20967738e-02,
          8.06451589e-03, 0., 0., 0., 0., 1.61290318e-02, 0.,
          1.61290318e-02, 0., 0., 0., 0., 0., 1.20967738e-02,
          1.61290318e-02, 4.03225794e-03, 8.06451589e-03, 4.03225794e-03,
          3.22580636e-02, 8.06451589e-03, 4.03225794e-03, 1.20967738e-02,
          0., 1.20967738e-02, 4.03225794e-03, 0., 4.03225794e-03, 0.,
          8.06451589e-03, 1.20967738e-02, 4.03225794e-03, 8.06451589e-03,
          2.41935477e-02, 4.03225794e-03, 2.41935477e-02, 0.,
          8.06451589e-03, 4.03225794e-03, 0., 0., 1.61290318e-02, 0., 0.,
          8.06451589e-03, 4.03225794e-03, 0., 0., 4.03225794e-03,
          8.06451589e-03, 2.41935477e-02, 8.06451589e-03, 4.03225794e-03,
          1.61290318e-02, 1.20967738e-02, 4.03225794e-03, 4.03225794e-03,
          8.06451589e-03, 8.06451589e-03, 2.41935477e-02, 0., 0.,
          4.03225794e-03, 1.61290318e-02, 8.06451589e-03, 2.41935477e-02,
          0., 4.03225794e-03, 4.03225794e-03, 8.06451589e-03,
          1.20967738e-02, 1.20967738e-02, 0., 1.61290318e-02,
          1.20967738e-02, 2.01612897e-02, 4.03225794e-03, 4.03225794e-03,
          4.03225794e-03, 1.20967738e-02, 8.06451589e-03, 4.03225794e-03,
          0., 0., 1.20967738e-02, 1.20967738e-02, 0., 0., 4.03225794e-03,
          4.03225794e-03, 1.20967738e-02, 4.03225794e-03, 8.06451589e-03,
          8.06451589e-03, 0., 0., 4.03225794e-03, 4.03225794e-03, 0.,
          8.06451589e-03, 8.06451589e-03, 8.06451589e-03, 3.62903215e-02,
          0., 8.06451589e-03, 4.03225794e-03, 4.03225794e-03,
          4.03225794e-03 ]
      - [ 0., 0., 2.59740259e-02, 0., 2.59740259e-02, 2.59740259e-02, 0.,
          0., 0., 0., 0., 0., 0., 0., 0., 0., 1.29870130e-02,
          1.29870130e-02, 0., 2.59740259e-02, 0., 0., 0., 0.,
          1.29870130e-02, 0., 6.49350658e-02, 0., 1.29870130e-02, 0., 0.,
          0., 0., 0., 1.29870130e-02, 0., 0., 1.29870130e-02, 0., 0., 0.,
          1.29870130e-02, 3.89610380e-02, 1.29870130e-02, 0., 0.,
          1.29870130e-02, 0., 0., 0., 0., 0., 0., 0., 1.29870130e-02,
          1.29870130e-02, 3.89610380e-02, 1.29870130e-02, 0.,
          1.29870130e-02, 0., 0., 0., 0., 0., 0., 1.29870130e-02,
          1.29870130e-02, 0., 1.29870130e-02, 1.29870130e-02,
          1.29870130e-02, 0., 0., 0., 0., 0., 0., 3.89610380e-02,
          1.29870130e-02, 0., 0., 1.29870130e-02, 0., 0., 0., 0.,
          2.59740259e-02, 1.29870130e-02, 0., 0., 1.29870130e-02,
          2.59740259e-02, 2.59740259e-02, 0., 0., 0., 0., 2.59740259e-02,
          0., 0., 0., 0., 1.29870130e-02, 3.89610380e-02, 0., 0., 0., 0.,
          2.59740259e-02, 0., 3.89610380e-02, 1.29870130e-02,
          1.29870130e-02, 0., 0., 0., 0., 2.59740259e-02, 2.59740259e-02,
          0., 0., 2.59740259e-02, 0., 1.29870130e-02, 0., 0., 0., 0., 0.,
          1.29870130e-02, 0., 0., 2.59740259e-02, 0., 0., 0., 0., 0., 0.,
          0., 0., 2.59740259e-02, 0., 0., 1.29870130e-02, 0., 0., 0.,
          1.29870130e-02 ]
      - [ 0., 4.96453866e-02, 0., 0., 7.09219836e-03, 0., 7.09219836e-03,
          0., 0., 1.41843967e-02, 7.09219836e-03, 0., 1.41843967e-02, 0.,
          7.09219836e-03, 7.09219836e-03, 2.12765951e-02, 0., 0., 0.,
          7.09219836e-03, 4.25531901e-02, 0., 0., 0., 0., 0., 0., 0., 0.,
          7.09219836e-03, 0., 7.09219836e-03, 0., 1.41843967e-02, 0., 0.,
          7.09219836e-03, 0., 0., 0., 0., 7.09219836e-03, 0.,
          1.41843967e-02, 0., 0., 7.09219836e-03, 0., 0., 2.12765951e-02,
          0., 0., 0., 0., 7.09219836e-03, 2.83687934e-02, 0., 0., 0., 0.,
          1.41843967e-02, 0., 7.09219836e-03, 7.09219836e-03,
          7.09219836e-03, 0., 0., 0., 0., 0., 0., 1.41843967e-02, 0.,
          1.41843967e-02, 0., 7.09219836e-03, 1.41843967e-02,
          7.09219836e-03, 7.09219836e-03, 0., 0., 0., 0., 1.41843967e-02,
          7.09219836e-03, 0., 0., 7.09219836e-03, 0., 2.83687934e-02, 0.,
          0., 0., 0., 2.12765951e-02, 0., 1.41843967e-02, 7.09219836e-03,
          7.09219836e-03, 1.41843967e-02, 7.09219836e-03, 0.,
          3.54609936e-02, 0., 7.09219836e-03, 0., 7.09219836e-03,
          2.12765951e-02, 0., 7.09219836e-03, 5.67375869e-02,
          7.09219836e-03, 6.38297871e-02, 0., 1.41843967e-02,
          7.09219836e-03, 0., 7.09219836e-03, 0., 0., 0., 0., 0.,
          7.09219836e-03, 0., 3.54609936e-02, 0., 0., 0., 0., 0.,
          7.09219836e-03, 0., 0., 7.09219836e-03, 1.41843967e-02, 0.,
          7.09219836e-03, 1.41843967e-02, 0., 0., 0., 0., 1.34751767e-01,
          0., 7.09219836e-03, 0., 0., 0. ]
      - [ 0., 1.10701108e-02, 3.69003695e-03, 0., 3.69003695e-03,
          3.69003695e-03, 3.69003695e-03, 3.69003695e-03, 7.38007389e-03,
          0., 3.69003695e-03, 7.38007389e-03, 3.69003695e-03,
          7.38007389e-03, 0., 3.69003695e-03, 7.38007389e-03,
          3.69003695e-03, 0., 1.47601478e-02, 0., 1.47601478e-02,
          7.38007389e-03, 1.10701108e-02, 0., 0., 0., 3.69003695e-03,
          3.69003695e-03, 0., 0., 0., 3.69003695e-03, 0., 0.,
          3.69003695e-03, 1.10701108e-02, 1.84501857e-02, 0., 0.,
          3.69003695e-03, 1.84501857e-02, 3.69003695e-03, 7.38007389e-03,
          3.69003695e-03, 0., 0., 0., 3.32103334e-02, 3.69003695e-03, 0.,
          0., 3.69003695e-03, 0., 0., 1.47601478e-02, 2.58302577e-02,
          7.38007389e-03, 7.38007389e-03, 0., 0., 1.10701108e-02, 0.,
          3.69003695e-03, 7.38007389e-03, 7.38007389e-03, 0.,
          7.38007389e-03, 3.69003695e-03, 3.69003695e-03, 0.,
          3.69003695e-03, 1.84501857e-02, 7.38007389e-03, 0., 0., 0.,
          1.84501857e-02, 0., 2.58302577e-02, 7.38007389e-03,
          1.10701108e-02, 0., 0., 1.84501857e-02, 0., 0., 0.,
          1.10701108e-02, 3.69003695e-03, 3.69003695e-03, 3.69003695e-03,
          3.69003695e-03, 0., 0., 7.38007389e-03, 2.95202956e-02,
          7.38007389e-03, 3.69003695e-03, 1.47601478e-02, 3.69003695e-03,
          0., 1.10701108e-02, 7.38007389e-03, 7.38007389e-03,
          1.84501857e-02, 3.69003695e-03, 1.10701108e-02, 1.10701108e-02,
          3.69003695e-03, 3.69003695e-03, 1.47601478e-02, 7.38007389e-03,
          2.21402217e-02, 0., 5.53505532e-02, 1.10701108e-02,
          7.38007389e-03, 7.38007389e-03, 3.69003695e-03, 7.38007389e-03,
          0., 3.69003695e-03, 3.69003695e-03, 0., 7.38007389e-03,
          2.21402217e-02, 3.69003695e-03, 0., 0., 0., 1.40221402e-01, 0.,
          7.38007389e-03, 0., 3.69003695e-03, 7.38007389e-03, 0., 0., 0.,
          0., 3.69003695e-03, 0., 3.69003695e-03, 3.69003695e-03,
          1.47601478e-02, 3.69003695e-03, 3.69003695e-03, 7.38007389e-03,
          0. ]
      - [ 0., 1.33928582e-02, 4.46428591e-03, 8.92857183e-03, 0., 0., 0.,
          1.33928582e-02, 4.46428591e-03, 4.46428591e-03, 1.33928582e-02,
          8.92857183e-03, 8.92857183e-03, 4.46428591e-03, 0.,
          1.78571437e-02, 0., 1.33928582e-02, 4.46428591e-03,
          8.92857183e-03, 0., 0., 0., 8.92857183e-03, 4.46428591e-03,
          4.46428591e-03, 0., 1.33928582e-02, 8.92857183e-03, 0.,
          4.46428591e-03, 4.46428591e-03, 4.46428591e-03, 0.,
          1.78571437e-02, 0., 0., 0., 0., 4.46428591e-03, 0.,
          8.92857183e-03, 8.92857183e-03, 4.46428591e-03, 1.33928582e-02,
          0., 0., 0., 4.01785746e-02, 8.92857183e-03, 1.33928582e-02,
          4.46428591e-03, 4.46428591e-03, 8.92857183e-03, 8.92857183e-03,
          4.46428591e-03, 2.67857164e-02, 4.46428591e-03, 8.92857183e-03,
          0., 0., 4.46428591e-03, 4.46428591e-03, 4.46428591e-03, 0.,
          4.46428591e-03, 4.46428591e-03, 0., 0., 1.33928582e-02, 0., 0.,
          3.57142873e-02, 0., 4.46428591e-03, 8.92857183e-03, 0.,
          4.46428582e-02, 0., 6.25000000e-02, 1.78571437e-02, 0.,
          4.46428591e-03, 0., 1.33928582e-02, 0., 4.46428591e-03, 0., 0.,
          4.46428591e-03, 0., 0., 8.92857183e-03, 0., 8.92857183e-03,
          4.46428591e-03, 1.33928582e-02, 2.23214291e-02, 0.,
          4.46428591e-03, 0., 0., 2.23214291e-02, 2.23214291e-02, 0.,
          8.92857183e-03, 0., 4.46428591e-03, 8.92857183e-03,
          1.33928582e-02, 4.46428591e-03, 4.46428591e-03, 0.,
          2.23214291e-02, 4.46428591e-03, 1.78571437e-02, 0.,
          2.23214291e-02, 1.78571437e-02, 0., 1.33928582e-02, 0., 0., 0.,
          4.46428591e-03, 0., 2.23214291e-02, 8.92857183e-03,
          8.92857183e-03, 4.46428591e-03, 0., 4.46428591e-03, 0.,
          8.92857183e-03, 0., 0., 4.46428591e-03, 1.33928582e-02, 0.,
          8.92857183e-03, 4.46428591e-03, 0., 4.46428591e-03,
          4.46428591e-03, 8.92857183e-03, 4.46428591e-03, 8.92857183e-03,
          4.46428591e-03, 4.46428591e-03, 4.46428591e-03 ]
      - [ 0., 0., 0., 0., 0., 1.44927539e-02, 0., 0., 0., 0., 0., 0.,
          1.44927539e-02, 0., 1.44927539e-02, 0., 0., 0., 0., 0., 0., 0.,
          0., 1.44927539e-02, 1.44927539e-02, 0., 0., 0., 0., 0.,
          1.44927539e-02, 0., 1.44927539e-02, 0., 0., 1.44927539e-02,
          2.89855078e-02, 7.24637657e-02, 0., 0., 1.44927539e-02, 0.,
          1.44927539e-02, 0., 0., 0., 0., 1.44927539e-02, 0.,
          1.44927539e-02, 2.89855078e-02, 0., 0., 1.44927539e-02, 0.,
          4.34782617e-02, 8.69565234e-02, 0., 2.89855078e-02,
          1.44927539e-02, 0., 4.34782617e-02, 0., 2.89855078e-02, 0., 0.,
          0., 0., 0., 0., 0., 0., 1.44927539e-02, 0., 0., 0., 0.,
          1.44927539e-02, 0., 0., 0., 1.44927539e-02, 0., 1.44927539e-02,
          2.89855078e-02, 1.44927539e-02, 0., 1.44927539e-02,
          2.89855078e-02, 0., 1.44927539e-02, 1.44927539e-02,
          1.44927539e-02, 0., 0., 0., 1.44927539e-02, 0., 0., 0.,
          1.44927539e-02, 0., 0., 0., 0., 0., 0., 0., 0., 0.,
          4.34782617e-02, 1.44927539e-02, 0., 1.44927539e-02, 0., 0., 0.,
          0., 0., 0., 0., 0., 1.44927539e-02, 0., 0., 0., 1.44927539e-02,
          0., 1.44927539e-02, 1.44927539e-02, 0., 0., 0., 1.44927539e-02,
          0., 0., 0., 0., 0., 0., 1.44927539e-02, 0., 0., 0.,
          1.44927539e-02, 1.44927539e-02, 0., 0., 2.89855078e-02, 0. ]
      - [ 4.56620986e-03, 0., 0., 9.13241971e-03, 0., 4.56620986e-03,
          9.13241971e-03, 0., 0., 4.56620986e-03, 9.13241971e-03, 0., 0.,
          4.56620986e-03, 4.56620986e-03, 4.56620986e-03, 1.82648394e-02,
          4.56620986e-03, 9.13241971e-03, 9.13241971e-03, 4.56620986e-03,
          3.65296789e-02, 0., 0., 0., 0., 0., 1.36986300e-02,
          2.28310488e-02, 9.13241971e-03, 4.56620986e-03, 0.,
          4.56620986e-03, 0., 4.56620986e-03, 4.56620986e-03, 0., 0.,
          4.56620986e-03, 0., 4.56620986e-03, 9.13241971e-03,
          9.13241971e-03, 0., 1.82648394e-02, 0., 0., 1.82648394e-02,
          1.82648394e-02, 0., 1.82648394e-02, 0., 4.56620986e-03, 0.,
          4.56620986e-03, 4.56620986e-03, 1.82648394e-02, 1.36986300e-02,
          4.56620986e-03, 0., 9.13241971e-03, 1.36986300e-02,
          1.36986300e-02, 4.56620986e-03, 1.36986300e-02, 9.13241971e-03,
          0., 4.56620986e-03, 0., 9.13241971e-03, 0., 4.56620986e-03,
          6.84931502e-02, 0., 1.36986300e-02, 9.13241971e-03,
          9.13241971e-03, 1.82648394e-02, 1.82648394e-02, 9.13241971e-03,
          0., 0., 4.56620986e-03, 9.13241971e-03, 4.56620986e-03, 0.,
          9.13241971e-03, 4.56620986e-03, 0., 4.56620986e-03,
          4.56620986e-03, 9.13241971e-03, 1.36986300e-02, 1.36986300e-02,
          0., 3.65296789e-02, 9.13241971e-03, 0., 0., 0., 4.56620986e-03,
          1.36986300e-02, 4.56620986e-03, 0., 0., 0., 1.82648394e-02,
          9.13241971e-03, 0., 0., 4.56620986e-03, 9.13241971e-03,
          2.28310488e-02, 0., 2.28310488e-02, 2.73972601e-02,
          9.13241971e-03, 2.28310488e-02, 0., 4.56620986e-03,
          4.56620986e-03, 9.13241971e-03, 1.36986300e-02, 0.,
          4.56620986e-03, 4.56620986e-03, 9.13241971e-03, 4.56620986e-03,
          0., 4.56620986e-03, 0., 4.56620986e-03, 0., 1.36986300e-02, 0.,
          0., 9.13241971e-03, 0., 4.56620986e-03, 0., 0., 0.,
          4.56620986e-03, 4.56620986e-03, 0., 9.13241971e-03,
          4.56620986e-03, 0., 4.56620986e-03, 9.13241971e-03 ]
      - [ 0., 0., 0., 0., 0., 0., 0., 2.66666673e-02, 1.33333337e-02,
          1.33333337e-02, 1.33333337e-02, 0., 0., 0., 0., 0., 0.,
          1.33333337e-02, 0., 0., 0., 0., 0., 0., 0., 0., 0., 0.,
          1.33333337e-02, 0., 0., 0., 1.33333337e-02, 0., 0.,
          1.33333337e-02, 0., 0., 0., 0., 1.33333337e-02, 0.,
          3.99999991e-02, 0., 0., 0., 0., 1.33333337e-02, 0., 0., 0.,
          2.66666673e-02, 0., 1.33333337e-02, 2.66666673e-02, 0.,
          2.66666673e-02, 1.33333337e-02, 0., 2.66666673e-02, 0.,
          1.33333337e-02, 0., 0., 0., 1.33333337e-02, 5.33333346e-02, 0.,
          0., 0., 0., 2.66666673e-02, 0., 0., 1.33333337e-02,
          1.33333337e-02, 0., 1.33333337e-02, 0., 0., 0., 1.33333337e-02,
          1.33333337e-02, 0., 0., 1.33333337e-02, 1.33333337e-02, 0.,
          1.33333337e-02, 0., 1.33333337e-02, 0., 0., 1.33333337e-02, 0.,
          1.33333337e-02, 0., 0., 0., 0., 3.99999991e-02, 0., 0.,
          1.33333337e-02, 0., 0., 1.33333337e-02, 0., 0., 2.66666673e-02,
          5.33333346e-02, 3.99999991e-02, 0., 0., 0., 0., 0., 0., 0.,
          3.99999991e-02, 0., 0., 2.66666673e-02, 0., 2.66666673e-02, 0.,
          1.33333337e-02, 0., 1.33333337e-02, 0., 1.33333337e-02, 0., 0.,
          1.33333337e-02, 0., 0., 0., 0., 0., 0., 0., 1.33333337e-02,
          1.33333337e-02, 0., 0., 2.66666673e-02, 1.33333337e-02, 0.,
          1.33333337e-02, 1.33333337e-02 ]
      - [ 0., 1.02040814e-02, 0., 0., 0., 0., 0., 0., 2.04081628e-02, 0.,
          1.02040814e-02, 0., 0., 0., 0., 0., 0., 0., 2.04081628e-02, 0.,
          0., 7.14285672e-02, 0., 0., 0., 0., 0., 0., 0., 0.,
          1.02040814e-02, 0., 0., 0., 0., 0., 0., 0., 1.02040814e-02, 0.,
          0., 2.04081628e-02, 5.10204062e-02, 0., 1.02040814e-02, 0., 0.,
          1.02040814e-02, 5.10204062e-02, 0., 0., 0., 0., 1.02040814e-02,
          0., 0., 2.04081628e-02, 1.02040814e-02, 1.02040814e-02, 0., 0.,
          2.04081628e-02, 0., 2.04081628e-02, 0., 1.02040814e-02, 0.,
          1.02040814e-02, 0., 0., 0., 0., 2.04081628e-02, 0., 0., 0.,
          1.02040814e-02, 1.02040814e-02, 2.04081628e-02, 0., 0., 0., 0.,
          1.02040814e-02, 3.06122452e-02, 0., 1.02040814e-02, 0.,
          1.02040814e-02, 0., 1.02040814e-02, 1.02040814e-02,
          1.02040814e-02, 1.02040814e-02, 0., 3.06122452e-02, 0.,
          2.04081628e-02, 0., 1.02040814e-02, 0., 1.02040814e-02,
          2.04081628e-02, 1.02040814e-02, 0., 0., 0., 1.02040814e-02, 0.,
          1.02040814e-02, 1.02040814e-02, 6.12244904e-02, 1.02040814e-02,
          0., 1.02040814e-02, 1.02040814e-02, 0., 1.02040814e-02, 0., 0.,
          0., 0., 0., 0., 0., 0., 5.10204062e-02, 5.10204062e-02,
          1.02040814e-02, 0., 0., 1.02040814e-02, 0., 1.02040814e-02, 0.,
          0., 0., 0., 0., 1.02040814e-02, 0., 0., 0., 0., 1.02040814e-02,
          1.02040814e-02, 2.04081628e-02, 1.02040814e-02, 0., 0. ]
      - [ 0., 6.02409616e-03, 0., 6.02409616e-03, 0., 6.02409616e-03, 0.,
          6.02409616e-03, 1.80722885e-02, 0., 6.02409616e-03,
          1.20481923e-02, 6.02409616e-03, 0., 0., 3.01204808e-02, 0., 0.,
          6.02409616e-03, 6.02409616e-03, 0., 0., 6.02409616e-03,
          6.02409616e-03, 6.02409616e-03, 0., 3.61445770e-02, 0.,
          2.40963846e-02, 0., 0., 0., 6.02409616e-03, 0., 1.20481923e-02,
          6.02409616e-03, 1.20481923e-02, 1.80722885e-02, 0.,
          6.02409616e-03, 0., 6.02409616e-03, 6.02409616e-03,
          1.20481923e-02, 6.02409616e-03, 0., 0., 0., 1.80722885e-02,
          6.02409616e-03, 0., 0., 1.20481923e-02, 6.02409616e-03,
          6.02409616e-03, 0., 5.42168655e-02, 0., 0., 6.02409616e-03, 0.,
          0., 6.02409616e-03, 1.20481923e-02, 0., 6.02409616e-03, 0.,
          6.02409616e-03, 1.20481923e-02, 0., 0., 6.02409616e-03, 0., 0.,
          6.02409616e-03, 0., 6.02409616e-03, 1.20481923e-02, 0.,
          2.40963846e-02, 6.02409616e-03, 1.20481923e-02, 0.,
          6.02409616e-03, 1.20481923e-02, 6.02409616e-03, 0.,
          1.20481923e-02, 6.02409616e-03, 0., 1.80722885e-02,
          6.02409616e-03, 0., 1.20481923e-02, 0., 0., 6.02409616e-03,
          1.80722885e-02, 0., 0., 1.80722885e-02, 0., 6.02409616e-03,
          6.02409616e-03, 0., 1.80722885e-02, 0., 6.02409616e-03,
          6.02409616e-03, 6.02409616e-03, 2.40963846e-02, 1.20481923e-02,
          0., 1.80722885e-02, 3.61445770e-02, 1.80722885e-02,
          6.02409616e-03, 1.80722885e-02, 1.20481923e-02, 6.02409616e-03,
          6.02409616e-03, 0., 0., 0., 1.80722885e-02, 0., 6.02409616e-03,
          0., 1.20481923e-02, 6.02409616e-03, 6.02409616e-03, 0., 0.,
          1.20481923e-02, 0., 0., 0., 1.80722885e-02, 0., 0.,
          6.02409616e-03, 0., 1.80722885e-02, 6.02409616e-03,
          4.21686731e-02, 0., 0., 0., 1.80722885e-02, 6.02409616e-03 ]
      - [ 0., 8.33333377e-03, 1.25000011e-02, 0., 4.16666688e-03,
          4.16666688e-03, 4.16666688e-03, 1.25000011e-02, 8.33333377e-03,
          0., 0., 1.25000011e-02, 1.25000011e-02, 4.16666688e-03,
          2.08333340e-02, 0., 4.16666688e-03, 4.16666688e-03,
          4.16666688e-03, 8.33333377e-03, 1.66666675e-02, 0., 0.,
          8.33333377e-03, 4.16666688e-03, 4.16666688e-03, 4.16666688e-03,
          0., 8.33333377e-03, 2.08333340e-02, 1.25000011e-02,
          4.16666688e-03, 0., 2.08333340e-02, 4.16666688e-03,
          3.33333351e-02, 4.16666688e-03, 4.16666688e-03, 4.16666688e-03,
          4.16666688e-03, 0., 8.33333377e-03, 0., 8.33333377e-03,
          4.16666688e-03, 4.16666688e-03, 0., 1.66666675e-02, 0., 0., 0.,
          8.33333377e-03, 1.25000011e-02, 4.16666688e-03, 4.16666688e-03,
          1.66666675e-02, 2.08333340e-02, 4.16666688e-03, 8.33333377e-03,
          0., 1.25000011e-02, 0., 4.16666688e-03, 1.66666675e-02,
          4.16666688e-03, 0., 0., 1.25000011e-02, 4.16666688e-03,
          8.33333377e-03, 0., 1.25000011e-02, 0., 8.33333377e-03, 0., 0.,
          0., 0., 8.33333377e-03, 4.16666688e-03, 8.33333377e-03,
          1.25000011e-02, 8.33333377e-03, 0., 0., 1.25000011e-02,
          4.16666688e-03, 1.25000011e-02, 1.66666675e-02, 1.25000011e-02,
          4.16666688e-03, 0., 2.50000022e-02, 4.16666688e-03,
          1.25000011e-02, 0., 4.16666688e-03, 4.16666688e-03,
          4.16666688e-03, 4.16666688e-03, 1.25000011e-02, 4.16666688e-03,
          1.25000011e-02, 8.33333377e-03, 8.33333377e-03, 0.,
          8.33333377e-03, 4.16666688e-03, 4.16666688e-03, 4.16666688e-03,
          8.33333377e-03, 4.16666688e-03, 0., 0., 8.33333377e-03,
          4.16666688e-03, 4.16666688e-03, 1.25000011e-02, 1.25000011e-02,
          0., 1.25000011e-02, 1.66666675e-02, 1.25000011e-02,
          4.16666688e-03, 4.16666688e-03, 2.08333340e-02, 0.,
          4.16666688e-03, 8.33333377e-03, 8.33333377e-03, 1.66666675e-02,
          8.33333377e-03, 4.16666688e-03, 8.33333377e-03, 4.16666688e-03,
          8.33333377e-03, 4.16666688e-03, 1.66666675e-02, 0., 0.,
          2.50000022e-02, 0., 0., 8.33333377e-03, 0., 4.16666688e-03,
          4.16666688e-03, 1.25000011e-02, 8.33333377e-03, 4.16666688e-03 ]
      - [ 7.72200758e-03, 5.79150580e-03, 3.86100379e-03, 9.65250935e-03,
          1.93050189e-03, 1.93050189e-03, 1.15830116e-02, 7.72200758e-03,
          7.72200758e-03, 9.65250935e-03, 1.15830116e-02, 7.72200758e-03,
          3.86100379e-03, 7.72200758e-03, 1.15830116e-02, 3.86100379e-03,
          1.54440152e-02, 1.15830116e-02, 5.79150580e-03, 9.65250935e-03,
          3.86100379e-03, 1.15830116e-02, 3.86100379e-03, 7.72200758e-03,
          5.79150580e-03, 5.79150580e-03, 1.93050189e-03, 3.86100379e-03,
          9.65250935e-03, 9.65250935e-03, 3.86100379e-03, 7.72200758e-03,
          5.79150580e-03, 0., 1.73745174e-02, 1.93050189e-03,
          3.86100379e-03, 1.93050189e-03, 5.79150580e-03, 7.72200758e-03,
          1.35135129e-02, 3.86100379e-03, 5.79150580e-03, 1.15830116e-02,
          5.79150580e-03, 1.54440152e-02, 1.15830116e-02, 3.86100379e-03,
          1.93050189e-03, 1.93050189e-03, 9.65250935e-03, 1.93050189e-03,
          1.93050189e-03, 9.65250935e-03, 1.93050189e-03, 5.79150580e-03,
          5.79150580e-03, 3.86100379e-03, 1.15830116e-02, 3.86100379e-03,
          9.65250935e-03, 1.93050189e-03, 5.79150580e-03, 3.86100379e-03,
          3.86100379e-03, 7.72200758e-03, 5.79150580e-03, 9.65250935e-03,
          1.15830116e-02, 9.65250935e-03, 3.86100379e-03, 3.86100379e-03,
          1.15830116e-02, 7.72200758e-03, 5.79150580e-03, 7.72200758e-03,
          3.86100379e-03, 3.86100379e-03, 7.72200758e-03, 3.86100379e-03,
          7.72200758e-03, 7.72200758e-03, 1.35135129e-02, 1.15830116e-02,
          0., 1.15830116e-02, 7.72200758e-03, 5.79150580e-03,
          1.93050189e-03, 5.79150580e-03, 7.72200758e-03, 3.86100379e-03,
          3.86100379e-03, 9.65250935e-03, 5.79150580e-03, 1.93050189e-03,
          5.79150580e-03, 1.93050189e-03, 3.86100379e-03, 7.72200758e-03,
          7.72200758e-03, 9.65250935e-03, 9.65250935e-03, 0.,
          3.86100379e-03, 5.79150580e-03, 7.72200758e-03, 5.79150580e-03,
          9.65250935e-03, 1.93050189e-03, 3.86100379e-03, 3.86100379e-03,
          5.79150580e-03, 5.79150580e-03, 9.65250935e-03, 1.93050189e-03,
          3.86100379e-03, 9.65250935e-03, 5.79150580e-03, 3.86100379e-03,
          3.86100379e-03, 1.93050189e-03, 1.15830116e-02, 1.15830116e-02,
          5.79150580e-03, 3.86100379e-03, 1.93050189e-03, 3.86100379e-03,
          1.15830116e-02, 3.86100379e-03, 1.15830116e-02, 3.86100379e-03,
          5.79150580e-03, 2.12355200e-02, 3.86100379e-03, 1.93050189e-03,
          1.15830116e-02, 3.86100379e-03, 0., 1.73745174e-02,
          1.15830116e-02, 9.65250935e-03, 3.86100379e-03, 3.86100379e-03,
          9.65250935e-03, 1.35135129e-02, 5.79150580e-03, 1.93050189e-03,
          5.79150580e-03, 1.54440152e-02 ]
      - [ 7.13012461e-03, 3.56506230e-03, 0., 5.34759369e-03, 0.,
          7.13012461e-03, 7.13012461e-03, 5.34759369e-03, 1.24777183e-02,
          7.13012461e-03, 5.34759369e-03, 5.34759369e-03, 1.24777183e-02,
          7.13012461e-03, 1.78253115e-03, 1.06951874e-02, 7.13012461e-03,
          3.56506230e-03, 3.56506230e-03, 3.56506230e-03, 2.13903747e-02,
          1.42602492e-02, 1.24777183e-02, 1.42602492e-02, 5.34759369e-03,
          1.78253115e-03, 0., 5.88235296e-02, 5.34759369e-03,
          5.34759369e-03, 7.13012461e-03, 3.56506230e-03, 1.78253115e-03,
          1.06951874e-02, 1.06951874e-02, 5.34759369e-03, 8.91265552e-03,
          3.56506230e-03, 3.56506230e-03, 5.34759369e-03, 5.34759369e-03,
          0., 5.34759369e-03, 1.24777183e-02, 1.78253115e-03,
          1.78253115e-03, 5.34759369e-03, 3.56506230e-03, 1.42602492e-02,
          3.56506230e-03, 3.56506230e-03, 1.78253115e-03, 3.56506230e-03,
          1.78253115e-03, 7.13012461e-03, 1.78253115e-03, 1.24777183e-02,
          1.42602492e-02, 1.06951874e-02, 1.78253115e-03, 5.34759369e-03,
          8.91265552e-03, 0., 3.56506230e-03, 3.56506230e-03,
          8.91265552e-03, 3.56506230e-03, 1.78253115e-03, 3.56506230e-03,
          8.91265552e-03, 5.34759369e-03, 1.78253115e-03, 1.78253115e-03,
          5.34759369e-03, 0., 1.24777183e-02, 5.34759369e-03,
          8.91265552e-03, 3.56506230e-03, 1.24777183e-02, 1.78253115e-03,
          3.56506230e-03, 0., 7.13012461e-03, 3.56506230e-03,
          1.78253115e-03, 1.78253115e-03, 0., 1.78253115e-03,
          1.78253115e-03, 0., 1.78253115e-03, 1.06951874e-02,
          1.78253115e-03, 1.78253115e-03, 0., 1.42602492e-02,
          7.13012461e-03, 7.13012461e-03, 3.56506230e-03, 1.78253115e-03,
          3.56506230e-03, 3.56506230e-03, 8.91265552e-03, 3.56506230e-03,
          0., 1.78253115e-03, 1.42602492e-02, 1.78253115e-03,
          5.34759369e-03, 1.06951874e-02, 3.56506230e-03, 5.34759369e-03,
          1.78253110e-02, 3.56506230e-03, 5.34759369e-03, 3.56506230e-03,
          1.06951874e-02, 1.06951874e-02, 8.91265552e-03, 5.34759369e-03,
          7.13012461e-03, 1.24777183e-02, 3.56506230e-03, 1.78253115e-03,
          8.91265552e-03, 3.56506230e-03, 1.78253115e-03, 3.56506230e-03,
          3.56506230e-03, 1.78253115e-03, 8.91265552e-03, 7.13012461e-03,
          0., 5.34759369e-03, 1.42602492e-02, 3.56506230e-03,
          5.34759369e-03, 1.78253115e-03, 3.56506230e-03, 0.,
          5.34759369e-03, 5.34759369e-03, 3.56506230e-03, 1.31907299e-01,
          7.13012461e-03, 1.78253115e-03, 7.13012461e-03, 3.56506230e-03,
          1.78253115e-03 ]
      - [ 1.12781953e-02, 0., 3.75939859e-03, 3.75939859e-03,
          3.75939859e-03, 7.51879718e-03, 7.51879718e-03, 3.75939859e-03,
          1.87969934e-02, 0., 2.63157897e-02, 0., 3.75939859e-03,
          3.75939859e-03, 3.75939859e-03, 1.12781953e-02, 3.75939859e-03,
          1.12781953e-02, 3.75939859e-03, 1.50375944e-02, 0.,
          1.12781953e-02, 2.25563906e-02, 7.51879718e-03, 0.,
          7.51879718e-03, 0., 7.51879718e-03, 7.51879718e-03,
          1.12781953e-02, 7.51879718e-03, 1.50375944e-02, 7.51879718e-03,
          1.50375944e-02, 3.75939859e-03, 3.75939859e-03, 3.75939859e-03,
          7.51879718e-03, 3.75939859e-03, 1.12781953e-02, 3.75939859e-03,
          7.51879718e-03, 1.12781953e-02, 1.12781953e-02, 1.12781953e-02,
          3.75939859e-03, 3.75939859e-03, 7.51879718e-03, 1.12781953e-02,
          3.75939859e-03, 1.12781953e-02, 0., 0., 3.75939859e-03,
          1.12781953e-02, 3.75939859e-03, 3.75939859e-03, 0.,
          1.12781953e-02, 0., 7.51879718e-03, 3.75939859e-03,
          7.51879718e-03, 1.12781953e-02, 0., 3.75939859e-03,
          1.50375944e-02, 7.51879718e-03, 1.12781953e-02, 7.51879718e-03,
          1.12781953e-02, 1.12781953e-02, 1.12781953e-02, 1.12781953e-02,
          3.75939859e-03, 1.12781953e-02, 0., 0., 3.75939859e-03, 0.,
          1.12781953e-02, 3.75939859e-03, 7.51879718e-03, 7.51879718e-03,
          7.51879718e-03, 1.12781953e-02, 3.75939859e-03, 7.51879718e-03,
          0., 3.75939859e-03, 0., 1.12781953e-02, 3.75939859e-03,
          7.51879718e-03, 3.75939859e-03, 3.75939859e-03, 1.87969934e-02,
          0., 0., 0., 1.50375944e-02, 1.12781953e-02, 0., 2.25563906e-02,
          1.50375944e-02, 0., 0., 7.51879718e-03, 3.75939859e-03, 0.,
          2.25563906e-02, 0., 3.75939859e-03, 3.75939859e-03, 0.,
          7.51879718e-03, 3.75939859e-03, 7.51879718e-03, 3.75939859e-03,
          2.25563906e-02, 3.75939859e-03, 7.51879718e-03, 1.12781953e-02,
          3.75939859e-03, 7.51879718e-03, 7.51879718e-03, 0.,
          7.51879718e-03, 7.51879718e-03, 7.51879718e-03, 7.51879718e-03,
          0., 1.12781953e-02, 7.51879718e-03, 3.75939859e-03, 0.,
          1.12781953e-02, 7.51879718e-03, 3.75939859e-03, 3.75939859e-03,
          7.51879718e-03, 7.51879718e-03, 3.75939859e-03, 3.75939859e-03,
          3.75939859e-03, 1.50375944e-02, 3.75939859e-03, 7.51879718e-03,
          3.75939859e-03, 3.75939859e-03 ]
      - [ 8.03212821e-03, 4.01606411e-03, 2.00803205e-03, 8.03212821e-03,
          2.00803205e-03, 1.60642564e-02, 6.02409616e-03, 1.20481923e-02,
          2.00803205e-03, 4.01606411e-03, 8.03212821e-03, 8.03212821e-03,
          6.02409616e-03, 1.40562244e-02, 4.01606411e-03, 4.01606411e-03,
          1.00401603e-02, 1.20481923e-02, 1.60642564e-02, 2.00803205e-03,
          8.03212821e-03, 4.01606411e-03, 1.00401603e-02, 1.40562244e-02,
          2.00803205e-03, 6.02409616e-03, 6.02409616e-03, 1.20481923e-02,
          6.02409616e-03, 6.02409616e-03, 6.02409616e-03, 2.00803205e-03,
          4.01606411e-03, 1.00401603e-02, 6.02409616e-03, 6.02409616e-03,
          6.02409616e-03, 1.00401603e-02, 8.03212821e-03, 1.00401603e-02,
          4.01606411e-03, 4.01606411e-03, 8.03212821e-03, 4.01606411e-03,
          6.02409616e-03, 2.00803205e-03, 2.00803205e-03, 8.03212821e-03,
          4.01606411e-03, 4.01606411e-03, 4.01606411e-03, 4.01606411e-03,
          1.40562244e-02, 8.03212821e-03, 1.00401603e-02, 0.,
          1.20481923e-02, 4.01606411e-03, 1.00401603e-02, 2.00803205e-03,
          4.01606411e-03, 1.20481923e-02, 6.02409616e-03, 2.00803205e-03,
          6.02409616e-03, 6.02409616e-03, 6.02409616e-03, 1.00401603e-02,
          6.02409616e-03, 8.03212821e-03, 8.03212821e-03, 6.02409616e-03,
          6.02409616e-03, 4.01606411e-03, 1.00401603e-02, 1.00401603e-02,
          0., 1.00401603e-02, 6.02409616e-03, 0., 8.03212821e-03,
          4.01606411e-03, 8.03212821e-03, 4.01606411e-03, 6.02409616e-03,
          1.20481923e-02, 8.03212821e-03, 4.01606411e-03, 4.01606411e-03,
          2.00803205e-03, 8.03212821e-03, 8.03212821e-03, 1.00401603e-02,
          4.01606411e-03, 1.80722885e-02, 1.00401603e-02, 2.00803205e-03,
          2.00803205e-03, 0., 4.01606411e-03, 8.03212821e-03,
          1.60642564e-02, 6.02409616e-03, 8.03212821e-03, 2.00803205e-03,
          4.01606411e-03, 2.00803205e-03, 1.00401603e-02, 0.,
          6.02409616e-03, 4.01606411e-03, 1.20481923e-02, 8.03212821e-03,
          2.00803205e-03, 4.01606411e-03, 2.00803205e-03, 6.02409616e-03,
          1.00401603e-02, 1.40562244e-02, 2.00803205e-03, 6.02409616e-03,
          8.03212821e-03, 4.01606411e-03, 1.20481923e-02, 2.00803205e-03,
          6.02409616e-03, 4.01606411e-03, 2.00803205e-03, 4.01606411e-03,
          2.00803205e-03, 8.03212821e-03, 0., 4.01606411e-03,
          4.01606411e-03, 1.20481923e-02, 1.00401603e-02, 1.60642564e-02,
          4.01606411e-03, 8.03212821e-03, 1.00401603e-02, 4.01606411e-03,
          6.02409616e-03, 8.03212821e-03, 4.01606411e-03, 3.81526090e-02,
          4.01606411e-03, 8.03212821e-03, 4.01606411e-03, 6.02409616e-03,
          6.02409616e-03 ]
      - [ 0., 0., 2.71739135e-03, 8.15217383e-03, 5.43478271e-03,
          5.43478271e-03, 2.71739135e-03, 5.43478271e-03, 2.71739135e-03,
          2.71739135e-03, 0., 5.43478271e-03, 5.43478271e-03, 0.,
          2.71739135e-03, 0., 2.71739135e-03, 8.15217383e-03,
          1.35869570e-02, 2.71739135e-03, 1.90217402e-02, 0.,
          1.63043477e-02, 2.17391308e-02, 2.71739135e-03, 0.,
          1.90217402e-02, 2.71739135e-03, 2.71739135e-03, 1.35869570e-02,
          1.08695654e-02, 2.71739135e-03, 5.43478271e-03, 1.35869570e-02,
          5.43478271e-03, 1.35869570e-02, 5.43478271e-03, 1.63043477e-02,
          2.71739135e-03, 5.43478271e-03, 0., 0., 1.08695654e-02,
          1.35869570e-02, 2.71739135e-03, 8.15217383e-03, 2.71739135e-03,
          1.63043477e-02, 0., 8.15217383e-03, 0., 2.71739135e-03,
          8.15217383e-03, 1.35869570e-02, 5.43478271e-03, 2.71739135e-03,
          1.63043477e-02, 1.08695654e-02, 2.71739135e-03, 2.71739135e-03,
          5.43478271e-03, 0., 8.15217383e-03, 1.08695654e-02,
          8.15217383e-03, 2.71739135e-03, 0., 5.43478271e-03,
          5.43478271e-03, 0., 0., 5.43478271e-03, 0., 2.71739135e-03,
          2.71739135e-03, 0., 2.71739135e-03, 2.71739135e-03,
          2.71739135e-03, 0., 5.43478271e-03, 8.15217383e-03,
          2.71739135e-03, 5.43478271e-03, 2.71739135e-03, 8.15217383e-03,
          0., 1.35869570e-02, 1.08695654e-02, 2.71739135e-03,
          8.15217383e-03, 1.08695654e-02, 8.15217383e-03, 0.,
          1.08695654e-02, 5.43478271e-03, 0., 0., 0., 0., 8.15217383e-03,
          5.43478271e-03, 1.08695654e-02, 1.63043477e-02, 8.15217383e-03,
          2.71739135e-03, 0., 1.35869570e-02, 2.71739135e-03, 0.,
          5.43478271e-03, 1.08695654e-02, 2.71739135e-03, 5.43478271e-03,
          1.63043477e-02, 2.71739135e-03, 0., 1.08695654e-02,
          2.71739140e-02, 5.43478271e-03, 1.35869570e-02, 5.43478271e-03,
          1.35869570e-02, 5.43478271e-03, 8.15217383e-03, 1.35869570e-02,
          0., 2.71739135e-03, 5.43478271e-03, 5.43478271e-03,
          2.71739135e-03, 2.71739135e-03, 2.71739135e-03, 2.71739135e-03,
          2.71739135e-03, 1.08695654e-02, 0., 5.43478271e-03, 0.,
          5.43478271e-03, 1.63043477e-02, 0., 1.08695654e-02,
          1.35869570e-02, 1.11413047e-01, 0., 0., 1.63043477e-02,
          1.08695654e-02, 5.43478271e-03 ]
      - [ 0., 1.04712043e-02, 2.61780107e-03, 2.61780107e-03,
          1.30890049e-02, 0., 7.85340369e-03, 5.23560215e-03,
          1.83246080e-02, 5.23560215e-03, 1.04712043e-02, 7.85340369e-03,
          0., 1.30890049e-02, 1.04712043e-02, 2.61780107e-03,
          5.23560215e-03, 1.04712043e-02, 2.61780107e-03, 1.30890049e-02,
          5.23560215e-03, 2.35602092e-02, 2.61780107e-03, 2.61780107e-03,
          5.23560215e-03, 7.85340369e-03, 2.61780107e-03, 7.85340369e-03,
          5.23560215e-03, 0., 1.04712043e-02, 5.23560215e-03,
          5.23560215e-03, 1.57068074e-02, 1.30890049e-02, 5.23560215e-03,
          5.23560215e-03, 5.23560215e-03, 1.57068074e-02, 7.85340369e-03,
          7.85340369e-03, 1.30890049e-02, 1.30890049e-02, 1.30890049e-02,
          2.61780107e-03, 5.23560215e-03, 5.23560215e-03, 7.85340369e-03,
          1.30890049e-02, 7.85340369e-03, 7.85340369e-03, 0.,
          2.61780107e-03, 5.23560215e-03, 1.30890049e-02, 7.85340369e-03,
          1.04712043e-02, 5.23560215e-03, 1.04712043e-02, 5.23560215e-03,
          1.30890049e-02, 2.61780107e-03, 7.85340369e-03, 0.,
          2.61780107e-03, 5.23560215e-03, 1.04712043e-02, 2.61780107e-03,
          0., 0., 2.61780107e-03, 5.23560215e-03, 7.85340369e-03,
          5.23560215e-03, 7.85340369e-03, 5.23560215e-03, 1.04712043e-02,
          7.85340369e-03, 5.23560215e-03, 5.23560215e-03, 7.85340369e-03,
          0., 1.57068074e-02, 7.85340369e-03, 0., 7.85340369e-03,
          2.61780107e-03, 1.57068074e-02, 5.23560215e-03, 5.23560215e-03,
          7.85340369e-03, 7.85340369e-03, 7.85340369e-03, 5.23560215e-03,
          0., 7.85340369e-03, 2.61780107e-03, 0., 0., 1.04712043e-02, 0.,
          2.61780107e-03, 2.09424086e-02, 0., 1.83246080e-02,
          2.61780107e-03, 2.61780107e-03, 1.83246080e-02, 1.04712043e-02,
          1.04712043e-02, 7.85340369e-03, 0., 2.61780107e-03, 0.,
          7.85340369e-03, 2.61780107e-03, 1.83246080e-02, 5.23560215e-03,
          2.61780107e-03, 1.30890049e-02, 5.23560215e-03, 7.85340369e-03,
          2.61780107e-03, 2.61780107e-03, 1.30890049e-02, 0.,
          2.61780107e-03, 5.23560215e-03, 5.23560215e-03, 2.61780107e-03,
          1.30890049e-02, 0., 5.23560215e-03, 0., 5.23560215e-03,
          5.23560215e-03, 5.23560215e-03, 5.23560215e-03, 2.61780107e-03,
          7.85340369e-03, 2.61780107e-03, 1.57068074e-02, 7.85340369e-03,
          7.85340369e-03, 7.85340369e-03, 1.30890049e-02, 5.23560215e-03,
          1.04712043e-02, 5.23560215e-03, 5.23560215e-03 ]
      - [ 2.38095247e-03, 2.38095247e-03, 2.38095247e-03, 2.38095247e-03,
          9.52380989e-03, 4.76190494e-03, 4.76190494e-03, 0.,
          1.19047621e-02, 9.52380989e-03, 1.42857153e-02, 7.14285765e-03,
          9.52380989e-03, 2.38095247e-03, 1.42857153e-02, 7.14285765e-03,
          9.52380989e-03, 0., 2.38095247e-03, 9.52380989e-03,
          2.38095247e-03, 0., 1.66666675e-02, 2.14285720e-02,
          4.76190494e-03, 2.38095247e-03, 2.38095247e-03, 2.38095247e-03,
          0., 7.14285765e-03, 2.38095247e-03, 0., 1.19047621e-02, 0.,
          7.14285765e-03, 0., 0., 2.38095247e-03, 2.38095247e-03,
          2.38095247e-03, 1.42857153e-02, 0., 1.19047621e-02,
          9.52380989e-03, 2.38095247e-03, 2.38095247e-03, 9.52380989e-03,
          0., 1.66666675e-02, 2.38095247e-03, 9.52380989e-03,
          2.38095247e-03, 0., 7.14285765e-03, 9.52380989e-03,
          2.38095247e-03, 1.42857153e-02, 2.38095247e-03, 9.52380989e-03,
          2.38095247e-03, 2.38095247e-03, 4.76190494e-03, 1.19047621e-02,
          7.14285765e-03, 2.38095247e-03, 4.76190494e-03, 7.14285765e-03,
          2.38095247e-03, 2.38095247e-03, 2.38095247e-03, 4.76190494e-03,
          9.52380989e-03, 2.14285720e-02, 1.19047621e-02, 9.52380989e-03,
          2.85714306e-02, 7.14285765e-03, 2.38095247e-03, 9.52380989e-03,
          4.76190494e-03, 4.76190494e-03, 7.14285765e-03, 2.38095247e-03,
          2.38095247e-03, 2.38095247e-03, 7.14285765e-03, 7.14285765e-03,
          9.52380989e-03, 4.76190494e-03, 4.76190494e-03, 1.90476198e-02,
          1.42857153e-02, 2.38095247e-03, 0., 4.76190494e-03, 0.,
          2.38095247e-03, 2.38095247e-03, 7.14285765e-03, 9.52380989e-03,
          9.52380989e-03, 1.19047621e-02, 1.19047621e-02, 7.14285765e-03,
          1.42857153e-02, 3.33333351e-02, 2.38095247e-03, 4.76190494e-03,
          0., 2.38095247e-03, 9.52380989e-03, 9.52380989e-03,
          1.42857153e-02, 1.66666675e-02, 4.76190494e-03, 9.52380989e-03,
          1.19047621e-02, 2.38095247e-03, 7.14285765e-03, 7.14285765e-03,
          2.38095247e-03, 0., 1.66666675e-02, 0., 4.76190494e-03,
          4.76190494e-03, 4.76190494e-03, 9.52380989e-03, 1.19047621e-02,
          7.14285765e-03, 9.52380989e-03, 0., 0., 1.66666675e-02, 0., 0.,
          2.38095247e-03, 1.19047621e-02, 4.76190494e-03, 4.76190494e-03,
          1.19047621e-02, 7.14285765e-03, 2.38095247e-03, 0.,
          2.61904765e-02, 2.38095243e-02, 2.38095247e-03, 7.14285765e-03,
          2.38095247e-03, 0. ]
      - [ 3.10559012e-03, 0., 0., 3.10559012e-03, 3.10559012e-03,
          9.31677036e-03, 9.31677036e-03, 3.10559012e-03, 3.10559012e-03,
          3.10559012e-03, 1.24223605e-02, 1.24223605e-02, 3.10559012e-03,
          9.31677036e-03, 3.10559012e-03, 2.48447210e-02, 3.10559012e-03,
          3.10559012e-03, 9.31677036e-03, 9.31677036e-03, 0.,
          1.24223605e-02, 1.24223605e-02, 1.24223605e-02, 0.,
          6.21118024e-03, 1.55279506e-02, 1.24223605e-02, 0.,
          6.21118024e-03, 0., 6.21118024e-03, 3.10559012e-03,
          3.10559012e-03, 9.31677036e-03, 6.21118024e-03, 3.10559012e-03,
          3.10559012e-03, 6.21118024e-03, 6.21118024e-03, 9.31677036e-03,
          9.31677036e-03, 9.31677036e-03, 9.31677036e-03, 3.10559012e-03,
          9.31677036e-03, 3.10559012e-03, 3.10559012e-03, 1.86335407e-02,
          3.10559012e-03, 6.21118024e-03, 3.10559012e-03, 3.10559012e-03,
          0., 3.10559012e-03, 0., 0., 9.31677036e-03, 6.21118024e-03,
          9.31677036e-03, 3.10559012e-03, 1.24223605e-02, 3.10559012e-03,
          0., 0., 1.86335407e-02, 6.21118024e-03, 6.21118024e-03,
          3.10559012e-03, 3.10559012e-03, 3.10559012e-03, 3.10559012e-03,
          1.86335407e-02, 1.24223605e-02, 9.31677036e-03, 1.55279506e-02,
          6.21118024e-03, 1.24223605e-02, 9.31677036e-03, 0.,
          3.10559012e-03, 9.31677036e-03, 6.21118024e-03, 9.31677036e-03,
          6.21118024e-03, 3.10559012e-03, 1.24223605e-02, 9.31677036e-03,
          1.24223605e-02, 9.31677036e-03, 6.21118024e-03, 6.21118024e-03,
          6.21118024e-03, 3.10559012e-03, 1.24223605e-02, 6.21118024e-03,
          3.10559012e-03, 3.10559012e-03, 3.10559012e-03, 9.31677036e-03,
          6.21118024e-03, 9.31677036e-03, 3.10559012e-03, 1.24223605e-02,
          1.24223605e-02, 6.21118024e-03, 9.31677036e-03, 0.,
          3.10559012e-03, 3.10559012e-03, 6.21118024e-03, 6.21118024e-03,
          9.31677036e-03, 6.21118024e-03, 1.24223605e-02, 9.31677036e-03,
          1.24223605e-02, 3.10559012e-03, 0., 3.10559012e-03,
          3.10559012e-03, 6.21118024e-03, 0., 1.24223605e-02,
          1.24223605e-02, 0., 0., 6.21118024e-03, 9.31677036e-03,
          3.10559012e-03, 6.21118024e-03, 0., 6.21118024e-03,
          6.21118024e-03, 3.10559012e-03, 1.24223605e-02, 9.31677036e-03,
          1.24223605e-02, 2.17391308e-02, 1.55279506e-02, 1.55279506e-02,
          1.24223605e-02, 3.10559012e-03, 0., 0., 9.31677036e-03,
          3.10559012e-03, 3.10559012e-03, 1.24223605e-02, 6.21118024e-03 ]
      - [ 3.96039616e-03, 5.94059424e-03, 3.96039616e-03, 1.98019808e-03,
          1.98019808e-03, 3.96039616e-03, 1.98019808e-03, 9.90099087e-03,
          0., 5.94059424e-03, 0., 7.92079233e-03, 3.96039616e-03,
          1.98019808e-03, 1.98019808e-03, 1.78217832e-02, 3.96039616e-03,
          3.96039616e-03, 1.98019808e-03, 1.18811885e-02, 3.96039616e-03,
          5.94059424e-03, 1.58415847e-02, 1.38613861e-02, 1.98019808e-03,
          9.90099087e-03, 1.98019808e-03, 9.90099087e-03, 3.96039616e-03,
          5.94059424e-03, 9.90099087e-03, 3.96039616e-03, 1.98019808e-03,
          7.92079233e-03, 5.94059424e-03, 7.92079233e-03, 3.96039616e-03,
          1.38613861e-02, 5.94059424e-03, 7.92079233e-03, 1.98019808e-03,
          3.96039616e-03, 3.96039616e-03, 1.18811885e-02, 7.92079233e-03,
          5.94059424e-03, 3.96039616e-03, 1.98019808e-03, 2.77227722e-02,
          3.96039616e-03, 7.92079233e-03, 1.38613861e-02, 3.96039616e-03,
          9.90099087e-03, 9.90099087e-03, 5.94059424e-03, 1.18811885e-02,
          5.94059424e-03, 5.94059424e-03, 1.98019808e-03, 1.98019808e-03,
          1.98019808e-03, 3.96039616e-03, 9.90099087e-03, 5.94059424e-03,
          1.98019808e-03, 3.96039616e-03, 3.96039616e-03, 0.,
          5.94059424e-03, 5.94059424e-03, 0., 1.18811885e-02,
          9.90099087e-03, 3.96039616e-03, 3.96039616e-03, 1.98019808e-03,
          1.98019817e-02, 0., 7.92079233e-03, 0., 1.38613861e-02,
          7.92079233e-03, 3.96039616e-03, 3.56435664e-02, 0.,
          1.98019808e-03, 3.96039616e-03, 9.90099087e-03, 1.98019808e-03,
          1.98019808e-03, 3.96039616e-03, 0., 0., 3.96039616e-03,
          1.38613861e-02, 3.96039616e-03, 1.98019817e-02, 1.98019808e-03,
          3.96039616e-03, 7.92079233e-03, 1.38613861e-02, 1.98019808e-03,
          9.90099087e-03, 1.98019808e-03, 5.94059424e-03, 5.94059424e-03,
          1.98019808e-03, 7.92079233e-03, 7.92079233e-03, 1.38613861e-02,
          1.98019808e-03, 1.98019817e-02, 7.92079233e-03, 1.98019817e-02,
          9.90099087e-03, 1.98019817e-02, 5.94059424e-03, 1.98019817e-02,
          3.96039616e-03, 5.94059424e-03, 7.92079233e-03, 1.98019817e-02,
          7.92079233e-03, 1.98019808e-03, 5.94059424e-03, 7.92079233e-03,
          9.90099087e-03, 0., 3.96039616e-03, 7.92079233e-03,
          3.96039616e-03, 3.96039616e-03, 1.98019808e-03, 1.98019808e-03,
          3.96039616e-03, 7.92079233e-03, 1.98019808e-03, 3.96039616e-03,
          1.98019808e-03, 3.96039616e-03, 0., 3.96039616e-03,
          3.96039616e-03, 1.38613861e-02, 1.98019808e-03, 1.38613861e-02,
          2.17821784e-02, 5.94059424e-03, 5.94059424e-03 ]
      - [ 5.58659201e-03, 2.79329601e-03, 8.37988779e-03, 8.37988779e-03,
          1.11731840e-02, 5.58659201e-03, 5.58659201e-03, 8.37988779e-03,
          2.79329601e-03, 5.58659201e-03, 8.37988779e-03, 5.58659201e-03,
          5.58659201e-03, 8.37988779e-03, 1.39664803e-02, 5.58659201e-03,
          5.58659201e-03, 8.37988779e-03, 8.37988779e-03, 5.58659201e-03,
          8.37988779e-03, 0., 0., 2.79329601e-03, 2.79329601e-03,
          5.58659201e-03, 1.39664803e-02, 1.11731840e-02, 2.79329601e-03,
          2.79329601e-03, 5.58659201e-03, 5.58659201e-03, 8.37988779e-03,
          2.51396634e-02, 8.37988779e-03, 0., 2.79329601e-03, 0.,
          8.37988779e-03, 5.58659201e-03, 2.79329601e-03, 5.58659201e-03,
          2.79329601e-03, 1.67597756e-02, 2.79329601e-03, 5.58659201e-03,
          8.37988779e-03, 1.11731840e-02, 5.58659201e-03, 5.58659201e-03,
          2.79329601e-03, 5.58659201e-03, 5.58659201e-03, 2.79329601e-03,
          1.39664803e-02, 8.37988779e-03, 2.79329605e-02, 1.11731840e-02,
          2.79329601e-03, 8.37988779e-03, 8.37988779e-03, 0., 0.,
          2.79329601e-03, 2.79329601e-03, 1.11731840e-02, 0.,
          5.58659201e-03, 5.58659201e-03, 1.11731840e-02, 2.79329601e-03,
          8.37988779e-03, 0., 1.67597756e-02, 2.79329601e-03, 0.,
          5.58659201e-03, 2.79329601e-03, 0., 1.11731840e-02,
          1.11731840e-02, 1.11731840e-02, 5.58659201e-03, 1.67597756e-02,
          1.11731840e-02, 8.37988779e-03, 5.58659201e-03, 1.67597756e-02,
          8.37988779e-03, 1.11731840e-02, 2.79329601e-03, 1.11731840e-02,
          0., 2.79329601e-03, 8.37988779e-03, 1.11731840e-02,
          2.79329601e-03, 1.11731840e-02, 8.37988779e-03, 2.79329601e-03,
          0., 2.79329601e-03, 8.37988779e-03, 2.79329605e-02,
          1.39664803e-02, 0., 8.37988779e-03, 5.58659201e-03,
          2.79329601e-03, 8.37988779e-03, 2.79329601e-03, 1.67597756e-02,
          0., 0., 2.79329601e-03, 0., 0., 0., 3.07262558e-02,
          2.79329601e-03, 1.11731840e-02, 2.79329601e-03, 5.58659201e-03,
          2.79329601e-03, 1.95530728e-02, 1.11731840e-02, 0., 0.,
          1.11731840e-02, 8.37988779e-03, 2.79329601e-03, 2.79329601e-03,
          5.58659201e-03, 0., 1.11731840e-02, 8.37988779e-03,
          8.37988779e-03, 8.37988779e-03, 0., 5.58659201e-03,
          2.79329601e-03, 2.79329601e-03, 1.11731840e-02, 1.39664803e-02,
          0., 5.58659201e-03, 8.37988779e-03, 5.58659201e-03,
          5.58659201e-03, 2.79329601e-03 ]
      - [ 1.04895104e-02, 1.04895104e-02, 5.24475519e-03, 6.99300691e-03,
          0., 0., 5.24475519e-03, 1.74825173e-03, 1.92307681e-02,
          1.04895104e-02, 1.39860138e-02, 1.74825173e-03, 1.74825173e-03,
          1.04895104e-02, 1.22377621e-02, 1.74825173e-03, 3.49650346e-03,
          5.24475519e-03, 5.24475519e-03, 1.74825173e-03, 1.74825173e-03,
          3.49650346e-03, 5.24475519e-03, 5.24475519e-03, 0.,
          5.24475519e-03, 0., 8.74125864e-03, 8.74125864e-03,
          8.74125864e-03, 5.24475519e-03, 5.24475519e-03, 3.49650346e-03,
          1.74825173e-03, 1.04895104e-02, 0., 0., 1.74825173e-03,
          3.49650346e-03, 5.24475519e-03, 6.99300691e-03, 5.24475519e-03,
          6.99300691e-03, 8.74125864e-03, 5.24475519e-03, 1.04895104e-02,
          3.49650346e-03, 6.99300691e-03, 3.49650346e-03, 3.49650346e-03,
          1.39860138e-02, 1.74825173e-03, 0., 5.24475519e-03,
          5.24475519e-03, 5.24475519e-03, 1.74825173e-03, 5.24475519e-03,
          6.99300691e-03, 1.74825173e-03, 1.74825173e-02, 1.04895104e-02,
          1.74825173e-03, 3.49650346e-03, 1.04895104e-02, 3.49650346e-03,
          5.24475519e-03, 1.04895104e-02, 3.49650346e-03, 5.24475519e-03,
          6.99300691e-03, 5.24475519e-03, 1.04895104e-02, 0.,
          3.49650346e-03, 1.39860138e-02, 6.99300691e-03, 3.49650346e-03,
          5.24475519e-03, 8.74125864e-03, 6.99300691e-03, 0.,
          1.57342665e-02, 1.39860138e-02, 3.49650346e-03, 1.57342665e-02,
          5.24475519e-03, 5.24475519e-03, 1.74825173e-03, 0.,
          5.24475519e-03, 8.74125864e-03, 8.74125864e-03, 3.49650346e-03,
          5.24475519e-03, 3.49650346e-03, 3.49650346e-03, 1.74825173e-03,
          1.92307681e-02, 3.49650346e-03, 8.74125864e-03, 6.99300691e-03,
          6.99300691e-03, 3.49650346e-03, 2.44755242e-02, 0.,
          1.04895104e-02, 3.49650346e-03, 3.49650346e-03, 0.,
          1.74825173e-02, 0., 1.04895104e-02, 1.04895104e-02,
          1.74825173e-03, 1.22377621e-02, 1.22377621e-02, 5.24475519e-03,
          3.49650346e-03, 6.99300691e-03, 3.49650346e-03, 1.39860138e-02,
          1.22377621e-02, 1.39860138e-02, 8.74125864e-03, 8.74125864e-03,
          3.49650346e-03, 6.99300691e-03, 1.04895104e-02, 5.24475519e-03,
          1.04895104e-02, 0., 8.74125864e-03, 5.24475519e-03,
          8.74125864e-03, 1.04895104e-02, 3.49650346e-03, 1.57342665e-02,
          1.04895104e-02, 1.39860138e-02, 1.04895104e-02, 2.09790207e-02,
          3.49650346e-03, 3.49650346e-03, 2.44755242e-02, 1.39860138e-02,
          0., 1.74825173e-03, 5.24475519e-03, 5.24475519e-03 ]
      - [ 8.95522349e-03, 5.97014930e-03, 2.98507465e-03, 1.79104470e-02,
          0., 8.95522349e-03, 1.19402986e-02, 2.98507465e-03,
          5.97014930e-03, 2.98507465e-03, 8.95522349e-03, 8.95522349e-03,
          5.97014930e-03, 8.95522349e-03, 5.97014930e-03, 5.97014930e-03,
          5.97014930e-03, 1.79104470e-02, 0., 5.97014930e-03, 0., 0.,
          5.97014930e-03, 0., 2.98507465e-03, 5.97014930e-03,
          8.95522349e-03, 2.98507465e-03, 5.97014930e-03, 2.98507465e-03,
          1.79104470e-02, 1.19402986e-02, 2.98507465e-03, 2.98507465e-03,
          1.19402986e-02, 8.95522349e-03, 8.95522349e-03, 8.95522349e-03,
          5.97014930e-03, 8.95522349e-03, 2.98507465e-03, 2.98507465e-03,
          2.98507465e-03, 1.19402986e-02, 1.19402986e-02, 8.95522349e-03,
          5.97014930e-03, 5.97014930e-03, 2.98507465e-03, 5.97014930e-03,
          0., 5.97014930e-03, 1.49253737e-02, 1.49253737e-02,
          8.95522349e-03, 1.49253737e-02, 1.79104470e-02, 0.,
          5.97014930e-03, 5.97014930e-03, 5.97014930e-03, 0.,
          2.98507465e-03, 2.08955221e-02, 8.95522349e-03, 8.95522349e-03,
          2.08955221e-02, 1.79104470e-02, 0., 8.95522349e-03,
          1.19402986e-02, 8.95522349e-03, 2.98507465e-03, 5.97014930e-03,
          0., 0., 5.97014930e-03, 0., 0., 1.49253737e-02, 1.19402986e-02,
          1.49253737e-02, 1.49253737e-02, 8.95522349e-03, 0.,
          1.19402986e-02, 2.98507465e-03, 1.79104470e-02, 1.19402986e-02,
          2.98507465e-03, 0., 1.79104470e-02, 2.68656723e-02,
          5.97014930e-03, 5.97014930e-03, 2.98507465e-03, 5.97014930e-03,
          2.98507465e-03, 5.97014930e-03, 5.97014930e-03, 8.95522349e-03,
          5.97014930e-03, 2.98507465e-03, 2.98507465e-03, 5.97014930e-03,
          0., 2.98507465e-03, 8.95522349e-03, 8.95522349e-03,
          8.95522349e-03, 5.97014930e-03, 5.97014930e-03, 0., 0., 0., 0.,
          2.98507465e-03, 2.98507465e-03, 2.98507465e-03, 8.95522349e-03,
          1.19402986e-02, 5.97014930e-03, 8.95522349e-03, 2.98507465e-03,
          0., 2.98507465e-03, 0., 8.95522349e-03, 0., 2.98507465e-03,
          5.97014930e-03, 5.97014930e-03, 8.95522349e-03, 2.98507465e-03,
          5.97014930e-03, 2.98507465e-03, 1.19402986e-02, 1.49253737e-02,
          2.98507465e-03, 2.98507465e-03, 5.97014930e-03, 5.97014930e-03,
          1.19402986e-02, 2.98507465e-03, 2.98507465e-03, 8.95522349e-03,
          5.97014930e-03, 8.95522349e-03, 2.98507465e-03, 0. ]
      - [ 7.51879718e-03, 5.01253130e-03, 0., 5.01253130e-03, 0.,
          1.25313280e-02, 5.01253130e-03, 0., 1.00250626e-02,
          2.50626565e-03, 2.00501252e-02, 1.25313280e-02, 2.50626565e-03,
          7.51879718e-03, 7.51879718e-03, 0., 1.50375944e-02,
          5.01253130e-03, 2.50626565e-03, 5.01253130e-03, 7.51879718e-03,
          2.50626565e-03, 2.00501252e-02, 1.25313280e-02, 2.50626565e-03,
          2.50626565e-03, 1.00250626e-02, 1.00250626e-02, 1.50375944e-02,
          2.50626565e-03, 5.01253130e-03, 5.01253130e-03, 1.25313280e-02,
          1.00250626e-02, 1.50375944e-02, 2.50626565e-03, 7.51879718e-03,
          5.01253130e-03, 5.01253130e-03, 1.75438598e-02, 1.00250626e-02,
          5.01253130e-03, 7.51879718e-03, 7.51879718e-03, 5.01253130e-03,
          2.50626565e-03, 1.00250626e-02, 7.51879718e-03, 5.01253130e-03,
          5.01253130e-03, 5.01253130e-03, 0., 5.01253130e-03,
          5.01253130e-03, 1.00250626e-02, 2.50626565e-03, 1.00250626e-02,
          2.50626565e-03, 7.51879718e-03, 2.50626565e-03, 1.25313280e-02,
          1.50375944e-02, 2.50626565e-03, 1.25313280e-02, 2.50626565e-03,
          5.01253130e-03, 0., 5.01253130e-03, 7.51879718e-03,
          2.50626565e-03, 2.50626565e-03, 1.00250626e-02, 7.51879718e-03,
          2.50626565e-03, 5.01253130e-03, 7.51879718e-03, 7.51879718e-03,
          0., 7.51879718e-03, 7.51879718e-03, 2.50626565e-03,
          2.50626565e-03, 7.51879718e-03, 7.51879718e-03, 0.,
          2.50626565e-03, 5.01253130e-03, 2.50626565e-03, 2.50626565e-03,
          0., 1.50375944e-02, 1.25313280e-02, 7.51879718e-03,
          5.01253130e-03, 5.01253130e-03, 1.50375944e-02, 5.01253130e-03,
          0., 0., 1.50375944e-02, 7.51879718e-03, 2.25563906e-02,
          7.51879718e-03, 1.00250626e-02, 5.01253130e-03, 5.01253130e-03,
          1.50375944e-02, 1.00250626e-02, 2.50626565e-03, 2.50626565e-03,
          1.50375944e-02, 2.50626565e-03, 0., 5.01253130e-03,
          5.01253130e-03, 2.50626565e-03, 1.00250626e-02, 2.50626565e-03,
          2.50626565e-03, 1.00250626e-02, 7.51879718e-03, 2.50626565e-03,
          7.51879718e-03, 5.01253130e-03, 7.51879718e-03, 5.01253130e-03,
          0., 2.50626565e-03, 1.25313280e-02, 1.00250626e-02,
          7.51879718e-03, 0., 5.01253130e-03, 2.50626565e-03,
          7.51879718e-03, 7.51879718e-03, 2.50626565e-03, 1.75438598e-02,
          5.01253130e-03, 1.00250626e-02, 5.01253130e-03, 7.51879718e-03,
          0., 7.51879718e-03, 3.75939831e-02, 2.50626565e-03,
          2.50626565e-03, 1.00250626e-02, 5.01253130e-03, 7.51879718e-03 ]
      - [ 5.40540554e-03, 1.62162166e-02, 2.70270277e-03, 5.40540554e-03,
          2.70270277e-03, 1.62162166e-02, 2.70270277e-03, 2.70270277e-03,
          1.08108111e-02, 8.10810830e-03, 2.70270277e-03, 5.40540554e-03,
          0., 1.08108111e-02, 8.10810830e-03, 0., 5.40540554e-03,
          2.70270277e-03, 2.70270277e-03, 2.70270277e-03, 5.40540554e-03,
          4.32432443e-02, 0., 0., 1.62162166e-02, 5.40540554e-03, 0.,
          1.08108111e-02, 8.10810830e-03, 2.70270277e-03, 5.40540554e-03,
          8.10810830e-03, 5.40540554e-03, 0., 1.62162166e-02, 0.,
          8.10810830e-03, 1.08108111e-02, 0., 2.70270277e-03,
          2.70270277e-03, 2.70270277e-03, 2.70270277e-03, 0.,
          2.70270277e-03, 5.40540554e-03, 1.08108111e-02, 5.40540554e-03,
          1.08108111e-02, 5.40540554e-03, 1.62162166e-02, 0.,
          1.08108111e-02, 0., 5.40540554e-03, 1.35135138e-02,
          1.62162166e-02, 5.40540554e-03, 1.08108111e-02, 1.08108111e-02,
          2.70270277e-03, 2.43243240e-02, 2.70270277e-03, 5.40540554e-03,
          5.40540554e-03, 8.10810830e-03, 0., 8.10810830e-03,
          2.70270277e-03, 0., 5.40540554e-03, 1.35135138e-02,
          4.86486480e-02, 5.40540554e-03, 5.40540554e-03, 1.62162166e-02,
          0., 1.35135138e-02, 5.40540554e-03, 0., 5.40540554e-03, 0.,
          2.70270277e-03, 5.40540554e-03, 2.70270277e-03, 8.10810830e-03,
          0., 1.08108111e-02, 8.10810830e-03, 2.70270277e-03,
          1.08108111e-02, 2.70270277e-03, 2.70270277e-03, 0.,
          8.10810830e-03, 1.08108111e-02, 1.35135138e-02, 0.,
          2.70270277e-03, 2.70270277e-03, 8.10810830e-03, 1.62162166e-02,
          5.40540554e-03, 0., 2.70270277e-03, 8.10810830e-03,
          2.70270277e-03, 0., 0., 0., 2.70270277e-03, 2.70270277e-03,
          5.40540554e-03, 2.16216221e-02, 0., 2.70270277e-03,
          2.43243240e-02, 5.40540554e-03, 0., 5.40540554e-03,
          1.35135138e-02, 8.10810830e-03, 2.70270277e-03, 5.40540554e-03,
          0., 0., 1.62162166e-02, 1.89189203e-02, 0., 0., 8.10810830e-03,
          2.70270277e-03, 5.40540554e-03, 5.40540554e-03, 2.43243240e-02,
          2.70270277e-03, 5.40540554e-03, 5.40540554e-03, 5.40540554e-03,
          5.40540554e-03, 2.70270277e-03, 0., 5.40540554e-03,
          2.70270277e-03, 2.70270277e-03, 0., 4.59459461e-02,
          5.40540554e-03, 5.40540554e-03, 8.10810830e-03 ]
   decision_functions:
      -
         sv_count: 30
         rho: 3.8842873755129403e-04
         alpha: [ 5.0000000000000000e-01, 5.0000000000000000e-01,
             5.0000000000000000e-01, 5.0000000000000000e-01,
             5.0000000000000000e-01, 5.0000000000000000e-01,
             5.0000000000000000e-01, 5.0000000000000000e-01,
             5.0000000000000000e-01, 5.0000000000000000e-01,
             5.0000000000000000e-01, 5.0000000000000000e-01,
             5.0000000000000000e-01, 5.0000000000000000e-01,
             5.0000000000000000e-01, -5.0000000000000000e-01,
             -5.0000000000000000e-01, -5.0000000000000000e-01,
             -5.0000000000000000e-01, -5.0000000000000000e-01,
             -5.0000000000000000e-01, -5.0000000000000000e-01,
             -5.0000000000000000e-01, -5.0000000000000000e-01,
             -5.0000000000000000e-01, -5.0000000000000000e-01,
             -5.0000000000000000e-01, -5.0000000000000000e-01,
             -5.0000000000000000e-01, -5.0000000000000000e-01 ]
         index: [ 1, 0, 14, 13, 12, 11, 10, 9, 8, 7, 6, 5, 4, 3, 2, 29,
             28, 27, 26, 25, 24, 23, 22, 21, 20, 19, 18, 17, 16, 15 ]
