%YAML:1.0
---
opencv_ml_svm:
   format: 3
   svmType: C_SVC
   kernel:
      type: RBF
      gamma: 1.
   C: 1.0000000000000001e-01
   term_criteria: { epsilon:1.1920928955078125e-07, iterations:1000 }
   var_count: 150
   class_count: 2
   class_labels: !!opencv-matrix
      rows: 2
      cols: 1
      dt: i
      data: [ 0, 1 ]
   sv_total: 30
   support_vectors:
      - [ 0., 0., 2.67857146e-02, 0., 0., 0., 2.14285720e-02,
          7.14285718e-03, 0., 0., 3.03571429e-02, 0., 0., 0., 0., 0., 0.,
          1.78571437e-02, 7.14285718e-03, 1.07142860e-02, 0., 0., 0.,
          1.60714295e-02, 0., 0., 0., 0., 0., 0., 0., 3.03571429e-02, 0.,
          3.57142859e-03, 0., 0., 0., 0., 0., 1.60714295e-02, 0.,
          1.96428578e-02, 2.14285720e-02, 0., 2.85714287e-02, 0., 0., 0.,
          0., 0., 0., 0., 0., 4.28571440e-02, 0., 0., 0., 0.,
          3.21428590e-02, 6.25000000e-02, 0., 0., 0., 0., 0., 0.,
          1.60714295e-02, 1.60714295e-02, 1.78571437e-02, 0., 0., 0., 0.,
          0., 5.35714300e-03, 3.92857157e-02, 0., 0., 5.17857149e-02, 0.,
          0., 5.00000007e-02, 0., 0., 4.64285724e-02, 0., 0.,
          7.14285718e-03, 7.14285718e-03, 0., 0., 0., 0., 0., 0., 0.,
          2.32142862e-02, 0., 2.85714287e-02, 0., 0., 0., 0., 0., 0., 0.,
          3.57142873e-02, 0., 5.35714291e-02, 0., 0., 5.00000007e-02, 0.,
          0., 0., 0., 0., 0., 0., 0., 1.78571430e-03, 0., 0., 0.,
          3.57142873e-02, 0., 0., 1.78571430e-03, 0., 0., 0.,
          5.89285716e-02, 0., 0., 0., 0., 0., 0., 0., 0., 5.35714291e-02,
          0., 0., 0., 0., 0., 0., 0., 5.35714300e-03, 0. ]
      - [ 0., 6.19047657e-02, 4.76190494e-03, 0., 0., 0., 6.66666701e-02,
          1.66666675e-02, 0., 0., 2.61904765e-02, 0., 0., 0., 0., 0., 0.,
          2.38095247e-03, 0., 3.09523828e-02, 0., 0., 0., 1.42857153e-02,
          0., 0., 0., 0., 1.42857153e-02, 0., 0., 2.61904765e-02, 0., 0.,
          0., 0., 0., 0., 0., 3.80952395e-02, 0., 2.14285720e-02,
          7.85714313e-02, 0., 7.38095269e-02, 0., 0., 0., 0., 0., 0., 0.,
          0., 7.14285765e-03, 0., 0., 0., 0., 2.38095247e-03,
          1.90476198e-02, 0., 0., 0., 0., 0., 0., 0., 0., 7.14285765e-03,
          0., 0., 0., 0., 0., 0., 2.14285720e-02, 9.76190493e-02, 0.,
          9.52380989e-03, 4.76190494e-03, 0., 2.85714306e-02, 0., 0., 0.,
          0., 0., 0., 4.04761918e-02, 0., 0., 1.66666675e-02, 0., 0., 0.,
          0., 3.80952395e-02, 0., 2.38095243e-02, 0., 0., 0., 0., 0., 0.,
          3.09523828e-02, 0., 1.66666675e-02, 1.66666675e-02, 0., 0.,
          1.19047621e-02, 0., 0., 0., 0., 0., 0., 0., 0., 0., 0., 0., 0.,
          9.52380989e-03, 0., 0., 3.09523828e-02, 0., 0., 0.,
          3.80952395e-02, 0., 0., 0., 0., 0., 0., 0., 0., 4.76190494e-03,
          0., 0., 2.61904765e-02, 0., 0., 0., 0., 2.14285720e-02, 0. ]
      - [ 0., 5.06756781e-03, 5.06756781e-03, 0., 0., 0., 1.52027030e-02,
          3.37837846e-03, 0., 0., 1.35135138e-02, 0., 0., 0., 0., 0., 0.,
          0., 8.44594650e-03, 1.85810812e-02, 0., 0., 0., 3.20945941e-02,
          2.02702712e-02, 0., 0., 2.70270277e-02, 1.68918923e-03, 0., 0.,
          5.57432435e-02, 0., 0., 0., 0., 0., 0., 0., 3.54729742e-02, 0.,
          4.89864871e-02, 3.71621624e-02, 0., 1.35135138e-02, 0., 0., 0.,
          0., 0., 0., 0., 0., 2.87162177e-02, 0., 0., 0., 0.,
          4.22297306e-02, 2.70270277e-02, 0., 0., 0., 2.87162177e-02, 0.,
          1.52027030e-02, 6.75675692e-03, 0., 1.85810812e-02, 0., 0., 0.,
          0., 0., 0., 0., 3.37837846e-03, 3.20945941e-02, 1.01351356e-02,
          0., 0., 8.44594650e-03, 2.19594594e-02, 0., 0., 0., 0., 0.,
          2.36486495e-02, 0., 0., 0., 0., 0., 0., 0., 2.19594594e-02,
          6.75675692e-03, 2.19594594e-02, 0., 2.70270277e-02, 0., 0.,
          4.05405425e-02, 0., 3.37837846e-03, 3.04054059e-02, 0.,
          3.71621624e-02, 3.71621624e-02, 0., 3.04054059e-02, 0., 0., 0.,
          5.06756781e-03, 0., 0., 0., 0., 0., 0., 0., 0., 2.02702712e-02,
          0., 0., 0., 0., 0., 0., 8.95270258e-02, 0., 0., 0., 0., 0., 0.,
          6.75675692e-03, 0., 1.35135138e-02, 0., 0., 0., 0., 0., 0., 0.,
          0., 0. ]
      - [ 0., 0., 3.57142859e-03, 0., 0., 0., 2.50000004e-02,
          5.35714300e-03, 0., 0., 1.60714295e-02, 0., 0., 0., 0., 0., 0.,
          1.78571430e-03, 0., 2.50000004e-02, 0., 0., 0., 1.07142860e-02,
          0., 0., 0., 0., 3.57142859e-03, 0., 0., 5.00000007e-02, 0., 0.,
          0., 0., 0., 0., 0., 3.03571429e-02, 1.78571430e-03,
          2.50000004e-02, 2.67857146e-02, 0., 3.21428590e-02, 0., 0., 0.,
          0., 0., 0., 0., 0., 3.03571429e-02, 0., 0., 0., 0.,
          2.14285720e-02, 8.03571418e-02, 0., 0., 1.78571430e-03, 0., 0.,
          0., 5.35714300e-03, 1.78571430e-03, 4.64285724e-02, 0., 0., 0.,
          0., 0., 5.35714300e-03, 3.75000015e-02, 0., 0., 8.74999985e-02,
          0., 0., 3.21428590e-02, 0., 0., 3.75000015e-02, 0., 0., 0.,
          2.67857146e-02, 0., 0., 0., 0., 0., 0., 0., 2.14285720e-02,
          1.07142860e-02, 1.60714295e-02, 0., 0., 0., 1.78571430e-03, 0.,
          0., 0., 2.14285720e-02, 0., 5.89285716e-02, 0., 0.,
          4.82142866e-02, 0., 0., 0., 0., 0., 0., 0., 0., 0., 0., 0., 0.,
          2.14285720e-02, 0., 0., 1.25000002e-02, 0., 0., 0.,
          4.10714298e-02, 0., 0., 0., 0., 0., 1.78571430e-03,
          7.14285718e-03, 0., 4.64285724e-02, 0., 3.57142859e-03,
          1.60714295e-02, 0., 0., 0., 0., 0., 0. ]
      - [ 0., 9.68379453e-02, 0., 0., 0., 0., 0., 2.37154160e-02, 0., 0.,
          0., 0., 0., 0., 0., 0., 0., 0., 0., 3.35968398e-02, 0., 0., 0.,
          5.92885399e-03, 4.15019765e-02, 0., 0., 3.35968398e-02,
          1.97628476e-02, 0., 0., 0., 0., 0., 0., 0., 0., 0., 0.,
          3.55731249e-02, 5.92885399e-03, 1.38339922e-02, 0., 0., 0., 0.,
          0., 0., 0., 0., 0., 0., 0., 3.95256933e-03, 0., 0., 0., 0., 0.,
          0., 0., 0., 0., 1.38339922e-02, 0., 1.18577080e-02, 0., 0.,
          3.95256933e-03, 0., 0., 0., 0., 0., 0., 0., 1.08695656e-01,
          5.92885399e-03, 0., 0., 0., 0., 4.34782617e-02, 0., 0., 0., 0.,
          0., 2.76679844e-02, 0., 0., 1.73913047e-01, 0., 0., 0., 0.,
          3.55731249e-02, 1.18577080e-02, 1.38339922e-02, 0.,
          2.76679844e-02, 0., 0., 3.95256933e-03, 0., 9.68379453e-02, 0.,
          1.77865624e-02, 0., 0., 0., 0., 0., 0., 0., 3.75494100e-02, 0.,
          0., 0., 0., 0., 0., 0., 0., 3.95256933e-03, 0., 0.,
          2.96442695e-02, 0., 0., 0., 0., 0., 0., 0., 0., 0., 0., 0., 0.,
          0., 0., 0., 1.77865624e-02, 0., 0., 0., 0., 0., 0. ]
      - [ 0., 5.69620207e-02, 2.10970454e-03, 0., 0., 0., 0.,
          2.53164545e-02, 0., 0., 0., 0., 0., 0., 0., 0., 0., 0., 0.,
          3.58649790e-02, 0., 0., 0., 2.10970454e-03, 3.58649790e-02, 0.,
          0., 3.37552726e-02, 2.53164545e-02, 0., 0., 2.74261590e-02, 0.,
          0., 2.10970454e-03, 0., 0., 0., 0., 5.06329089e-02,
          8.43881816e-03, 1.68776363e-02, 2.32067499e-02, 0., 0., 0., 0.,
          0., 0., 0., 0., 0., 0., 6.32911362e-03, 0., 0., 0., 0., 0., 0.,
          0., 0., 0., 3.37552726e-02, 0., 2.10970454e-02, 0., 0.,
          8.43881816e-03, 0., 0., 0., 0., 0., 0., 0., 8.43881816e-02,
          1.05485227e-02, 0., 0., 0., 2.10970454e-03, 4.43037972e-02, 0.,
          0., 0., 0., 0., 3.79746817e-02, 0., 0., 4.64134999e-02, 0., 0.,
          0., 0., 2.32067499e-02, 1.11814342e-01, 1.26582272e-02, 0.,
          2.32067499e-02, 0., 0., 0., 0., 4.43037972e-02, 0.,
          8.43881816e-03, 1.26582272e-02, 6.32911362e-03, 0.,
          6.32911362e-03, 0., 0., 0., 3.79746817e-02, 0., 0., 0., 0., 0.,
          0., 0., 0., 1.89873409e-02, 0., 0., 2.74261590e-02, 0., 0., 0.,
          0., 0., 0., 0., 0., 0., 0., 0., 0., 6.32911362e-03, 0., 0.,
          1.89873409e-02, 0., 0., 0., 0., 0., 0. ]
      - [ 0., 0., 4.64285724e-02, 0., 0., 0., 3.92857157e-02, 0., 0., 0.,
          3.39285731e-02, 0., 0., 0., 0., 0., 0., 1.78571437e-02,
          7.14285718e-03, 0., 0., 1.78571430e-03, 0., 0., 0., 0., 0., 0.,
          0., 0., 0., 4.64285724e-02, 0., 0., 0., 0., 0., 0., 0.,
          4.10714298e-02, 0., 0., 3.75000015e-02, 0., 3.57142873e-02, 0.,
          0., 0., 0., 0., 0., 0., 0., 0., 0., 0., 0., 0., 0.,
          4.28571440e-02, 0., 0., 0., 0., 0., 0., 3.21428590e-02,
          5.35714300e-03, 0., 5.35714300e-03, 0., 0., 0., 0.,
          1.78571430e-03, 4.64285724e-02, 3.57142859e-03, 0.,
          2.50000004e-02, 0., 0., 5.89285716e-02, 0., 0., 4.28571440e-02,
          0., 0., 0., 0., 0., 0., 0., 0., 0., 0., 0., 0., 0., 0., 0., 0.,
          0., 3.21428590e-02, 0., 0., 0., 4.46428582e-02, 0.,
          5.35714291e-02, 0., 0., 4.82142866e-02, 0., 0., 0., 0., 0., 0.,
          0., 2.32142862e-02, 2.50000004e-02, 0., 0., 0., 2.85714287e-02,
          3.39285731e-02, 0., 0., 0., 0., 0., 7.85714313e-02, 0.,
          2.32142862e-02, 0., 0., 0., 0., 0., 0., 3.75000015e-02, 0., 0.,
          0., 0., 0., 0., 0., 0., 0. ]
      - [ 0., 4.54545468e-02, 0., 0., 0., 0., 0., 2.76679844e-02, 0., 0.,
          0., 0., 0., 0., 0., 0., 0., 0., 0., 4.94071171e-02, 0., 0., 0.,
          0., 3.16205546e-02, 0., 0., 3.75494100e-02, 4.34782617e-02, 0.,
          0., 0., 0., 0., 0., 0., 0., 0., 0., 7.31225312e-02,
          7.90513866e-03, 1.97628466e-03, 0., 0., 0., 0., 0., 0., 0., 0.,
          0., 0., 0., 1.18577080e-02, 0., 0., 0., 0., 0., 0., 0., 0., 0.,
          2.56917011e-02, 0., 2.37154160e-02, 0., 0., 1.58102773e-02, 0.,
          0., 0., 0., 0., 0., 0., 8.89328122e-02, 9.88142379e-03, 0., 0.,
          0., 0., 4.15019765e-02, 0., 0., 0., 0., 0., 3.75494100e-02, 0.,
          0., 1.34387359e-01, 0., 0., 0., 0., 1.58102773e-02,
          1.38339922e-02, 1.77865624e-02, 0., 2.96442695e-02, 0., 0., 0.,
          0., 7.90513903e-02, 0., 2.37154160e-02, 0., 5.92885399e-03, 0.,
          0., 0., 0., 0., 3.16205546e-02, 0., 0., 0., 0., 0., 0., 0., 0.,
          1.77865624e-02, 0., 0., 2.96442695e-02, 0., 0., 0., 0., 0., 0.,
          0., 0., 0., 0., 0., 0., 0., 0., 0., 2.76679844e-02, 0., 0., 0.,
          0., 0., 0. ]
      - [ 2.60135144e-01, 1.18243247e-01, 0., 0., 0., 0., 3.37837846e-03,
          0., 0., 0., 0., 0., 3.37837846e-03, 8.44594650e-03, 0., 0., 0.,
          0., 0., 0., 0., 0., 0., 0., 5.06756781e-03, 0., 0.,
          3.88513505e-02, 4.56081107e-02, 9.12162215e-02, 0., 0., 0., 0.,
          0., 0., 0., 0., 0., 2.70270277e-02, 0., 0., 4.22297306e-02, 0.,
          0., 0., 0., 0., 0., 0., 1.68918923e-03, 0., 0., 0., 0., 0., 0.,
          0., 0., 0., 0., 0., 0., 0., 0., 0., 0., 0., 0., 0., 0.,
          3.37837846e-03, 0., 0., 0., 0., 0., 0., 0., 6.58783764e-02, 0.,
          0., 8.44594650e-03, 0., 0., 2.02702712e-02, 0., 0., 0., 0., 0.,
          0., 0., 0., 0., 1.46959469e-01, 0., 0., 0., 0., 1.01351356e-02,
          5.06756781e-03, 1.68918923e-03, 0., 0., 0., 0., 0., 0., 0., 0.,
          0., 0., 0., 0., 2.19594594e-02, 0., 0., 0., 0., 0.,
          4.56081107e-02, 0., 0., 3.37837846e-03, 0., 0., 0., 0., 0., 0.,
          0., 0., 0., 0., 0., 0., 0., 0., 0., 0., 1.68918923e-03, 0., 0.,
          8.44594650e-03, 0., 0., 0., 5.06756781e-03, 6.75675692e-03 ]
      - [ 0., 2.56917011e-02, 3.95256933e-03, 0., 0., 0., 3.95256933e-03,
          1.18577080e-02, 0., 0., 0., 0., 0., 0., 0., 0., 0., 0., 0.,
          2.17391308e-02, 0., 0., 0., 1.97628476e-02, 2.56917011e-02, 0.,
          0., 7.90513866e-03, 0., 0., 0., 5.92885390e-02, 0., 0., 0., 0.,
          0., 0., 0., 0., 3.95256933e-03, 4.34782617e-02, 1.46245062e-01,
          0., 0., 0., 0., 0., 0., 0., 0., 0., 0., 0., 0., 0., 0., 0., 0.,
          3.35968398e-02, 0., 0., 0., 4.94071171e-02, 0., 3.95256933e-03,
          0., 0., 0., 0., 0., 0., 0., 0., 0., 0., 5.13834022e-02,
          5.92885399e-03, 0., 0., 0., 0., 3.16205546e-02, 0., 0., 0., 0.,
          0., 2.17391308e-02, 0., 0., 0., 0., 0., 0., 0., 4.74308319e-02,
          0., 7.90513866e-03, 0., 3.95256951e-02, 0., 0., 0., 0., 0., 0.,
          0., 2.56917011e-02, 5.33596873e-02, 0., 4.34782617e-02, 0., 0.,
          0., 2.76679844e-02, 0., 0., 0., 0., 0., 0., 0., 0., 0., 0., 0.,
          1.58102773e-02, 0., 0., 0., 1.46245062e-01, 0., 0., 0., 0., 0.,
          0., 1.97628466e-03, 0., 1.38339922e-02, 0., 0., 5.92885399e-03,
          0., 0., 0., 0., 0., 0. ]
      - [ 0., 8.84955749e-03, 5.97345121e-02, 0., 0., 0., 1.99115053e-02,
          0., 0., 0., 4.42477874e-02, 0., 0., 0., 0., 0., 0.,
          8.84955749e-03, 0., 0., 0., 0., 0., 0., 3.09734512e-02, 0., 0.,
          2.65486725e-02, 0., 0., 0., 3.53982300e-02, 0., 0., 0., 0., 0.,
          0., 0., 2.21238937e-02, 0., 0., 2.87610628e-02, 0.,
          1.32743362e-02, 0., 0., 0., 0., 0., 0., 0., 0., 0., 0., 0., 0.,
          0., 0., 3.76106203e-02, 0., 0., 0., 1.99115053e-02, 0.,
          1.99115053e-02, 2.43362822e-02, 0., 0., 0., 0., 0., 0., 0., 0.,
          0., 1.32743362e-02, 2.21238937e-02, 0., 0., 0., 2.21238937e-03,
          2.87610628e-02, 0., 0., 0., 0., 0., 0., 0., 0., 2.21238937e-03,
          0., 0., 0., 0., 0., 0., 0., 0., 4.20353971e-02, 0.,
          3.31858397e-02, 3.09734512e-02, 0., 0., 2.87610628e-02, 0.,
          6.19469024e-02, 1.99115053e-02, 0., 4.64601777e-02, 0., 0., 0.,
          6.63716812e-03, 0., 0., 0., 4.64601777e-02, 4.64601777e-02, 0.,
          0., 0., 2.43362822e-02, 5.08849546e-02, 0., 0., 0., 0., 0.,
          3.31858397e-02, 0., 1.10619469e-02, 0., 0., 0., 0., 0., 0.,
          4.86725643e-02, 0., 0., 0., 0., 0., 0., 0., 0., 0. ]
      - [ 3.95256933e-03, 9.88142341e-02, 1.38339922e-02, 0., 0., 0.,
          3.55731249e-02, 0., 0., 0., 4.54545468e-02, 0., 0., 0., 0., 0.,
          0., 0., 0., 0., 0., 0., 0., 0., 0., 0., 0., 0., 1.02766804e-01,
          3.95256933e-03, 0., 0., 0., 0., 0., 0., 0., 0., 0.,
          7.11462498e-02, 0., 0., 4.54545468e-02, 0., 5.92885390e-02, 0.,
          0., 0., 0., 0., 0., 0., 0., 0., 0., 0., 0., 0., 0., 0., 0., 0.,
          0., 0., 0., 0., 1.58102773e-02, 0., 0., 0., 0., 0., 0., 0., 0.,
          0., 5.73122539e-02, 0., 0., 8.30039531e-02, 0., 7.31225312e-02,
          0., 0., 0., 0., 0., 0., 0., 0., 0., 2.37154160e-02, 0., 0., 0.,
          0., 0., 0., 0., 0., 0., 0., 0., 0., 0., 9.68379453e-02, 0., 0.,
          0., 0., 0., 3.95256933e-03, 0., 3.95256933e-03, 0., 0., 0., 0.,
          0., 0., 0., 0., 0., 0., 5.92885390e-02, 0., 0., 0., 0., 0., 0.,
          0., 0., 0., 0., 0., 0., 0., 0., 0., 0., 0., 0., 0., 0., 0., 0.,
          0., 1.02766804e-01, 0. ]
      - [ 0., 0., 5.73122539e-02, 0., 0., 0., 1.18577080e-02, 0., 0., 0.,
          3.75494100e-02, 0., 0., 0., 0., 0., 0., 1.97628476e-02, 0., 0.,
          3.95256933e-03, 0., 0., 0., 2.56917011e-02, 0., 0.,
          2.37154160e-02, 0., 1.97628466e-03, 0., 5.13834022e-02, 0., 0.,
          0., 0., 0., 0., 0., 2.76679844e-02, 0., 0., 4.15019765e-02, 0.,
          9.88142379e-03, 0., 0., 0., 0., 0., 0., 0., 0., 0., 0., 0., 0.,
          0., 0., 5.33596873e-02, 0., 0., 0., 2.17391308e-02, 0.,
          9.88142379e-03, 2.17391308e-02, 0., 0., 0., 0., 0., 0., 0., 0.,
          0., 5.92885399e-03, 9.88142379e-03, 0., 0., 0., 1.97628466e-03,
          2.17391308e-02, 0., 0., 0., 0., 0., 0., 0., 0., 0., 0., 0., 0.,
          0., 0., 0., 0., 0., 3.75494100e-02, 0., 3.55731249e-02,
          2.56917011e-02, 0., 0., 1.77865624e-02, 0., 5.92885390e-02,
          3.75494100e-02, 0., 4.34782617e-02, 0., 0., 0., 7.90513866e-03,
          0., 0., 0., 2.76679844e-02, 3.75494100e-02, 0., 0., 0.,
          2.37154160e-02, 3.35968398e-02, 0., 0., 0., 0., 0.,
          8.69565234e-02, 0., 2.17391308e-02, 0., 0., 0., 0., 0., 0.,
          4.54545468e-02, 0., 0., 0., 0., 0., 0., 0., 0., 0. ]
      - [ 0., 5.46448082e-02, 2.73224036e-03, 0., 0., 0., 1.14754096e-01,
          0., 0., 0., 4.09836061e-02, 0., 0., 0., 0., 0., 0., 0., 0., 0.,
          0., 0., 0., 0., 0., 0., 0., 0., 5.19125685e-02, 0., 0.,
          5.46448082e-02, 0., 0., 0., 0., 0., 0., 0., 2.18579229e-02, 0.,
          0., 8.46994519e-02, 0., 7.10382462e-02, 0., 0., 0., 0., 0., 0.,
          0., 0., 0., 0., 0., 0., 0., 0., 1.63934417e-02, 0., 0., 0., 0.,
          0., 0., 0., 0., 0., 0., 0., 0., 0., 0., 0., 2.73224036e-03,
          1.12021856e-01, 0., 0., 7.37704933e-02, 0., 8.19672085e-03, 0.,
          0., 0., 0., 0., 0., 0., 0., 0., 3.27868834e-02, 0., 0., 0., 0.,
          0., 0., 0., 0., 0., 0., 0., 0., 0., 1.20218575e-01, 0., 0.,
          3.82513665e-02, 0., 0., 2.73224041e-02, 0., 0., 0., 0., 0., 0.,
          0., 0., 0., 0., 0., 0., 2.45901626e-02, 0., 0., 0., 0., 0., 0.,
          0., 0., 0., 0., 0., 0., 0., 0., 0., 2.73224041e-02, 0., 0., 0.,
          0., 0., 0., 0., 1.91256832e-02, 0. ]
      - [ 0., 0., 7.90513866e-03, 1.97628476e-02, 0., 0., 0.,
          2.37154160e-02, 0., 0., 0., 0., 0., 0., 0., 7.90513866e-03, 0.,
          7.90513866e-03, 0., 0., 3.95256933e-03, 0., 1.97628466e-03, 0.,
          2.37154160e-02, 0., 2.37154160e-02, 2.37154160e-02, 0., 0., 0.,
          4.15019765e-02, 0., 6.52173907e-02, 0., 0., 0., 0., 0.,
          2.56917011e-02, 0., 3.95256933e-03, 3.35968398e-02, 0., 0., 0.,
          0., 0., 0., 0., 0., 1.18577080e-02, 0., 9.88142379e-03, 0., 0.,
          0., 0., 0., 1.77865624e-02, 0., 0., 2.37154160e-02,
          1.38339922e-02, 0., 7.90513866e-03, 0., 0., 2.17391308e-02, 0.,
          0., 0., 0., 0., 0., 0., 0., 0., 3.95256933e-03, 0., 0., 0.,
          2.76679844e-02, 3.95256933e-03, 0., 0., 0., 0., 1.77865624e-02,
          0., 0., 0., 0., 0., 0., 1.77865624e-02, 2.56917011e-02, 0.,
          1.18577080e-02, 0., 2.37154160e-02, 3.95256933e-03,
          3.95256933e-03, 0., 0., 0., 0., 5.92885399e-03, 4.15019765e-02,
          1.18577080e-02, 0., 6.71936795e-02, 4.34782617e-02, 0.,
          8.30039531e-02, 2.96442695e-02, 0., 0., 0., 0., 1.97628466e-03,
          0., 0., 0., 1.58102773e-02, 5.92885399e-03, 0., 2.76679844e-02,
          0., 0., 0., 0., 0., 0., 0., 0., 0., 1.97628466e-03, 0., 0.,
          6.91699609e-02, 0., 1.18577080e-02, 2.17391308e-02, 0., 0., 0.,
          0., 0., 0. ]
      - [ 0., 0., 0., 0., 1.83486231e-02, 2.17889901e-02, 0., 0.,
          3.21100913e-02, 0., 0., 1.83486231e-02, 0., 4.58715577e-03,
          1.03211002e-02, 4.58715577e-03, 8.02752282e-03, 2.17889901e-02,
          6.88073365e-03, 0., 1.37614673e-02, 1.72018334e-02,
          4.58715577e-03, 0., 0., 1.94954127e-02, 0., 0., 0.,
          1.49082560e-02, 1.60550456e-02, 0., 2.29357788e-03,
          1.83486231e-02, 1.14678890e-02, 1.83486231e-02, 2.52293572e-02,
          8.02752282e-03, 1.14678890e-02, 0., 1.03211002e-02, 0.,
          5.73394448e-03, 1.94954127e-02, 0., 0., 1.83486231e-02,
          3.44036683e-03, 0., 2.06422005e-02, 4.58715577e-03,
          2.52293572e-02, 1.60550456e-02, 0., 5.73394448e-03,
          2.06422005e-02, 1.37614673e-02, 2.40825675e-02, 0., 0.,
          1.26146786e-02, 5.73394448e-03, 1.03211002e-02, 0.,
          2.06422005e-02, 0., 4.58715577e-03, 9.17431153e-03, 0.,
          2.29357779e-02, 0., 6.88073365e-03, 1.37614673e-02,
          3.09633017e-02, 1.03211002e-02, 1.14678894e-03, 0., 0., 0., 0.,
          1.49082560e-02, 0., 0., 1.14678894e-03, 0., 0., 9.17431153e-03,
          0., 0., 1.49082560e-02, 0., 0., 5.73394448e-03, 2.29357779e-02,
          4.47247699e-02, 0., 0., 0., 0., 9.17431153e-03, 0., 0.,
          1.26146786e-02, 0., 0., 0., 0., 0., 0., 0., 4.58715577e-03, 0.,
          1.37614673e-02, 0., 0., 0., 1.14678890e-02, 0., 4.58715577e-03,
          1.03211002e-02, 1.14678894e-03, 0., 8.02752282e-03, 0., 0.,
          3.44036683e-03, 0., 0., 0., 8.02752282e-03, 0., 9.17431153e-03,
          0., 1.37614673e-02, 2.40825675e-02, 0., 0., 2.06422005e-02,
          1.83486231e-02, 9.17431153e-03, 0., 0., 3.44036683e-03,
          1.14678894e-03, 0., 1.94954127e-02, 1.49082560e-02, 0., 0., 0. ]
      - [ 3.78440358e-02, 0., 0., 0., 1.03211002e-02, 3.78440358e-02, 0.,
          1.49082560e-02, 0., 0., 0., 3.21100913e-02, 0., 0., 0., 0., 0.,
          0., 4.58715577e-03, 3.32568809e-02, 0., 0., 0., 0., 0., 0., 0.,
          0., 1.14678894e-03, 0., 0., 0., 0., 0., 0., 0., 3.55504565e-02,
          3.44036683e-03, 0., 0., 1.14678890e-02, 4.58715577e-03, 0.,
          2.75229346e-02, 8.02752282e-03, 1.06651373e-01, 0., 0., 0., 0.,
          8.02752282e-03, 0., 5.73394448e-03, 1.26146786e-02,
          1.14678894e-03, 0., 1.60550456e-02, 2.29357788e-03, 0., 0., 0.,
          0., 0., 0., 2.29357788e-03, 0., 0., 2.29357788e-03,
          8.02752282e-03, 0., 0., 2.06422005e-02, 1.83486231e-02, 0., 0.,
          0., 0., 0., 0., 2.29357788e-03, 0., 1.14678894e-03, 0.,
          1.26146786e-02, 0., 2.29357788e-03, 0., 3.55504565e-02,
          1.14678890e-02, 4.12844010e-02, 0., 0., 2.06422005e-02,
          3.44036683e-03, 0., 0., 1.72018334e-02, 7.33944923e-02,
          4.01376113e-02, 1.03211002e-02, 0., 0., 0., 0., 0., 0.,
          1.14678890e-02, 1.60550456e-02, 0., 0., 0., 0., 0.,
          5.84862344e-02, 0., 0., 0., 1.14678894e-03, 9.17431153e-03, 0.,
          0., 0., 0., 0., 6.88073365e-03, 0., 0., 2.29357779e-02, 0.,
          1.14678894e-03, 0., 0., 6.07798137e-02, 0., 0., 1.14678894e-03,
          0., 0., 0., 5.73394448e-03, 0., 0., 0., 1.14678890e-02, 0., 0.,
          2.29357779e-02, 0., 3.21100913e-02, 0. ]
      - [ 0., 0., 0., 0., 1.05485227e-02, 1.89873409e-02, 0., 0., 0., 0.,
          0., 2.10970454e-03, 1.89873409e-02, 2.32067499e-02,
          1.16033750e-02, 2.21518986e-02, 1.68776363e-02, 4.21940908e-03,
          0., 0., 1.47679318e-02, 0., 1.47679318e-02, 0., 0.,
          4.21940908e-03, 0., 0., 0., 0., 1.05485227e-03, 0.,
          1.16033750e-02, 4.21940908e-03, 2.00421922e-02, 0.,
          2.32067499e-02, 1.89873409e-02, 1.89873409e-02, 0.,
          2.32067499e-02, 0., 0., 1.79324895e-02, 0., 0., 0.,
          1.58227831e-02, 0., 0., 1.26582272e-02, 3.16455681e-03,
          9.49367043e-03, 0., 1.26582272e-02, 1.05485227e-02,
          1.05485227e-03, 8.43881816e-03, 0., 0., 9.49367043e-03,
          7.38396589e-03, 1.47679318e-02, 0., 4.21940908e-03, 0., 0.,
          1.05485227e-03, 1.05485227e-03, 0., 2.84810103e-02,
          4.21940908e-03, 1.37130795e-02, 4.21940908e-03, 0., 0., 0.,
          7.38396589e-03, 0., 0., 0., 0., 0., 1.37130795e-02, 0.,
          3.05907167e-02, 1.37130795e-02, 0., 0., 0., 1.58227831e-02, 0.,
          2.63713077e-02, 0., 0., 3.16455681e-03, 0., 0., 0.,
          6.32911362e-03, 0., 1.37130795e-02, 0., 0., 3.27004194e-02, 0.,
          0., 1.58227831e-02, 0., 0., 2.10970454e-02, 0., 0., 0., 0., 0.,
          5.27426135e-03, 2.42616013e-02, 2.21518986e-02, 0., 0.,
          2.00421922e-02, 0., 4.00843844e-02, 0., 0., 2.21518986e-02,
          2.10970454e-03, 1.47679318e-02, 1.37130795e-02, 2.10970454e-03,
          0., 0., 0., 0., 2.10970454e-02, 3.16455662e-02, 0., 0.,
          1.05485227e-02, 0., 1.58227831e-02, 2.21518986e-02,
          1.68776363e-02, 2.42616013e-02, 7.38396589e-03, 3.16455681e-03,
          1.47679318e-02, 0., 1.05485227e-03 ]
      - [ 0., 0., 0., 0., 1.98938996e-02, 2.12201588e-02, 0., 0.,
          2.25464180e-02, 0., 0., 3.18302363e-02, 0., 6.63129985e-03,
          7.95755908e-03, 1.06100794e-02, 1.06100794e-02, 2.25464180e-02,
          0., 0., 1.19363395e-02, 3.18302363e-02, 0., 0., 0.,
          1.72413792e-02, 0., 0., 0., 1.98938996e-02, 2.38726791e-02, 0.,
          0., 2.91777179e-02, 1.32625997e-02, 2.12201588e-02,
          2.38726791e-02, 9.28381924e-03, 1.06100794e-02, 0.,
          5.30503970e-03, 0., 0., 1.19363395e-02, 0., 0., 1.32625997e-02,
          5.30503970e-03, 0., 2.38726791e-02, 1.72413792e-02,
          2.25464180e-02, 1.59151182e-02, 0., 2.65251985e-03,
          1.72413792e-02, 1.85676385e-02, 2.65251994e-02, 0., 0.,
          1.59151182e-02, 0., 1.32625997e-02, 0., 6.63129985e-03, 0., 0.,
          0., 0., 2.12201588e-02, 0., 5.30503970e-03, 1.85676385e-02,
          4.64190990e-02, 1.45888589e-02, 0., 0., 0., 0., 0.,
          1.32625997e-02, 0., 0., 1.32625992e-03, 0., 0., 1.06100794e-02,
          0., 0., 2.38726791e-02, 0., 0., 2.65251985e-03, 2.38726791e-02,
          2.65251994e-02, 0., 0., 0., 0., 9.28381924e-03, 0., 0.,
          1.06100794e-02, 0., 0., 0., 0., 0., 0., 0., 2.65251985e-03, 0.,
          1.98938996e-02, 0., 0., 0., 1.19363395e-02, 0., 6.63129985e-03,
          6.63129985e-03, 3.97877954e-03, 0., 0., 0., 0., 6.63129985e-03,
          0., 0., 0., 1.32625997e-02, 0., 0., 0., 1.19363395e-02,
          2.12201588e-02, 0., 0., 2.25464180e-02, 1.19363395e-02,
          3.97877954e-03, 0., 0., 1.32625992e-03, 0., 0., 2.51989383e-02,
          1.98938996e-02, 0., 0., 0. ]
      - [ 0., 0., 0., 0., 5.10204071e-03, 0., 0., 0., 0., 0., 0., 0.,
          1.42857134e-02, 2.14285702e-02, 1.12244897e-02, 1.42857134e-02,
          1.22448970e-02, 8.16326495e-03, 0., 0., 1.42857134e-02,
          2.04081624e-03, 1.53061217e-02, 0., 0., 2.04081624e-03, 0., 0.,
          0., 0., 0., 0., 1.22448970e-02, 5.10204071e-03, 1.22448970e-02,
          0., 0., 1.53061217e-02, 2.04081628e-02, 0., 2.14285702e-02, 0.,
          0., 1.32653052e-02, 0., 0., 0., 1.42857134e-02, 0., 0., 0., 0.,
          1.42857134e-02, 0., 1.32653052e-02, 0., 0., 0., 0., 0.,
          9.18367319e-03, 9.18367319e-03, 1.53061217e-02, 0., 0., 0., 0.,
          0., 0., 3.06122424e-03, 1.53061217e-02, 3.77551019e-02,
          1.22448970e-02, 4.08163248e-03, 0., 0., 0., 6.12244848e-03, 0.,
          0., 3.06122424e-03, 0., 0., 1.83673464e-02, 0., 2.55102031e-02,
          1.02040814e-02, 0., 0., 0., 1.73469372e-02, 0., 3.87755074e-02,
          0., 0., 1.93877537e-02, 0., 0., 9.18367319e-03, 7.14285672e-03,
          0., 1.32653052e-02, 0., 0., 3.67346928e-02, 0., 0.,
          2.55102031e-02, 0., 0., 1.83673464e-02, 0., 0., 0., 0., 0.,
          7.14285672e-03, 2.04081628e-02, 2.14285702e-02, 0.,
          2.04081624e-03, 1.63265299e-02, 0., 2.95918360e-02, 0., 0.,
          4.08163257e-02, 8.16326495e-03, 1.73469372e-02, 9.18367319e-03,
          8.16326495e-03, 0., 0., 0., 0., 2.04081628e-02, 3.16326506e-02,
          0., 0., 1.02040814e-02, 0., 1.53061217e-02, 2.75510196e-02,
          1.42857134e-02, 2.24489793e-02, 5.10204071e-03, 0.,
          1.83673464e-02, 0., 3.67346928e-02 ]
      - [ 0., 0., 0., 0., 1.29589625e-02, 2.37580985e-02, 0., 0.,
          9.71922185e-03, 0., 0., 1.07991360e-02, 7.55939493e-03,
          2.59179249e-02, 1.18790492e-02, 3.02375797e-02, 1.18790492e-02,
          9.71922185e-03, 2.15982716e-03, 0., 1.94384437e-02,
          1.07991358e-03, 1.40388766e-02, 0., 0., 1.18790492e-02, 0., 0.,
          0., 2.15982716e-03, 7.55939493e-03, 0., 1.18790492e-02,
          9.71922185e-03, 1.83585305e-02, 1.40388766e-02, 1.61987040e-02,
          1.29589625e-02, 2.05183588e-02, 0., 1.61987040e-02, 0., 0.,
          2.15982720e-02, 0., 0., 1.07991358e-03, 9.71922185e-03, 0.,
          9.71922185e-03, 4.31965431e-03, 1.83585305e-02, 1.40388766e-02,
          0., 9.71922185e-03, 2.15982716e-03, 4.31965431e-03,
          2.15982720e-02, 0., 0., 1.18790492e-02, 7.55939493e-03,
          2.59179249e-02, 0., 1.07991360e-02, 0., 1.07991358e-03,
          4.31965431e-03, 0., 4.31965431e-03, 7.55939493e-03,
          6.47948124e-03, 1.61987040e-02, 2.05183588e-02, 0., 0., 0., 0.,
          0., 0., 6.47948124e-03, 0., 0., 1.29589625e-02, 0.,
          1.29589625e-02, 9.71922185e-03, 0., 0., 7.55939493e-03,
          1.18790492e-02, 0., 1.51187899e-02, 2.05183588e-02, 0., 0., 0.,
          0., 0., 8.63930862e-03, 0., 8.63930862e-03, 0., 0.,
          2.26781853e-02, 0., 1.07991360e-02, 5.39956801e-03, 0., 0.,
          1.07991360e-02, 0., 0., 0., 0., 0., 9.71922185e-03,
          1.51187899e-02, 1.51187899e-02, 4.31965431e-03, 0.,
          9.71922185e-03, 0., 1.29589625e-02, 0., 1.07991358e-03,
          1.94384437e-02, 0., 1.07991360e-02, 1.07991360e-02, 0., 0., 0.,
          0., 1.72786172e-02, 4.31965431e-03, 2.91576665e-02,
          1.29589625e-02, 0., 1.18790492e-02, 0., 1.72786172e-02,
          2.15982720e-02, 9.71922185e-03, 4.31965431e-03, 1.07991360e-02,
          1.07991360e-02, 1.07991360e-02, 0., 0. ]
      - [ 0., 0., 0., 0., 1.54761914e-02, 2.97619067e-02, 0., 0.,
          2.61904765e-02, 0., 0., 2.02380959e-02, 0., 2.38095247e-03,
          8.33333377e-03, 0., 8.33333377e-03, 2.50000004e-02, 0., 0.,
          1.19047621e-02, 9.52380989e-03, 2.38095247e-03, 0., 0.,
          1.90476198e-02, 0., 0., 0., 1.90476198e-02, 2.38095243e-02, 0.,
          0., 2.14285720e-02, 1.42857153e-02, 1.54761914e-02,
          8.33333377e-03, 7.14285765e-03, 1.07142860e-02, 0.,
          1.30952382e-02, 0., 0., 2.14285720e-02, 0., 0., 1.66666675e-02,
          5.95238106e-03, 0., 2.50000004e-02, 3.57142882e-03,
          2.14285720e-02, 1.66666675e-02, 0., 7.14285765e-03, 0.,
          8.33333377e-03, 2.26190481e-02, 0., 1.19047624e-03,
          1.30952382e-02, 1.19047624e-03, 2.38095247e-03, 0.,
          1.07142860e-02, 0., 0., 3.57142882e-03, 0., 1.30952382e-02, 0.,
          9.52380989e-03, 1.78571437e-02, 6.07142895e-02, 1.42857153e-02,
          0., 0., 0., 0., 0., 1.42857153e-02, 0., 0., 2.38095243e-02, 0.,
          0., 9.52380989e-03, 0., 0., 7.14285765e-03, 0., 0.,
          9.52380989e-03, 2.61904765e-02, 2.02380959e-02, 0., 0., 0., 0.,
          1.07142860e-02, 0., 0., 2.73809526e-02, 0., 0., 0., 0., 0., 0.,
          0., 4.76190494e-03, 0., 1.90476198e-02, 0., 0., 0.,
          1.19047621e-02, 1.90476198e-02, 1.07142860e-02, 4.76190494e-03,
          1.19047624e-03, 0., 0., 7.14285765e-03, 0., 5.95238106e-03,
          2.50000004e-02, 0., 0., 1.30952382e-02, 0., 0., 0.,
          1.90476198e-02, 2.14285720e-02, 0., 0., 1.78571437e-02,
          5.95238106e-03, 9.52380989e-03, 0., 0., 4.76190494e-03, 0., 0.,
          2.26190481e-02, 1.90476198e-02, 0., 0., 0. ]
      - [ 0., 0., 0., 0., 0., 0., 0., 1.67785231e-02, 0., 0., 0.,
          5.03355712e-02, 5.14541380e-02, 1.34228189e-02, 0.,
          1.00671146e-02, 0., 0., 0., 0., 0., 0., 0., 0., 0., 0., 0., 0.,
          0., 0., 0., 0., 0., 0., 0., 0., 4.69798669e-02, 5.59284119e-03,
          0., 0., 2.46085003e-02, 0., 0., 0., 0., 0., 0., 3.35570471e-03,
          0., 0., 0., 0., 2.23713648e-03, 1.00671146e-02, 0., 0.,
          1.11856824e-02, 0., 0., 0., 0., 0., 0., 0., 1.11856824e-03,
          1.45413876e-02, 0., 0., 1.45413876e-02, 0., 0., 1.26398206e-01,
          1.11856824e-02, 0., 0., 0., 0., 0., 0., 0., 0., 0., 0.,
          3.35570471e-03, 0., 1.34228189e-02, 0., 0., 1.23042502e-02,
          4.47427295e-02, 7.82997720e-03, 0., 2.23713648e-02, 0., 0.,
          7.60626420e-02, 0., 0., 2.01342292e-02, 1.90156605e-02, 0.,
          8.94854590e-03, 0., 0., 0., 0., 0., 3.46756168e-02, 0., 0.,
          2.68456377e-02, 0., 0., 0., 0., 0., 1.34228189e-02, 0.,
          4.47427295e-03, 0., 0., 2.46085003e-02, 0., 0., 1.45413876e-02,
          0., 0., 2.34899335e-02, 0., 1.00671146e-02, 0., 0., 0., 0., 0.,
          3.24384794e-02, 4.47427295e-03, 0., 0., 0., 2.23713648e-03,
          3.35570471e-03, 0., 1.45413876e-02, 1.11856824e-03, 0., 0.,
          3.57941836e-02, 0., 1.11856826e-01 ]
      - [ 0., 0., 0., 0., 1.19047624e-03, 4.16666679e-02, 0.,
          7.14285765e-03, 0., 0., 0., 7.14285765e-03, 1.54761914e-02,
          2.73809526e-02, 9.52380989e-03, 2.26190481e-02, 8.33333377e-03,
          2.38095247e-03, 0., 0., 8.33333377e-03, 0., 1.19047621e-02, 0.,
          0., 8.33333377e-03, 0., 0., 0., 0., 0., 0., 1.19047621e-02, 0.,
          7.14285765e-03, 0., 0., 1.07142860e-02, 1.07142860e-02, 0.,
          2.85714306e-02, 0., 8.33333377e-03, 1.07142860e-02, 0., 0., 0.,
          1.42857153e-02, 0., 0., 0., 0., 4.76190494e-03, 0.,
          5.95238106e-03, 0., 4.76190494e-03, 2.38095247e-03, 0., 0.,
          1.19047621e-02, 7.14285765e-03, 1.30952382e-02, 0., 0., 0., 0.,
          0., 0., 0., 4.52380963e-02, 2.38095247e-03, 1.19047624e-03, 0.,
          0., 0., 0., 5.95238106e-03, 0., 0., 1.19047624e-03, 0., 0.,
          1.07142860e-02, 0., 2.61904765e-02, 5.95238106e-03, 0., 0.,
          7.14285765e-03, 1.78571437e-02, 0., 2.85714306e-02, 0., 0.,
          2.38095243e-02, 0., 0., 3.57142882e-03, 1.07142860e-02, 0.,
          1.42857153e-02, 0., 0., 1.30952382e-02, 0., 0., 1.90476198e-02,
          0., 0., 1.54761914e-02, 0., 0., 0., 0., 0., 1.07142860e-02,
          2.50000004e-02, 2.38095243e-02, 0., 2.38095247e-03,
          1.78571437e-02, 0., 3.45238112e-02, 0., 0., 5.71428612e-02,
          7.14285765e-03, 1.78571437e-02, 7.14285765e-03, 7.14285765e-03,
          0., 0., 0., 0., 3.57142873e-02, 5.11904769e-02, 0., 0.,
          5.95238106e-03, 0., 1.07142860e-02, 2.14285720e-02,
          1.54761914e-02, 2.38095243e-02, 1.19047624e-03, 0.,
          4.76190485e-02, 0., 0. ]
      - [ 0., 0., 0., 0., 1.77865624e-02, 2.47035585e-02, 0., 0., 0., 0.,
          0., 5.92885399e-03, 1.28458505e-02, 2.17391308e-02,
          8.89328122e-03, 1.67984199e-02, 8.89328122e-03, 1.97628466e-03,
          2.96442700e-03, 0., 6.91699609e-03, 0., 8.89328122e-03, 0., 0.,
          9.88142379e-03, 0., 0., 0., 0., 0., 0., 1.08695654e-02, 0.,
          1.28458505e-02, 0., 8.89328122e-03, 1.18577080e-02,
          1.67984199e-02, 0., 3.35968398e-02, 0., 0., 1.87747050e-02, 0.,
          0., 0., 1.58102773e-02, 0., 0., 9.88142332e-04, 9.88142332e-04,
          1.58102773e-02, 0., 1.38339922e-02, 3.95256933e-03,
          1.97628466e-03, 5.92885399e-03, 0., 0., 8.89328122e-03,
          4.94071189e-03, 1.08695654e-02, 0., 9.88142379e-03, 0.,
          2.96442700e-03, 2.96442700e-03, 0., 0., 3.26086953e-02,
          5.92885399e-03, 1.67984199e-02, 9.88142332e-04, 0., 0., 0.,
          1.28458505e-02, 0., 0., 9.88142332e-04, 0., 0., 1.67984199e-02,
          0., 3.06324121e-02, 8.89328122e-03, 0., 0., 0., 1.28458505e-02,
          0., 2.56917011e-02, 0., 0., 2.17391308e-02, 0., 0.,
          2.96442700e-03, 6.91699609e-03, 0., 1.38339922e-02, 0., 0.,
          2.86561269e-02, 0., 0., 2.37154160e-02, 0., 0., 1.67984199e-02,
          0., 0., 0., 0., 0., 6.91699609e-03, 1.87747050e-02,
          1.18577080e-02, 2.96442700e-03, 1.97628466e-03, 1.58102773e-02,
          3.95256933e-03, 1.77865624e-02, 0., 0., 3.35968398e-02, 0.,
          1.87747050e-02, 1.18577080e-02, 1.67984199e-02, 0., 0., 0., 0.,
          3.06324121e-02, 2.96442695e-02, 9.88142332e-04, 0.,
          1.38339922e-02, 0., 7.90513866e-03, 2.56917011e-02,
          1.18577080e-02, 3.06324121e-02, 1.08695654e-02, 8.89328122e-03,
          2.47035585e-02, 0., 1.97628466e-03 ]
      - [ 0., 0., 0., 0., 1.60891078e-02, 1.60891078e-02, 0., 0.,
          2.47524753e-02, 0., 0., 2.47524753e-02, 0., 0., 7.42574222e-03,
          7.42574222e-03, 8.66336655e-03, 1.98019799e-02, 0., 0.,
          1.11386133e-02, 2.72277221e-02, 3.71287111e-03, 0., 0.,
          2.22772267e-02, 0., 0., 0., 1.73267331e-02, 4.70297039e-02, 0.,
          0., 6.18811883e-03, 1.48514844e-02, 1.85643565e-02,
          2.59900987e-02, 8.66336655e-03, 1.11386133e-02, 0.,
          4.95049497e-03, 0., 0., 2.10396033e-02, 0., 0., 9.90098994e-03,
          4.95049497e-03, 0., 2.10396033e-02, 3.34158428e-02,
          2.97029689e-02, 1.36138611e-02, 0., 6.18811883e-03,
          2.72277221e-02, 1.60891078e-02, 1.85643565e-02, 0., 0.,
          1.23762377e-02, 0., 1.73267331e-02, 0., 7.42574222e-03, 0., 0.,
          0., 0., 2.84653455e-02, 0., 2.47524749e-03, 2.10396033e-02,
          3.34158428e-02, 1.23762377e-02, 0., 0., 0., 0., 0.,
          1.36138611e-02, 0., 0., 0., 0., 0., 9.90098994e-03, 0., 0.,
          1.85643565e-02, 0., 0., 6.18811883e-03, 2.47524753e-02,
          2.72277221e-02, 0., 0., 0., 0., 9.90098994e-03, 0., 0.,
          7.42574222e-03, 0., 0., 0., 0., 0., 0., 0., 7.42574222e-03, 0.,
          1.98019799e-02, 0., 0., 0., 1.23762377e-02, 0., 9.90098994e-03,
          3.71287111e-03, 1.23762374e-03, 0., 0., 0., 0., 4.95049497e-03,
          0., 0., 0., 1.36138611e-02, 0., 0., 0., 7.42574222e-03,
          2.35148519e-02, 0., 0., 2.35148519e-02, 2.10396033e-02,
          8.66336655e-03, 0., 0., 2.47524749e-03, 0., 0., 2.35148519e-02,
          1.85643565e-02, 0., 0., 0. ]
      - [ 0., 0., 0., 4.85961102e-02, 1.07991358e-03, 2.37580985e-02, 0.,
          9.71922185e-03, 1.07991358e-03, 0., 0., 3.13174948e-02,
          2.59179249e-02, 2.15982720e-02, 0., 1.61987040e-02, 0.,
          3.23974062e-03, 0., 0., 4.31965431e-03, 0., 5.39956801e-03, 0.,
          0., 1.07991358e-03, 0., 0., 0., 0., 1.07991358e-03, 0., 0.,
          2.15982716e-03, 1.07991358e-03, 0., 2.37580985e-02,
          1.07991360e-02, 2.15982716e-03, 0., 2.48380117e-02, 0., 0.,
          2.48380117e-02, 0., 0., 0., 7.55939493e-03, 0., 0.,
          6.04751594e-02, 0., 6.47948124e-03, 1.40388766e-02, 0.,
          2.15982716e-03, 1.29589625e-02, 2.15982716e-03, 0., 0., 0., 0.,
          6.47948124e-03, 0., 3.23974062e-03, 1.51187899e-02,
          2.15982716e-03, 0., 1.72786172e-02, 0., 5.61555065e-02,
          2.05183588e-02, 1.61987040e-02, 2.37580985e-02, 0., 0., 0.,
          2.59179249e-02, 0., 0., 0., 0., 0., 1.07991360e-02, 0., 0., 0.,
          0., 1.07991358e-03, 3.67170610e-02, 9.71922185e-03, 0.,
          2.37580985e-02, 0., 0., 0., 1.07991358e-03, 0., 2.15982720e-02,
          1.51187899e-02, 0., 1.72786172e-02, 0., 0., 0., 0.,
          6.47948124e-03, 3.02375797e-02, 0., 0., 1.94384437e-02, 0., 0.,
          0., 0., 0., 8.63930862e-03, 0., 1.61987040e-02, 0., 0.,
          8.63930862e-03, 0., 0., 3.23974062e-03, 0., 0., 1.07991360e-02,
          0., 9.71922185e-03, 1.40388766e-02, 0., 0., 0., 0.,
          3.45572345e-02, 1.07991358e-03, 2.15982716e-03, 0.,
          3.45572345e-02, 0., 0., 7.55939493e-03, 1.51187899e-02,
          3.23974080e-02, 0., 1.51187899e-02, 1.61987040e-02, 0., 0. ]
      - [ 0., 0., 0., 0., 1.05863186e-02, 1.87296402e-02, 0., 0.,
          1.46579798e-02, 0., 0., 1.95439737e-02, 0., 4.88599343e-03,
          8.14332254e-03, 4.88599343e-03, 5.70032559e-03, 1.71009768e-02,
          4.64169383e-02, 0., 1.22149829e-02, 2.85016280e-02,
          1.62866444e-03, 0., 0., 1.22149829e-02, 0., 0., 0.,
          8.95765424e-03, 1.62866451e-02, 0., 4.07166127e-03,
          1.71009768e-02, 1.30293155e-02, 9.77198686e-03, 1.79153085e-02,
          3.25732888e-03, 5.70032559e-03, 0., 6.51465775e-03, 0.,
          1.62866451e-02, 8.95765424e-03, 0., 0., 1.54723125e-02,
          8.14332219e-04, 4.56026047e-02, 1.54723125e-02, 0.,
          1.46579798e-02, 4.88599343e-03, 0., 0., 3.25732888e-03,
          1.14006512e-02, 1.46579798e-02, 0., 0., 8.14332254e-03,
          4.07166127e-03, 7.32898992e-03, 0., 2.19869707e-02, 0.,
          3.25732888e-03, 2.52442993e-02, 0., 2.44299658e-02, 0.,
          3.25732888e-03, 9.77198686e-03, 3.25732902e-02, 2.60586310e-02,
          2.44299672e-03, 0., 0., 4.88599343e-03, 0., 1.22149829e-02, 0.,
          0., 1.62866444e-03, 0., 0., 8.95765424e-03, 0., 0.,
          1.95439737e-02, 0., 0., 3.25732888e-03, 1.71009768e-02,
          2.68729627e-02, 0., 0., 0., 0., 7.32898992e-03, 0., 0.,
          1.54723125e-02, 0., 0., 0., 0., 0., 0., 0., 3.25732888e-03, 0.,
          3.50162871e-02, 0., 0., 0., 8.14332254e-03, 0., 4.07166127e-03,
          3.33876200e-02, 8.14332219e-04, 0., 3.09446249e-02, 0., 0.,
          4.07166127e-03, 0., 0., 0., 1.05863186e-02, 0., 0., 0.,
          1.54723125e-02, 1.22149829e-02, 0., 0., 2.44299658e-02,
          3.50162871e-02, 1.62866444e-03, 0., 8.14332219e-04,
          3.25732888e-03, 0., 0., 1.54723125e-02, 1.62866451e-02, 0., 0.,
          0. ]
      - [ 0., 0., 0., 0., 0., 2.85714269e-02, 0., 0., 0., 0., 0.,
          4.08163248e-03, 2.34693866e-02, 2.65306104e-02, 9.18367319e-03,
          2.24489793e-02, 9.18367319e-03, 3.06122424e-03, 0., 0.,
          9.18367319e-03, 0., 1.02040814e-02, 0., 0., 6.12244848e-03, 0.,
          0., 0., 1.02040812e-03, 0., 0., 9.18367319e-03, 0.,
          1.42857134e-02, 0., 0., 1.12244897e-02, 1.63265299e-02, 0.,
          2.75510196e-02, 0., 0., 1.73469372e-02, 0., 3.06122424e-03, 0.,
          1.02040814e-02, 0., 0., 0., 0., 3.06122424e-03, 0.,
          8.16326495e-03, 0., 3.06122424e-03, 1.42857134e-02, 0., 0.,
          9.18367319e-03, 9.18367319e-03, 1.63265299e-02, 0., 0., 0., 0.,
          0., 2.04081624e-03, 0., 4.18367311e-02, 3.06122424e-03,
          1.02040812e-03, 8.16326495e-03, 0., 0., 0., 0., 0., 0.,
          1.02040812e-03, 0., 0., 2.04081624e-03, 0., 2.04081628e-02,
          9.18367319e-03, 0., 0., 7.14285672e-03, 1.93877537e-02, 0.,
          2.04081628e-02, 0., 0., 1.93877537e-02, 0., 0., 0.,
          7.14285672e-03, 0., 1.32653052e-02, 0., 0., 3.87755074e-02, 0.,
          0., 7.14285672e-03, 0., 0., 2.14285702e-02, 0., 0., 0., 0., 0.,
          7.14285672e-03, 2.95918360e-02, 2.04081628e-02, 0., 0.,
          2.44897939e-02, 0., 4.59183641e-02, 0., 0., 5.30612208e-02,
          3.06122424e-03, 1.73469372e-02, 8.16326495e-03, 0., 0., 0., 0.,
          0., 2.24489793e-02, 4.59183641e-02, 0., 0., 9.18367319e-03, 0.,
          1.63265299e-02, 2.75510196e-02, 2.55102031e-02, 1.83673464e-02,
          7.14285672e-03, 0., 4.99999970e-02, 0., 0. ]
      - [ 0., 0., 1.07991358e-03, 0., 3.23974062e-03, 2.91576665e-02, 0.,
          0., 2.15982716e-03, 6.91144690e-02, 0., 3.34773213e-02, 0., 0.,
          0., 0., 5.39956801e-03, 0., 3.23974062e-03, 0., 0., 0., 0., 0.,
          0., 3.23974062e-03, 6.91144690e-02, 0., 0., 2.48380117e-02,
          3.56371477e-02, 0., 0., 6.47948124e-03, 8.63930862e-03,
          1.07991360e-02, 2.48380117e-02, 6.47948124e-03, 3.23974062e-03,
          1.07991358e-03, 0., 0., 0., 1.94384437e-02, 0., 0., 0.,
          1.07991358e-03, 0., 0., 2.15982716e-03, 2.37580985e-02,
          1.07991360e-02, 0., 0., 0., 1.29589625e-02, 2.48380117e-02, 0.,
          0., 1.07991358e-03, 0., 0., 2.15982716e-03, 1.40388766e-02, 0.,
          1.83585305e-02, 6.47948124e-03, 0., 0., 0., 1.07991358e-03,
          1.83585305e-02, 3.88768874e-02, 2.15982716e-03, 0., 0.,
          5.39956801e-03, 0., 0., 2.15982720e-02, 0., 0., 1.07991360e-02,
          0., 0., 0., 2.59179249e-02, 0., 4.21166308e-02, 0., 0.,
          3.23974062e-03, 2.59179249e-02, 0., 0., 0., 1.07991358e-03, 0.,
          1.40388766e-02, 0., 0., 0., 0., 0., 0., 2.80777533e-02, 0., 0.,
          0., 3.23974062e-03, 0., 1.18790492e-02, 2.15982716e-03, 0., 0.,
          7.55939493e-03, 0., 7.55939493e-03, 1.07991360e-02,
          1.94384437e-02, 0., 0., 0., 4.31965431e-03, 1.29589625e-02, 0.,
          0., 0., 1.18790492e-02, 7.45140389e-02, 0., 0., 0.,
          3.23974080e-02, 0., 0., 2.15982720e-02, 0., 1.18790492e-02, 0.,
          0., 0., 0., 1.29589625e-02, 1.72786172e-02, 2.05183588e-02, 0.,
          0., 0. ]
   decision_functions:
      -
         sv_count: 30
         rho: -1.8855348229408153e-02
         alpha: [ 1.0000000000000001e-01, 1.0000000000000001e-01,
             1.0000000000000001e-01, 1.0000000000000001e-01,
             1.0000000000000001e-01, 1.0000000000000001e-01,
             1.0000000000000001e-01, 1.0000000000000001e-01,
             1.0000000000000001e-01, 1.0000000000000001e-01,
             1.0000000000000001e-01, 1.0000000000000001e-01,
             1.0000000000000001e-01, 1.0000000000000001e-01,
             1.0000000000000001e-01, -1.0000000000000001e-01,
             -1.0000000000000001e-01, -1.0000000000000001e-01,
             -1.0000000000000001e-01, -1.0000000000000001e-01,
             -1.0000000000000001e-01, -1.0000000000000001e-01,
             -1.0000000000000001e-01, -1.0000000000000001e-01,
             -1.0000000000000001e-01, -1.0000000000000001e-01,
             -1.0000000000000001e-01, -1.0000000000000001e-01,
             -1.0000000000000001e-01, -1.0000000000000001e-01 ]
         index: [ 1, 0, 14, 13, 12, 11, 10, 9, 8, 7, 6, 5, 4, 3, 2, 29,
             28, 27, 26, 25, 24, 23, 22, 21, 20, 19, 18, 17, 16, 15 ]
