%YAML:1.0
---
opencv_ml_svm:
   format: 3
   svmType: C_SVC
   kernel:
      type: RBF
      gamma: 1.
   C: 1.0000000000000001e-01
   term_criteria: { epsilon:1.1920928955078125e-07, iterations:1000 }
   var_count: 150
   class_count: 2
   class_labels: !!opencv-matrix
      rows: 2
      cols: 1
      dt: i
      data: [ 0, 1 ]
   sv_total: 30
   support_vectors:
      - [ 5.63380262e-03, 0., 0., 3.38028148e-02, 8.45070370e-03,
          2.81690131e-03, 0., 0., 0., 2.81690131e-03, 0., 8.45070370e-03,
          0., 5.63380262e-03, 1.97183099e-02, 2.81690131e-03,
          5.63380262e-03, 2.81690131e-03, 0., 0., 2.81690131e-03, 0.,
          8.45070370e-03, 8.16901401e-02, 0., 5.63380262e-03,
          1.12676052e-02, 3.09859142e-02, 0., 8.45070370e-03, 0.,
          2.81690131e-03, 5.63380262e-03, 8.45070370e-03, 0.,
          8.45070370e-03, 8.45070370e-03, 0., 1.97183099e-02,
          1.69014074e-02, 2.81690131e-03, 2.81690131e-03, 2.81690136e-02,
          5.63380262e-03, 1.40845068e-02, 0., 2.81690131e-03,
          8.45070370e-03, 2.81690131e-03, 5.63380262e-03, 8.45070370e-03,
          0., 1.97183099e-02, 0., 5.63380262e-03, 0., 8.45070370e-03,
          1.97183099e-02, 1.40845068e-02, 0., 1.12676052e-02, 0.,
          5.63380262e-03, 5.63380262e-03, 5.63380262e-03, 1.40845068e-02,
          2.81690131e-03, 3.66197154e-02, 2.81690136e-02, 2.81690131e-03,
          0., 2.81690131e-03, 0., 0., 8.45070370e-03, 2.81690131e-03,
          2.81690131e-03, 0., 0., 0., 1.69014074e-02, 0., 5.63380262e-03,
          5.63380262e-03, 0., 0., 0., 0., 0., 0., 2.81690131e-03,
          2.81690136e-02, 5.63380262e-03, 2.53521111e-02, 5.63380262e-03,
          1.12676052e-02, 0., 2.81690131e-03, 2.81690131e-03, 0., 0., 0.,
          1.69014074e-02, 0., 0., 8.45070370e-03, 2.81690131e-03,
          5.63380262e-03, 0., 0., 0., 2.81690131e-03, 0., 0., 0.,
          2.81690131e-03, 8.45070370e-03, 0., 0., 9.29577425e-02, 0.,
          2.81690131e-03, 5.63380262e-03, 2.81690131e-03, 0., 0.,
          2.81690131e-03, 0., 2.81690131e-03, 0., 2.81690131e-03,
          2.81690131e-03, 1.97183099e-02, 8.45070370e-03, 1.12676052e-02,
          1.40845068e-02, 0., 1.69014074e-02, 2.81690131e-03,
          8.45070370e-03, 5.63380262e-03, 0., 1.97183099e-02, 0.,
          1.40845068e-02, 5.63380262e-03, 0., 0., 0., 0. ]
      - [ 8.09716620e-03, 8.09716620e-03, 1.21457493e-02, 2.42914986e-02,
          0., 0., 8.09716620e-03, 0., 0., 0., 4.04858310e-03, 0.,
          3.64372469e-02, 4.04858310e-03, 1.21457493e-02, 8.09716620e-03,
          8.09716620e-03, 0., 0., 1.21457493e-02, 0., 3.23886648e-02,
          8.09716620e-03, 8.09716620e-03, 4.04858310e-03, 4.04858310e-03,
          0., 4.04858310e-03, 4.04858310e-03, 0., 4.04858310e-03, 0.,
          1.21457493e-02, 4.04858310e-03, 1.21457493e-02, 0.,
          1.61943324e-02, 4.04858310e-03, 4.04858310e-03, 4.04858310e-03,
          7.69230798e-02, 0., 0., 0., 1.21457493e-02, 1.21457493e-02,
          4.04858310e-03, 0., 4.04858310e-03, 4.04858310e-03,
          1.21457493e-02, 1.21457493e-02, 0., 0., 0., 0., 0., 0.,
          4.04858310e-03, 4.04858310e-03, 8.09716620e-03, 1.61943324e-02,
          8.09716620e-03, 0., 4.04858310e-03, 8.09716620e-03,
          8.09716620e-03, 0., 0., 8.09716620e-03, 2.02429146e-02,
          4.04858310e-03, 0., 4.04858310e-03, 4.04858310e-03, 0.,
          4.04858310e-03, 4.04858310e-03, 0., 0., 8.09716620e-03,
          8.09716620e-03, 4.04858310e-03, 2.02429146e-02, 0.,
          1.61943324e-02, 0., 1.61943324e-02, 0., 0., 4.04858310e-03, 0.,
          0., 0., 1.61943324e-02, 1.21457493e-02, 0., 3.64372469e-02, 0.,
          1.61943324e-02, 4.04858310e-03, 0., 4.04858310e-03, 0., 0.,
          8.09716620e-03, 5.66801652e-02, 2.42914986e-02, 3.23886648e-02,
          0., 4.04858310e-03, 1.21457493e-02, 0., 4.04858310e-03,
          2.02429146e-02, 4.04858310e-03, 4.04858310e-03, 0.,
          1.21457493e-02, 0., 0., 0., 1.21457493e-02, 0., 0., 0.,
          8.09716620e-03, 0., 0., 4.04858310e-03, 8.09716620e-03,
          8.09716620e-03, 0., 0., 0., 0., 8.09716620e-03, 4.04858310e-03,
          0., 4.04858310e-03, 8.09716620e-03, 1.21457493e-02,
          2.02429146e-02, 4.04858310e-03, 8.09716620e-03, 0., 0.,
          4.04858310e-03, 8.09716620e-03, 1.21457493e-02 ]
      - [ 2.48756213e-03, 2.48756213e-03, 0., 1.24378111e-02,
          7.46268639e-03, 2.48756213e-03, 0., 0., 0., 0., 5.22388034e-02,
          0., 2.48756213e-03, 2.48756213e-03, 9.95024852e-03,
          2.48756213e-03, 0., 2.48756213e-03, 0., 0., 0., 2.23880596e-02,
          0., 9.20398012e-02, 4.97512426e-03, 1.49253728e-02,
          7.46268639e-03, 9.95024852e-03, 0., 4.97512426e-03, 0., 0., 0.,
          0., 3.23383063e-02, 0., 1.49253728e-02, 0., 2.48756213e-03,
          1.74129345e-02, 1.74129345e-02, 0., 9.95024852e-03,
          2.48756213e-03, 0., 1.74129345e-02, 0., 2.98507456e-02,
          2.48756213e-03, 0., 0., 9.95024852e-03, 2.48756213e-03,
          2.48756213e-03, 2.48756213e-03, 0., 2.48756213e-03,
          9.95024852e-03, 2.48756213e-03, 4.97512426e-03, 0.,
          1.24378111e-02, 9.95024852e-03, 4.97512426e-03, 0., 0.,
          4.97512426e-03, 4.97512426e-03, 7.46268639e-03, 9.95024852e-03,
          4.97512426e-03, 2.48756213e-03, 0., 2.48756213e-03, 0., 0.,
          2.48756213e-03, 2.48756213e-03, 2.48756213e-03, 2.48756213e-03,
          4.97512426e-03, 2.48756213e-03, 2.48756213e-03, 0., 0., 0., 0.,
          0., 0., 0., 0., 1.49253728e-02, 0., 7.46268639e-03, 0., 0., 0.,
          2.48756222e-02, 0., 4.97512426e-03, 0., 0., 2.48756213e-03,
          9.95024852e-03, 4.97512426e-03, 0., 0., 3.73134315e-02,
          1.24378111e-02, 0., 2.48756213e-03, 4.97512426e-03,
          9.95024852e-03, 2.73631830e-02, 2.23880596e-02, 7.46268639e-03,
          1.24378111e-02, 0., 0., 1.09452732e-01, 0., 3.23383063e-02,
          2.48756213e-03, 7.46268639e-03, 0., 0., 0., 2.48756213e-03,
          2.48756213e-03, 2.48756213e-03, 9.95024852e-03, 2.48756213e-03,
          1.99004970e-02, 2.48756213e-03, 2.48756213e-03, 7.46268639e-03,
          2.48756213e-03, 1.49253728e-02, 0., 0., 4.97512426e-03, 0., 0.,
          0., 1.74129345e-02, 9.95024852e-03, 7.46268639e-03,
          4.97512426e-03, 0., 2.48756213e-03 ]
      - [ 2.48756213e-03, 4.97512426e-03, 2.48756213e-03, 5.22388034e-02,
          9.95024852e-03, 2.23880596e-02, 4.97512426e-03, 0.,
          1.99004970e-02, 4.97512426e-03, 1.99004970e-02, 4.47761193e-02,
          0., 7.46268639e-03, 2.48756213e-03, 2.48756213e-03, 0.,
          2.48756213e-03, 1.24378111e-02, 2.48756213e-03, 2.48756213e-03,
          0., 1.49253728e-02, 2.48756213e-03, 2.48756213e-03, 0.,
          3.48258689e-02, 2.48756213e-03, 2.48756213e-03, 2.48756213e-03,
          0., 4.97512426e-03, 0., 2.48756213e-03, 2.48756213e-03,
          4.97512426e-03, 2.48756213e-03, 0., 2.23880596e-02,
          2.48756213e-03, 2.48756213e-03, 7.46268639e-03, 9.95024852e-03,
          9.95024852e-03, 2.23880596e-02, 7.46268639e-03, 4.97512426e-03,
          1.49253728e-02, 4.97512426e-03, 9.95024852e-03, 0., 0.,
          1.49253728e-02, 7.46268639e-03, 2.48756213e-03, 2.48756213e-03,
          1.74129345e-02, 3.73134315e-02, 2.48756213e-03, 9.95024852e-03,
          4.97512426e-03, 2.48756213e-03, 2.23880596e-02, 0., 0.,
          4.97512426e-03, 1.49253728e-02, 2.48756213e-03, 1.24378111e-02,
          7.46268639e-03, 1.49253728e-02, 4.97512426e-03, 7.46268639e-03,
          7.46268639e-03, 2.48756213e-03, 4.97512426e-03, 0.,
          2.48756213e-03, 0., 7.46268639e-03, 7.46268639e-03,
          2.48756213e-03, 0., 0., 2.48756213e-03, 0., 4.97512426e-03,
          4.97512426e-03, 4.97512426e-03, 0., 2.48756213e-03,
          2.48756213e-03, 0., 1.49253728e-02, 1.49253728e-02, 0.,
          2.48756213e-03, 2.48756213e-03, 2.48756213e-03, 0.,
          2.48756213e-03, 2.48756213e-03, 2.48756213e-03, 2.48756213e-03,
          0., 9.95024852e-03, 0., 4.97512426e-03, 2.48756213e-03, 0., 0.,
          7.46268639e-03, 4.97512426e-03, 4.97512426e-03, 7.46268639e-03,
          4.97512426e-03, 2.23880596e-02, 0., 0., 0., 2.48756213e-03,
          2.73631830e-02, 4.97512426e-03, 0., 7.46268639e-03,
          2.48756213e-03, 4.97512426e-03, 0., 3.98009941e-02,
          2.48756213e-03, 0., 4.97512426e-03, 4.97512426e-03,
          9.95024852e-03, 2.48756213e-03, 1.74129345e-02, 1.24378111e-02,
          4.97512426e-03, 2.48756213e-03, 0., 2.48756213e-03,
          2.48756213e-03, 0., 0., 9.95024852e-03, 1.99004970e-02,
          7.46268639e-03, 4.97512426e-03, 0., 1.24378111e-02 ]
      - [ 1.34770889e-02, 5.39083546e-03, 0., 1.34770889e-02,
          2.69541773e-03, 0., 0., 2.69541773e-03, 0., 1.07816709e-02,
          1.61725059e-02, 0., 4.04312648e-02, 0., 5.39083546e-03,
          5.39083546e-03, 1.88679248e-02, 8.08625296e-03, 0., 0., 0.,
          1.40161723e-01, 2.69541773e-03, 0., 0., 0., 0., 0., 0., 0.,
          8.08625296e-03, 0., 0., 0., 1.07816709e-02, 1.34770889e-02,
          5.39083546e-03, 0., 0., 0., 7.81671107e-02, 0., 0.,
          2.69541773e-03, 5.39083546e-03, 2.69541773e-03, 0., 0., 0., 0.,
          4.04312648e-02, 8.08625296e-03, 0., 0., 0., 0., 0.,
          1.88679248e-02, 2.69541773e-03, 0., 0., 5.39083546e-03,
          5.66037707e-02, 0., 2.69541773e-03, 0., 0., 0., 0., 0.,
          2.96495948e-02, 2.69541773e-03, 0., 0., 2.69541773e-03,
          5.39083546e-03, 1.07816709e-02, 0., 5.39083546e-03,
          5.39083546e-03, 0., 0., 2.69541773e-03, 2.42587589e-02, 0.,
          1.61725059e-02, 0., 0., 0., 0., 2.69541773e-03, 2.69541773e-03,
          5.39083546e-03, 0., 0., 2.96495948e-02, 5.39083555e-02,
          1.07816709e-02, 2.69541773e-03, 5.39083546e-03, 0., 0., 0.,
          2.69541773e-03, 0., 0., 2.69541778e-02, 2.69541773e-03,
          5.39083546e-03, 3.23450118e-02, 0., 5.39083546e-03, 0., 0.,
          5.39083546e-03, 2.69541773e-03, 0., 2.15633418e-02, 0.,
          2.69541773e-03, 0., 0., 0., 2.69541773e-03, 5.39083546e-03, 0.,
          2.69541773e-03, 0., 0., 2.69541773e-03, 0., 1.34770889e-02, 0.,
          2.69541773e-03, 0., 0., 0., 0., 0., 1.61725059e-02,
          1.34770889e-02, 8.08625296e-03, 4.31266837e-02, 0., 0., 0., 0.,
          0., 1.61725059e-02, 0. ]
      - [ 3.09597515e-03, 2.16718260e-02, 1.85758509e-02, 4.95356023e-02,
          3.09597515e-03, 0., 0., 3.09597515e-03, 0., 2.16718260e-02,
          3.09597515e-03, 0., 4.02476788e-02, 3.09597515e-03,
          2.47678012e-02, 6.19195029e-03, 3.09597515e-03, 0.,
          6.19195029e-03, 1.54798757e-02, 1.54798757e-02, 3.71517017e-02,
          3.09597515e-03, 0., 0., 0., 0., 3.09597515e-03, 0., 0., 0.,
          3.09597515e-03, 9.28792544e-03, 0., 6.19195029e-03,
          3.09597515e-03, 1.85758509e-02, 0., 0., 0., 2.16718260e-02,
          9.28792544e-03, 0., 0., 9.28792544e-03, 1.54798757e-02, 0.,
          3.09597515e-03, 6.19195029e-03, 0., 6.19195029e-03,
          1.54798757e-02, 0., 0., 1.23839006e-02, 0., 0., 1.23839006e-02,
          0., 0., 0., 3.09597515e-03, 1.85758509e-02, 0., 9.28792544e-03,
          0., 6.19195029e-03, 0., 3.09597515e-03, 6.19195029e-03,
          1.54798757e-02, 3.09597515e-03, 0., 0., 1.85758509e-02, 0.,
          9.28792544e-03, 6.19195029e-03, 9.28792544e-03, 3.09597515e-03,
          0., 0., 0., 6.81114495e-02, 3.09597515e-03, 0., 3.09597515e-03,
          0., 3.09597515e-03, 3.09597515e-03, 0., 6.19195029e-03,
          9.28792544e-03, 0., 3.09597515e-03, 3.09597515e-02,
          1.54798757e-02, 2.16718260e-02, 0., 0., 3.09597515e-03, 0., 0.,
          0., 3.09597515e-03, 0., 4.02476788e-02, 0., 9.28792544e-03,
          1.54798757e-02, 3.09597515e-03, 2.16718260e-02, 0., 0.,
          1.23839006e-02, 6.19195029e-03, 0., 6.19195029e-03,
          9.28792544e-03, 0., 0., 0., 3.09597515e-03, 3.09597515e-03, 0.,
          1.23839006e-02, 9.28792544e-03, 9.28792544e-03, 9.28792544e-03,
          1.54798757e-02, 6.19195029e-03, 3.09597515e-03, 0., 0., 0., 0.,
          0., 2.47678012e-02, 3.09597515e-03, 0., 1.85758509e-02,
          1.23839006e-02, 2.16718260e-02, 0., 0., 0., 0., 0.,
          6.19195029e-03, 0. ]
      - [ 5.76368859e-03, 1.15273772e-02, 0., 2.59365980e-02, 0.,
          1.44092217e-02, 0., 0., 2.88184430e-03, 2.88184430e-03, 0., 0.,
          2.88184430e-03, 1.72910653e-02, 0., 8.64553265e-03,
          2.88184430e-03, 0., 5.76368859e-03, 2.88184430e-03, 0.,
          1.44092217e-02, 0., 2.88184434e-02, 2.88184430e-03, 0.,
          2.88184434e-02, 1.44092217e-02, 0., 0., 0., 0., 5.76368859e-03,
          2.88184430e-03, 5.76368859e-03, 5.76368859e-03, 1.44092217e-02,
          2.88184430e-03, 1.72910653e-02, 8.64553265e-03, 8.64553265e-03,
          1.44092217e-02, 2.88184430e-03, 8.64553265e-03, 1.15273772e-02,
          1.15273772e-02, 0., 4.03458215e-02, 5.76368859e-03,
          5.76368859e-03, 0., 5.76368859e-03, 2.88184430e-03,
          8.64553265e-03, 8.64553265e-03, 8.64553265e-03, 5.76368859e-03,
          3.17002870e-02, 2.30547544e-02, 5.76368859e-03, 2.88184430e-03,
          2.88184430e-03, 3.17002870e-02, 2.88184430e-03, 8.64553265e-03,
          2.88184430e-03, 0., 8.64553265e-03, 5.76368859e-03,
          5.76368859e-03, 1.44092217e-02, 2.88184430e-03, 0.,
          5.76368859e-03, 1.44092217e-02, 8.64553265e-03, 5.76368859e-03,
          2.88184430e-03, 0., 2.88184430e-03, 1.44092217e-02,
          2.30547544e-02, 1.15273772e-02, 0., 0., 0., 0., 0., 0.,
          2.88184430e-03, 0., 1.72910653e-02, 2.88184430e-03,
          1.44092217e-02, 2.88184430e-03, 0., 2.88184430e-03,
          8.64553265e-03, 0., 5.76368859e-03, 0., 5.76368859e-03, 0., 0.,
          2.88184430e-03, 1.15273772e-02, 5.76368859e-03, 2.88184430e-03,
          2.88184430e-03, 2.88184430e-03, 2.88184430e-03, 5.76368859e-03,
          1.15273772e-02, 0., 4.03458215e-02, 1.44092217e-02,
          2.30547544e-02, 0., 8.64553265e-03, 1.72910653e-02, 0.,
          2.30547544e-02, 1.44092217e-02, 0., 0., 0., 1.72910653e-02, 0.,
          8.64553265e-03, 5.76368859e-03, 5.76368859e-03, 2.88184430e-03,
          5.76368859e-03, 2.88184430e-03, 2.88184430e-03, 8.64553265e-03,
          8.64553265e-03, 8.64553265e-03, 0., 2.88184430e-03, 0., 0.,
          2.88184430e-03, 2.88184430e-03, 0., 8.64553265e-03, 0.,
          2.88184430e-03, 0., 2.88184430e-03 ]
      - [ 2.40963860e-03, 7.22891558e-03, 0., 5.54216877e-02,
          2.40963860e-03, 0., 0., 2.40963860e-03, 0., 0., 1.68674700e-02,
          0., 4.09638546e-02, 0., 2.16867477e-02, 0., 2.40963860e-03,
          2.89156623e-02, 0., 2.40963860e-03, 0., 6.50602430e-02,
          2.40963860e-03, 4.81927721e-03, 0., 0., 0., 0., 0., 0.,
          2.40963860e-03, 0., 0., 0., 2.16867477e-02, 2.40963860e-03,
          9.63855442e-03, 0., 0., 2.40963860e-03, 2.40963860e-03,
          2.40963860e-03, 0., 0., 0., 4.33734953e-02, 0., 2.40963860e-03,
          0., 0., 2.16867477e-02, 2.65060253e-02, 0., 0., 0.,
          2.40963860e-03, 0., 3.13253030e-02, 0., 2.40963860e-03, 0., 0.,
          1.92771088e-02, 9.63855442e-03, 0., 0., 4.81927721e-03, 0.,
          7.22891558e-03, 0., 2.16867477e-02, 0., 0., 0., 2.40963860e-03,
          0., 2.40963860e-03, 0., 1.44578312e-02, 4.81927721e-03, 0., 0.,
          2.40963860e-03, 4.33734953e-02, 0., 0., 2.40963860e-03,
          2.40963860e-03, 0., 0., 2.40963860e-03, 0., 2.40963860e-03, 0.,
          0., 9.63855442e-03, 5.06024100e-02, 2.16867477e-02,
          2.40963860e-03, 4.81927721e-03, 0., 0., 2.40963860e-03,
          2.89156623e-02, 0., 2.40963860e-03, 2.16867477e-02, 0.,
          2.40963860e-03, 1.44578312e-02, 0., 4.81927721e-03,
          2.40963860e-03, 0., 4.09638546e-02, 2.40963860e-03, 0.,
          3.61445807e-02, 0., 0., 2.40963860e-03, 0., 2.65060253e-02,
          9.63855442e-03, 0., 0., 2.40963860e-03, 0., 0., 4.81927721e-03,
          0., 6.02409653e-02, 7.22891558e-03, 0., 4.81927721e-03, 0., 0.,
          2.40963860e-03, 0., 7.22891558e-03, 2.16867477e-02,
          1.68674700e-02, 9.63855442e-03, 0., 0., 0., 0., 0.,
          2.40963860e-03, 2.40963860e-03 ]
      - [ 2.38663494e-03, 1.90930795e-02, 0., 1.19331749e-02,
          7.15990458e-03, 2.38663494e-03, 0., 4.77326987e-03, 0.,
          9.54653975e-03, 7.15990458e-03, 0., 1.19331749e-02,
          2.38663494e-03, 4.53460626e-02, 0., 0., 3.34128886e-02, 0.,
          2.38663494e-03, 0., 7.39856809e-02, 4.77326987e-03,
          1.90930795e-02, 7.15990458e-03, 0., 0., 0., 0., 0.,
          1.90930795e-02, 1.43198092e-02, 2.38663494e-03, 0.,
          4.77326997e-02, 4.77326987e-03, 9.54653975e-03, 0.,
          2.38663494e-03, 4.77326987e-03, 9.54653975e-03, 2.38663494e-03,
          0., 1.43198092e-02, 2.38663494e-03, 7.15990458e-03, 0.,
          2.38663494e-03, 4.77326987e-03, 2.38663494e-03, 9.54653975e-03,
          2.38663494e-03, 0., 0., 7.15990458e-03, 2.38663494e-03, 0.,
          1.67064443e-02, 1.67064443e-02, 4.77326987e-03, 0.,
          7.15990458e-03, 0., 2.38663494e-03, 2.38663494e-03,
          9.54653975e-03, 7.15990458e-03, 0., 1.19331749e-02,
          1.43198092e-02, 9.54653975e-03, 2.38663494e-03, 0., 0.,
          7.15990458e-03, 2.38663494e-03, 0., 4.77326987e-03,
          4.77326987e-03, 1.67064443e-02, 2.38663494e-03, 2.38663494e-03,
          0., 4.77326997e-02, 9.54653975e-03, 2.38663494e-03, 0., 0., 0.,
          0., 9.54653975e-03, 9.54653975e-03, 1.43198092e-02, 0.,
          2.38663494e-03, 1.43198092e-02, 7.15990458e-03, 4.77326987e-03,
          4.77326987e-03, 0., 4.77326987e-03, 0., 7.15990458e-03,
          2.38663494e-03, 7.15990458e-03, 9.54653975e-03, 4.77326987e-03,
          2.38663494e-03, 7.15990458e-03, 7.15990458e-03, 0.,
          7.15990458e-03, 1.43198092e-02, 0., 2.38663498e-02,
          4.77326987e-03, 0., 0., 4.77326987e-03, 2.38663494e-03,
          1.67064443e-02, 9.54653975e-03, 1.43198092e-02, 4.77326987e-03,
          4.77326987e-03, 4.77326987e-03, 0., 0., 4.77326987e-03, 0.,
          2.38663494e-03, 1.19331749e-02, 0., 2.38663494e-03,
          9.54653975e-03, 0., 9.54653975e-03, 7.15990458e-03,
          9.54653975e-03, 1.19331749e-02, 1.43198092e-02, 0.,
          3.57995257e-02, 0., 0., 0., 0., 0., 7.15990458e-03, 0. ]
      - [ 1.83246080e-02, 0., 0., 1.04712043e-02, 1.83246080e-02,
          1.30890049e-02, 0., 0., 2.61780107e-03, 2.61780107e-03,
          2.35602092e-02, 0., 1.04712043e-02, 1.83246080e-02,
          7.06806257e-02, 0., 1.04712043e-02, 2.61780107e-03,
          7.85340369e-03, 2.61780107e-03, 2.61780107e-03, 5.23560215e-03,
          2.61780107e-03, 7.85340369e-03, 7.85340369e-03, 1.30890049e-02,
          0., 2.61780107e-03, 0., 0., 2.61780107e-03, 5.23560215e-03,
          2.61780107e-03, 1.04712043e-02, 5.23560215e-03, 7.85340369e-03,
          2.61780107e-03, 0., 7.85340369e-03, 4.45026197e-02,
          7.85340369e-03, 5.23560215e-03, 7.85340369e-03, 2.61780107e-03,
          1.04712043e-02, 1.04712043e-02, 2.61780107e-03, 2.61780107e-03,
          2.61780107e-03, 0., 1.30890049e-02, 7.85340369e-03,
          5.23560215e-03, 7.85340369e-03, 7.85340369e-03, 2.61780107e-03,
          1.30890049e-02, 2.61780098e-02, 0., 5.23560215e-03,
          5.23560215e-03, 2.61780107e-03, 2.61780107e-03, 1.04712043e-02,
          0., 7.85340369e-03, 0., 0., 5.23560215e-03, 2.61780107e-03,
          2.61780107e-03, 2.61780107e-03, 0., 5.23560215e-03,
          2.61780107e-03, 2.61780107e-03, 1.04712043e-02, 2.61780107e-03,
          2.61780107e-03, 2.61780107e-03, 2.61780107e-03, 1.04712043e-02,
          0., 3.14136147e-02, 0., 0., 0., 5.23560215e-03, 2.61780107e-03,
          0., 1.57068074e-02, 1.30890049e-02, 5.23560215e-03,
          2.61780107e-03, 2.61780107e-03, 3.66492160e-02, 2.09424086e-02,
          1.30890049e-02, 0., 7.85340369e-03, 2.61780107e-03,
          1.04712043e-02, 1.83246080e-02, 1.04712043e-02, 0.,
          5.23560215e-03, 1.30890049e-02, 1.04712043e-02, 2.61780107e-03,
          0., 2.61780107e-03, 0., 1.30890049e-02, 2.61780107e-03, 0.,
          5.23560215e-03, 0., 0., 5.23560215e-03, 5.23560215e-03,
          1.30890049e-02, 1.30890049e-02, 0., 0., 2.61780107e-03, 0.,
          2.61780107e-03, 0., 2.61780107e-03, 5.23560215e-03,
          2.61780107e-03, 2.35602092e-02, 2.61780107e-03, 5.23560215e-03,
          2.61780107e-03, 7.85340369e-03, 2.61780107e-03, 5.23560215e-03,
          5.23560215e-03, 1.04712043e-02, 1.30890049e-02, 1.04712043e-02,
          1.30890049e-02, 5.23560215e-03, 1.30890049e-02, 0., 0.,
          2.61780107e-03, 2.61780107e-03, 0. ]
      - [ 0., 2.68096523e-03, 5.36193047e-03, 2.68096514e-02,
          2.68096523e-03, 1.07238609e-02, 2.68096523e-03, 0.,
          8.04289617e-03, 8.04289617e-03, 4.02144790e-02, 2.68096523e-03,
          0., 1.34048257e-02, 8.04289617e-03, 2.68096523e-03, 0., 0.,
          5.36193028e-02, 2.68096523e-03, 5.36193047e-03, 3.75335142e-02,
          5.36193047e-03, 1.60857923e-02, 1.60857923e-02, 2.14477219e-02,
          0., 2.14477219e-02, 0., 8.04289617e-03, 8.04289617e-03, 0., 0.,
          5.36193047e-03, 1.60857923e-02, 0., 2.68096523e-03, 0.,
          1.34048257e-02, 2.68096523e-03, 4.02144790e-02, 5.36193047e-03,
          1.87667571e-02, 2.68096523e-03, 2.68096523e-03, 0., 0.,
          3.21715847e-02, 0., 5.36193047e-03, 0., 5.36193047e-03,
          8.04289617e-03, 5.36193047e-03, 2.68096523e-03, 0.,
          1.87667571e-02, 1.60857923e-02, 2.68096523e-03, 8.04289617e-03,
          1.07238609e-02, 2.68096523e-03, 1.34048257e-02, 0.,
          5.36193047e-03, 0., 8.04289617e-03, 8.04289617e-03, 0., 0.,
          8.04289617e-03, 1.07238609e-02, 2.68096523e-03, 5.36193047e-03,
          1.34048257e-02, 0., 2.68096523e-03, 0., 0., 2.68096523e-03,
          8.04289617e-03, 0., 0., 0., 5.36193047e-03, 0., 0.,
          5.36193047e-03, 0., 0., 0., 2.14477219e-02, 0., 1.07238609e-02,
          0., 2.68096523e-03, 0., 4.55764085e-02, 0., 0., 0., 0., 0., 0.,
          0., 2.68096523e-03, 1.07238609e-02, 2.68096523e-03,
          2.68096523e-03, 0., 0., 2.68096523e-03, 1.07238609e-02, 0.,
          8.04289617e-03, 0., 2.68096523e-03, 0., 0., 6.16622008e-02, 0.,
          0., 2.68096523e-03, 0., 5.36193047e-03, 0., 0., 0.,
          1.07238609e-02, 0., 0., 0., 0., 0., 8.04289617e-03,
          1.87667571e-02, 2.68096523e-03, 2.41286866e-02, 2.68096523e-03,
          0., 5.36193047e-03, 0., 1.07238609e-02, 0., 5.36193047e-03,
          1.07238609e-02, 2.41286866e-02, 2.14477219e-02, 2.68096523e-03,
          2.68096523e-03 ]
      - [ 1.51515156e-02, 5.05050505e-03, 0., 5.05050505e-03,
          2.52525252e-03, 0., 0., 5.05050505e-03, 0., 7.57575780e-03, 0.,
          0., 3.28282826e-02, 0., 2.27272734e-02, 2.52525252e-03,
          7.57575780e-03, 1.26262624e-02, 5.05050505e-03, 2.52525252e-03,
          0., 4.04040404e-02, 1.26262624e-02, 1.76767670e-02, 0., 0., 0.,
          0., 0., 0., 1.51515156e-02, 0., 1.01010101e-02, 0.,
          3.53535339e-02, 1.01010101e-02, 1.51515156e-02, 0., 0.,
          2.52525252e-03, 1.76767670e-02, 0., 0., 0., 0., 5.30303046e-02,
          0., 2.52525252e-03, 0., 0., 2.02020202e-02, 0., 0., 0.,
          1.26262624e-02, 0., 0., 2.52525248e-02, 5.05050505e-03,
          2.52525252e-03, 0., 1.01010101e-02, 3.78787890e-02,
          2.02020202e-02, 0., 0., 2.52525252e-03, 0., 5.05050505e-03, 0.,
          1.26262624e-02, 5.05050505e-03, 0., 0., 1.76767670e-02,
          5.05050505e-03, 7.57575780e-03, 7.57575780e-03, 0.,
          1.26262624e-02, 0., 2.52525252e-03, 5.05050505e-03,
          5.55555560e-02, 2.52525252e-03, 5.05050505e-03, 0., 0., 0., 0.,
          7.57575780e-03, 0., 7.57575780e-03, 0., 2.52525252e-03,
          2.27272734e-02, 5.05050505e-03, 1.51515156e-02, 0.,
          2.52525252e-03, 0., 0., 0., 7.57575780e-03, 0., 0.,
          3.28282826e-02, 0., 7.57575780e-03, 2.02020202e-02, 0.,
          1.01010101e-02, 0., 7.57575780e-03, 2.02020202e-02, 0., 0.,
          2.52525252e-03, 0., 2.52525252e-03, 2.52525252e-03, 0.,
          1.76767670e-02, 0., 1.51515156e-02, 5.05050505e-03, 0., 0., 0.,
          5.05050505e-03, 1.26262624e-02, 4.04040404e-02, 0., 0., 0., 0.,
          0., 0., 0., 7.57575780e-03, 1.01010101e-02, 1.26262624e-02,
          3.53535339e-02, 0., 0., 0., 0., 0., 1.51515156e-02,
          7.57575780e-03 ]
      - [ 1.14942528e-02, 4.59770113e-03, 4.59770113e-03, 3.44827585e-02,
          2.29885057e-03, 3.44827585e-02, 2.29885057e-03, 2.29885057e-03,
          9.19540226e-03, 0., 4.59770113e-03, 6.89655170e-03, 0., 0.,
          4.59770113e-03, 0., 0., 2.29885057e-03, 5.74712642e-02, 0., 0.,
          2.29885057e-03, 4.59770113e-03, 2.29885057e-03, 2.29885057e-03,
          0., 2.29885057e-03, 4.59770113e-03, 0., 4.59770113e-03,
          1.14942528e-02, 0., 2.29885057e-03, 4.59770113e-03,
          2.06896551e-02, 0., 4.59770113e-03, 4.59770113e-03,
          6.89655170e-03, 4.59770113e-03, 2.98850574e-02, 4.59770113e-03,
          4.59770113e-03, 1.37931034e-02, 0., 2.29885057e-03, 0.,
          2.29885057e-02, 0., 0., 2.29885057e-03, 4.59770113e-03,
          1.14942528e-02, 6.89655170e-03, 4.59770113e-03, 1.37931034e-02,
          1.37931034e-02, 2.29885057e-02, 2.29885057e-03, 1.14942528e-02,
          1.14942528e-02, 2.29885057e-03, 1.60919540e-02, 4.59770113e-03,
          0., 0., 2.29885057e-03, 2.06896551e-02, 2.29885057e-03,
          4.59770113e-03, 2.29885057e-03, 4.59770113e-03, 0.,
          4.59770113e-03, 1.37931034e-02, 0., 6.89655170e-03, 0.,
          1.14942528e-02, 0., 4.59770113e-03, 0., 2.29885057e-03, 0.,
          2.29885057e-03, 0., 0., 4.59770113e-03, 0., 1.14942528e-02,
          2.29885057e-03, 1.37931034e-02, 2.29885057e-03, 9.19540226e-03,
          6.89655170e-03, 0., 6.89655170e-03, 2.29885057e-02,
          4.59770113e-03, 0., 0., 9.19540226e-03, 0., 6.89655170e-03,
          2.29885057e-03, 4.59770113e-03, 6.89655170e-03, 0.,
          6.89655170e-03, 2.29885057e-03, 0., 0., 1.83908045e-02,
          2.29885057e-03, 2.06896551e-02, 0., 3.21839079e-02, 0., 0.,
          4.59770113e-03, 2.29885057e-03, 1.83908045e-02, 2.29885057e-03,
          2.29885057e-03, 6.89655170e-03, 0., 2.29885057e-03,
          2.29885057e-03, 4.13793102e-02, 0., 2.29885057e-03,
          4.59770113e-03, 2.29885057e-03, 4.59770113e-03, 6.89655170e-03,
          2.06896551e-02, 0., 1.83908045e-02, 4.59770113e-03,
          2.29885057e-03, 1.60919540e-02, 4.59770113e-03, 4.59770113e-03,
          0., 1.14942528e-02, 1.14942528e-02, 0., 3.21839079e-02,
          1.14942528e-02, 6.89655170e-03 ]
      - [ 7.96812773e-03, 7.96812773e-03, 0., 7.96812773e-03,
          7.96812773e-03, 0., 0., 0., 0., 0., 0., 0., 3.98406386e-02,
          1.59362555e-02, 3.98406386e-02, 3.98406386e-03, 1.19521916e-02,
          1.99203193e-02, 0., 0., 0., 1.27490044e-01, 0., 0., 0., 0., 0.,
          0., 0., 0., 7.96812773e-03, 1.99203193e-02, 3.98406386e-03, 0.,
          2.39043832e-02, 7.96812773e-03, 3.98406386e-03, 0., 0.,
          1.19521916e-02, 1.19521916e-02, 0., 0., 3.98406386e-03,
          3.98406386e-03, 3.18725109e-02, 0., 0., 0., 0., 0., 0., 0., 0.,
          3.98406386e-03, 0., 0., 5.17928302e-02, 0., 0., 0., 0.,
          7.96812773e-03, 1.19521916e-02, 0., 0., 0., 0., 1.59362555e-02,
          2.39043832e-02, 0., 0., 0., 0., 0., 0., 0., 0., 0.,
          1.59362555e-02, 0., 7.96812773e-03, 0., 4.38247025e-02, 0., 0.,
          0., 0., 0., 0., 0., 0., 7.96812773e-03, 0., 0., 4.38247025e-02,
          3.98406386e-03, 3.98406386e-03, 0., 2.78884470e-02, 0., 0., 0.,
          7.96812773e-03, 0., 7.96812773e-03, 1.99203193e-02, 0., 0.,
          1.19521916e-02, 3.98406386e-03, 0., 0., 0., 1.99203193e-02, 0.,
          3.58565748e-02, 3.98406386e-03, 0., 0., 0., 7.96812773e-03,
          7.96812773e-03, 0., 0., 0., 3.98406386e-03, 0., 0., 0., 0.,
          3.98406386e-02, 0., 0., 7.96812773e-03, 0., 0., 0., 0.,
          7.96812773e-03, 1.99203193e-02, 3.58565748e-02, 5.97609580e-02,
          0., 0., 0., 0., 0., 3.98406386e-03, 0. ]
      - [ 6.75675692e-03, 3.71621624e-02, 3.37837846e-03, 1.08108111e-01,
          6.75675692e-03, 3.37837846e-03, 6.75675692e-03, 0.,
          1.68918930e-02, 0., 1.01351356e-02, 6.75675692e-03,
          6.75675692e-03, 0., 2.02702712e-02, 0., 3.37837846e-03,
          1.01351356e-02, 0., 0., 0., 3.37837846e-03, 6.75675692e-03,
          6.75675692e-03, 6.75675692e-03, 0., 0., 3.37837846e-03, 0., 0.,
          0., 6.75675692e-03, 0., 0., 3.37837846e-03, 0., 3.37837846e-03,
          6.75675692e-03, 1.35135138e-02, 3.37837846e-03, 0., 0.,
          3.37837846e-03, 0., 3.37837846e-03, 3.04054059e-02, 0.,
          3.04054059e-02, 6.75675692e-03, 3.37837846e-03, 1.35135138e-02,
          3.37837846e-03, 0., 3.37837846e-03, 0., 0., 1.35135138e-02,
          2.36486495e-02, 2.02702712e-02, 0., 1.68918930e-02,
          1.01351356e-02, 4.39189188e-02, 2.02702712e-02, 3.37837846e-03,
          3.37837846e-03, 0., 3.37837846e-03, 3.37837846e-03,
          6.75675692e-03, 2.36486495e-02, 3.37837846e-03, 0.,
          3.37837846e-03, 1.01351356e-02, 6.75675692e-03, 0., 0.,
          3.37837846e-03, 0., 6.75675692e-03, 1.01351356e-02,
          3.37837846e-03, 1.35135138e-02, 0., 2.02702712e-02, 0.,
          6.75675692e-03, 3.37837846e-03, 0., 3.37837846e-03,
          3.37837846e-03, 0., 0., 0., 0., 6.75675692e-03, 0.,
          3.37837846e-03, 3.37837846e-03, 6.75675692e-03, 2.02702712e-02,
          1.01351356e-02, 0., 0., 3.37837846e-03, 1.01351356e-02, 0.,
          6.75675692e-03, 0., 0., 3.37837846e-03, 0., 0., 2.70270277e-02,
          6.75675692e-03, 3.37837846e-03, 0., 0., 3.37837846e-03,
          3.37837846e-03, 3.37837846e-03, 1.35135138e-02, 6.75675692e-03,
          1.68918930e-02, 0., 1.01351356e-02, 0., 0., 0., 0., 0., 0., 0.,
          1.68918930e-02, 0., 2.02702712e-02, 6.75675692e-03,
          3.37837846e-03, 1.01351356e-02, 6.75675692e-03, 1.68918930e-02,
          2.70270277e-02, 6.75675692e-03, 3.37837846e-03, 0., 0., 0.,
          3.37837846e-03, 1.01351356e-02 ]
      - [ 7.07547180e-03, 4.71698120e-03, 0., 1.88679248e-02,
          7.07547180e-03, 0., 7.07547180e-03, 0., 7.07547180e-03, 0., 0.,
          2.35849060e-02, 0., 0., 3.53773609e-02, 0., 4.71698120e-03,
          9.43396240e-03, 2.35849060e-02, 1.41509436e-02, 2.35849060e-03,
          7.07547180e-03, 4.71698120e-03, 0., 0., 0., 4.71698120e-03, 0.,
          0., 0., 0., 2.35849060e-03, 4.71698120e-03, 2.35849060e-03, 0.,
          2.35849060e-03, 9.43396240e-03, 0., 2.59433966e-02,
          4.71698120e-03, 0., 9.43396240e-03, 0., 9.43396240e-03,
          1.17924530e-02, 4.71698120e-03, 0., 4.00943384e-02,
          2.35849060e-03, 1.65094342e-02, 2.35849060e-03, 2.35849060e-03,
          9.43396240e-03, 2.35849060e-03, 0., 4.71698120e-03,
          7.07547180e-03, 1.17924530e-02, 0., 0., 1.65094342e-02, 0.,
          9.43396240e-03, 2.35849060e-03, 4.71698120e-03, 1.65094342e-02,
          4.71698120e-03, 0., 1.17924530e-02, 7.07547180e-03, 0.,
          2.35849060e-03, 1.17924530e-02, 1.41509436e-02, 0.,
          7.07547180e-03, 0., 4.71698120e-03, 0., 9.43396240e-03,
          3.06603778e-02, 4.71698120e-03, 7.07547180e-03, 0.,
          1.17924530e-02, 2.35849060e-03, 9.43396240e-03, 2.35849060e-03,
          0., 0., 0., 0., 2.35849060e-03, 0., 2.35849060e-02, 0.,
          2.35849060e-03, 0., 2.35849060e-02, 0., 2.35849060e-03, 0.,
          3.53773609e-02, 1.88679248e-02, 0., 4.71698120e-03, 0., 0., 0.,
          2.35849060e-03, 0., 4.71698120e-03, 0., 0., 9.43396240e-03,
          4.71698120e-03, 0., 0., 9.43396240e-03, 0., 2.35849060e-03,
          6.13207556e-02, 2.35849060e-03, 0., 0., 1.41509436e-02,
          2.35849060e-03, 0., 0., 7.07547180e-03, 0., 3.30188684e-02, 0.,
          1.65094342e-02, 1.65094342e-02, 0., 9.43396240e-03,
          1.65094342e-02, 2.35849060e-03, 2.35849060e-03, 2.35849060e-03,
          6.36792481e-02, 7.07547180e-03, 0., 9.43396240e-03, 0., 0., 0.,
          9.43396240e-03, 1.88679248e-02 ]
      - [ 3.36322896e-02, 1.79372206e-02, 6.72645774e-03, 1.34529155e-02,
          1.79372206e-02, 4.48430516e-03, 0., 8.96861032e-03, 0.,
          2.24215258e-03, 1.56950690e-02, 0., 8.96861032e-03, 0.,
          4.48430516e-03, 4.48430516e-03, 2.24215258e-03, 8.96861032e-03,
          6.72645774e-03, 3.13901380e-02, 6.72645774e-03, 1.79372206e-02,
          1.79372206e-02, 2.46636793e-02, 2.24215258e-03, 0.,
          2.24215258e-03, 0., 4.48430516e-03, 0., 1.12107629e-02,
          6.72645774e-03, 1.34529155e-02, 0., 6.72645774e-03,
          6.72645774e-03, 8.96861032e-03, 0., 2.24215258e-03, 0.,
          8.96861032e-03, 2.46636793e-02, 0., 2.24215258e-03,
          1.34529155e-02, 4.48430516e-03, 0., 2.24215258e-03,
          4.48430516e-03, 2.24215258e-03, 4.48430516e-03, 1.34529155e-02,
          2.24215258e-03, 0., 4.48430516e-03, 6.72645774e-03, 0.,
          8.96861032e-03, 4.48430516e-03, 1.12107629e-02, 0.,
          6.72645774e-03, 2.24215258e-03, 8.96861032e-03, 0., 0.,
          1.56950690e-02, 0., 4.48430516e-03, 1.34529155e-02,
          1.12107629e-02, 1.56950690e-02, 0., 0., 1.56950690e-02,
          1.34529155e-02, 4.48430516e-03, 0., 0., 6.72645774e-03, 0.,
          2.69058309e-02, 2.24215258e-03, 2.24215258e-03, 6.72645774e-03,
          6.72645774e-03, 0., 0., 0., 2.24215258e-03, 1.34529155e-02,
          1.12107629e-02, 6.72645774e-03, 0., 1.34529155e-02,
          6.72645774e-03, 2.24215258e-03, 8.96861032e-03, 1.12107629e-02,
          0., 8.96861032e-03, 0., 0., 6.72645774e-03, 0., 3.13901380e-02,
          2.24215258e-02, 0., 4.48430516e-03, 8.96861032e-03,
          2.24215258e-03, 1.56950690e-02, 8.96861032e-03, 0.,
          1.12107629e-02, 1.12107629e-02, 2.24215258e-03, 0., 0.,
          2.24215258e-03, 6.72645774e-03, 0., 1.56950690e-02,
          1.56950690e-02, 1.12107629e-02, 6.72645774e-03, 1.34529155e-02,
          2.24215258e-03, 2.24215258e-03, 6.72645774e-03, 1.34529155e-02,
          4.48430516e-03, 8.96861032e-03, 6.72645774e-03, 6.72645774e-03,
          0., 8.96861032e-03, 8.96861032e-03, 8.96861032e-03, 0.,
          4.48430516e-03, 6.72645774e-03, 1.12107629e-02, 2.24215258e-03,
          0., 0., 2.24215258e-03, 4.48430516e-03, 2.24215258e-03,
          2.24215258e-03 ]
      - [ 9.02934559e-03, 1.35440184e-02, 1.12866815e-02, 1.74943566e-01,
          1.12866815e-02, 1.12866820e-03, 1.12866820e-03, 4.51467279e-03,
          1.12866820e-03, 3.38600460e-03, 4.51467261e-02, 1.12866820e-03,
          4.51467279e-03, 0., 1.12866815e-02, 0., 0., 2.25733640e-03,
          2.59593688e-02, 3.38600460e-03, 3.38600460e-03, 7.90067762e-03,
          5.64334076e-03, 3.38600460e-03, 5.64334076e-03, 0., 0., 0.,
          1.12866820e-03, 0., 6.77200919e-03, 4.51467279e-03,
          7.90067762e-03, 0., 4.51467279e-03, 9.02934559e-03,
          5.64334076e-03, 0., 0., 3.38600460e-03, 3.38600460e-03,
          5.64334076e-03, 0., 9.02934559e-03, 1.01580136e-02,
          2.25733640e-03, 0., 2.25733640e-03, 4.51467279e-03, 0.,
          1.12866820e-03, 1.12866815e-02, 0., 0., 1.12866820e-03, 0., 0.,
          5.64334076e-03, 1.80586912e-02, 1.12866820e-03, 0.,
          4.51467279e-03, 1.12866820e-03, 0., 3.38600460e-03, 0.,
          4.51467279e-03, 0., 1.12866815e-02, 3.38600460e-03,
          1.07223481e-01, 1.12866820e-03, 0., 2.25733640e-03,
          4.51467279e-03, 2.25733640e-03, 2.25733640e-03, 1.12866820e-03,
          0., 7.90067762e-03, 0., 3.38600460e-03, 1.12866820e-03,
          1.12866820e-03, 2.82167047e-02, 1.58013552e-02, 1.12866820e-03,
          7.90067762e-03, 1.01580136e-02, 3.38600464e-02, 1.24153504e-02,
          0., 3.38600460e-03, 0., 4.51467279e-03, 1.01580136e-02,
          1.12866820e-03, 1.01580136e-02, 2.25733640e-03, 1.12866820e-03,
          5.64334076e-03, 0., 5.64334076e-03, 5.64334076e-03,
          1.12866815e-02, 2.70880368e-02, 7.90067762e-03, 0.,
          1.46726863e-02, 3.38600460e-03, 4.51467279e-03, 5.64334076e-03,
          2.25733640e-03, 0., 5.64334076e-03, 1.12866820e-03, 0., 0.,
          4.51467279e-03, 0., 0., 0., 1.12866820e-03, 4.51467279e-03,
          2.25733640e-03, 7.90067762e-03, 1.91873591e-02, 2.25733630e-02,
          1.12866820e-03, 9.02934559e-03, 2.25733640e-03, 4.51467279e-03,
          0., 1.12866820e-03, 3.38600460e-03, 0., 6.77200919e-03, 0.,
          9.02934559e-03, 7.90067762e-03, 3.38600460e-03, 1.24153504e-02,
          1.12866820e-03, 0., 0., 0., 0., 0., 1.12866820e-03, 0. ]
      - [ 5.74712642e-03, 5.74712642e-03, 0., 5.17241359e-02,
          5.74712642e-03, 0., 1.43678160e-02, 2.87356321e-03,
          1.14942528e-02, 0., 0., 4.02298868e-02, 5.74712642e-03, 0.,
          3.73563208e-02, 1.72413792e-02, 8.62068962e-03, 2.87356321e-03,
          1.43678160e-02, 8.62068962e-03, 8.62068962e-03, 0.,
          2.01149434e-02, 0., 0., 0., 0., 0., 8.62068962e-03,
          5.74712642e-03, 8.62068962e-03, 2.87356321e-03, 1.14942528e-02,
          0., 0., 0., 5.74712642e-03, 5.74712642e-03, 1.14942528e-02, 0.,
          2.87356321e-03, 2.01149434e-02, 1.14942528e-02, 8.62068962e-03,
          1.72413792e-02, 0., 0., 3.44827585e-02, 1.14942528e-02,
          2.87356321e-03, 2.87356321e-03, 5.74712642e-03, 0., 0., 0.,
          1.14942528e-02, 5.74712642e-03, 0., 8.62068962e-03,
          5.74712642e-03, 2.87356321e-03, 2.87356321e-03, 2.29885057e-02,
          0., 5.74712642e-03, 1.43678160e-02, 8.62068962e-03, 0.,
          2.01149434e-02, 8.62068962e-03, 2.87356321e-03, 1.43678160e-02,
          1.43678160e-02, 5.74712642e-03, 1.43678160e-02, 0., 0.,
          5.74712642e-03, 0., 2.87356321e-03, 2.87356321e-03,
          5.74712642e-03, 0., 5.74712642e-03, 1.14942528e-02,
          1.14942528e-02, 8.62068962e-03, 0., 0., 0., 8.62068962e-03,
          1.43678160e-02, 0., 0., 1.14942528e-02, 1.14942528e-02, 0., 0.,
          1.43678160e-02, 0., 2.01149434e-02, 5.74712642e-03,
          1.72413792e-02, 5.74712642e-03, 0., 8.62068962e-03, 0., 0., 0.,
          2.87356321e-03, 0., 5.74712642e-03, 0., 0., 5.74712642e-03,
          5.74712642e-03, 0., 0., 8.62068962e-03, 0., 0., 1.72413792e-02,
          1.14942528e-02, 0., 1.43678160e-02, 2.58620679e-02,
          1.43678160e-02, 0., 0., 8.62068962e-03, 2.87356321e-03,
          8.62068962e-03, 0., 1.14942528e-02, 1.14942528e-02,
          2.87356321e-03, 0., 5.74712642e-03, 0., 5.74712642e-03,
          8.62068962e-03, 1.43678160e-02, 1.43678160e-02, 0.,
          8.62068962e-03, 2.87356321e-03, 0., 0., 0., 0. ]
      - [ 2.26480830e-02, 1.39372824e-02, 3.48432059e-03, 1.51567951e-01,
          3.13588865e-02, 3.48432059e-03, 0., 1.74216030e-03, 0.,
          3.48432059e-03, 4.35540080e-02, 0., 1.74216030e-03, 0.,
          2.61324048e-02, 5.22648077e-03, 6.96864119e-03, 1.04529615e-02,
          3.31010446e-02, 6.96864119e-03, 1.21951224e-02, 6.96864119e-03,
          1.04529615e-02, 5.22648077e-03, 3.48432059e-03, 0., 0., 0.,
          8.71080160e-03, 0., 1.74216030e-03, 5.22648077e-03,
          1.21951224e-02, 1.74216030e-03, 5.22648077e-03, 1.21951224e-02,
          1.04529615e-02, 0., 0., 3.48432059e-03, 1.74216030e-03,
          8.71080160e-03, 0., 6.96864119e-03, 1.74216032e-02, 0., 0., 0.,
          1.21951224e-02, 0., 6.96864119e-03, 0., 0., 1.74216030e-03,
          3.48432059e-03, 6.96864119e-03, 3.48432059e-03, 0.,
          1.04529615e-02, 1.04529615e-02, 0., 1.74216030e-03,
          1.21951224e-02, 5.22648077e-03, 6.96864119e-03, 1.74216030e-03,
          1.74216032e-02, 0., 6.96864119e-03, 1.04529615e-02,
          1.39372824e-02, 1.39372824e-02, 0., 0., 5.22648077e-03,
          1.04529615e-02, 1.74216030e-03, 1.21951224e-02, 1.74216030e-03,
          3.48432059e-03, 0., 5.22648077e-03, 3.48432059e-03,
          1.74216030e-03, 1.04529615e-02, 2.43902449e-02, 0., 0.,
          6.96864119e-03, 0., 5.22648077e-03, 5.22648077e-03,
          1.74216030e-03, 0., 1.74216032e-02, 8.71080160e-03,
          8.71080160e-03, 6.96864119e-03, 3.48432059e-03, 0.,
          3.48432059e-03, 0., 0., 8.71080160e-03, 0., 1.74216030e-03,
          1.74216030e-03, 0., 1.74216030e-03, 6.96864119e-03,
          1.04529615e-02, 6.96864119e-03, 3.48432059e-03, 0.,
          5.22648077e-03, 1.74216030e-03, 0., 1.74216030e-03, 0.,
          1.74216030e-03, 1.74216030e-03, 0., 5.22648077e-03,
          3.48432059e-03, 3.48432059e-03, 2.61324048e-02, 8.71080160e-03,
          1.74216030e-03, 6.96864119e-03, 1.39372824e-02, 5.22648077e-03,
          5.22648077e-03, 1.74216030e-03, 0., 5.22648077e-03, 0.,
          5.22648077e-03, 1.21951224e-02, 3.48432059e-03, 6.96864119e-03,
          6.96864119e-03, 1.04529615e-02, 1.21951224e-02, 0., 0., 0., 0.,
          0., 5.22648077e-03, 1.74216030e-03 ]
      - [ 4.76947520e-03, 1.58982514e-03, 0., 1.71701118e-01,
          6.35930058e-03, 1.58982514e-03, 0., 0., 0., 0., 6.20031804e-02,
          1.58982514e-03, 0., 7.94912595e-03, 1.43084265e-02,
          1.58982514e-03, 0., 4.76947520e-03, 2.70270277e-02,
          1.27186012e-02, 6.35930058e-03, 1.11287758e-02, 1.27186012e-02,
          1.58982519e-02, 1.58982514e-03, 0., 0., 0., 9.53895040e-03, 0.,
          3.17965029e-03, 4.76947520e-03, 1.11287758e-02, 0.,
          3.17965029e-03, 0., 7.94912595e-03, 0., 3.17965029e-03,
          2.22575516e-02, 0., 1.11287758e-02, 0., 1.58982514e-03,
          3.17965029e-03, 3.17965029e-03, 0., 4.13354523e-02,
          6.35930058e-03, 6.35930058e-03, 1.58982514e-03, 3.17965029e-03,
          0., 0., 0., 3.17965029e-03, 6.35930058e-03, 1.43084265e-02,
          3.17965029e-03, 3.17965029e-03, 1.27186012e-02, 3.17965029e-03,
          2.54372023e-02, 3.17965029e-03, 4.76947520e-03, 3.17965029e-03,
          1.11287758e-02, 0., 4.76947520e-03, 1.58982514e-03,
          3.49761546e-02, 3.17965029e-03, 0., 4.76947520e-03, 0.,
          3.17965029e-03, 0., 1.58982514e-03, 0., 1.58982514e-03,
          4.76947520e-03, 6.35930058e-03, 3.17965029e-03, 3.17965029e-03,
          1.11287758e-02, 9.53895040e-03, 0., 1.27186012e-02,
          6.35930058e-03, 1.43084265e-02, 3.17965029e-03, 0., 0., 0.,
          1.27186012e-02, 1.58982514e-03, 0., 0., 6.35930058e-03,
          1.58982514e-03, 4.76947520e-03, 3.17965029e-03, 9.53895040e-03,
          1.11287758e-02, 3.17965029e-03, 1.11287758e-02, 0., 0., 0., 0.,
          1.58982514e-03, 1.58982514e-03, 3.17965029e-03, 0.,
          3.17965029e-03, 3.17965029e-03, 1.58982514e-03, 0., 0.,
          1.58982514e-03, 7.94912595e-03, 7.94912595e-03, 1.27186012e-02,
          0., 7.94912595e-03, 9.53895040e-03, 3.17965029e-03,
          3.17965029e-03, 1.58982514e-03, 9.53895040e-03, 0.,
          9.53895040e-03, 1.58982514e-03, 9.53895040e-03, 7.94912595e-03,
          7.94912595e-03, 1.58982514e-03, 1.58982514e-03, 1.58982514e-03,
          1.58982514e-03, 0., 3.33863273e-02, 6.35930058e-03,
          4.76947520e-03, 3.17965029e-03, 3.17965029e-03, 0., 0., 0.,
          2.86168531e-02 ]
      - [ 9.86193307e-03, 1.97238661e-03, 1.97238661e-03, 5.32544404e-02,
          0., 0., 1.18343197e-02, 3.94477323e-03, 1.57790929e-02,
          3.94477323e-03, 1.18343197e-02, 4.14201170e-02, 3.94477323e-03,
          0., 1.38067063e-02, 0., 7.88954645e-03, 7.88954645e-03,
          2.36686394e-02, 1.57790929e-02, 0., 1.97238661e-03,
          1.18343197e-02, 3.94477323e-03, 0., 0., 3.94477323e-03, 0.,
          7.88954645e-03, 1.97238661e-03, 9.86193307e-03, 9.86193307e-03,
          1.38067063e-02, 0., 0., 9.86193307e-03, 1.77514795e-02,
          3.94477323e-03, 5.91715984e-03, 1.97238661e-03, 0.,
          1.97238661e-02, 1.97238661e-03, 9.86193307e-03, 1.57790929e-02,
          7.88954645e-03, 1.97238661e-03, 2.76134126e-02, 3.94477323e-03,
          0., 7.88954645e-03, 3.94477323e-03, 3.94477323e-03,
          3.94477323e-03, 3.94477323e-03, 9.86193307e-03, 3.94477323e-03,
          1.97238661e-03, 3.94477323e-03, 0., 1.38067063e-02,
          3.94477323e-03, 5.91715984e-03, 0., 7.88954645e-03,
          3.94477323e-03, 1.77514795e-02, 0., 2.16962527e-02,
          9.86193307e-03, 1.97238661e-03, 9.86193307e-03, 2.16962527e-02,
          1.57790929e-02, 0., 1.97238661e-03, 1.97238661e-03, 0., 0., 0.,
          7.88954645e-03, 1.97238661e-03, 0., 2.56410260e-02,
          1.77514795e-02, 1.38067063e-02, 0., 3.94477323e-03, 0., 0.,
          7.88954645e-03, 3.94477323e-03, 1.97238661e-03, 0.,
          1.97238661e-02, 7.88954645e-03, 5.91715984e-03, 3.94477323e-03,
          1.38067063e-02, 0., 1.97238661e-03, 3.94477323e-03,
          3.94477323e-03, 1.97238661e-03, 0., 3.94477323e-03,
          3.94477323e-03, 0., 9.86193307e-03, 0., 5.91715984e-03,
          9.86193307e-03, 1.97238661e-03, 0., 5.91715984e-03,
          7.88954645e-03, 0., 0., 0., 0., 1.97238661e-03, 5.91715984e-03,
          1.18343197e-02, 1.97238661e-03, 7.88954645e-03, 1.97238661e-02,
          1.18343197e-02, 0., 0., 9.86193307e-03, 0., 5.91715984e-03, 0.,
          7.88954645e-03, 1.18343197e-02, 5.91715984e-03, 7.88954645e-03,
          3.15581858e-02, 3.94477323e-03, 0., 7.88954645e-03,
          9.86193307e-03, 0., 0., 5.91715984e-03, 0., 0., 0.,
          3.94477323e-03, 2.56410260e-02 ]
      - [ 8.75656679e-03, 2.10157614e-02, 3.50262690e-03, 3.85288969e-02,
          3.50262690e-03, 5.25394036e-03, 0., 3.50262690e-03, 0.,
          5.25394036e-03, 2.10157614e-02, 0., 4.55341488e-02, 0.,
          1.05078807e-02, 2.62697022e-02, 5.25394036e-03, 1.40105076e-02,
          3.50262690e-03, 1.22591946e-02, 0., 8.75656679e-03,
          2.27670744e-02, 5.25394036e-03, 0., 0., 0., 0., 1.75131345e-03,
          0., 1.05078807e-02, 3.50262690e-03, 3.50262690e-03, 0., 0.,
          1.57618206e-02, 8.75656679e-03, 0., 1.05078807e-02,
          1.75131345e-03, 1.40105076e-02, 7.00525381e-03, 1.75131345e-03,
          1.75131345e-03, 1.40105076e-02, 1.57618206e-02, 0.,
          1.75131345e-03, 1.05078807e-02, 0., 5.25394036e-03,
          1.75131336e-02, 0., 0., 3.50262690e-03, 5.25394036e-03,
          1.75131345e-03, 1.75131345e-03, 5.25394036e-03, 5.25394036e-03,
          0., 1.05078807e-02, 7.00525381e-03, 3.50262690e-03,
          2.45183893e-02, 0., 1.05078807e-02, 0., 1.75131345e-03,
          5.25394036e-03, 2.62697022e-02, 1.57618206e-02, 0.,
          1.75131345e-03, 1.22591946e-02, 3.50262690e-03, 0.,
          1.05078807e-02, 1.75131345e-03, 0., 0., 1.40105076e-02,
          5.25394036e-03, 8.75656679e-03, 3.50262690e-03, 3.50262690e-03,
          3.50262690e-03, 0., 0., 7.00525381e-03, 7.00525381e-03,
          1.22591946e-02, 7.00525381e-03, 0., 7.00525381e-03,
          1.57618206e-02, 6.30472824e-02, 1.57618206e-02, 7.00525381e-03,
          3.50262690e-03, 7.00525381e-03, 0., 1.75131345e-03,
          8.75656679e-03, 7.00525381e-03, 1.05078807e-02, 1.05078807e-02,
          0., 5.25394036e-03, 7.00525381e-03, 1.75131345e-03,
          2.97723282e-02, 7.00525381e-03, 0., 1.92644484e-02,
          7.00525381e-03, 1.75131345e-03, 3.50262690e-03, 1.75131345e-03,
          1.75131345e-03, 5.25394036e-03, 1.75131345e-03, 3.50262690e-03,
          0., 1.22591946e-02, 5.25394036e-03, 5.25394036e-03, 0.,
          5.25394036e-03, 7.00525381e-03, 7.00525381e-03, 1.75131345e-03,
          3.50262690e-03, 7.00525381e-03, 5.25394036e-03, 0.,
          7.00525381e-03, 0., 3.50262690e-03, 3.50262690e-03,
          7.00525381e-03, 1.75131345e-03, 1.75131336e-02, 0., 0., 0., 0.,
          1.75131345e-03, 5.25394036e-03, 0. ]
      - [ 1.33928582e-02, 8.92857183e-03, 0., 1.33928582e-01,
          1.33928582e-02, 0., 0., 1.56250000e-02, 0., 6.69642910e-03,
          4.91071455e-02, 0., 1.78571437e-02, 0., 4.46428591e-03,
          6.69642910e-03, 6.69642910e-03, 4.46428591e-03, 2.23214296e-03,
          1.56250000e-02, 2.23214296e-03, 4.46428591e-03, 1.33928582e-02,
          8.92857183e-03, 0., 0., 0., 0., 6.69642910e-03, 0.,
          6.69642910e-03, 4.46428591e-03, 8.92857183e-03, 0.,
          2.23214296e-03, 1.11607146e-02, 2.00892873e-02, 0.,
          6.69642910e-03, 2.23214296e-03, 8.92857183e-03, 2.23214296e-03,
          0., 4.46428591e-03, 0., 2.23214296e-03, 0., 2.23214296e-03,
          1.11607146e-02, 0., 0., 4.46428591e-03, 0., 0., 2.23214296e-03,
          8.92857183e-03, 0., 4.46428591e-03, 4.46428591e-03, 0.,
          2.23214296e-03, 2.23214296e-03, 4.68750037e-02, 4.46428591e-03,
          1.11607146e-02, 4.46428591e-03, 6.69642910e-03, 0.,
          2.23214296e-03, 8.92857183e-03, 2.00892873e-02, 6.69642910e-03,
          0., 0., 4.46428591e-03, 1.33928582e-02, 2.23214296e-03,
          2.23214296e-03, 0., 2.23214296e-03, 6.69642910e-03,
          2.23214296e-03, 1.33928582e-02, 6.69642910e-03, 1.33928582e-02,
          8.92857183e-03, 0., 0., 0., 0., 1.33928582e-02, 2.23214296e-03,
          4.46428591e-03, 2.23214296e-03, 1.33928582e-02, 2.00892873e-02,
          2.00892873e-02, 1.11607146e-02, 2.23214296e-03, 0.,
          1.33928582e-02, 0., 0., 1.11607146e-02, 0., 1.33928582e-02,
          8.92857183e-03, 2.23214296e-03, 1.33928582e-02, 2.23214296e-03,
          2.23214296e-03, 1.56250000e-02, 0., 0., 4.46428591e-03,
          2.23214296e-03, 0., 0., 0., 0., 0., 0., 6.69642910e-03, 0.,
          6.69642910e-03, 1.33928582e-02, 4.46428591e-03, 0.,
          8.92857183e-03, 6.69642910e-03, 2.23214296e-03, 2.23214296e-03,
          0., 0., 6.69642910e-03, 0., 8.92857183e-03, 2.23214291e-02,
          2.45535728e-02, 6.69642910e-03, 2.23214296e-03, 1.78571437e-02,
          1.11607146e-02, 0., 0., 0., 0., 2.23214296e-03, 1.11607146e-02,
          1.11607146e-02 ]
      - [ 5.33333328e-03, 1.06666666e-02, 1.33333332e-03, 1.22666664e-01,
          9.33333300e-03, 3.99999972e-03, 0., 1.46666663e-02, 0.,
          7.99999945e-03, 2.26666667e-02, 1.33333332e-03, 1.06666666e-02,
          6.66666683e-03, 2.53333338e-02, 1.33333332e-03, 9.33333300e-03,
          1.73333324e-02, 1.86666660e-02, 3.99999972e-03, 3.99999972e-03,
          0., 6.66666683e-03, 9.33333300e-03, 0., 1.33333332e-03, 0.,
          1.33333332e-03, 2.66666664e-03, 0., 3.99999972e-03,
          1.73333324e-02, 7.99999945e-03, 0., 0., 6.66666683e-03,
          1.33333332e-03, 0., 3.99999972e-03, 9.33333300e-03, 0.,
          3.99999972e-03, 0., 5.33333328e-03, 6.66666683e-03,
          1.33333332e-03, 0., 5.33333328e-03, 7.99999945e-03,
          2.66666664e-03, 1.33333337e-02, 7.99999945e-03, 1.33333332e-03,
          0., 3.99999972e-03, 1.59999989e-02, 2.66666664e-03,
          6.66666683e-03, 7.99999945e-03, 1.73333324e-02, 2.66666664e-03,
          1.33333332e-03, 1.99999996e-02, 6.66666683e-03, 2.66666664e-03,
          6.66666683e-03, 3.99999972e-03, 0., 1.20000001e-02,
          1.06666666e-02, 1.86666660e-02, 1.06666666e-02, 1.33333332e-03,
          1.33333332e-03, 7.99999945e-03, 1.06666666e-02, 0.,
          3.99999972e-03, 0., 2.66666664e-03, 5.33333328e-03,
          5.33333328e-03, 9.33333300e-03, 1.33333332e-03, 6.66666683e-03,
          1.46666663e-02, 1.33333332e-03, 0., 0., 0., 5.33333328e-03,
          3.99999972e-03, 9.33333300e-03, 0., 1.33333337e-02,
          7.99999945e-03, 1.06666666e-02, 2.13333331e-02, 6.66666683e-03,
          1.33333332e-03, 6.66666683e-03, 0., 2.66666664e-03,
          1.20000001e-02, 3.99999972e-03, 2.66666664e-03, 3.99999972e-03,
          0., 0., 1.33333332e-03, 3.73333320e-02, 7.99999945e-03,
          3.99999972e-03, 0., 2.66666664e-03, 2.66666664e-03, 0.,
          1.33333332e-03, 5.33333328e-03, 5.33333328e-03, 3.99999972e-03,
          1.33333332e-03, 3.99999972e-03, 3.99999972e-03, 0.,
          1.86666660e-02, 1.20000001e-02, 2.66666664e-03, 3.99999972e-03,
          3.99999972e-03, 3.99999972e-03, 9.33333300e-03, 2.66666664e-03,
          3.99999972e-03, 1.86666660e-02, 0., 2.66666664e-03,
          2.93333326e-02, 1.33333332e-03, 1.20000001e-02, 2.66666664e-03,
          1.20000001e-02, 1.46666663e-02, 0., 1.33333332e-03, 0., 0., 0.,
          0., 2.66666664e-03 ]
      - [ 8.94854590e-03, 2.23713648e-03, 4.47427295e-03, 4.25055921e-02,
          2.01342292e-02, 0., 4.47427295e-03, 0., 2.01342292e-02,
          2.23713648e-03, 0., 3.57941836e-02, 0., 0., 2.90827751e-02, 0.,
          4.47427295e-03, 1.11856824e-02, 3.35570462e-02, 4.47427295e-03,
          6.71140943e-03, 0., 6.71140943e-03, 0., 0., 0., 0., 0.,
          2.23713648e-03, 0., 0., 6.71140943e-03, 3.13199088e-02, 0.,
          2.23713648e-03, 4.47427295e-03, 6.71140943e-03, 4.47427295e-03,
          2.68456377e-02, 2.01342292e-02, 0., 6.71140943e-03, 0.,
          6.71140943e-03, 8.94854590e-03, 2.23713648e-03, 0.,
          2.90827751e-02, 1.78970918e-02, 8.94854590e-03, 4.47427295e-03,
          0., 4.47427295e-03, 6.71140943e-03, 2.23713648e-03,
          6.71140943e-03, 4.47427295e-03, 4.47427295e-03, 0.,
          1.11856824e-02, 0., 0., 6.71140943e-03, 4.47427295e-03, 0.,
          4.47427295e-03, 1.11856824e-02, 0., 2.46085003e-02, 0., 0.,
          6.71140943e-03, 6.71140943e-03, 6.71140943e-03, 0.,
          4.47427295e-03, 0., 2.23713648e-03, 0., 6.71140943e-03,
          1.56599544e-02, 2.23713648e-03, 0., 2.23713648e-03,
          6.71140943e-03, 6.71140943e-03, 0., 2.23713648e-03, 0., 0.,
          4.47427295e-03, 6.71140943e-03, 2.23713648e-03, 0.,
          3.35570462e-02, 8.94854590e-03, 0., 0., 2.23713648e-02, 0., 0.,
          0., 2.90827751e-02, 2.46085003e-02, 0., 8.94854590e-03,
          2.23713648e-03, 0., 0., 0., 4.47427295e-03, 6.71140943e-03,
          8.94854590e-03, 0., 0., 1.34228189e-02, 0., 0., 2.23713648e-03,
          0., 6.71140943e-03, 4.47427295e-03, 2.23713648e-03, 0., 0.,
          1.11856824e-02, 6.71140943e-03, 0., 0., 0., 0., 3.13199088e-02,
          0., 4.47427295e-03, 1.34228189e-02, 4.47427295e-03,
          4.47427295e-03, 8.94854590e-03, 1.56599544e-02, 4.47427295e-03,
          6.71140943e-03, 7.15883672e-02, 4.47427295e-03, 2.23713648e-03,
          1.11856824e-02, 0., 0., 0., 2.23713648e-03, 1.56599544e-02 ]
      - [ 1.25000002e-02, 1.78571437e-02, 8.92857183e-03, 6.96428567e-02,
          1.42857144e-02, 1.78571430e-03, 0., 7.14285718e-03, 0.,
          1.96428578e-02, 2.85714287e-02, 1.07142860e-02, 0., 0.,
          1.78571437e-02, 1.07142860e-02, 8.92857183e-03, 5.35714300e-03,
          1.60714295e-02, 1.60714295e-02, 1.78571430e-03, 1.78571430e-03,
          2.85714287e-02, 0., 0., 1.78571430e-03, 1.78571430e-03, 0.,
          3.57142859e-03, 1.78571430e-03, 0., 1.07142860e-02,
          1.60714295e-02, 0., 0., 2.14285720e-02, 1.60714295e-02, 0.,
          3.57142859e-03, 0., 1.78571430e-03, 2.14285720e-02,
          1.78571430e-03, 1.78571430e-03, 3.57142859e-03, 5.35714300e-03,
          0., 5.35714300e-03, 1.07142860e-02, 1.78571430e-03,
          1.07142860e-02, 1.96428578e-02, 1.78571430e-03, 0.,
          1.78571430e-03, 5.35714300e-03, 1.78571430e-03, 1.07142860e-02,
          1.60714295e-02, 5.35714300e-03, 0., 1.78571430e-03,
          1.78571430e-03, 1.07142860e-02, 7.14285718e-03, 0.,
          1.78571437e-02, 0., 1.78571430e-03, 1.07142860e-02,
          1.60714295e-02, 7.14285718e-03, 0., 1.78571430e-03,
          5.35714300e-03, 1.78571430e-03, 7.14285718e-03, 5.35714300e-03,
          3.57142859e-03, 1.78571430e-03, 1.78571430e-03, 1.96428578e-02,
          7.14285718e-03, 7.14285718e-03, 1.25000002e-02, 1.78571430e-03,
          5.35714300e-03, 0., 1.78571430e-03, 3.57142859e-03,
          3.57142859e-03, 1.78571430e-03, 1.25000002e-02, 0.,
          1.78571437e-02, 8.92857183e-03, 7.14285718e-03, 3.57142859e-03,
          8.92857183e-03, 0., 5.35714300e-03, 0., 0., 1.78571430e-03,
          1.78571430e-03, 1.96428578e-02, 1.78571430e-03, 0.,
          5.35714300e-03, 1.78571430e-03, 1.78571430e-03, 4.46428582e-02,
          5.35714300e-03, 0., 7.14285718e-03, 8.92857183e-03, 0., 0.,
          3.57142859e-03, 0., 5.35714300e-03, 0., 1.42857144e-02,
          3.57142859e-03, 8.92857183e-03, 2.32142862e-02, 1.60714295e-02,
          1.78571430e-03, 7.14285718e-03, 1.78571437e-02, 3.57142859e-03,
          3.57142859e-03, 1.78571430e-03, 3.57142859e-03, 5.35714300e-03,
          1.78571430e-03, 3.57142859e-03, 0., 3.57142859e-03,
          3.57142859e-03, 8.92857183e-03, 7.14285718e-03, 1.07142860e-02,
          1.78571430e-03, 0., 0., 0., 0., 5.35714300e-03, 0. ]
      - [ 1.46443509e-02, 0., 6.27615023e-03, 3.13807540e-02,
          8.36820062e-03, 0., 1.67364012e-02, 0., 1.67364012e-02,
          6.27615023e-03, 0., 4.60251048e-02, 0., 0., 1.67364012e-02,
          6.27615023e-03, 2.09205016e-03, 0., 2.09205016e-03,
          8.36820062e-03, 1.04602510e-02, 0., 8.36820062e-03,
          2.09205016e-03, 0., 0., 6.27615023e-03, 0., 1.88284516e-02,
          2.09205016e-03, 4.18410031e-03, 1.25523005e-02, 8.36820062e-03,
          0., 0., 4.18410031e-03, 1.67364012e-02, 0., 2.51046009e-02,
          1.46443509e-02, 0., 1.88284516e-02, 4.18410031e-03,
          2.09205016e-03, 1.25523005e-02, 0., 0., 5.64853549e-02,
          1.25523005e-02, 1.25523005e-02, 0., 4.18410031e-03,
          4.18410031e-03, 4.18410031e-03, 2.09205016e-03, 6.27615023e-03,
          4.18410031e-03, 4.18410031e-03, 0., 1.46443509e-02,
          2.30125524e-02, 0., 2.09205016e-03, 6.27615023e-03,
          2.09205016e-03, 2.92887017e-02, 6.27615023e-03, 0.,
          1.67364012e-02, 4.18410031e-03, 2.09205016e-03, 4.18410031e-03,
          4.18410031e-03, 1.04602510e-02, 0., 2.09205016e-03, 0.,
          2.09205016e-03, 0., 2.09205016e-03, 4.81171533e-02,
          4.18410031e-03, 0., 0., 6.27615023e-03, 0., 6.27615023e-03, 0.,
          0., 0., 4.18410031e-03, 2.09205016e-03, 2.09205016e-03, 0.,
          1.46443509e-02, 1.46443509e-02, 0., 0., 6.27615023e-03, 0.,
          4.18410031e-03, 2.09205016e-03, 3.55648510e-02, 4.18410031e-03,
          0., 4.18410031e-03, 0., 0., 0., 0., 2.09205016e-03,
          6.27615023e-03, 2.09205016e-03, 0., 8.36820062e-03,
          6.27615023e-03, 0., 0., 4.18410031e-03, 0., 4.18410031e-03,
          2.51046009e-02, 0., 0., 2.09205016e-03, 1.67364012e-02, 0., 0.,
          2.09205016e-03, 0., 0., 2.09205016e-03, 0., 2.30125524e-02,
          1.25523005e-02, 0., 8.36820062e-03, 4.18410031e-03,
          4.18410031e-03, 2.09205016e-03, 1.04602510e-02, 4.81171533e-02,
          8.36820062e-03, 0., 2.30125524e-02, 0., 0., 0., 6.27615023e-03,
          1.25523005e-02 ]
      - [ 1.59574468e-02, 1.06382975e-02, 1.77304959e-03, 1.77304953e-01,
          1.24113467e-02, 3.54609918e-03, 0., 1.06382975e-02, 0.,
          1.06382975e-02, 7.26950318e-02, 0., 5.31914877e-03, 0.,
          1.59574468e-02, 8.86524841e-03, 1.77304959e-03, 8.86524841e-03,
          5.31914877e-03, 1.41843967e-02, 5.31914877e-03, 7.09219836e-03,
          1.59574468e-02, 0., 7.09219836e-03, 0., 0., 5.31914877e-03,
          5.31914877e-03, 0., 3.54609918e-03, 1.77304959e-03,
          7.09219836e-03, 0., 7.09219836e-03, 5.31914877e-03,
          1.24113467e-02, 0., 7.09219836e-03, 0., 5.31914877e-03,
          7.09219836e-03, 0., 1.77304959e-03, 3.54609918e-03, 0., 0.,
          3.54609918e-03, 3.54609918e-03, 0., 0., 1.59574468e-02,
          1.77304959e-03, 0., 1.06382975e-02, 5.31914877e-03,
          1.77304959e-03, 5.31914877e-03, 1.59574468e-02, 5.31914877e-03,
          0., 1.24113467e-02, 8.86524841e-03, 0., 2.12765951e-02,
          1.77304959e-03, 7.09219836e-03, 0., 1.77304959e-03,
          8.86524841e-03, 2.65957434e-02, 7.09219836e-03, 0.,
          1.77304959e-03, 3.54609918e-03, 3.54609918e-03, 3.54609918e-03,
          1.06382975e-02, 1.77304959e-03, 1.77304959e-03, 0.,
          1.24113467e-02, 0., 1.77304959e-03, 8.86524841e-03,
          2.48226933e-02, 1.77304959e-03, 0., 5.31914877e-03,
          3.54609918e-03, 7.09219836e-03, 3.54609918e-03, 7.09219836e-03,
          0., 8.86524841e-03, 5.31914877e-03, 3.54609918e-03,
          1.77304959e-03, 5.31914877e-03, 3.54609918e-03, 8.86524841e-03,
          1.77304959e-03, 0., 7.09219836e-03, 5.31914877e-03,
          8.86524841e-03, 3.54609918e-03, 5.31914877e-03, 8.86524841e-03,
          5.31914877e-03, 3.54609918e-03, 1.77304968e-02, 5.31914877e-03,
          0., 1.24113467e-02, 5.31914877e-03, 1.77304959e-03,
          1.77304959e-03, 1.77304959e-03, 5.31914877e-03, 3.54609918e-03,
          0., 7.09219836e-03, 3.54609918e-03, 3.54609918e-03,
          1.06382975e-02, 1.59574468e-02, 1.77304959e-03, 8.86524841e-03,
          5.31914877e-03, 0., 3.54609918e-03, 0., 3.54609918e-03,
          1.77304959e-03, 0., 7.09219836e-03, 0., 5.31914877e-03, 0.,
          1.06382975e-02, 3.54609918e-03, 3.54609918e-03, 1.77304959e-03,
          1.77304959e-03, 0., 0., 0., 3.54609918e-03, 3.54609918e-03 ]
      - [ 9.28792544e-03, 2.01238394e-02, 6.19195029e-03, 2.63157897e-02,
          1.70278624e-02, 0., 0., 7.73993786e-03, 0., 9.28792544e-03, 0.,
          0., 9.28792544e-03, 1.54798757e-03, 1.54798757e-02,
          6.19195029e-03, 3.09597515e-03, 2.32198127e-02, 2.01238394e-02,
          1.54798757e-02, 1.23839006e-02, 1.54798757e-03, 1.23839006e-02,
          2.01238394e-02, 0., 0., 0., 0., 3.09597515e-03, 0.,
          1.23839006e-02, 3.09597515e-03, 7.73993786e-03, 3.09597515e-03,
          0., 1.39318882e-02, 1.08359130e-02, 1.54798757e-03,
          1.23839006e-02, 6.19195029e-03, 4.64396272e-03, 9.28792544e-03,
          1.54798757e-03, 6.19195029e-03, 1.54798757e-02, 4.64396272e-03,
          0., 6.19195029e-03, 1.85758509e-02, 0., 0., 1.70278624e-02,
          6.19195029e-03, 3.09597515e-03, 1.54798757e-02, 9.28792544e-03,
          1.08359130e-02, 3.09597515e-03, 1.54798757e-03, 9.28792544e-03,
          4.64396272e-03, 1.54798757e-03, 9.28792544e-03, 1.54798757e-03,
          0., 1.54798757e-03, 4.64396272e-03, 0., 1.08359130e-02,
          7.73993786e-03, 2.01238394e-02, 1.23839006e-02, 0., 0.,
          4.64396272e-03, 4.64396272e-03, 1.54798757e-03, 1.54798757e-03,
          0., 3.09597515e-03, 1.23839006e-02, 1.08359130e-02,
          1.54798757e-03, 1.54798757e-03, 1.39318882e-02, 9.28792544e-03,
          1.08359130e-02, 1.54798757e-03, 1.54798757e-03, 0.,
          6.19195029e-03, 6.19195029e-03, 1.39318882e-02, 3.09597515e-03,
          7.73993786e-03, 2.01238394e-02, 1.23839006e-02, 1.85758509e-02,
          4.64396272e-03, 1.54798757e-03, 3.09597515e-03, 0.,
          3.09597515e-03, 1.54798757e-03, 1.54798757e-03, 1.54798757e-03,
          3.09597515e-03, 0., 4.64396272e-03, 9.28792544e-03,
          3.09597515e-03, 2.94117630e-02, 9.28792544e-03, 0.,
          1.23839006e-02, 9.28792544e-03, 0., 0., 3.09597515e-03,
          6.19195029e-03, 9.28792544e-03, 0., 1.85758509e-02, 0.,
          3.09597515e-03, 1.08359130e-02, 1.08359130e-02, 7.73993786e-03,
          1.08359130e-02, 6.19195029e-03, 7.73993786e-03, 6.19195029e-03,
          3.09597515e-03, 6.19195029e-03, 7.73993786e-03, 4.64396272e-03,
          1.39318882e-02, 0., 7.73993786e-03, 6.19195029e-03,
          6.19195029e-03, 1.23839006e-02, 3.09597515e-03, 2.01238394e-02,
          1.54798757e-03, 6.19195029e-03, 0., 0., 3.09597515e-03,
          4.64396272e-03 ]
   decision_functions:
      -
         sv_count: 30
         rho: -4.1257590055466253e-03
         alpha: [ 1.0000000000000001e-01, 1.0000000000000001e-01,
             1.0000000000000001e-01, 1.0000000000000001e-01,
             1.0000000000000001e-01, 1.0000000000000001e-01,
             1.0000000000000001e-01, 1.0000000000000001e-01,
             1.0000000000000001e-01, 1.0000000000000001e-01,
             1.0000000000000001e-01, 1.0000000000000001e-01,
             1.0000000000000001e-01, 1.0000000000000001e-01,
             1.0000000000000001e-01, -1.0000000000000001e-01,
             -1.0000000000000001e-01, -1.0000000000000001e-01,
             -1.0000000000000001e-01, -1.0000000000000001e-01,
             -1.0000000000000001e-01, -1.0000000000000001e-01,
             -1.0000000000000001e-01, -1.0000000000000001e-01,
             -1.0000000000000001e-01, -1.0000000000000001e-01,
             -1.0000000000000001e-01, -1.0000000000000001e-01,
             -1.0000000000000001e-01, -1.0000000000000001e-01 ]
         index: [ 1, 0, 14, 13, 12, 11, 10, 9, 8, 7, 6, 5, 4, 3, 2, 29,
             28, 27, 26, 25, 24, 23, 22, 21, 20, 19, 18, 17, 16, 15 ]
