%YAML:1.0
---
opencv_ml_knn:
   format: 3
   is_classifier: 1
   default_k: 2
   samples: !!opencv-matrix
      rows: 40
      cols: 150
      dt: f
      data: [ 0., 0., 6.91699609e-02, 1.97628466e-03, 0., 0.,
          5.92885399e-03, 0., 0., 6.71936795e-02, 3.95256933e-03, 0.,
          9.88142379e-03, 0., 1.58102773e-02, 0., 6.52173907e-02, 0., 0.,
          1.18577080e-02, 3.55731249e-02, 3.95256933e-03, 1.10671937e-01,
          0., 1.14624508e-01, 0., 0., 3.55731249e-02, 1.58102773e-02,
          1.38339922e-02, 0., 0., 0., 0., 8.10276717e-02, 0.,
          7.90513866e-03, 1.18577080e-02, 0., 0., 0., 0., 0.,
          1.97628476e-02, 0., 0., 0., 0., 1.97628466e-03, 0., 0.,
          1.77865624e-02, 0., 0., 0., 0., 0., 0., 0., 0., 0., 0.,
          1.18577080e-02, 0., 0., 0., 0., 0., 0., 0., 0., 0., 0., 0.,
          5.92885399e-03, 0., 0., 2.76679844e-02, 0., 6.32411093e-02, 0.,
          0., 0., 0., 1.38339922e-02, 0., 0., 0., 9.88142379e-03, 0.,
          1.97628466e-03, 2.17391308e-02, 0., 6.12648241e-02, 0., 0., 0.,
          1.18577080e-02, 3.16205546e-02, 1.97628466e-03, 0.,
          3.95256933e-03, 0., 0., 0., 0., 0., 0., 0., 0., 0.,
          1.18577080e-02, 0., 0., 0., 0., 0., 0., 0., 0., 0., 0., 0., 0.,
          0., 0., 0., 0., 0., 0., 0., 0., 0., 0., 0., 0., 0., 0., 0., 0.,
          0., 0., 0., 0., 0., 0., 0., 0., 0., 0., 0., 1.68776363e-02,
          1.60337538e-01, 0., 0., 0., 6.32911325e-02, 0., 6.32911362e-03,
          4.43037972e-02, 1.89873409e-02, 1.26582272e-02, 0., 0., 0., 0.,
          0., 9.28269997e-02, 0., 3.79746817e-02, 0., 0., 0.,
          1.05485227e-02, 1.89873409e-02, 0., 0., 0., 5.27426153e-02, 0.,
          0., 4.21940908e-02, 0., 2.10970454e-02, 3.16455662e-02,
          7.38396570e-02, 0., 0., 1.47679318e-02, 2.10970454e-03,
          8.43881816e-03, 4.21940908e-03, 0., 0., 4.21940908e-03, 0., 0.,
          0., 4.21940908e-03, 0., 0., 0., 0., 0., 0., 2.10970454e-03,
          7.38396570e-02, 0., 0., 6.32911362e-03, 0., 2.53164545e-02, 0.,
          0., 0., 0., 0., 0., 4.21940908e-03, 0., 0., 0., 0., 0., 0., 0.,
          3.16455662e-02, 0., 4.21940908e-03, 0., 6.32911362e-03, 0., 0.,
          2.10970454e-03, 4.85232025e-02, 0., 6.32911362e-03, 0., 0., 0.,
          0., 0., 0., 2.10970454e-03, 0., 0., 0., 0., 1.05485227e-02, 0.,
          0., 0., 0., 0., 0., 0., 8.43881816e-03, 0., 6.32911362e-03, 0.,
          4.21940908e-03, 0., 0., 2.10970454e-03, 2.10970454e-03, 0., 0.,
          0., 0., 0., 0., 0., 0., 0., 0., 0., 0., 0., 0., 2.10970454e-03,
          0., 0., 8.43881816e-03, 0., 0., 0., 0., 0., 0., 0., 0., 0., 0.,
          0., 0., 0., 0., 0., 0., 0., 9.64285731e-02, 0., 6.07142858e-02,
          0., 1.78571430e-03, 0., 1.60714295e-02, 0., 1.78571430e-03,
          8.92857183e-03, 1.78571430e-03, 3.57142859e-03, 7.14285746e-02,
          1.60714295e-02, 0., 0., 0., 1.60714295e-02, 2.32142862e-02,
          1.07142860e-02, 0., 3.57142859e-03, 6.07142858e-02,
          3.57142859e-03, 1.78571430e-03, 0., 0., 0., 4.82142866e-02,
          1.78571430e-03, 0., 8.92857183e-03, 3.57142873e-02, 0., 0., 0.,
          1.25000002e-02, 0., 1.42857144e-02, 0., 2.67857146e-02,
          1.78571437e-02, 0., 0., 0., 5.35714291e-02, 0., 0.,
          5.71428575e-02, 0., 0., 0., 1.78571430e-03, 0., 0., 0.,
          8.92857183e-03, 0., 1.78571437e-02, 0., 0., 3.75000015e-02, 0.,
          0., 0., 0., 1.78571430e-03, 0., 0., 3.92857157e-02, 0., 0., 0.,
          0., 1.07142860e-02, 0., 0., 0., 0., 1.60714295e-02,
          2.14285720e-02, 0., 1.78571430e-03, 0., 8.92857183e-03, 0., 0.,
          0., 0., 0., 0., 0., 1.78571430e-03, 2.14285720e-02, 0., 0., 0.,
          0., 0., 0., 0., 2.32142862e-02, 1.25000002e-02, 0., 0.,
          4.10714298e-02, 0., 0., 3.21428590e-02, 0., 0., 0., 0.,
          5.35714300e-03, 0., 0., 5.35714300e-03, 7.14285718e-03, 0., 0.,
          0., 0., 0., 0., 0., 0., 0., 0., 0., 0., 0., 0., 1.78571430e-03,
          0., 0., 0., 0., 0., 0., 7.14285718e-03, 0., 0., 0., 0., 0., 0.,
          0., 0., 0., 0., 0., 0., 1.02605857e-01, 0., 0., 0.,
          1.62866444e-03, 0., 0., 1.12377845e-01, 4.88599343e-03, 0., 0.,
          0., 0., 6.51465775e-03, 0., 9.77198686e-03, 0., 1.62866444e-03,
          0., 9.77198686e-03, 5.21172620e-02, 0., 3.58306170e-02, 0., 0.,
          0., 3.25732888e-03, 1.62866444e-03, 0., 0., 0., 0.,
          8.30618888e-02, 0., 0., 1.62866444e-03, 0., 0., 1.46579798e-02,
          0., 0., 0., 0., 0., 0., 0., 0., 0., 2.08469048e-01, 0., 0.,
          1.62866444e-03, 0., 0., 0., 0., 0., 0., 0., 0., 0., 0., 0., 0.,
          0., 0., 0., 0., 0., 1.79153085e-01, 0., 0., 6.18892498e-02, 0.,
          0., 2.60586310e-02, 0., 0., 0., 1.62866444e-03, 0., 0.,
          1.30293155e-02, 0., 0., 0., 6.51465775e-03, 0., 0.,
          1.79153085e-02, 0., 1.62866444e-03, 0., 0., 0., 1.95439737e-02,
          0., 0., 0., 6.51465775e-03, 0., 0., 6.51465775e-03, 0., 0., 0.,
          0., 0., 0., 4.88599343e-03, 0., 0., 1.62866444e-03, 0.,
          1.62866444e-03, 0., 0., 0., 0., 0., 0., 0., 0., 0., 0., 0., 0.,
          0., 0., 0., 0., 0., 0., 0., 0., 0., 0., 0., 0., 0., 0., 0., 0.,
          0., 0., 0., 0., 0., 4.10714298e-02, 0., 5.71428575e-02,
          7.14285718e-03, 1.42857144e-02, 1.42857144e-02, 2.32142862e-02,
          3.57142859e-03, 8.92857183e-03, 1.78571430e-03, 0.,
          1.78571430e-03, 3.03571429e-02, 5.17857149e-02, 0.,
          5.35714300e-03, 0., 1.78571437e-02, 1.78571430e-03, 0.,
          2.14285720e-02, 0., 2.50000004e-02, 3.57142859e-03,
          8.92857183e-03, 0., 1.25000002e-02, 0., 4.64285724e-02, 0., 0.,
          1.78571430e-03, 5.35714300e-03, 1.96428578e-02, 1.78571430e-03,
          5.35714300e-03, 0., 1.42857144e-02, 1.42857144e-02, 0.,
          3.75000015e-02, 1.78571430e-03, 5.35714300e-03, 0.,
          2.85714287e-02, 3.03571429e-02, 1.42857144e-02, 5.35714300e-03,
          1.78571430e-03, 0., 0., 0., 1.25000002e-02, 1.07142860e-02, 0.,
          3.57142859e-03, 1.78571430e-03, 8.92857183e-03, 2.50000004e-02,
          0., 0., 2.67857146e-02, 5.35714300e-03, 0., 7.14285718e-03, 0.,
          0., 0., 0., 3.21428590e-02, 0., 0., 2.50000004e-02, 0.,
          1.78571430e-03, 0., 0., 5.35714300e-03, 0., 0., 2.14285720e-02,
          0., 1.25000002e-02, 0., 1.25000002e-02, 0., 0., 0., 0.,
          1.25000002e-02, 1.78571430e-03, 0., 0., 1.42857144e-02,
          3.57142859e-03, 0., 1.78571430e-03, 7.14285718e-03,
          1.78571430e-03, 0., 0., 3.03571429e-02, 1.78571430e-03, 0., 0.,
          4.10714298e-02, 0., 1.78571430e-03, 3.21428590e-02, 0., 0., 0.,
          0., 3.57142859e-03, 1.78571430e-03, 0., 5.35714300e-03, 0., 0.,
          7.14285718e-03, 0., 0., 0., 3.57142859e-03, 0., 0.,
          3.57142859e-03, 7.14285718e-03, 0., 0., 0., 0., 3.57142859e-03,
          0., 0., 0., 0., 0., 0., 1.60714295e-02, 0., 0., 0., 0., 0., 0.,
          0., 0., 0., 0., 0., 0., 1.91256832e-02, 0., 0., 0.,
          5.46448072e-03, 0., 0., 1.36612013e-01, 8.19672085e-03, 0., 0.,
          0., 0., 0., 5.73770478e-02, 0., 0., 4.91803251e-02,
          3.27868834e-02, 0., 9.01639313e-02, 0., 1.80327863e-01, 0., 0.,
          1.63934417e-02, 1.91256832e-02, 0., 0., 0., 0., 0.,
          8.46994519e-02, 0., 0., 0., 0., 0., 0., 0., 0., 0., 0., 0., 0.,
          0., 0., 0., 0., 0., 0., 0., 1.09289614e-02, 0., 0., 0., 0., 0.,
          0., 0., 0., 0., 0., 0., 0., 0., 0., 0., 0., 0., 0., 0.,
          4.91803251e-02, 0., 0., 3.00546438e-02, 0., 0., 0., 0., 0.,
          3.00546438e-02, 8.19672085e-03, 0., 0., 0., 2.73224041e-02, 0.,
          0., 2.73224041e-02, 0., 0., 0., 0., 2.73224036e-03, 0.,
          8.19672123e-02, 0., 0., 5.46448072e-03, 0., 0., 0., 0.,
          2.45901626e-02, 0., 0., 0., 0., 0., 0., 0., 0., 0.,
          2.73224036e-03, 0., 0., 0., 0., 0., 0., 0., 0., 0., 0., 0., 0.,
          0., 0., 0., 0., 0., 0., 0., 0., 0., 0., 0., 0., 0., 0., 0., 0.,
          0., 0., 0., 0., 0., 7.32142851e-02, 0., 0., 0., 0., 0.,
          3.21428590e-02, 0., 0., 0., 1.07142860e-02, 7.14285718e-03,
          4.28571440e-02, 6.25000000e-02, 0., 0., 0., 1.44642860e-01,
          1.25000002e-02, 1.07142860e-02, 0., 5.35714300e-03,
          8.03571418e-02, 3.57142859e-03, 0., 0., 0., 0., 0.,
          1.07142860e-02, 2.85714287e-02, 2.32142862e-02, 9.82142836e-02,
          1.78571430e-03, 0., 0., 0., 0., 1.07142860e-02, 0.,
          1.25000002e-02, 4.46428582e-02, 0., 0., 0., 7.14285718e-03, 0.,
          0., 3.03571429e-02, 0., 0., 0., 0., 0., 0., 0., 0., 0., 0., 0.,
          0., 0., 0., 0., 0., 0., 0., 0., 0., 1.42857144e-02, 0., 0., 0.,
          0., 6.25000000e-02, 0., 1.78571437e-02, 0., 0., 5.35714300e-03,
          0., 0., 0., 0., 8.92857183e-03, 0., 0., 0., 0., 0., 0., 0., 0.,
          0., 0., 0., 0., 0., 2.85714287e-02, 0., 0., 0., 3.57142859e-03,
          0., 0., 3.03571429e-02, 0., 0., 5.35714300e-03, 0., 0.,
          8.92857183e-03, 0., 0., 7.14285718e-03, 0., 0., 0., 0., 0., 0.,
          0., 0., 0., 0., 2.67857146e-02, 0., 0., 0., 0., 0., 0.,
          2.67857146e-02, 0., 0., 0., 0., 0., 0., 0., 0., 0., 0., 0., 0.,
          0., 0., 0., 0., 0., 0., 6.78571463e-02, 6.42857179e-02,
          3.57142859e-03, 7.14285718e-03, 3.21428590e-02, 6.60714284e-02,
          0., 7.14285746e-02, 5.35714300e-03, 8.92857183e-03,
          1.42857144e-02, 0., 1.78571430e-03, 1.78571430e-03,
          1.60714295e-02, 3.57142873e-02, 0., 8.92857183e-03,
          1.78571430e-03, 0., 7.14285718e-03, 3.39285731e-02,
          5.35714300e-03, 0., 0., 1.07142860e-02, 3.57142873e-02,
          5.35714300e-03, 0., 0., 2.32142862e-02, 0., 1.07142860e-02,
          1.96428578e-02, 0., 3.57142873e-02, 1.78571437e-02,
          1.42857144e-02, 1.07142860e-02, 1.25000002e-02, 5.35714300e-03,
          1.78571430e-03, 0., 7.14285718e-03, 1.78571430e-03, 0.,
          1.78571430e-03, 0., 0., 0., 0., 0., 2.32142862e-02,
          2.32142862e-02, 8.92857183e-03, 3.39285731e-02, 0.,
          7.14285718e-03, 1.78571430e-03, 1.96428578e-02, 1.42857144e-02,
          1.07142860e-02, 0., 0., 0., 0., 0., 3.57142859e-03, 0.,
          1.78571430e-03, 0., 1.78571430e-03, 0., 5.35714300e-03, 0.,
          7.14285718e-03, 7.14285718e-03, 1.07142860e-02, 0.,
          7.14285718e-03, 0., 0., 7.14285718e-03, 0., 0., 0.,
          1.07142860e-02, 1.78571430e-03, 7.14285718e-03, 1.78571430e-03,
          1.78571430e-03, 0., 7.14285718e-03, 0., 0., 8.92857183e-03,
          8.92857183e-03, 1.78571437e-02, 0., 1.78571430e-03, 0., 0., 0.,
          3.57142859e-03, 0., 0., 1.78571430e-03, 2.85714287e-02, 0., 0.,
          0., 0., 5.35714300e-03, 3.57142859e-03, 0., 5.35714300e-03, 0.,
          0., 0., 0., 0., 0., 1.78571430e-03, 5.35714300e-03, 0., 0., 0.,
          0., 0., 0., 0., 5.35714300e-03, 5.35714300e-03, 1.78571430e-03,
          0., 1.78571430e-03, 0., 0., 0., 0., 0., 0., 0., 0., 0., 0., 0.,
          0., 0., 0., 3.09446249e-02, 2.28013024e-02, 9.77198686e-03, 0.,
          1.62866451e-02, 1.62866451e-02, 3.25732888e-03, 0.,
          9.77198631e-02, 3.25732888e-03, 1.79153085e-02, 0., 0.,
          1.14006512e-02, 3.09446249e-02, 2.76872963e-02, 0.,
          6.51465775e-03, 3.25732888e-03, 1.79153085e-02, 2.11726371e-02,
          5.21172620e-02, 0., 3.74592803e-02, 0., 1.79153085e-02,
          2.60586310e-02, 0., 1.30293155e-02, 4.88599343e-03,
          7.16612339e-02, 0., 1.30293155e-02, 1.46579798e-02,
          3.25732888e-03, 6.02605827e-02, 1.79153085e-02, 4.88599343e-03,
          0., 1.62866444e-03, 0., 4.88599343e-03, 9.77198686e-03,
          4.88599343e-03, 0., 1.62866451e-02, 4.88599343e-03, 0., 0., 0.,
          1.14006512e-02, 0., 3.25732888e-03, 1.62866444e-03,
          1.30293155e-02, 3.25732888e-03, 0., 0., 1.30293155e-02, 0., 0.,
          1.62866444e-03, 0., 0., 0., 0., 0., 1.62866451e-02, 0.,
          3.25732888e-03, 0., 0., 0., 9.77198686e-03, 0., 3.25732902e-02,
          2.76872963e-02, 4.88599343e-03, 8.14332254e-03, 0., 0., 0.,
          9.77198686e-03, 1.62866444e-03, 0., 1.62866444e-03, 0.,
          4.88599343e-03, 4.88599343e-03, 3.25732888e-03, 2.28013024e-02,
          0., 9.77198686e-03, 4.88599343e-03, 0., 3.25732888e-03,
          1.79153085e-02, 0., 1.62866444e-03, 4.88599343e-03, 0.,
          3.25732888e-03, 0., 1.30293155e-02, 0., 3.25732888e-03, 0., 0.,
          0., 0., 0., 0., 0., 9.77198686e-03, 0., 3.25732888e-03,
          1.62866444e-03, 4.88599343e-03, 0., 0., 0., 0., 0., 0., 0., 0.,
          0., 0., 0., 0., 0., 3.25732888e-03, 0., 0., 0., 0., 0., 0., 0.,
          0., 0., 0., 0., 0., 0., 0., 0., 0., 0., 3.57142859e-03, 0.,
          8.74999985e-02, 0., 1.78571430e-03, 3.21428590e-02,
          7.14285718e-03, 0., 0., 3.03571429e-02, 1.78571430e-03, 0.,
          7.14285718e-03, 0., 0., 1.25000002e-02, 4.64285724e-02, 0., 0.,
          9.28571448e-02, 3.39285731e-02, 5.35714300e-03, 1.19642861e-01,
          0., 6.78571463e-02, 0., 0., 2.67857146e-02, 5.89285716e-02,
          2.32142862e-02, 0., 8.92857183e-03, 0., 0., 0., 0.,
          2.85714287e-02, 7.14285718e-03, 0., 0., 0., 0., 0., 0., 0., 0.,
          3.57142859e-03, 0., 0., 0., 0., 0., 0., 3.57142859e-03,
          3.57142859e-03, 0., 0., 0., 0., 0., 0., 5.35714300e-03,
          7.14285718e-03, 0., 0., 3.57142859e-03, 0., 0., 0., 0.,
          1.78571430e-03, 0., 0., 0., 2.14285720e-02, 0., 0.,
          2.85714287e-02, 0., 3.03571429e-02, 0., 0., 1.78571430e-03,
          2.67857146e-02, 1.25000002e-02, 0., 0., 0., 1.60714295e-02,
          5.35714300e-03, 7.14285718e-03, 1.78571437e-02, 0.,
          2.85714287e-02, 3.57142859e-03, 0., 0., 1.78571437e-02,
          1.78571430e-03, 0., 0., 5.35714300e-03, 0., 0., 0., 0.,
          7.14285718e-03, 0., 0., 0., 0., 2.50000004e-02, 0., 0., 0., 0.,
          1.07142860e-02, 0., 0., 0., 0., 0., 0., 0., 0., 0., 0., 0., 0.,
          0., 0., 0., 0., 0., 0., 0., 0., 0., 0., 0., 0., 0., 0., 0., 0.,
          0., 0., 0., 0., 0., 0., 0., 6.19469024e-02, 1.32743362e-02,
          6.63716812e-03, 2.87610628e-02, 8.84955749e-03, 0., 0.,
          1.21681415e-01, 1.76991150e-02, 0., 0., 0., 2.43362822e-02,
          1.54867256e-02, 5.75221255e-02, 0., 2.21238937e-03,
          5.30973449e-02, 1.99115053e-02, 0., 5.08849546e-02, 0.,
          1.94690257e-01, 0., 0., 2.65486725e-02, 1.32743362e-02, 0., 0.,
          0., 0., 0., 8.18584040e-02, 0., 0., 6.63716812e-03, 0., 0., 0.,
          0., 0., 8.84955749e-03, 0., 0., 0., 0., 0., 4.42477874e-03, 0.,
          6.63716812e-03, 0., 4.42477874e-03, 0., 2.21238937e-03, 0., 0.,
          0., 0., 4.42477874e-03, 0., 1.10619469e-02, 0., 0., 0., 0., 0.,
          0., 0., 0., 0., 0., 0., 2.65486725e-02, 0., 0., 2.21238937e-02,
          0., 0., 0., 0., 2.21238937e-03, 8.84955749e-03, 4.42477874e-03,
          0., 0., 0., 0., 1.32743362e-02, 0., 3.53982300e-02, 0., 0., 0.,
          0., 1.10619469e-02, 1.10619469e-02, 0., 4.42477874e-03, 0., 0.,
          0., 0., 0., 0., 1.10619469e-02, 0., 0., 0., 0., 0., 0., 0., 0.,
          0., 2.21238937e-03, 0., 0., 0., 0., 0., 0., 0., 0., 0., 0., 0.,
          0., 0., 0., 0., 0., 0., 0., 0., 0., 0., 0., 0., 0., 0., 0., 0.,
          0., 0., 0., 0., 0., 0., 0., 0., 3.74592803e-02, 0., 0.,
          2.44299658e-02, 9.77198686e-03, 0., 0., 4.72312681e-02,
          1.30293155e-02, 0., 1.62866444e-03, 0., 0., 1.62866444e-03,
          4.23452742e-02, 3.90879475e-02, 6.51465775e-03, 5.04885986e-02,
          5.86319193e-02, 2.28013024e-02, 2.44299658e-02, 1.79153085e-02,
          2.11726371e-02, 0., 1.62866444e-03, 1.30293155e-02,
          2.28013024e-02, 4.56026047e-02, 3.25732888e-03, 3.74592803e-02,
          0., 0., 1.62866444e-03, 3.25732902e-02, 0., 4.88599343e-03,
          6.51465775e-03, 0., 6.51465775e-03, 4.72312681e-02, 0.,
          1.62866444e-03, 0., 0., 1.30293155e-02, 0., 0., 0., 0., 0., 0.,
          6.51465775e-03, 9.77198686e-03, 0., 2.44299658e-02,
          3.25732888e-03, 0., 2.11726371e-02, 0., 0., 2.28013024e-02, 0.,
          0., 3.25732888e-03, 0., 0., 1.62866444e-03, 0., 1.62866444e-03,
          0., 0., 0., 8.14332254e-03, 0., 3.25732902e-02, 8.14332254e-03,
          0., 3.25732902e-02, 4.88599343e-03, 0., 3.25732888e-03, 0.,
          1.79153085e-02, 0., 1.62866451e-02, 0., 6.51465775e-03,
          4.88599343e-03, 0., 4.88599343e-03, 0., 0., 3.25732888e-03, 0.,
          4.88599343e-03, 0., 0., 0., 0., 0., 1.62866451e-02, 0., 0., 0.,
          4.88599343e-03, 0., 0., 0., 1.62866444e-03, 2.28013024e-02, 0.,
          0., 0., 0., 6.51465775e-03, 0., 2.93159597e-02, 0., 0., 0., 0.,
          0., 6.51465775e-03, 0., 1.62866444e-03, 1.62866444e-03,
          1.62866444e-03, 0., 0., 0., 8.14332254e-03, 0., 0., 0., 0., 0.,
          0., 0., 0., 0., 0., 0., 0., 0., 0., 0., 0., 0., 8.30039531e-02,
          1.97628466e-03, 1.38339922e-02, 0., 0., 0., 0., 0., 0.,
          2.37154160e-02, 0., 3.95256933e-03, 2.56917011e-02, 0., 0., 0.,
          3.75494100e-02, 2.96442695e-02, 0., 0., 0., 0., 1.12648226e-01,
          1.97628466e-03, 0., 0., 0., 3.35968398e-02, 7.90513866e-03, 0.,
          0., 0., 0., 3.95256933e-03, 0., 1.97628466e-03, 0.,
          9.88142379e-03, 1.97628466e-03, 0., 6.12648241e-02,
          5.33596873e-02, 1.97628466e-03, 0., 1.97628466e-03, 0., 0., 0.,
          1.97628476e-02, 0., 0., 0., 0., 0., 1.38339922e-02,
          5.92885399e-03, 1.97628466e-03, 0., 0., 0., 0., 0., 0., 0., 0.,
          0., 1.97628466e-03, 0., 1.97628476e-02, 4.94071171e-02,
          1.18577080e-02, 0., 0., 0., 6.91699609e-02, 0., 1.97628466e-03,
          4.54545468e-02, 0., 2.56917011e-02, 0., 0., 0., 5.92885399e-03,
          2.17391308e-02, 0., 1.97628466e-03, 0., 5.92885399e-03, 0.,
          1.38339922e-02, 1.97628476e-02, 0., 1.18577080e-02, 0., 0., 0.,
          2.56917011e-02, 5.13834022e-02, 0., 0., 1.97628466e-03,
          5.92885399e-03, 0., 0., 9.88142379e-03, 5.92885399e-03, 0., 0.,
          0., 0., 2.56917011e-02, 0., 0., 3.95256933e-03, 0., 0.,
          1.97628466e-03, 0., 0., 0., 0., 0., 0., 0., 0., 0., 0., 0., 0.,
          0., 0., 0., 0., 0., 0., 0., 0., 0., 7.90513866e-03, 0., 0., 0.,
          0., 0., 0., 0., 0., 0., 0., 0., 5.71428565e-03, 7.14285672e-02,
          0., 0., 1.14285713e-02, 2.85714283e-03, 0., 0., 9.71428528e-02,
          1.14285713e-02, 1.42857144e-02, 0., 0., 1.71428565e-02,
          1.28571428e-02, 3.42857130e-02, 4.28571440e-02, 0.,
          2.28571426e-02, 3.99999991e-02, 8.57142825e-03, 9.99999978e-03,
          3.28571424e-02, 1.99999996e-02, 1.42857141e-03, 2.85714283e-03,
          9.99999978e-03, 0., 1.99999996e-02, 1.42857141e-03,
          5.99999987e-02, 0., 0., 7.14285718e-03, 3.42857130e-02, 0.,
          8.57142825e-03, 1.42857141e-03, 1.42857141e-03, 4.28571412e-03,
          1.42857141e-03, 0., 1.14285713e-02, 2.85714283e-03, 0.,
          1.85714290e-02, 4.28571412e-03, 0., 0., 0., 0., 1.42857141e-03,
          0., 1.28571428e-02, 8.57142825e-03, 7.14285718e-03,
          9.99999978e-03, 0., 1.42857144e-02, 0., 0., 4.28571412e-03, 0.,
          0., 0., 0., 0., 3.42857130e-02, 0., 1.42857141e-03, 0., 0., 0.,
          1.57142859e-02, 0., 2.71428563e-02, 2.14285720e-02,
          8.57142825e-03, 2.85714283e-03, 0., 0., 0., 0., 3.28571424e-02,
          0., 1.99999996e-02, 0., 7.14285718e-03, 8.57142825e-03,
          4.28571412e-03, 1.42857144e-02, 0., 0., 1.57142859e-02, 0.,
          7.14285718e-03, 1.57142859e-02, 1.57142859e-02, 1.42857141e-03,
          0., 0., 5.71428565e-03, 0., 0., 0., 0., 0., 0., 1.42857141e-03,
          1.42857141e-03, 0., 0., 0., 1.42857141e-03, 1.42857141e-03,
          1.42857141e-03, 0., 1.99999996e-02, 0., 0., 0., 0., 0.,
          1.42857141e-03, 0., 2.85714283e-03, 0., 0., 0., 0., 0., 0., 0.,
          0., 0., 2.85714283e-03, 0., 0., 0., 0., 0., 0., 0., 0., 0., 0.,
          0., 0., 0., 6.84039071e-02, 0., 6.02605827e-02, 0., 0., 0.,
          4.72312681e-02, 6.51465775e-03, 1.46579798e-02, 6.51465775e-03,
          0., 0., 8.14332217e-02, 1.07491851e-01, 0., 0., 0.,
          2.76872963e-02, 1.30293155e-02, 3.25732888e-03, 1.62866444e-03,
          0., 9.77198686e-03, 1.62866444e-03, 0., 0., 6.51465775e-03, 0.,
          3.09446249e-02, 0., 0., 0., 8.14332254e-03, 1.46579798e-02, 0.,
          0., 1.62866444e-03, 3.25732888e-03, 1.79153085e-02, 0.,
          4.88599343e-03, 6.51465775e-03, 9.77198686e-03, 0.,
          1.79153085e-02, 3.25732888e-03, 0., 1.62866444e-03,
          1.14006512e-02, 0., 0., 0., 4.88599343e-03, 1.62866444e-03, 0.,
          0., 2.11726371e-02, 0., 1.62866451e-02, 0., 3.25732888e-03,
          6.51465775e-03, 0., 0., 1.62866444e-03, 0., 1.62866444e-03, 0.,
          0., 1.95439737e-02, 0., 0., 0., 0., 0., 0., 0., 5.70032559e-02,
          0., 2.11726371e-02, 2.44299658e-02, 1.95439737e-02,
          1.14006512e-02, 0., 4.88599343e-03, 0., 0., 0., 0., 0.,
          3.42019536e-02, 3.25732888e-03, 0., 5.70032559e-02, 0., 0., 0.,
          3.25732902e-02, 0., 0., 0., 1.62866444e-03, 0., 0., 0., 0., 0.,
          0., 2.28013024e-02, 0., 0., 0., 0., 1.62866444e-03, 0., 0.,
          1.62866444e-03, 1.46579798e-02, 0., 0., 0., 0., 0., 0., 0., 0.,
          0., 0., 0., 0., 0., 0., 1.62866444e-03, 0., 0., 0., 0., 0., 0.,
          2.44299658e-02, 0., 1.62866444e-03, 0., 0., 0., 0., 0., 0., 0.,
          0., 0., 0., 5.13834022e-02, 0., 1.38339922e-02, 4.34782617e-02,
          5.92885399e-03, 9.88142379e-03, 0., 3.95256951e-02,
          1.18577080e-02, 1.97628466e-03, 0., 0., 1.38339922e-02,
          1.97628466e-03, 2.17391308e-02, 0., 1.97628466e-03,
          5.73122539e-02, 1.18577080e-02, 3.95256933e-03, 4.94071171e-02,
          0., 1.12648226e-01, 7.90513866e-03, 2.56917011e-02,
          1.97628476e-02, 4.15019765e-02, 0., 1.38339922e-02, 0., 0.,
          1.18577080e-02, 8.49802420e-02, 0., 1.97628466e-03,
          1.58102773e-02, 0., 0., 9.88142379e-03, 0., 5.92885399e-03,
          1.97628466e-03, 1.97628466e-03, 1.97628466e-03, 1.58102773e-02,
          0., 0., 0., 0., 0., 0., 1.38339922e-02, 0., 0., 0.,
          3.95256933e-03, 0., 0., 0., 0., 1.38339922e-02, 0., 0., 0., 0.,
          5.92885399e-03, 0., 0., 0., 0., 0., 0., 0., 0., 1.97628466e-03,
          0., 0., 1.77865624e-02, 0., 0., 0., 9.88142379e-03,
          5.92885399e-03, 0., 0., 1.97628466e-03, 1.18577080e-02,
          1.97628476e-02, 0., 1.38339922e-02, 1.97628466e-03,
          2.17391308e-02, 1.97628466e-03, 0., 1.97628466e-03,
          5.92885399e-03, 0., 3.95256933e-03, 0., 1.97628466e-03,
          1.77865624e-02, 1.97628466e-03, 0., 1.97628466e-03,
          2.76679844e-02, 0., 0., 0., 5.92885399e-03, 2.56917011e-02, 0.,
          3.95256933e-03, 3.95256933e-03, 0., 7.90513866e-03, 0., 0., 0.,
          0., 0., 0., 0., 0., 0., 1.97628466e-03, 0., 0., 0., 0., 0.,
          1.38339922e-02, 0., 0., 0., 0., 0., 0., 1.18577080e-02,
          1.97628466e-03, 0., 0., 0., 0., 0., 0., 0., 0., 0., 0.,
          2.85714283e-03, 1.28571428e-02, 0., 0., 2.14285720e-02,
          5.42857125e-02, 7.14285718e-03, 0., 4.85714264e-02,
          2.57142857e-02, 1.42857141e-03, 0., 0., 0., 9.99999978e-03,
          2.71428563e-02, 1.42857141e-03, 0., 5.57142869e-02,
          1.42857141e-03, 5.57142869e-02, 4.28571412e-03, 5.71428565e-03,
          4.71428558e-02, 0., 0., 2.14285720e-02, 0., 1.28571421e-01,
          1.42857144e-02, 1.42857144e-02, 1.42857141e-03, 1.42857141e-03,
          1.28571428e-02, 4.71428558e-02, 2.85714283e-03, 9.99999978e-03,
          4.28571412e-03, 0., 2.85714287e-02, 4.85714264e-02, 0., 0.,
          5.71428565e-03, 0., 0., 0., 0., 0., 0., 0., 2.85714283e-03,
          1.42857141e-03, 2.85714283e-03, 8.57142825e-03, 3.57142836e-02,
          0., 0., 5.71428565e-03, 0., 0., 1.28571428e-02, 0., 0.,
          8.57142825e-03, 2.85714283e-03, 0., 2.85714283e-03, 0.,
          1.42857141e-03, 0., 0., 0., 3.57142836e-02, 0., 2.85714283e-03,
          1.28571428e-02, 0., 0., 0., 0., 0., 8.57142825e-03,
          1.42857141e-03, 0., 1.42857144e-02, 0., 4.28571412e-03,
          1.57142859e-02, 0., 1.42857144e-02, 0., 0., 0., 0., 0.,
          8.57142825e-03, 3.14285718e-02, 0., 0., 0., 1.99999996e-02,
          1.42857141e-03, 0., 0., 1.42857141e-03, 0., 0., 0.,
          4.28571412e-03, 5.71428565e-03, 0., 0., 2.85714283e-03, 0.,
          2.85714283e-03, 0., 1.42857141e-03, 0., 0., 0., 0., 0., 0., 0.,
          0., 0., 0., 0., 0., 0., 0., 0., 0., 0., 0., 0., 0., 0., 0., 0.,
          0., 0., 0., 0., 0., 0., 0., 0., 0., 0., 2.73224041e-02, 0., 0.,
          2.73224036e-03, 0., 0., 0., 5.73770478e-02, 0., 0., 0., 0.,
          2.45901626e-02, 1.91256832e-02, 6.01092875e-02, 0., 0.,
          8.19672085e-03, 5.46448082e-02, 0., 2.15846986e-01, 0.,
          1.09289616e-01, 0., 0., 2.73224041e-02, 0., 2.73224036e-03, 0.,
          0., 0., 0., 1.36612020e-02, 0., 0., 8.19672085e-03, 0., 0., 0.,
          0., 0., 1.36612020e-02, 0., 0., 0., 0., 2.18579229e-02, 0., 0.,
          0., 0., 0., 5.46448072e-03, 0., 0., 0., 0., 0., 0., 0., 0., 0.,
          0., 0., 0., 0., 0., 0., 0., 0., 0., 0., 7.37704933e-02, 0., 0.,
          6.01092875e-02, 0., 1.09289614e-02, 0., 0., 0., 1.91256832e-02,
          0., 0., 0., 0., 0., 0., 2.73224036e-03, 2.45901626e-02, 0.,
          5.19125685e-02, 0., 0., 0., 2.45901626e-02, 0., 0.,
          2.73224036e-03, 0., 0., 0., 1.09289614e-02, 0., 2.73224041e-02,
          0., 0., 0., 0., 1.91256832e-02, 0., 0., 0., 0., 0., 0., 0., 0.,
          0., 0., 0., 0., 0., 0., 0., 0., 0., 0., 0., 0., 0., 0., 0., 0.,
          0., 0., 0., 0., 0., 0., 0., 0., 0., 0., 0., 0., 0., 0.,
          7.24043697e-02, 0., 1.36612020e-02, 0., 5.46448072e-03, 0.,
          9.56284162e-03, 0., 0., 0., 2.73224036e-03, 0., 1.88524589e-01,
          4.09836043e-03, 0., 0., 0., 8.19672123e-02, 4.23497260e-02,
          1.63934417e-02, 0., 4.09836043e-03, 2.04918031e-02,
          6.83060102e-03, 4.09836043e-03, 0., 0., 0., 9.56284162e-03, 0.,
          1.09289614e-02, 1.36612018e-03, 3.82513665e-02, 6.83060102e-03,
          1.36612018e-03, 0., 0., 0., 1.50273219e-02, 0., 2.59562843e-02,
          4.37158458e-02, 0., 0., 6.83060102e-03, 1.36612020e-02, 0., 0.,
          4.50819656e-02, 0., 0., 0., 0., 0., 0., 0., 0., 0.,
          2.73224036e-03, 0., 0., 4.09836043e-03, 0., 4.09836043e-03, 0.,
          2.18579229e-02, 0., 0., 0., 1.63934417e-02, 0., 0., 0.,
          2.73224036e-03, 0., 0., 8.19672085e-03, 0., 0., 5.19125685e-02,
          5.46448072e-03, 4.09836043e-03, 2.73224036e-03, 1.36612018e-03,
          2.32240427e-02, 1.36612018e-03, 9.56284162e-03, 0., 0., 0., 0.,
          0., 5.46448072e-03, 1.63934417e-02, 0., 0., 0., 0., 0., 0., 0.,
          9.56284162e-03, 6.83060102e-03, 0., 0., 4.09836043e-03, 0.,
          1.36612018e-03, 5.46448072e-03, 0., 0., 0., 0., 2.73224036e-03,
          1.36612018e-03, 0., 0., 6.69398904e-02, 0., 0., 5.46448072e-03,
          0., 0., 0., 0., 4.09836043e-03, 0., 0., 0., 0., 0., 0., 0., 0.,
          0., 0., 0., 0., 0., 1.77595615e-02, 0., 1.36612018e-03, 0., 0.,
          0., 0., 0., 0., 0., 0., 0., 0., 2.71428563e-02, 0., 0.,
          8.57142825e-03, 3.28571424e-02, 0., 0., 8.14285725e-02,
          4.28571412e-03, 0., 0., 0., 0., 0., 6.57142848e-02,
          3.28571424e-02, 5.00000007e-02, 1.28571421e-01, 0.,
          7.71428570e-02, 3.71428579e-02, 0., 8.57142825e-03,
          1.42857141e-03, 0., 2.85714287e-02, 0., 5.28571419e-02, 0.,
          2.85714283e-03, 0., 0., 2.85714283e-03, 0., 1.99999996e-02,
          1.42857141e-03, 0., 0., 0., 8.57142825e-03, 0., 0., 0., 0., 0.,
          0., 4.14285697e-02, 0., 0., 0., 0., 4.28571412e-03, 0., 0., 0.,
          0., 0., 0., 1.42857141e-03, 1.85714290e-02, 1.42857141e-03, 0.,
          0., 1.42857141e-03, 0., 0., 0., 0., 1.42857141e-03, 0., 0., 0.,
          1.85714290e-02, 0., 7.14285718e-03, 0., 0., 6.71428591e-02,
          1.28571428e-02, 0., 4.28571412e-03, 1.42857141e-03,
          2.71428563e-02, 1.42857141e-03, 0., 0., 4.28571412e-03, 0., 0.,
          5.71428565e-03, 0., 7.14285718e-03, 0., 0., 0., 7.14285718e-03,
          3.71428579e-02, 0., 0., 1.71428565e-02, 9.99999978e-03, 0., 0.,
          0., 0., 0., 1.42857141e-03, 0., 0., 1.42857141e-03, 0.,
          7.14285718e-03, 0., 0., 1.42857141e-03, 4.28571412e-03,
          9.99999978e-03, 0., 0., 0., 0., 0., 0., 0., 0., 0., 0., 0., 0.,
          1.42857141e-03, 1.42857141e-03, 0., 0., 0., 0., 0., 0., 0., 0.,
          0., 0., 0., 0., 0., 0., 0., 0., 0., 0., 1.71428565e-02,
          7.14285718e-03, 1.57142859e-02, 1.42857144e-02, 1.85714290e-02,
          1.85714290e-02, 1.42857144e-02, 0., 2.85714283e-03,
          1.99999996e-02, 9.99999978e-03, 0., 0., 8.57142825e-03,
          4.28571412e-03, 0., 0., 1.85714290e-02, 5.71428565e-03,
          5.71428565e-03, 1.71428565e-02, 1.42857144e-02, 3.71428579e-02,
          3.14285718e-02, 1.42857144e-02, 1.14285713e-02, 0.,
          7.14285718e-03, 4.28571412e-03, 2.42857132e-02, 2.71428563e-02,
          0., 1.28571428e-02, 2.85714283e-03, 1.85714290e-02,
          1.57142859e-02, 1.42857144e-02, 1.28571428e-02, 2.99999993e-02,
          0., 0., 9.99999978e-03, 2.85714283e-03, 2.57142857e-02, 0.,
          1.85714290e-02, 7.14285718e-03, 0., 8.57142825e-03, 0.,
          8.57142825e-03, 7.14285718e-03, 1.57142859e-02, 2.85714283e-03,
          8.57142825e-03, 1.42857144e-02, 7.14285718e-03, 1.42857144e-02,
          1.85714290e-02, 0., 4.28571412e-03, 9.99999978e-03,
          1.42857144e-02, 9.99999978e-03, 1.42857144e-02, 4.28571412e-03,
          9.99999978e-03, 5.71428565e-03, 0., 0., 0., 1.42857144e-02,
          8.57142825e-03, 8.57142825e-03, 1.42857141e-03, 2.14285720e-02,
          1.42857141e-03, 0., 1.42857141e-03, 8.57142825e-03,
          4.28571412e-03, 1.71428565e-02, 4.28571412e-03, 1.42857144e-02,
          1.42857141e-03, 1.14285713e-02, 7.14285718e-03, 4.28571412e-03,
          1.28571428e-02, 0., 2.85714283e-03, 1.42857144e-02, 0.,
          8.57142825e-03, 7.14285718e-03, 7.14285718e-03, 0., 0., 0.,
          1.42857141e-03, 0., 0., 5.71428565e-03, 2.85714283e-03, 0., 0.,
          7.14285718e-03, 0., 0., 1.42857141e-03, 8.57142825e-03,
          1.42857141e-03, 1.14285713e-02, 8.57142825e-03, 0.,
          4.28571412e-03, 0., 5.71428565e-03, 0., 2.85714283e-03, 0., 0.,
          4.28571412e-03, 2.85714283e-03, 0., 2.85714283e-03,
          1.42857141e-03, 2.85714283e-03, 0., 1.42857141e-03, 0.,
          7.14285718e-03, 4.28571412e-03, 0., 0., 5.71428565e-03, 0., 0.,
          0., 0., 0., 0., 1.42857141e-03, 0., 0., 0., 1.42857141e-03, 0.,
          0., 0., 0., 2.29357788e-03, 1.83486231e-02, 1.37614673e-02,
          1.26146786e-02, 9.17431153e-03, 1.60550456e-02, 1.37614673e-02,
          8.02752282e-03, 2.29357779e-02, 4.58715577e-03, 0., 0.,
          4.58715577e-03, 2.29357788e-03, 3.44036683e-03, 1.14678894e-03,
          2.98165120e-02, 6.88073365e-03, 3.44036683e-03, 2.40825675e-02,
          2.29357788e-03, 4.58715558e-02, 5.73394448e-03, 1.26146786e-02,
          1.94954127e-02, 4.58715577e-03, 9.17431153e-03, 1.94954127e-02,
          2.86697242e-02, 1.60550456e-02, 0., 1.14678890e-02,
          9.17431153e-03, 3.09633017e-02, 1.94954127e-02, 5.73394448e-03,
          1.60550456e-02, 9.17431153e-03, 1.94954127e-02, 0.,
          3.44036683e-03, 4.58715577e-03, 2.63761450e-02, 5.73394448e-03,
          1.14678890e-02, 1.03211002e-02, 0., 8.02752282e-03,
          1.14678894e-03, 8.02752282e-03, 1.03211002e-02, 8.02752282e-03,
          1.14678894e-03, 2.29357788e-03, 1.83486231e-02, 1.03211002e-02,
          1.26146786e-02, 2.06422005e-02, 8.02752282e-03, 2.29357788e-03,
          1.49082560e-02, 2.06422005e-02, 1.14678890e-02, 2.40825675e-02,
          1.14678894e-03, 1.37614673e-02, 5.73394448e-03, 0., 0., 0.,
          2.29357779e-02, 3.44036683e-03, 6.88073365e-03, 0.,
          1.49082560e-02, 0., 0., 4.58715577e-03, 1.37614673e-02,
          6.88073365e-03, 1.26146786e-02, 0., 1.26146786e-02, 0.,
          1.14678894e-03, 2.29357788e-03, 1.14678894e-03, 9.17431153e-03,
          0., 0., 1.94954127e-02, 0., 1.14678890e-02, 6.88073365e-03,
          2.29357788e-03, 0., 3.44036683e-03, 0., 1.14678894e-03,
          2.29357788e-03, 2.29357788e-03, 2.29357788e-03, 2.29357788e-03,
          0., 8.02752282e-03, 1.37614673e-02, 0., 0., 5.73394448e-03, 0.,
          0., 3.44036683e-03, 8.02752282e-03, 0., 0., 0., 1.03211002e-02,
          0., 3.44036683e-03, 1.14678894e-03, 0., 9.17431153e-03,
          2.29357788e-03, 0., 2.29357788e-03, 1.14678894e-03,
          4.58715577e-03, 4.58715577e-03, 1.14678894e-03, 0.,
          3.44036683e-03, 0., 0., 0., 3.44036683e-03, 0., 0., 0., 0., 0.,
          0., 0., 0., 0., 0., 0., 0., 0., 0., 0., 1.07991358e-03,
          2.15982720e-02, 1.18790492e-02, 1.29589625e-02, 1.18790492e-02,
          1.72786172e-02, 1.94384437e-02, 1.07991358e-03, 2.05183588e-02,
          5.39956801e-03, 0., 0., 1.18790492e-02, 7.55939493e-03,
          1.07991358e-03, 8.63930862e-03, 3.13174948e-02, 7.55939493e-03,
          1.07991358e-03, 2.69978400e-02, 2.15982716e-03, 5.39956801e-02,
          5.39956801e-03, 6.47948124e-03, 1.83585305e-02, 1.07991358e-03,
          2.05183588e-02, 1.18790492e-02, 3.67170610e-02, 1.29589625e-02,
          0., 1.51187899e-02, 7.55939493e-03, 2.80777533e-02,
          2.37580985e-02, 1.07991360e-02, 1.61987040e-02, 1.18790492e-02,
          1.94384437e-02, 0., 4.31965431e-03, 4.31965431e-03,
          2.48380117e-02, 4.31965431e-03, 1.72786172e-02, 8.63930862e-03,
          1.07991358e-03, 8.63930862e-03, 0., 4.31965431e-03,
          1.40388766e-02, 9.71922185e-03, 3.23974062e-03, 2.15982716e-03,
          1.29589625e-02, 1.40388766e-02, 1.07991360e-02, 2.48380117e-02,
          1.29589625e-02, 3.23974062e-03, 3.23974062e-03, 9.71922185e-03,
          5.39956801e-03, 1.18790492e-02, 5.39956801e-03, 9.71922185e-03,
          3.23974062e-03, 0., 0., 6.47948124e-03, 1.94384437e-02,
          2.15982716e-03, 1.07991358e-03, 0., 1.29589625e-02,
          4.31965431e-03, 0., 4.31965431e-03, 8.63930862e-03,
          2.15982716e-03, 1.51187899e-02, 3.23974062e-03, 1.94384437e-02,
          2.15982716e-03, 5.39956801e-03, 1.07991358e-03, 4.31965431e-03,
          9.71922185e-03, 1.07991358e-03, 2.15982716e-03, 1.18790492e-02,
          2.15982716e-03, 7.55939493e-03, 5.39956801e-03, 5.39956801e-03,
          3.23974062e-03, 0., 0., 0., 2.15982716e-03, 3.23974062e-03,
          4.31965431e-03, 3.23974062e-03, 0., 3.23974062e-03,
          3.23974062e-03, 1.07991358e-03, 0., 4.31965431e-03,
          5.39956801e-03, 0., 5.39956801e-03, 2.15982716e-03, 0.,
          2.15982716e-03, 0., 1.18790492e-02, 0., 3.23974062e-03, 0., 0.,
          2.15982716e-03, 3.23974062e-03, 0., 0., 1.07991358e-03,
          4.31965431e-03, 4.31965431e-03, 1.07991358e-03, 0.,
          5.39956801e-03, 1.07991358e-03, 0., 0., 3.23974062e-03, 0., 0.,
          0., 1.07991358e-03, 0., 0., 1.07991358e-03, 0., 0., 0., 0., 0.,
          0., 0., 0., 0., 1.57142859e-02, 1.85714290e-02, 9.99999978e-03,
          7.14285718e-03, 1.71428565e-02, 2.85714283e-03, 0.,
          1.57142859e-02, 4.28571412e-03, 0., 0., 2.85714283e-03, 0., 0.,
          1.42857141e-03, 2.57142857e-02, 2.57142857e-02, 0.,
          3.42857130e-02, 0., 5.14285713e-02, 0., 1.42857144e-02,
          8.57142825e-03, 0., 0., 2.71428563e-02, 2.28571426e-02,
          9.99999978e-03, 0., 8.57142825e-03, 0., 2.85714287e-02,
          9.99999978e-03, 4.28571412e-03, 1.85714290e-02, 0.,
          1.85714290e-02, 0., 2.85714283e-03, 0., 2.99999993e-02,
          1.57142859e-02, 2.71428563e-02, 4.28571412e-03, 0.,
          1.14285713e-02, 0., 4.28571412e-03, 9.99999978e-03,
          7.14285718e-03, 0., 2.85714283e-03, 2.14285720e-02,
          1.85714290e-02, 2.28571426e-02, 1.28571428e-02, 0.,
          3.28571424e-02, 8.57142825e-03, 3.57142836e-02, 1.71428565e-02,
          2.99999993e-02, 1.42857141e-03, 1.14285713e-02, 2.85714283e-03,
          0., 0., 0., 2.28571426e-02, 4.28571412e-03, 0., 0.,
          1.42857144e-02, 0., 0., 0., 2.14285720e-02, 4.28571412e-03,
          1.99999996e-02, 0., 7.14285718e-03, 5.71428565e-03,
          9.99999978e-03, 1.42857141e-03, 1.42857141e-03, 1.14285713e-02,
          0., 0., 1.99999996e-02, 0., 1.42857141e-03, 9.99999978e-03,
          2.85714283e-03, 0., 0., 0., 0., 0., 1.42857141e-03,
          4.28571412e-03, 0., 0., 0., 1.71428565e-02, 1.42857141e-03,
          1.42857141e-03, 4.28571412e-03, 0., 0., 1.14285713e-02,
          5.71428565e-03, 0., 0., 0., 0., 0., 7.14285718e-03, 0.,
          2.85714283e-03, 8.57142825e-03, 0., 0., 7.14285718e-03, 0.,
          9.99999978e-03, 0., 2.85714283e-03, 0., 7.14285718e-03,
          4.28571412e-03, 0., 0., 4.28571412e-03, 0., 0., 1.42857141e-03,
          2.85714283e-03, 0., 0., 0., 0., 0., 0., 0., 0., 0., 0.,
          4.76190494e-03, 9.52380989e-03, 1.66666675e-02, 7.14285765e-03,
          1.78571437e-02, 1.30952382e-02, 1.19047621e-02, 0., 0.,
          2.14285720e-02, 2.73809526e-02, 0., 2.38095247e-03,
          2.14285720e-02, 1.66666675e-02, 0., 0., 0., 1.19047624e-03,
          1.78571437e-02, 2.61904765e-02, 4.76190494e-03, 4.76190494e-03,
          3.57142882e-03, 8.33333377e-03, 2.73809526e-02, 0.,
          8.33333377e-03, 8.33333377e-03, 4.76190485e-02, 2.14285720e-02,
          9.52380989e-03, 5.95238106e-03, 0., 1.19047624e-03,
          5.35714291e-02, 2.85714306e-02, 1.30952382e-02, 1.54761914e-02,
          0., 0., 2.02380959e-02, 1.07142860e-02, 4.76190494e-03, 0.,
          2.38095243e-02, 1.07142860e-02, 0., 4.76190494e-03,
          1.54761914e-02, 2.38095247e-03, 1.19047624e-03, 8.33333377e-03,
          4.76190494e-03, 1.42857153e-02, 9.52380989e-03, 7.14285765e-03,
          0., 2.97619067e-02, 4.40476201e-02, 0., 1.78571437e-02,
          8.33333377e-03, 1.19047624e-03, 8.33333377e-03, 2.38095247e-03,
          3.57142882e-03, 2.38095247e-03, 0., 2.38095247e-03, 0.,
          3.57142882e-03, 2.38095247e-03, 0., 5.95238106e-03,
          2.26190481e-02, 1.19047621e-02, 1.19047624e-03, 2.38095247e-03,
          1.19047624e-03, 3.57142882e-03, 1.19047624e-03, 2.38095247e-03,
          0., 1.19047624e-03, 4.76190494e-03, 9.52380989e-03,
          1.42857153e-02, 1.90476198e-02, 3.57142882e-03, 1.19047624e-03,
          1.30952382e-02, 1.19047624e-03, 4.76190494e-03, 7.14285765e-03,
          9.52380989e-03, 4.76190494e-03, 0., 0., 5.95238106e-03,
          1.19047624e-03, 5.95238106e-03, 3.57142882e-03, 3.57142882e-03,
          0., 0., 1.19047624e-03, 0., 0., 2.38095247e-03, 7.14285765e-03,
          5.95238106e-03, 5.95238106e-03, 1.07142860e-02, 0.,
          8.33333377e-03, 0., 9.52380989e-03, 0., 2.38095247e-03, 0.,
          2.38095247e-03, 0., 8.33333377e-03, 0., 1.19047624e-03, 0.,
          1.30952382e-02, 0., 1.19047624e-03, 0., 3.57142882e-03,
          1.19047624e-03, 0., 0., 7.14285765e-03, 0., 0., 0., 0., 0., 0.,
          0., 0., 0., 0., 0., 0., 0., 0., 0., 2.15982716e-03,
          2.37580985e-02, 1.29589625e-02, 1.61987040e-02, 1.29589625e-02,
          2.05183588e-02, 7.55939493e-03, 0., 2.80777533e-02,
          4.31965431e-03, 4.31965431e-03, 0., 8.63930862e-03,
          1.07991358e-03, 3.23974062e-03, 2.15982716e-03, 2.37580985e-02,
          5.39956801e-03, 1.07991358e-03, 2.15982720e-02, 3.23974062e-03,
          3.56371477e-02, 8.63930862e-03, 1.18790492e-02, 1.83585305e-02,
          1.07991358e-03, 0., 2.05183588e-02, 3.56371477e-02,
          1.29589625e-02, 0., 2.48380117e-02, 1.18790492e-02,
          1.61987040e-02, 6.47948124e-03, 7.55939493e-03, 2.37580985e-02,
          3.23974062e-03, 1.83585305e-02, 0., 1.18790492e-02,
          7.55939493e-03, 3.67170610e-02, 2.05183588e-02, 2.15982720e-02,
          6.47948124e-03, 0., 8.63930862e-03, 0., 3.23974062e-03,
          1.94384437e-02, 8.63930862e-03, 3.23974062e-03, 6.47948124e-03,
          1.07991360e-02, 1.40388766e-02, 1.40388766e-02, 1.18790492e-02,
          2.15982716e-03, 2.69978400e-02, 1.94384437e-02, 1.61987040e-02,
          9.71922185e-03, 1.94384437e-02, 2.15982716e-03, 1.07991360e-02,
          2.15982716e-03, 0., 0., 3.23974062e-03, 3.13174948e-02,
          2.15982716e-03, 0., 0., 1.18790492e-02, 1.07991358e-03,
          1.07991358e-03, 1.07991358e-03, 1.40388766e-02, 0.,
          1.18790492e-02, 0., 2.15982716e-03, 3.23974062e-03, 0.,
          1.07991358e-03, 1.07991358e-03, 1.07991360e-02, 0., 0.,
          1.07991360e-02, 0., 6.47948124e-03, 5.39956801e-03,
          6.47948124e-03, 0., 0., 1.07991358e-03, 0., 2.15982716e-03,
          4.31965431e-03, 6.47948124e-03, 0., 0., 4.31965431e-03,
          1.40388766e-02, 8.63930862e-03, 2.15982716e-03, 1.07991358e-03,
          0., 0., 7.55939493e-03, 3.23974062e-03, 1.07991358e-03, 0., 0.,
          5.39956801e-03, 0., 3.23974062e-03, 0., 1.07991358e-03,
          6.47948124e-03, 1.07991358e-03, 0., 4.31965431e-03, 0.,
          7.55939493e-03, 1.07991358e-03, 2.15982716e-03, 0.,
          5.39956801e-03, 3.23974062e-03, 0., 0., 2.15982716e-03, 0., 0.,
          0., 1.07991358e-03, 0., 0., 0., 0., 0., 0., 0., 0., 0., 0.,
          7.14285718e-03, 1.71428565e-02, 1.99999996e-02, 1.28571428e-02,
          8.57142825e-03, 7.14285718e-03, 2.14285720e-02, 1.14285713e-02,
          7.14285718e-03, 1.99999996e-02, 1.14285713e-02, 0., 0.,
          8.57142825e-03, 1.57142859e-02, 0., 0., 1.71428565e-02,
          1.14285713e-02, 2.28571426e-02, 4.42857146e-02, 0.,
          4.28571412e-03, 9.99999978e-03, 1.85714290e-02, 1.42857141e-03,
          1.42857141e-03, 1.85714290e-02, 4.42857146e-02, 2.42857132e-02,
          1.42857144e-02, 0., 4.28571412e-03, 1.57142859e-02, 0.,
          4.28571440e-02, 7.14285718e-03, 2.85714283e-03, 5.71428565e-03,
          2.99999993e-02, 0., 7.14285718e-03, 1.28571428e-02,
          8.57142825e-03, 0., 1.42857144e-02, 5.71428565e-03, 0.,
          5.71428565e-03, 0., 2.14285720e-02, 0., 1.71428565e-02,
          5.71428565e-03, 7.14285718e-03, 1.71428565e-02, 5.71428565e-03,
          1.42857141e-03, 9.99999978e-03, 2.57142857e-02, 4.28571412e-03,
          2.57142857e-02, 1.28571428e-02, 2.85714283e-03, 2.14285720e-02,
          4.28571412e-03, 1.14285713e-02, 0., 0., 2.85714283e-03, 0.,
          4.28571412e-03, 4.28571412e-03, 0., 1.42857141e-03, 0.,
          9.99999978e-03, 1.42857141e-03, 0., 4.28571412e-03,
          1.42857141e-03, 1.28571428e-02, 2.85714283e-03, 4.28571412e-03,
          0., 0., 1.14285713e-02, 1.14285713e-02, 8.57142825e-03, 0.,
          5.71428565e-03, 9.99999978e-03, 1.42857141e-03, 2.57142857e-02,
          2.85714283e-03, 4.28571412e-03, 5.71428565e-03, 0.,
          5.71428565e-03, 2.85714283e-03, 0., 7.14285718e-03,
          2.85714283e-03, 9.99999978e-03, 0., 2.85714283e-03,
          2.85714283e-03, 0., 0., 4.28571412e-03, 0., 2.85714283e-03,
          2.85714283e-03, 8.57142825e-03, 0., 7.14285718e-03, 0.,
          4.28571412e-03, 0., 4.28571412e-03, 0., 0., 4.28571412e-03, 0.,
          0., 5.71428565e-03, 1.42857141e-03, 7.14285718e-03,
          1.42857141e-03, 1.42857141e-03, 0., 1.42857141e-03,
          4.28571412e-03, 0., 0., 5.71428565e-03, 0., 0., 0.,
          1.42857141e-03, 0., 0., 1.42857141e-03, 0., 0., 0., 0., 0., 0.,
          0., 0., 7.48503022e-03, 1.49700604e-02, 1.94610786e-02,
          1.49700604e-02, 2.24550907e-02, 1.64670665e-02, 1.94610786e-02,
          0., 1.79640725e-02, 1.49700604e-03, 0., 0., 0., 0., 0., 0.,
          2.39520967e-02, 1.94610786e-02, 0., 4.94012013e-02, 0.,
          2.54491027e-02, 0., 1.34730544e-02, 1.34730544e-02, 0., 0.,
          3.89221571e-02, 3.14371288e-02, 1.64670665e-02, 0.,
          1.64670665e-02, 0., 2.24550907e-02, 1.79640725e-02,
          5.98802418e-03, 1.49700604e-02, 0., 0., 1.49700604e-03,
          4.49101813e-03, 0., 2.54491027e-02, 0., 2.54491027e-02,
          8.98203626e-03, 0., 1.04790423e-02, 0., 2.99401209e-03,
          1.49700604e-02, 8.98203626e-03, 0., 1.19760484e-02,
          1.64670665e-02, 2.39520967e-02, 2.24550907e-02, 1.34730544e-02,
          1.49700604e-03, 1.64670665e-02, 1.49700604e-02, 2.99401209e-02,
          1.64670665e-02, 3.89221571e-02, 4.49101813e-03, 1.34730544e-02,
          8.98203626e-03, 0., 0., 0., 2.09580846e-02, 5.98802418e-03, 0.,
          0., 1.64670665e-02, 2.99401209e-03, 0., 0., 1.34730544e-02, 0.,
          1.49700604e-02, 0., 4.49101813e-03, 4.49101813e-03,
          8.98203626e-03, 0., 0., 8.98203626e-03, 0., 0., 1.19760484e-02,
          1.49700604e-03, 0., 7.48503022e-03, 0., 1.49700604e-03, 0., 0.,
          0., 0., 5.98802418e-03, 4.49101813e-03, 0., 0., 0.,
          1.49700604e-02, 0., 0., 4.49101813e-03, 0., 0., 1.34730544e-02,
          1.04790423e-02, 0., 0., 0., 0., 0., 7.48503022e-03, 0., 0.,
          7.48503022e-03, 0., 0., 1.49700604e-03, 0., 7.48503022e-03, 0.,
          1.49700604e-03, 0., 4.49101813e-03, 4.49101813e-03, 0., 0.,
          2.99401209e-03, 0., 0., 1.49700604e-03, 1.49700604e-03, 0., 0.,
          0., 0., 0., 0., 0., 0., 0., 0., 4.95049497e-03, 1.23762374e-03,
          1.85643565e-02, 1.48514844e-02, 1.36138611e-02, 4.95049497e-03,
          2.10396033e-02, 2.47524749e-03, 3.71287111e-03, 1.98019799e-02,
          6.18811883e-03, 0., 0., 7.42574222e-03, 0., 3.71287111e-03, 0.,
          3.21782157e-02, 7.42574222e-03, 1.23762374e-03, 2.72277221e-02,
          0., 3.96039598e-02, 0., 1.36138611e-02, 1.73267331e-02, 0.,
          6.18811883e-03, 1.11386133e-02, 2.84653455e-02, 2.10396033e-02,
          0., 1.23762377e-02, 1.36138611e-02, 2.72277221e-02,
          1.48514844e-02, 1.36138611e-02, 1.36138611e-02, 0.,
          2.22772267e-02, 0., 8.66336655e-03, 3.71287111e-03,
          3.09405942e-02, 1.23762374e-03, 1.60891078e-02, 4.95049497e-03,
          0., 8.66336655e-03, 0., 3.71287111e-03, 1.11386133e-02,
          9.90098994e-03, 0., 3.71287111e-03, 1.48514844e-02,
          1.73267331e-02, 1.36138611e-02, 2.10396033e-02, 8.66336655e-03,
          1.48514844e-02, 1.11386133e-02, 2.47524753e-02, 1.73267331e-02,
          2.35148519e-02, 0., 1.48514844e-02, 2.47524749e-03, 0., 0., 0.,
          2.10396033e-02, 6.18811883e-03, 0., 0., 1.73267331e-02,
          1.23762374e-03, 0., 7.42574222e-03, 9.90098994e-03,
          1.23762374e-03, 1.48514844e-02, 0., 1.73267331e-02,
          1.23762374e-03, 8.66336655e-03, 2.47524749e-03, 3.71287111e-03,
          7.42574222e-03, 0., 2.47524749e-03, 2.10396033e-02, 0.,
          6.18811883e-03, 7.42574222e-03, 6.18811883e-03, 1.23762374e-03,
          1.23762374e-03, 0., 3.71287111e-03, 2.47524749e-03,
          1.23762374e-03, 4.95049497e-03, 1.23762374e-03, 0.,
          1.23762374e-03, 1.60891078e-02, 0., 1.23762374e-03,
          2.47524749e-03, 1.23762374e-03, 0., 8.66336655e-03,
          4.95049497e-03, 0., 0., 0., 1.60891078e-02, 0., 4.95049497e-03,
          0., 0., 6.18811883e-03, 2.47524749e-03, 0., 1.23762374e-03,
          1.23762374e-03, 4.95049497e-03, 1.23762374e-03, 0., 0.,
          2.47524749e-03, 4.95049497e-03, 0., 0., 3.71287111e-03, 0., 0.,
          0., 1.23762374e-03, 0., 0., 1.23762374e-03, 0., 0., 0., 0., 0.,
          0., 6.82326630e-02, 0., 4.47427295e-03, 0., 1.11856824e-03, 0.,
          8.94854590e-03, 1.78970918e-02, 0., 1.34228189e-02,
          3.35570471e-03, 0., 6.71140924e-02, 1.90156605e-02, 0., 0.,
          2.34899335e-02, 2.12527961e-02, 8.94854590e-03, 0.,
          3.69127505e-02, 2.57270690e-02, 4.13870253e-02, 2.23713648e-03,
          3.35570471e-03, 5.59284119e-03, 0., 0., 0., 2.79642064e-02,
          1.00671146e-02, 0., 2.34899335e-02, 0., 0., 0., 1.11856824e-03,
          2.23713648e-03, 1.11856824e-03, 0., 5.59284119e-03,
          7.94183463e-02, 0., 0., 0., 2.23713648e-03, 0., 0.,
          5.25727086e-02, 0., 0., 0., 0., 0., 6.04026839e-02, 0., 0., 0.,
          0., 1.11856824e-03, 0., 0., 4.47427295e-03, 1.23042502e-02,
          1.11856824e-03, 2.46085003e-02, 3.35570471e-03, 3.35570471e-03,
          0., 2.01342292e-02, 4.47427295e-03, 2.23713648e-03, 0.,
          4.47427295e-03, 2.79642064e-02, 0., 0., 3.57941836e-02, 0.,
          1.78970918e-02, 6.71140943e-03, 5.59284119e-03, 2.23713648e-03,
          1.11856824e-03, 1.00671146e-02, 2.23713648e-03, 0., 0., 0., 0.,
          5.92841171e-02, 2.23713648e-03, 2.23713648e-03, 5.59284119e-03,
          0., 0., 0., 3.35570462e-02, 2.01342292e-02, 0., 0.,
          2.23713648e-03, 4.47427295e-03, 0., 0., 8.94854590e-03, 0.,
          1.11856824e-03, 0., 1.11856824e-03, 0., 6.71140943e-03, 0.,
          1.11856824e-03, 0., 0., 1.11856824e-03, 2.23713648e-03,
          2.23713648e-03, 0., 0., 0., 0., 1.11856824e-03, 0.,
          1.11856824e-02, 0., 0., 0., 0., 0., 0., 0., 0., 0., 0., 0., 0.,
          0., 3.35570471e-03, 0., 0., 0., 0., 0., 0., 0., 0., 0., 0., 0.,
          0., 1.42857153e-02, 2.38095247e-03, 5.95238106e-03,
          2.38095247e-03, 0., 1.19047624e-03, 8.33333377e-03,
          2.61904765e-02, 1.07142860e-02, 3.57142882e-03, 2.26190481e-02,
          0., 1.07142860e-02, 2.50000004e-02, 9.52380989e-03,
          5.95238106e-03, 2.26190481e-02, 3.92857157e-02, 2.50000004e-02,
          2.26190481e-02, 0., 1.19047624e-03, 2.38095247e-03,
          8.33333377e-03, 0., 2.14285720e-02, 1.54761914e-02,
          3.57142873e-02, 2.61904765e-02, 8.33333377e-03, 0., 0.,
          2.14285720e-02, 0., 1.19047624e-03, 8.33333377e-03,
          2.38095247e-03, 1.54761914e-02, 2.61904765e-02, 4.76190494e-03,
          0., 1.66666675e-02, 3.57142882e-03, 1.19047624e-03,
          2.38095247e-03, 3.57142882e-03, 1.19047624e-03, 1.19047624e-03,
          0., 1.54761914e-02, 0., 0., 1.42857153e-02, 3.57142882e-03,
          2.02380959e-02, 2.38095247e-03, 9.52380989e-03, 3.57142882e-03,
          0., 2.85714306e-02, 1.19047624e-03, 1.54761914e-02,
          1.19047624e-03, 1.54761914e-02, 0., 0., 0., 1.19047624e-03,
          1.30952382e-02, 0., 0., 3.57142882e-03, 0., 1.90476198e-02,
          5.95238106e-03, 4.64285724e-02, 0., 3.45238112e-02,
          1.78571437e-02, 0., 1.30952382e-02, 0., 1.42857153e-02,
          1.19047624e-03, 4.76190494e-03, 0., 1.30952382e-02,
          7.14285765e-03, 1.19047624e-03, 1.07142860e-02, 7.14285765e-03,
          2.38095247e-03, 1.66666675e-02, 1.19047624e-03, 5.95238106e-03,
          2.73809526e-02, 2.38095247e-03, 3.57142882e-03, 7.14285765e-03,
          0., 9.52380989e-03, 3.57142882e-03, 0., 0., 2.97619067e-02,
          7.14285765e-03, 1.19047624e-03, 0., 0., 5.95238106e-03,
          2.38095247e-03, 7.14285765e-03, 1.19047624e-03, 1.19047624e-03,
          4.76190494e-03, 0., 7.14285765e-03, 0., 2.38095247e-03, 0., 0.,
          1.19047624e-03, 4.76190494e-03, 0., 0., 0., 0., 1.19047624e-03,
          0., 0., 1.19047624e-03, 2.38095247e-03, 0., 0., 0., 0., 0., 0.,
          4.76190494e-03, 0., 0., 2.38095247e-03, 0., 0., 0., 0., 0., 0.,
          0., 3.21100913e-02, 1.72018334e-02, 2.06422005e-02,
          9.17431153e-03, 1.49082560e-02, 2.40825675e-02, 1.49082560e-02,
          2.75229346e-02, 0., 1.83486231e-02, 3.09633017e-02, 0., 0.,
          4.58715577e-03, 2.17889901e-02, 0., 0., 1.14678894e-03,
          2.29357788e-03, 0., 3.55504565e-02, 0., 6.88073365e-03,
          3.44036683e-03, 9.17431153e-03, 3.21100913e-02, 1.14678894e-03,
          5.73394448e-03, 5.27522899e-02, 2.98165120e-02, 1.26146786e-02,
          1.14678894e-03, 1.94954127e-02, 4.58715577e-03, 3.44036683e-03,
          5.16055040e-02, 1.60550456e-02, 1.72018334e-02, 6.88073365e-03,
          0., 4.58715577e-03, 2.63761450e-02, 3.44036683e-03,
          2.06422005e-02, 3.44036683e-03, 1.37614673e-02, 1.72018334e-02,
          8.02752282e-03, 4.58715577e-03, 0., 5.73394448e-03,
          2.29357788e-03, 6.88073365e-03, 0., 2.29357788e-03,
          2.75229346e-02, 5.73394448e-03, 0., 3.44036683e-03,
          4.12844010e-02, 0., 5.73394448e-03, 1.26146786e-02,
          1.03211002e-02, 2.17889901e-02, 0., 8.02752282e-03, 0., 0., 0.,
          0., 4.58715577e-03, 3.44036683e-03, 0., 1.14678894e-03,
          6.88073365e-03, 2.06422005e-02, 8.02752282e-03, 8.02752282e-03,
          0., 0., 3.44036683e-03, 5.73394448e-03, 0., 1.14678894e-03, 0.,
          3.44036683e-03, 8.02752282e-03, 1.72018334e-02, 2.29357788e-03,
          0., 1.14678890e-02, 4.58715577e-03, 6.88073365e-03,
          3.44036683e-03, 4.58715577e-03, 9.17431153e-03, 0.,
          1.14678894e-03, 0., 1.14678894e-03, 4.58715577e-03,
          6.88073365e-03, 2.29357788e-03, 0., 0., 1.14678894e-03, 0., 0.,
          2.29357788e-03, 0., 1.14678894e-03, 1.14678894e-03,
          1.14678890e-02, 0., 5.73394448e-03, 0., 3.44036683e-03, 0.,
          2.29357788e-03, 0., 0., 1.14678894e-03, 0., 0., 1.14678894e-03,
          0., 1.14678894e-03, 0., 0., 0., 3.44036683e-03, 2.29357788e-03,
          0., 0., 6.88073365e-03, 0., 0., 0., 0., 0., 0., 0., 0., 0., 0.,
          0., 0., 0., 2.14285720e-02, 0., 1.42857144e-02, 8.92857183e-03,
          7.14285718e-03, 1.33928573e-02, 5.35714300e-03, 0.,
          5.62499985e-02, 1.69642866e-02, 0., 2.85714287e-02,
          2.05357149e-02, 0., 2.58928575e-02, 3.83928567e-02,
          1.07142860e-02, 0., 6.25000009e-03, 0., 4.64285724e-02,
          4.10714298e-02, 2.76785716e-02, 3.57142859e-03, 1.78571430e-03,
          8.92857183e-03, 0., 8.92857148e-04, 0., 3.03571429e-02,
          8.92857148e-04, 0., 5.35714300e-03, 0., 0., 8.92857148e-04,
          4.73214276e-02, 8.92857183e-03, 0., 3.57142873e-02, 0.,
          3.48214284e-02, 0., 6.25000009e-03, 3.57142859e-03,
          2.67857150e-03, 4.46428591e-03, 1.78571430e-03, 8.92857148e-04,
          4.46428591e-03, 0., 8.92857183e-03, 1.78571430e-03,
          6.25000009e-03, 2.32142862e-02, 3.57142859e-03, 3.57142859e-03,
          3.57142859e-03, 8.92857148e-04, 0., 3.21428590e-02,
          2.67857150e-03, 0., 1.78571430e-03, 0., 1.60714295e-02, 0., 0.,
          2.14285720e-02, 9.82142892e-03, 8.92857183e-03, 0.,
          6.25000009e-03, 2.67857150e-03, 8.03571474e-03, 5.17857149e-02,
          0., 2.76785716e-02, 1.78571430e-03, 1.33928573e-02, 0., 0., 0.,
          1.78571430e-03, 0., 0., 0., 0., 2.67857150e-03, 2.67857150e-03,
          1.42857144e-02, 8.92857183e-03, 8.92857148e-04, 1.33928573e-02,
          1.25000002e-02, 0., 3.57142859e-03, 2.32142862e-02, 0.,
          3.57142859e-03, 0., 8.92857148e-04, 8.92857183e-03,
          2.67857150e-03, 8.92857148e-04, 3.57142859e-03, 0., 0.,
          8.92857148e-04, 0., 8.92857148e-04, 0., 2.23214291e-02, 0., 0.,
          5.35714300e-03, 3.57142859e-03, 8.92857148e-04, 8.92857148e-04,
          0., 0., 0., 0., 0., 1.78571430e-03, 3.57142859e-03,
          8.92857148e-04, 0., 0., 0., 0., 0., 0., 8.92857148e-04, 0., 0.,
          0., 0., 0., 4.46428591e-03, 0., 0., 0., 0., 0., 0., 0., 0., 0.,
          0., 0., 8.33333377e-03, 5.95238106e-03, 8.33333377e-03,
          1.19047621e-02, 2.14285720e-02, 1.90476198e-02, 1.07142860e-02,
          0., 0., 2.38095243e-02, 8.33333377e-03, 0., 0., 8.33333377e-03,
          2.73809526e-02, 0., 1.19047624e-03, 1.54761914e-02,
          5.95238106e-03, 1.30952382e-02, 2.14285720e-02, 1.30952382e-02,
          2.26190481e-02, 2.61904765e-02, 1.30952382e-02, 9.52380989e-03,
          1.19047624e-03, 1.66666675e-02, 5.95238106e-03, 2.26190481e-02,
          1.30952382e-02, 0., 2.02380959e-02, 8.33333377e-03,
          1.30952382e-02, 1.42857153e-02, 1.19047621e-02, 1.78571437e-02,
          4.40476201e-02, 0., 0., 1.30952382e-02, 1.30952382e-02,
          2.02380959e-02, 1.19047624e-03, 2.38095247e-03, 7.14285765e-03,
          0., 5.95238106e-03, 0., 1.19047621e-02, 1.07142860e-02,
          1.90476198e-02, 1.07142860e-02, 1.19047624e-03, 1.19047621e-02,
          4.76190494e-03, 9.52380989e-03, 1.54761914e-02, 0.,
          3.57142882e-03, 8.33333377e-03, 9.52380989e-03, 2.38095247e-03,
          1.19047621e-02, 2.38095247e-03, 8.33333377e-03, 2.38095247e-03,
          0., 4.76190494e-03, 0., 5.95238106e-03, 2.38095247e-03,
          4.76190494e-03, 3.57142873e-02, 1.42857153e-02, 8.33333377e-03,
          0., 0., 1.19047621e-02, 3.57142882e-03, 1.54761914e-02,
          5.95238106e-03, 8.33333377e-03, 2.38095247e-03, 3.57142882e-03,
          3.57142882e-03, 3.57142882e-03, 1.30952382e-02, 2.38095247e-03,
          1.19047624e-03, 1.19047621e-02, 2.38095247e-03, 5.95238106e-03,
          5.95238106e-03, 3.57142882e-03, 4.76190494e-03, 0.,
          1.19047624e-03, 1.07142860e-02, 0., 0., 3.57142882e-03,
          2.38095247e-03, 0., 1.66666675e-02, 7.14285765e-03, 0.,
          3.57142882e-03, 2.38095247e-03, 4.76190494e-03, 1.19047621e-02,
          9.52380989e-03, 8.33333377e-03, 0., 2.38095247e-03, 0.,
          4.76190494e-03, 0., 4.76190494e-03, 0., 0., 3.57142882e-03,
          1.19047624e-03, 0., 0., 3.57142882e-03, 4.76190494e-03, 0.,
          1.19047624e-03, 0., 4.76190494e-03, 2.38095247e-03, 0., 0.,
          5.95238106e-03, 0., 0., 0., 0., 0., 0., 1.19047624e-03, 0., 0.,
          0., 0., 0., 0., 4.76190494e-03, 0., 0., 2.02380959e-02,
          3.57142882e-03, 1.19047621e-02, 1.19047624e-03, 0., 0.,
          3.09523828e-02, 2.38095247e-03, 0., 5.00000007e-02, 0.,
          2.02380959e-02, 4.88095246e-02, 2.26190481e-02, 3.57142873e-02,
          0., 1.42857153e-02, 3.09523828e-02, 4.76190494e-03,
          2.85714306e-02, 0., 2.85714306e-02, 4.76190494e-03, 0.,
          1.54761914e-02, 0., 2.73809526e-02, 1.42857153e-02,
          2.38095247e-03, 5.95238106e-03, 0., 4.76190494e-03, 0., 0.,
          8.33333377e-03, 0., 4.52380963e-02, 4.76190494e-03,
          5.47619052e-02, 0., 2.85714306e-02, 0., 0., 1.19047621e-02,
          1.19047624e-03, 1.19047621e-02, 0., 0., 1.19047621e-02, 0., 0.,
          1.42857153e-02, 0., 0., 1.19047624e-03, 0., 0., 0., 0., 0.,
          3.57142882e-03, 0., 1.66666675e-02, 0., 0., 0., 2.38095247e-03,
          1.66666675e-02, 0., 0., 2.38095247e-03, 5.95238106e-03,
          3.57142873e-02, 0., 3.45238112e-02, 0., 5.71428612e-02,
          1.19047624e-03, 0., 0., 0., 3.57142882e-03, 1.19047624e-03, 0.,
          0., 5.95238106e-03, 4.76190494e-03, 1.66666675e-02,
          1.78571437e-02, 0., 3.57142882e-03, 9.52380989e-03,
          3.57142882e-03, 3.57142882e-03, 2.97619067e-02, 1.19047621e-02,
          4.76190494e-03, 4.76190494e-03, 3.57142882e-03, 1.66666675e-02,
          0., 1.19047624e-03, 0., 1.66666675e-02, 0., 0., 0., 0.,
          2.38095247e-03, 2.14285720e-02, 1.19047624e-03, 0.,
          4.76190494e-03, 2.38095247e-03, 0., 0., 0., 0., 0., 0., 0.,
          2.38095247e-03, 0., 1.19047624e-03, 0., 0., 0., 0., 0., 0., 0.,
          0., 0., 0., 0., 0., 0., 0., 0., 0., 0., 0., 0., 0., 0., 0., 0.,
          0., 1.07991360e-02, 8.63930862e-03, 2.15982720e-02,
          1.40388766e-02, 2.80777533e-02, 9.71922185e-03, 1.40388766e-02,
          2.37580985e-02, 8.63930862e-03, 2.91576665e-02, 1.40388766e-02,
          5.39956801e-03, 0., 1.18790492e-02, 0., 1.07991358e-03, 0.,
          1.94384437e-02, 8.63930862e-03, 1.29589625e-02, 3.88768874e-02,
          4.31965431e-03, 4.31965431e-03, 8.63930862e-03, 1.29589625e-02,
          1.61987040e-02, 2.15982716e-03, 1.07991358e-03, 4.21166308e-02,
          3.56371477e-02, 2.05183588e-02, 0., 7.55939493e-03,
          8.63930862e-03, 5.39956801e-03, 2.59179249e-02, 9.71922185e-03,
          6.47948124e-03, 1.61987040e-02, 6.47948124e-03, 5.39956801e-03,
          7.55939493e-03, 7.55939493e-03, 2.15982720e-02, 2.15982716e-03,
          2.59179249e-02, 1.18790492e-02, 5.39956801e-03, 5.39956801e-03,
          0., 5.39956801e-03, 2.15982716e-03, 1.61987040e-02,
          3.23974062e-03, 7.55939493e-03, 2.15982720e-02, 6.47948124e-03,
          1.07991360e-02, 1.40388766e-02, 7.55939493e-03, 7.55939493e-03,
          2.05183588e-02, 1.40388766e-02, 4.31965431e-03, 1.72786172e-02,
          2.15982716e-03, 6.47948124e-03, 1.07991358e-03, 0., 0., 0.,
          6.47948124e-03, 5.39956801e-03, 0., 0., 4.31965431e-03, 0.,
          8.63930862e-03, 3.23974062e-03, 1.07991360e-02, 3.23974062e-03,
          1.18790492e-02, 0., 6.47948124e-03, 0., 1.07991358e-03,
          4.31965431e-03, 3.23974062e-03, 1.18790492e-02, 0.,
          3.23974062e-03, 1.40388766e-02, 2.15982716e-03, 9.71922185e-03,
          3.23974062e-03, 4.31965431e-03, 4.31965431e-03, 0.,
          2.15982716e-03, 9.71922185e-03, 1.07991358e-03, 3.23974062e-03,
          3.23974062e-03, 0., 0., 5.39956801e-03, 7.55939493e-03, 0., 0.,
          2.15982716e-03, 4.31965431e-03, 0., 6.47948124e-03,
          4.31965431e-03, 2.15982716e-03, 6.47948124e-03, 0.,
          2.15982716e-03, 0., 9.71922185e-03, 0., 0., 8.63930862e-03,
          1.07991358e-03, 0., 3.23974062e-03, 0., 6.47948124e-03, 0.,
          1.07991358e-03, 0., 3.23974062e-03, 1.07991358e-03, 0., 0.,
          4.31965431e-03, 0., 0., 0., 2.15982716e-03, 0., 0., 0., 0., 0.,
          0., 0., 0., 0., 0., 3.92857157e-02, 4.76190494e-03,
          1.90476198e-02, 1.54761914e-02, 2.26190481e-02, 2.02380959e-02,
          1.19047621e-02, 2.14285720e-02, 2.38095247e-03, 2.14285720e-02,
          3.33333351e-02, 1.19047624e-03, 0., 1.42857153e-02,
          3.57142882e-03, 0., 0., 2.50000004e-02, 1.19047621e-02,
          8.33333377e-03, 4.88095246e-02, 0., 2.38095247e-03,
          3.57142882e-03, 1.07142860e-02, 2.73809526e-02, 0.,
          9.52380989e-03, 4.88095246e-02, 2.61904765e-02, 1.54761914e-02,
          0., 7.14285765e-03, 0., 1.19047624e-03, 2.50000004e-02,
          1.42857153e-02, 1.07142860e-02, 1.07142860e-02, 0., 0.,
          9.52380989e-03, 7.14285765e-03, 7.14285765e-03, 4.76190494e-03,
          1.90476198e-02, 1.19047621e-02, 2.38095247e-03, 1.19047621e-02,
          0., 5.95238106e-03, 0., 1.30952382e-02, 2.38095247e-03,
          3.57142882e-03, 2.14285720e-02, 8.33333377e-03, 1.42857153e-02,
          1.54761914e-02, 0., 5.95238106e-03, 1.54761914e-02,
          1.30952382e-02, 3.57142882e-03, 1.66666675e-02, 0.,
          7.14285765e-03, 0., 0., 0., 0., 1.90476198e-02, 2.38095247e-03,
          7.14285765e-03, 0., 1.42857153e-02, 0., 1.19047624e-03,
          9.52380989e-03, 1.19047621e-02, 0., 1.30952382e-02, 0.,
          1.30952382e-02, 2.38095247e-03, 3.57142882e-03, 4.76190494e-03,
          2.38095247e-03, 1.19047621e-02, 0., 0., 2.38095247e-03,
          1.30952382e-02, 1.30952382e-02, 7.14285765e-03, 3.57142882e-03,
          0., 0., 0., 0., 0., 7.14285765e-03, 1.19047624e-03, 0., 0., 0.,
          5.95238106e-03, 0., 1.19047624e-03, 0., 0., 0., 7.14285765e-03,
          4.76190494e-03, 0., 2.38095247e-03, 0., 2.73809526e-02, 0.,
          2.38095247e-03, 0., 0., 5.95238106e-03, 1.19047624e-03, 0.,
          2.38095247e-03, 2.38095247e-03, 0., 0., 2.38095247e-03, 0.,
          2.38095247e-03, 0., 0., 0., 3.57142882e-03, 0., 0.,
          5.95238106e-03, 0., 0., 0., 0., 0., 0., 0., 0., 0., 0., 0.,
          3.43511440e-02, 2.67175566e-02, 2.16284990e-02, 1.78117044e-02,
          2.92620864e-02, 8.90585221e-03, 1.14503819e-02, 2.92620864e-02,
          3.43511440e-02, 4.58015278e-02, 2.16284990e-02, 0., 0.,
          1.78117044e-02, 1.39949108e-02, 1.27226464e-03, 0.,
          7.63358781e-03, 2.41730288e-02, 1.52671756e-02, 1.90839693e-02,
          0., 5.08905854e-03, 3.94402035e-02, 1.52671756e-02,
          1.52671756e-02, 1.27226464e-03, 2.41730288e-02, 6.36132341e-03,
          3.43511440e-02, 2.16284990e-02, 0., 6.36132341e-03,
          3.81679391e-03, 0., 2.03562342e-02, 1.27226468e-02,
          1.14503819e-02, 1.52671756e-02, 1.27226464e-03, 0.,
          1.27226468e-02, 6.36132341e-03, 7.63358781e-03, 2.54452927e-03,
          1.90839693e-02, 6.36132341e-03, 0., 7.63358781e-03,
          2.54452927e-03, 2.54452927e-03, 0., 2.16284990e-02,
          3.81679391e-03, 3.81679391e-03, 3.05343512e-02, 5.08905854e-03,
          1.27226464e-03, 6.36132341e-03, 1.27226464e-03, 2.54452927e-03,
          1.90839693e-02, 5.08905854e-03, 1.27226464e-03, 8.90585221e-03,
          2.54452927e-03, 7.63358781e-03, 0., 0., 1.27226464e-03, 0.,
          5.08905854e-03, 3.81679391e-03, 0., 6.36132341e-03,
          1.90839693e-02, 2.54452927e-03, 1.27226464e-03, 3.81679391e-03,
          7.63358781e-03, 0., 1.01781171e-02, 1.27226464e-03,
          1.01781171e-02, 1.27226464e-03, 2.54452927e-03, 6.36132341e-03,
          6.36132341e-03, 1.52671756e-02, 0., 1.27226464e-03,
          5.08905854e-03, 0., 2.54452927e-03, 6.36132341e-03,
          8.90585221e-03, 3.81679391e-03, 0., 2.54452927e-03,
          1.39949108e-02, 1.27226464e-03, 5.08905854e-03, 6.36132341e-03,
          0., 0., 0., 1.27226464e-03, 0., 0., 0., 1.27226464e-03,
          5.08905854e-03, 5.08905854e-03, 8.90585221e-03, 0.,
          1.27226464e-03, 0., 0., 0., 1.27226464e-03, 0., 0.,
          1.27226464e-03, 2.54452927e-03, 0., 1.27226464e-03,
          1.27226464e-03, 1.27226464e-03, 0., 1.27226464e-03, 0., 0.,
          1.27226464e-03, 0., 0., 0., 0., 0., 0., 1.27226464e-03, 0., 0.,
          0., 0., 0., 0., 0., 0., 0., 0., 0., 1.29589625e-02,
          1.51187899e-02, 1.07991360e-02, 3.23974080e-02, 2.91576665e-02,
          7.55939493e-03, 3.88768874e-02, 3.99568006e-02, 0., 0.,
          4.10367176e-02, 3.23974062e-03, 2.59179249e-02, 2.37580985e-02,
          2.15982716e-03, 0., 1.07991360e-02, 0., 2.80777533e-02,
          4.53563705e-02, 1.07991358e-03, 0., 4.42764573e-02,
          9.71922185e-03, 1.40388766e-02, 7.55939493e-03, 3.23974062e-03,
          9.71922185e-03, 2.05183588e-02, 8.63930862e-03, 3.23974062e-03,
          0., 1.07991358e-03, 0., 2.59179249e-02, 2.15982716e-03, 0., 0.,
          0., 7.55939493e-03, 0., 9.71922185e-03, 0., 5.39956801e-03,
          1.29589625e-02, 0., 0., 4.31965431e-03, 9.07127410e-02,
          3.23974062e-03, 0., 2.05183588e-02, 9.71922185e-03, 0., 0., 0.,
          6.47948124e-03, 1.07991358e-03, 1.72786172e-02, 7.55939493e-03,
          1.18790492e-02, 3.23974062e-03, 0., 1.40388766e-02, 0.,
          1.07991358e-03, 0., 0., 1.18790492e-02, 6.69546425e-02,
          6.47948124e-03, 3.23974062e-03, 0., 0., 2.15982716e-03,
          5.39956801e-03, 0., 4.31965431e-03, 3.23974062e-03,
          4.75161970e-02, 7.55939493e-03, 3.23974062e-03, 7.55939493e-03,
          3.23974062e-03, 0., 0., 7.55939493e-03, 4.31965431e-03, 0.,
          1.29589625e-02, 4.31965431e-03, 0., 5.39956801e-03,
          4.31965431e-03, 0., 1.18790492e-02, 0., 2.15982716e-03, 0.,
          1.07991358e-03, 9.71922185e-03, 1.07991358e-03, 0., 0., 0.,
          1.07991358e-03, 4.31965431e-03, 0., 0., 1.07991358e-03, 0.,
          1.07991358e-03, 0., 0., 2.15982716e-03, 0., 3.23974062e-03, 0.,
          0., 0., 0., 0., 0., 0., 1.07991358e-03, 0., 0., 0.,
          1.07991358e-03, 0., 1.07991358e-03, 1.07991358e-03, 0., 0., 0.,
          0., 0., 0., 0., 0., 0., 0., 0., 0., 0., 0., 0., 0., 0.,
          4.32569981e-02, 2.79898215e-02, 1.52671756e-02, 8.90585221e-03,
          1.65394396e-02, 2.03562342e-02, 1.14503819e-02, 3.05343512e-02,
          0., 1.65394396e-02, 2.03562342e-02, 1.27226464e-03, 0.,
          2.54452936e-02, 3.05343512e-02, 6.36132341e-03, 0.,
          1.52671756e-02, 3.81679391e-03, 3.30788791e-02, 3.43511440e-02,
          7.63358781e-03, 1.27226464e-03, 3.81679391e-03, 1.27226468e-02,
          7.63358781e-03, 0., 0., 5.21628484e-02, 2.92620864e-02,
          2.67175566e-02, 5.08905854e-03, 0., 1.27226468e-02, 0.,
          4.58015278e-02, 1.14503819e-02, 1.27226464e-03, 1.52671756e-02,
          0., 1.52671756e-02, 1.27226464e-03, 1.01781171e-02,
          2.54452927e-03, 0., 1.52671756e-02, 2.54452927e-03, 0.,
          5.08905854e-03, 0., 2.54452927e-03, 0., 7.63358781e-03,
          1.39949108e-02, 7.63358781e-03, 1.90839693e-02, 3.81679391e-03,
          0., 8.90585221e-03, 3.56234089e-02, 0., 1.65394396e-02,
          3.81679391e-03, 2.54452927e-03, 1.14503819e-02, 0.,
          2.54452927e-03, 0., 0., 7.63358781e-03, 0., 5.08905854e-03,
          3.81679391e-03, 3.81679391e-03, 2.54452927e-03, 2.54452927e-03,
          1.52671756e-02, 2.54452927e-03, 7.63358781e-03, 0., 0., 0.,
          7.63358781e-03, 0., 0., 0., 7.63358781e-03, 6.36132341e-03,
          1.14503819e-02, 0., 1.65394396e-02, 3.81679391e-03,
          3.81679391e-03, 2.54452927e-03, 1.27226464e-03, 6.36132341e-03,
          8.90585221e-03, 0., 3.81679391e-03, 7.63358781e-03, 0.,
          1.65394396e-02, 6.36132341e-03, 0., 0., 0., 3.81679391e-03, 0.,
          0., 1.27226464e-03, 1.01781171e-02, 2.54452927e-03, 0.,
          1.27226464e-03, 0., 0., 0., 1.01781171e-02, 0., 3.81679391e-03,
          0., 0., 0., 3.81679391e-03, 0., 1.27226464e-03, 0.,
          7.63358781e-03, 0., 0., 0., 2.54452927e-03, 1.27226464e-03, 0.,
          0., 5.08905854e-03, 0., 0., 1.27226464e-03, 0., 0., 0., 0., 0.,
          0., 0., 0., 0., 0. ]
   responses: !!opencv-matrix
      rows: 40
      cols: 1
      dt: f
      data: [ 0., 0., 0., 0., 0., 0., 0., 0., 0., 0., 0., 0., 0., 0., 0.,
          0., 0., 0., 0., 0., 1., 1., 1., 1., 1., 1., 1., 1., 1., 1., 1.,
          1., 1., 1., 1., 1., 1., 1., 1., 1. ]
