%YAML:1.0
---
opencv_ml_knn:
   format: 3
   is_classifier: 1
   default_k: 2
   samples: !!opencv-matrix
      rows: 40
      cols: 150
      dt: f
      data: [ 2.18749996e-02, 2.18749996e-02, 3.12500005e-03,
          1.56250000e-02, 6.56250045e-02, 1.25000002e-02, 1.06250003e-01,
          0., 1.25000002e-02, 3.12500005e-03, 3.12500005e-03,
          1.25000002e-02, 0., 6.25000009e-03, 0., 6.25000009e-03,
          3.43750007e-02, 0., 1.25000002e-02, 1.56250000e-02,
          6.25000009e-03, 1.25000002e-02, 9.37500037e-03, 9.37500037e-03,
          0., 1.87500007e-02, 1.25000002e-02, 9.37500037e-03,
          3.43750007e-02, 3.12500005e-03, 3.12500005e-03, 0., 0.,
          2.50000004e-02, 3.12500005e-03, 0., 1.56250000e-02,
          1.25000002e-02, 2.81250011e-02, 0., 5.62500022e-02,
          3.12500000e-02, 9.37500037e-03, 3.12500005e-03, 6.25000009e-03,
          3.12500005e-03, 1.25000002e-02, 0., 9.37500037e-03,
          6.25000009e-03, 1.25000002e-02, 3.43750007e-02, 3.12500005e-03,
          3.12500005e-03, 0., 6.25000009e-03, 0., 0., 2.18749996e-02, 0.,
          9.37500037e-03, 0., 0., 3.12500005e-03, 1.25000002e-02,
          3.12500005e-03, 0., 3.12500005e-03, 2.18749996e-02, 0.,
          6.25000009e-03, 3.12500005e-03, 3.12500005e-03, 0.,
          9.37500037e-03, 0., 3.12500005e-03, 0., 1.56250000e-02,
          3.12500005e-03, 3.12500005e-03, 0., 0., 0., 0., 9.37500037e-03,
          0., 0., 0., 6.25000009e-03, 3.12500005e-03, 6.25000009e-03,
          6.25000009e-03, 0., 0., 1.25000002e-02, 0., 0., 0., 0., 0.,
          6.25000009e-03, 3.12500005e-03, 1.25000002e-02, 3.12500005e-03,
          1.56250000e-02, 0., 3.12500005e-03, 0., 6.25000009e-03, 0., 0.,
          2.50000004e-02, 0., 0., 0., 0., 0., 0., 0., 0., 0., 0., 0., 0.,
          0., 0., 0., 0., 0., 0., 0., 0., 0., 0., 0., 3.12500005e-03, 0.,
          0., 0., 0., 3.12500005e-03, 0., 0., 0., 0., 0., 0., 0., 0.,
          1.01265823e-02, 3.79746854e-02, 2.53164559e-03, 0.,
          1.18987344e-01, 0., 1.26582282e-02, 0., 1.26582282e-02, 0., 0.,
          2.53164559e-03, 0., 1.77215189e-02, 0., 1.26582282e-02,
          2.53164559e-03, 0., 2.53164559e-03, 1.01265823e-02, 0.,
          2.78481022e-02, 0., 4.55696210e-02, 0., 0., 2.53164559e-03, 0.,
          3.54430377e-02, 7.59493653e-03, 0., 2.53164559e-03, 0., 0., 0.,
          1.77215189e-02, 1.26582282e-02, 2.53164559e-03, 3.79746854e-02,
          0., 0., 1.77215189e-02, 2.53164559e-03, 2.53164559e-03, 0., 0.,
          1.01265823e-02, 0., 5.06329117e-03, 3.03797461e-02, 0.,
          2.02531647e-02, 5.06329117e-03, 7.59493653e-03, 2.53164559e-03,
          3.03797461e-02, 0., 0., 1.39240503e-01, 2.27848105e-02,
          7.59493653e-03, 7.59493653e-03, 2.53164559e-03, 1.77215189e-02,
          2.53164559e-03, 2.53164559e-03, 0., 0., 3.54430377e-02, 0.,
          5.06329117e-03, 0., 1.01265823e-02, 0., 0., 0., 5.06329117e-03,
          0., 2.53164559e-03, 2.53164559e-03, 0., 0., 0., 7.59493653e-03,
          5.06329117e-03, 0., 0., 0., 0., 0., 7.59493653e-03, 0.,
          3.03797461e-02, 5.06329117e-03, 0., 2.53164559e-03, 0., 0., 0.,
          0., 2.53164559e-03, 7.59493653e-03, 0., 0., 2.53164559e-03,
          1.26582282e-02, 0., 0., 7.59493653e-03, 2.27848105e-02, 0., 0.,
          5.06329127e-02, 0., 0., 0., 0., 0., 0., 0., 0., 0., 0., 0., 0.,
          0., 0., 2.53164559e-03, 0., 0., 0., 0., 0., 0., 0., 0., 0., 0.,
          0., 0., 0., 0., 0., 0., 0., 0., 0., 0., 0., 0., 1.21065378e-02,
          1.69491526e-02, 2.42130761e-03, 2.42130761e-03, 2.90556923e-02,
          4.84261522e-03, 5.56900762e-02, 0., 7.26392306e-03, 0.,
          2.42130761e-03, 4.84261522e-03, 0., 4.84261522e-03,
          7.26392306e-03, 9.68523044e-03, 3.87409218e-02, 2.42130761e-03,
          7.26392306e-03, 2.42130761e-03, 1.21065378e-02, 7.26392306e-03,
          4.35835384e-02, 1.69491526e-02, 0., 1.93704609e-02,
          1.93704609e-02, 1.69491526e-02, 2.42130756e-02, 2.42130761e-03,
          0., 4.84261522e-03, 0., 3.87409218e-02, 9.68523044e-03, 0.,
          1.45278461e-02, 3.63196135e-02, 2.42130761e-03, 9.68523044e-03,
          2.90556923e-02, 2.42130756e-02, 1.21065378e-02, 7.26392306e-03,
          1.69491526e-02, 2.42130761e-03, 1.69491526e-02, 4.84261522e-03,
          9.68523044e-03, 0., 9.68523044e-03, 1.45278461e-02,
          1.69491526e-02, 7.26392306e-03, 1.21065378e-02, 1.69491526e-02,
          2.17917692e-02, 2.42130761e-03, 9.68523044e-03, 4.84261522e-03,
          1.21065378e-02, 7.26392306e-03, 0., 1.45278461e-02,
          2.42130761e-03, 0., 0., 2.42130761e-03, 1.69491526e-02, 0.,
          1.69491526e-02, 4.84261522e-03, 7.26392306e-03, 2.42130761e-03,
          9.68523044e-03, 1.45278461e-02, 7.26392306e-03, 0.,
          4.84261522e-03, 2.42130761e-03, 4.84261522e-03, 0., 0.,
          1.21065378e-02, 1.93704609e-02, 2.42130761e-03, 0.,
          4.84261522e-03, 0., 4.84261522e-03, 0., 2.42130761e-03,
          1.21065378e-02, 0., 0., 2.42130761e-03, 4.84261522e-03, 0., 0.,
          0., 4.84261522e-03, 2.42130761e-03, 0., 2.42130761e-03, 0.,
          2.42130756e-02, 0., 1.21065378e-02, 0., 7.26392306e-03, 0.,
          2.42130761e-03, 2.42130761e-03, 7.26392306e-03, 0.,
          2.42130761e-03, 2.42130761e-03, 0., 0., 0., 0., 0., 0., 0., 0.,
          0., 0., 2.42130761e-03, 0., 0., 0., 0., 0., 0., 0., 0., 0.,
          2.42130761e-03, 0., 0., 0., 0., 0., 0., 0., 0., 0., 0., 0., 0.,
          1.99335553e-02, 9.96677764e-03, 9.96677764e-03, 2.32558139e-02,
          1.99335553e-02, 0., 3.65448482e-02, 1.66112948e-02,
          3.32225906e-03, 1.66112948e-02, 0., 0., 0., 0., 9.96677764e-03,
          0., 0., 6.31229207e-02, 6.64451811e-03, 3.32225906e-03,
          6.64451811e-03, 1.66112948e-02, 4.65116277e-02, 1.66112948e-02,
          6.64451811e-03, 6.64451811e-03, 1.32890362e-02, 1.32890362e-02,
          0., 0., 6.64451811e-03, 3.32225906e-03, 0., 3.32225896e-02,
          9.96677764e-03, 0., 6.64451811e-03, 3.32225896e-02,
          1.66112948e-02, 0., 5.64784035e-02, 5.64784035e-02,
          6.64451811e-03, 2.65780725e-02, 3.32225906e-03, 3.32225906e-03,
          3.32225906e-03, 9.96677764e-03, 9.96677764e-03, 0., 0.,
          3.32225906e-03, 3.32225906e-03, 0., 6.64451811e-03,
          1.66112948e-02, 1.66112948e-02, 6.64451811e-03, 2.32558139e-02,
          3.32225906e-03, 3.32225906e-03, 6.64451811e-03, 1.32890362e-02,
          3.32225906e-03, 6.64451811e-03, 9.96677764e-03, 0., 0.,
          9.96677764e-03, 0., 3.32225906e-03, 3.32225906e-03, 0.,
          3.32225906e-03, 6.64451811e-03, 0., 3.32225906e-03,
          3.32225906e-03, 3.32225906e-03, 0., 9.96677764e-03,
          9.96677764e-03, 9.96677764e-03, 0., 3.32225906e-03, 0.,
          3.32225906e-03, 9.96677764e-03, 0., 2.32558139e-02,
          3.32225906e-03, 3.32225906e-03, 1.66112948e-02, 3.32225906e-03,
          1.32890362e-02, 3.32225906e-03, 3.32225906e-03, 3.32225906e-03,
          0., 9.96677764e-03, 0., 0., 0., 3.32225906e-03, 0., 0.,
          3.32225906e-03, 3.32225906e-03, 3.32225906e-03, 0., 0., 0.,
          6.64451811e-03, 1.99335553e-02, 3.32225906e-03, 0.,
          3.32225906e-03, 0., 3.32225906e-03, 3.32225906e-03, 0., 0.,
          3.32225906e-03, 0., 0., 0., 0., 0., 0., 3.32225906e-03, 0., 0.,
          0., 0., 0., 0., 0., 0., 0., 0., 0., 0., 0., 0., 0., 0., 0., 0.,
          0., 0., 5.64971752e-03, 2.82485876e-02, 2.82485876e-03, 0.,
          6.49717525e-02, 1.12994350e-02, 1.12994350e-02, 0.,
          5.64971752e-03, 1.12994350e-02, 8.47457629e-03, 0.,
          5.64971752e-03, 2.82485876e-03, 0., 2.82485876e-03, 0.,
          3.95480245e-02, 0., 0., 0., 5.08474559e-02, 4.80225980e-02,
          5.36723174e-02, 2.82485876e-03, 0., 0., 0., 2.25988701e-02,
          2.25988701e-02, 1.12994350e-02, 2.82485876e-03, 2.82485876e-03,
          5.64971752e-03, 0., 2.82485876e-03, 0., 0., 8.47457629e-03,
          8.47457629e-03, 0., 8.19209069e-02, 5.64971752e-03,
          5.64971752e-03, 0., 0., 2.82485876e-03, 1.97740123e-02,
          8.47457629e-03, 8.47457629e-03, 0., 1.41242938e-02,
          2.82485876e-03, 0., 5.64971752e-03, 2.82485876e-02, 0., 0.,
          7.62711838e-02, 8.19209069e-02, 0., 2.82485876e-03,
          1.69491526e-02, 5.64971752e-03, 1.12994350e-02, 0.,
          1.12994350e-02, 0., 1.41242938e-02, 0., 5.64971752e-03,
          8.47457629e-03, 5.64971752e-03, 1.69491526e-02, 0.,
          2.82485876e-03, 0., 0., 8.47457629e-03, 0., 0., 0.,
          2.82485876e-03, 0., 0., 0., 0., 0., 2.82485876e-03, 0., 0.,
          2.82485876e-03, 3.67231630e-02, 1.97740123e-02, 0.,
          8.47457629e-03, 0., 0., 0., 0., 2.82485876e-03, 2.82485876e-03,
          0., 0., 2.82485876e-03, 5.64971752e-03, 0., 2.82485876e-03,
          2.82485876e-03, 5.64971752e-03, 0., 0., 5.64971752e-03, 0., 0.,
          0., 0., 0., 0., 0., 0., 0., 0., 0., 0., 0., 0., 0., 0., 0., 0.,
          0., 0., 0., 0., 0., 0., 0., 0., 0., 0., 0., 0., 0., 0., 0., 0.,
          0., 0., 0., 3.44827585e-03, 0., 2.41379309e-02, 2.41379309e-02,
          2.75862068e-02, 1.03448275e-02, 5.17241359e-02, 1.03448275e-02,
          3.79310325e-02, 0., 1.37931034e-02, 0., 0., 0., 0.,
          1.03448275e-02, 6.89655170e-03, 3.10344826e-02, 3.44827585e-03,
          6.89655170e-03, 6.89655170e-03, 3.44827585e-03, 5.86206913e-02,
          1.37931034e-02, 1.03448275e-02, 3.44827585e-02, 6.89655170e-03,
          4.82758619e-02, 3.44827585e-03, 1.03448275e-02, 0., 0., 0.,
          3.44827585e-02, 1.03448275e-02, 0., 3.44827585e-03,
          1.37931034e-02, 3.44827585e-03, 1.37931034e-02, 2.41379309e-02,
          1.03448275e-02, 1.37931034e-02, 6.89655170e-03, 0., 0.,
          1.03448275e-02, 1.72413792e-02, 3.44827585e-03, 1.03448275e-02,
          1.03448275e-02, 1.72413792e-02, 3.44827585e-03, 0.,
          1.03448275e-02, 1.72413792e-02, 3.44827585e-03, 1.72413792e-02,
          1.37931034e-02, 0., 0., 0., 3.44827585e-03, 3.44827585e-03,
          3.44827585e-03, 3.44827585e-03, 0., 0., 6.89655170e-03, 0.,
          1.72413792e-02, 0., 0., 2.06896551e-02, 0., 3.44827585e-03,
          1.72413792e-02, 1.03448275e-02, 0., 3.44827585e-03, 0.,
          6.89655170e-03, 0., 1.37931034e-02, 0., 6.89655170e-03, 0., 0.,
          3.44827585e-03, 2.75862068e-02, 6.89655170e-03, 3.44827585e-03,
          1.03448275e-02, 0., 6.89655170e-03, 0., 3.44827585e-03,
          3.44827585e-03, 0., 0., 0., 0., 1.03448275e-02, 6.89655170e-03,
          0., 1.37931034e-02, 0., 0., 6.89655170e-03, 0., 0., 0.,
          3.44827585e-03, 3.79310325e-02, 0., 0., 0., 0., 0.,
          3.44827585e-03, 0., 0., 3.44827585e-03, 0., 0., 0., 0., 0., 0.,
          0., 0., 0., 0., 0., 0., 0., 0., 0., 0., 0., 0., 0., 0., 0., 0.,
          0., 0., 0., 0., 0., 4.85436898e-03, 2.66990289e-02,
          9.70873795e-03, 1.69902910e-02, 1.21359229e-02, 2.42718449e-03,
          1.45631069e-02, 1.69902910e-02, 7.28155347e-03, 1.94174759e-02,
          7.28155347e-03, 1.21359229e-02, 0., 2.42718449e-03,
          1.69902910e-02, 1.21359229e-02, 2.42718449e-03, 7.28155375e-02,
          4.85436898e-03, 9.70873795e-03, 7.28155347e-03, 1.21359229e-02,
          1.69902910e-02, 2.42718458e-02, 2.42718449e-03, 0.,
          4.85436898e-03, 2.18446609e-02, 0., 7.28155347e-03,
          9.70873795e-03, 9.70873795e-03, 7.28155347e-03, 9.70873795e-03,
          2.42718449e-03, 0., 1.69902910e-02, 2.18446609e-02,
          2.42718458e-02, 2.42718449e-03, 0., 3.15533988e-02,
          9.70873795e-03, 0., 1.45631069e-02, 7.28155347e-03,
          7.28155347e-03, 2.42718449e-03, 7.28155347e-03, 3.64077687e-02,
          0., 2.66990289e-02, 7.28155347e-03, 1.21359229e-02,
          2.42718458e-02, 1.45631069e-02, 1.45631069e-02, 2.42718449e-03,
          1.45631069e-02, 2.42718449e-03, 2.42718449e-03, 1.69902910e-02,
          1.69902910e-02, 1.94174759e-02, 4.85436898e-03, 0.,
          9.70873795e-03, 0., 3.88349518e-02, 0., 1.69902910e-02,
          4.85436898e-03, 4.85436898e-03, 0., 2.42718449e-03, 0.,
          2.42718449e-03, 2.42718449e-03, 0., 4.85436898e-03,
          7.28155347e-03, 9.70873795e-03, 4.85436898e-03, 0.,
          4.85436898e-03, 0., 2.42718449e-03, 1.69902910e-02,
          2.42718449e-03, 0., 2.42718449e-03, 0., 2.42718449e-03, 0., 0.,
          0., 0., 2.42718449e-03, 0., 0., 4.85436898e-03, 4.85436898e-03,
          1.21359229e-02, 2.42718449e-03, 0., 1.69902910e-02,
          4.85436898e-03, 0., 4.85436898e-03, 7.28155347e-03, 0., 0.,
          7.28155347e-03, 0., 0., 0., 0., 9.70873795e-03, 0., 0., 0.,
          4.85436898e-03, 0., 0., 0., 0., 0., 0., 2.42718449e-03, 0., 0.,
          0., 2.42718449e-03, 2.42718449e-03, 0., 0., 0., 0., 0., 0., 0.,
          0., 0., 0., 0., 0., 0., 0., 0., 0., 2.77777785e-03,
          2.77777780e-02, 0., 0., 3.61111127e-02, 1.11111114e-02,
          5.55555569e-03, 0., 5.55555569e-03, 2.77777785e-03,
          5.55555569e-03, 0., 0., 2.22222228e-02, 0., 4.16666679e-02, 0.,
          4.72222231e-02, 2.77777785e-03, 5.55555569e-03, 0.,
          6.11111112e-02, 8.33333377e-03, 3.61111127e-02, 0., 0.,
          8.33333377e-03, 2.77777785e-03, 2.77777785e-03, 3.88888903e-02,
          8.33333377e-03, 8.33333377e-03, 0., 0., 0., 2.77777785e-03,
          5.55555569e-03, 2.77777785e-03, 2.50000004e-02, 1.11111114e-02,
          6.38888925e-02, 3.33333351e-02, 0., 5.55555569e-03, 0., 0.,
          2.77777780e-02, 1.11111114e-02, 5.55555569e-03, 1.94444451e-02,
          8.33333377e-03, 5.55555569e-03, 2.77777785e-03, 2.77777785e-03,
          5.55555569e-03, 3.33333351e-02, 0., 0., 5.83333336e-02,
          4.16666679e-02, 5.55555569e-03, 0., 2.77777785e-03,
          3.05555556e-02, 2.77777785e-03, 1.11111114e-02, 5.55555569e-03,
          0., 2.77777785e-03, 0., 2.77777785e-03, 0., 2.77777785e-03,
          5.55555569e-03, 2.77777785e-03, 2.77777785e-03, 2.77777785e-03,
          0., 1.11111114e-02, 0., 5.55555569e-03, 0., 0., 5.55555569e-03,
          2.77777785e-03, 0., 0., 0., 8.33333377e-03, 0., 8.33333377e-03,
          5.55555569e-03, 8.33333377e-03, 1.38888890e-02, 0., 0.,
          2.77777785e-03, 0., 0., 0., 1.66666675e-02, 2.77777785e-03, 0.,
          0., 2.77777785e-03, 0., 0., 5.55555569e-03, 5.55555569e-03,
          8.33333377e-03, 5.55555569e-03, 0., 1.94444451e-02, 0., 0., 0.,
          0., 0., 0., 0., 0., 0., 0., 0., 2.77777785e-03, 0., 0.,
          5.55555569e-03, 0., 0., 0., 0., 0., 0., 0., 0., 0., 0.,
          8.33333377e-03, 0., 0., 0., 0., 0., 0., 0., 0., 0., 0., 0.,
          9.99999978e-03, 3.99999991e-02, 2.49999994e-03, 0.,
          1.07499994e-01, 0., 2.49999985e-02, 0., 2.49999994e-03, 0., 0.,
          0., 0., 7.49999983e-03, 0., 1.75000001e-02, 2.49999994e-03,
          2.49999994e-03, 7.49999983e-03, 4.99999989e-03, 4.99999989e-03,
          3.99999991e-02, 1.49999997e-02, 6.25000000e-02, 0., 0.,
          7.49999983e-03, 0., 4.74999994e-02, 7.49999983e-03,
          4.99999989e-03, 2.49999994e-03, 0., 2.49999994e-03, 0.,
          2.49999994e-03, 9.99999978e-03, 2.49999994e-03, 9.99999978e-03,
          9.99999978e-03, 4.99999989e-03, 2.99999993e-02, 1.24999993e-02,
          7.49999983e-03, 4.99999989e-03, 0., 7.49999983e-03,
          2.49999994e-03, 7.49999983e-03, 2.99999993e-02, 0.,
          4.74999994e-02, 2.49999994e-03, 4.99999989e-03, 7.49999983e-03,
          4.49999981e-02, 2.49999994e-03, 0., 6.74999952e-02,
          2.49999985e-02, 0., 2.49999994e-03, 2.49999994e-03,
          4.99999989e-03, 7.49999983e-03, 0., 0., 0., 2.99999993e-02, 0.,
          7.49999983e-03, 1.24999993e-02, 0., 0., 4.99999989e-03, 0., 0.,
          0., 1.24999993e-02, 0., 0., 0., 0., 7.49999983e-03,
          2.49999994e-03, 0., 0., 2.49999994e-03, 0., 2.49999994e-03, 0.,
          0., 4.99999970e-02, 7.49999983e-03, 0., 9.99999978e-03,
          2.49999994e-03, 0., 0., 0., 0., 0., 4.99999989e-03, 0.,
          2.49999994e-03, 9.99999978e-03, 0., 2.49999994e-03, 0.,
          7.49999983e-03, 0., 0., 2.49999985e-02, 0., 0., 0., 0., 0., 0.,
          0., 0., 0., 0., 2.49999994e-03, 0., 0., 0., 0., 0.,
          2.49999994e-03, 0., 0., 2.49999994e-03, 0., 0., 0., 0., 0., 0.,
          0., 0., 0., 0., 0., 0., 0., 0., 0., 0., 0., 2.43902430e-02, 0.,
          8.13008100e-03, 0., 2.84552835e-02, 8.13008100e-03,
          3.25203240e-02, 0., 8.13008100e-03, 0., 0., 0., 4.06504050e-03,
          4.06504050e-03, 8.13008100e-03, 0., 1.21951215e-02,
          4.87804860e-02, 4.06504050e-03, 8.13008100e-03, 2.03252025e-02,
          5.69105670e-02, 2.03252025e-02, 8.13008100e-03, 0., 0., 0.,
          1.62601620e-02, 8.13008100e-03, 1.62601620e-02, 2.84552835e-02,
          8.13008100e-03, 0., 2.03252025e-02, 8.13008100e-03, 0.,
          4.06504050e-03, 8.13008100e-03, 2.84552835e-02, 1.62601620e-02,
          3.25203240e-02, 6.91056848e-02, 2.43902430e-02, 8.13008100e-03,
          8.13008100e-03, 0., 8.13008100e-03, 4.06504050e-03,
          1.62601620e-02, 2.03252025e-02, 4.06504050e-03, 0.,
          4.06504050e-03, 0., 4.06504050e-03, 1.21951215e-02, 0., 0.,
          4.06504050e-02, 1.62601620e-02, 4.06504050e-03, 8.13008100e-03,
          1.21951215e-02, 0., 1.62601620e-02, 4.06504050e-03,
          4.06504050e-03, 0., 2.03252025e-02, 4.06504050e-03,
          4.06504050e-03, 4.06504050e-03, 0., 0., 0., 0., 0., 0.,
          1.21951215e-02, 0., 0., 0., 0., 0., 0., 4.06504050e-03, 0., 0.,
          4.06504050e-03, 4.06504050e-02, 8.13008100e-03, 4.06504050e-03,
          2.43902430e-02, 0., 4.06504050e-03, 4.06504050e-03, 0., 0., 0.,
          4.06504050e-03, 4.06504050e-03, 0., 0., 4.06504050e-03, 0.,
          4.06504050e-03, 0., 0., 0., 8.13008100e-03, 0., 0.,
          8.13008100e-03, 2.84552835e-02, 0., 0., 0., 0., 4.06504050e-03,
          0., 0., 0., 0., 8.13008100e-03, 0., 0., 0., 0., 0., 0., 0., 0.,
          0., 0., 0., 0., 0., 0., 0., 0., 0., 0., 0., 0., 0., 0., 0., 0.,
          0., 0., 4.61893762e-03, 4.61893762e-03, 0., 1.61662810e-02,
          2.30946876e-02, 1.15473438e-02, 2.07852200e-02, 2.30946876e-02,
          1.38568133e-02, 9.23787523e-03, 0., 2.30946881e-03, 0., 0.,
          5.31177819e-02, 6.92840666e-03, 4.61893762e-03, 2.54041571e-02,
          2.30946881e-03, 6.92840666e-03, 2.30946881e-03, 1.38568133e-02,
          1.61662817e-01, 6.92840666e-03, 6.92840666e-03, 4.61893762e-03,
          6.92840666e-03, 3.00230943e-02, 4.61893762e-03, 9.23787523e-03,
          4.61893762e-03, 9.23787523e-03, 9.23787523e-03, 2.07852200e-02,
          9.23787523e-03, 0., 4.61893762e-03, 4.61893762e-03,
          2.30946881e-03, 6.92840666e-03, 1.84757505e-02, 1.84757505e-02,
          9.23787523e-03, 9.23787523e-03, 9.23787523e-03, 2.30946881e-03,
          6.92840666e-03, 6.00461885e-02, 2.30946881e-03, 2.30946881e-03,
          2.30946881e-03, 0., 0., 0., 4.61893762e-03, 4.61893762e-03,
          6.92840666e-03, 2.30946881e-03, 4.61893762e-03, 4.61893762e-03,
          0., 2.30946881e-03, 6.92840666e-03, 2.30946881e-03,
          2.77136266e-02, 1.15473438e-02, 2.30946881e-03, 0.,
          2.30946881e-03, 0., 4.61893762e-03, 9.23787523e-03, 0., 0.,
          2.30946881e-03, 0., 2.77136266e-02, 0., 2.30946881e-03, 0., 0.,
          2.30946881e-03, 2.30946881e-03, 9.23787523e-03, 6.92840666e-03,
          0., 0., 4.61893762e-03, 2.30946876e-02, 1.84757505e-02,
          6.92840666e-03, 2.30946881e-03, 4.61893762e-03, 0., 0., 0., 0.,
          0., 0., 2.30946876e-02, 1.15473438e-02, 0., 4.61893762e-03,
          4.61893762e-03, 0., 0., 6.92840666e-03, 0., 0., 0., 0.,
          2.30946881e-03, 4.61893762e-03, 1.61662810e-02, 0.,
          2.30946881e-03, 2.30946881e-03, 0., 4.61893762e-03,
          6.92840666e-03, 2.30946881e-03, 0., 0., 0., 0., 0., 0., 0., 0.,
          0., 0., 0., 0., 4.61893762e-03, 0., 0., 0., 0., 2.30946881e-03,
          0., 2.30946881e-03, 0., 0., 0., 0., 0., 0., 0., 0., 0.,
          5.74712642e-03, 5.74712642e-03, 1.43678160e-02, 2.87356321e-02,
          4.88505736e-02, 5.74712642e-03, 0., 2.58620679e-02,
          2.87356321e-03, 2.29885057e-02, 0., 2.87356321e-03,
          2.87356321e-03, 2.87356321e-03, 3.44827585e-02, 8.62068962e-03,
          5.74712642e-03, 6.89655170e-02, 0., 5.74712642e-03,
          2.87356321e-03, 4.31034490e-02, 2.01149434e-02, 8.62068962e-03,
          2.87356321e-03, 2.87356321e-03, 5.74712642e-03, 1.72413792e-02,
          5.74712642e-03, 8.62068962e-03, 2.58620679e-02, 5.74712642e-03,
          5.74712642e-03, 5.74712642e-03, 2.87356321e-03, 0.,
          8.62068962e-03, 5.74712642e-03, 2.87356321e-03, 0.,
          1.43678160e-02, 5.45977019e-02, 2.01149434e-02, 8.62068962e-03,
          0., 2.87356321e-03, 2.87356321e-03, 1.43678160e-02, 0., 0.,
          8.62068962e-03, 1.43678160e-02, 5.74712642e-03, 2.87356321e-03,
          1.14942528e-02, 5.74712642e-03, 8.62068962e-03, 0.,
          4.59770113e-02, 1.72413792e-02, 5.74712642e-03, 5.74712642e-03,
          1.72413792e-02, 0., 1.72413792e-02, 0., 2.87356321e-03,
          2.87356321e-03, 0., 0., 2.87356321e-03, 0., 2.87356321e-03,
          2.87356321e-03, 2.87356321e-03, 0., 3.44827585e-02,
          5.74712642e-03, 0., 0., 0., 2.87356321e-03, 8.62068962e-03, 0.,
          2.87356321e-03, 0., 0., 1.14942528e-02, 5.74712642e-03,
          2.87356321e-03, 5.74712642e-03, 2.87356321e-03, 1.72413792e-02,
          2.87356321e-03, 0., 0., 0., 2.87356321e-03, 0., 0.,
          5.74712642e-03, 5.74712642e-03, 5.74712642e-03, 8.62068962e-03,
          0., 0., 0., 0., 5.74712642e-03, 2.87356321e-03, 0., 0.,
          8.62068962e-03, 4.59770113e-02, 0., 0., 0., 0., 8.62068962e-03,
          2.87356321e-03, 5.74712642e-03, 2.87356321e-03, 5.74712642e-03,
          0., 2.87356321e-03, 0., 0., 0., 0., 0., 0., 0., 0., 0., 0., 0.,
          0., 0., 0., 0., 0., 0., 0., 0., 0., 0., 0., 0., 0., 0.,
          5.01253130e-03, 3.00751887e-02, 2.50626565e-03, 1.00250626e-02,
          1.25313280e-02, 7.51879718e-03, 0., 0., 5.01253130e-03,
          1.75438598e-02, 2.50626565e-03, 7.51879718e-03, 0.,
          1.25313280e-02, 0., 1.00250626e-02, 2.25563906e-02,
          2.25563906e-02, 7.51879718e-03, 1.00250626e-02, 2.50626565e-03,
          5.26315793e-02, 2.75689214e-02, 5.01253130e-03, 0., 0.,
          1.50375944e-02, 0., 2.50626565e-03, 4.01002504e-02,
          1.75438598e-02, 2.00501252e-02, 0., 3.25814523e-02, 0.,
          2.50626565e-03, 1.25313280e-02, 7.51879718e-03, 1.50375944e-02,
          2.75689214e-02, 2.50626560e-02, 7.76942372e-02, 0.,
          5.01253130e-03, 2.50626565e-03, 5.01253130e-03, 5.01253130e-03,
          5.01253130e-03, 7.51879718e-03, 1.50375944e-02, 1.25313280e-02,
          2.50626565e-03, 2.50626565e-03, 1.25313280e-02, 5.01253130e-03,
          7.51879718e-03, 1.00250626e-02, 2.50626565e-03, 7.51879718e-03,
          4.26065177e-02, 1.50375944e-02, 0., 2.00501252e-02,
          1.00250626e-02, 7.51879718e-03, 1.00250626e-02, 1.25313280e-02,
          0., 2.50626565e-03, 0., 1.50375944e-02, 2.50626565e-03,
          5.01253130e-03, 2.00501252e-02, 0., 5.01253130e-03, 0., 0.,
          7.51879718e-03, 0., 5.01253130e-03, 0., 7.51879718e-03,
          2.50626565e-03, 0., 0., 0., 0., 7.51879718e-03, 0.,
          1.00250626e-02, 0., 5.01253130e-03, 3.50877196e-02, 0., 0.,
          1.00250626e-02, 2.50626565e-03, 0., 0., 2.25563906e-02, 0.,
          7.51879718e-03, 0., 0., 0., 0., 5.01253130e-03, 7.51879718e-03,
          5.01253130e-03, 0., 5.01253130e-03, 7.51879718e-03, 0., 0., 0.,
          0., 0., 0., 0., 0., 0., 0., 0., 0., 0., 0., 2.50626565e-03, 0.,
          0., 0., 0., 0., 0., 0., 0., 0., 0., 0., 0., 0., 0., 0., 0., 0.,
          0., 0., 0., 0., 0., 3.47222225e-03, 3.81944440e-02, 0., 0.,
          6.94444478e-02, 0., 7.63888881e-02, 0., 1.38888890e-02, 0., 0.,
          6.94444450e-03, 6.94444450e-03, 3.47222225e-03, 0.,
          6.94444450e-03, 2.43055560e-02, 6.94444450e-03, 1.04166670e-02,
          0., 0., 3.12500000e-02, 6.94444450e-03, 5.90277798e-02, 0., 0.,
          3.47222225e-03, 0., 3.47222239e-02, 0., 0., 1.04166670e-02, 0.,
          6.94444450e-03, 0., 3.47222225e-03, 6.94444450e-03,
          3.47222225e-03, 3.12500000e-02, 3.47222225e-03, 1.38888890e-02,
          3.12500000e-02, 2.43055560e-02, 3.47222225e-03, 0., 0., 0., 0.,
          1.04166670e-02, 2.08333340e-02, 3.47222225e-03, 5.20833321e-02,
          3.47222225e-03, 1.38888890e-02, 6.94444450e-03, 6.94444450e-03,
          0., 0., 8.33333358e-02, 4.16666679e-02, 0., 0., 0.,
          6.94444450e-03, 6.94444450e-03, 3.47222225e-03, 0., 0.,
          2.08333340e-02, 0., 2.43055560e-02, 3.47222225e-03,
          6.94444450e-03, 3.47222225e-03, 3.47222225e-03, 3.47222225e-03,
          0., 0., 6.94444450e-03, 3.47222225e-03, 0., 0., 0.,
          3.47222225e-03, 6.94444450e-03, 0., 0., 0., 0., 1.73611119e-02,
          6.94444450e-03, 0., 6.94444450e-03, 0., 0., 3.47222225e-03, 0.,
          3.47222225e-03, 0., 0., 0., 6.94444450e-03, 3.47222225e-03, 0.,
          3.47222225e-03, 1.38888890e-02, 0., 6.94444450e-03, 0.,
          1.04166670e-02, 0., 0., 1.38888890e-02, 3.47222225e-03, 0., 0.,
          0., 3.47222225e-03, 0., 0., 0., 0., 0., 0., 0., 0., 0., 0., 0.,
          0., 0., 0., 0., 0., 0., 0., 0., 0., 6.94444450e-03, 0., 0., 0.,
          0., 0., 0., 0., 0., 0., 0., 0., 6.11620815e-03, 0.,
          2.75229365e-02, 2.75229365e-02, 3.97553518e-02, 3.05810408e-03,
          6.11620815e-03, 4.28134575e-02, 1.52905202e-02, 4.58715595e-02,
          0., 0., 3.05810408e-03, 0., 2.14067288e-02, 6.11620815e-03,
          3.05810408e-03, 1.22324161e-01, 3.05810408e-03, 6.11620815e-03,
          0., 3.97553518e-02, 1.52905202e-02, 3.05810408e-03,
          1.22324163e-02, 0., 1.22324163e-02, 6.11620815e-03,
          3.05810408e-03, 1.83486249e-02, 4.28134575e-02, 6.11620815e-03,
          3.05810408e-03, 6.11620815e-03, 0., 0., 6.11620815e-03,
          9.17431246e-03, 6.11620815e-03, 3.05810408e-03, 3.05810408e-03,
          5.19877709e-02, 2.75229365e-02, 0., 6.11620815e-03,
          3.05810408e-03, 3.05810408e-03, 6.11620815e-03, 6.11620815e-03,
          0., 3.05810408e-03, 0., 0., 0., 3.05810408e-03, 3.05810408e-03,
          1.22324163e-02, 0., 3.05810403e-02, 1.83486249e-02, 0., 0.,
          1.22324163e-02, 0., 6.11620815e-03, 0., 3.05810408e-03,
          3.05810408e-03, 3.05810408e-03, 0., 3.05810408e-03,
          3.05810408e-03, 6.11620815e-03, 3.05810408e-03, 0., 0.,
          1.22324163e-02, 3.05810408e-03, 0., 0., 0., 6.11620815e-03,
          9.17431246e-03, 3.05810408e-03, 1.22324163e-02, 0., 0.,
          6.11620815e-03, 2.14067288e-02, 1.22324163e-02, 9.17431246e-03,
          0., 3.05810408e-03, 9.17431246e-03, 6.11620815e-03, 0.,
          6.11620815e-03, 3.05810408e-03, 0., 1.22324163e-02,
          3.05810408e-03, 0., 0., 0., 0., 0., 0., 0., 9.17431246e-03, 0.,
          0., 0., 3.05810408e-03, 1.52905202e-02, 0., 0., 3.05810408e-03,
          6.11620815e-03, 1.22324163e-02, 3.05810408e-03, 0., 0.,
          6.11620815e-03, 0., 0., 0., 3.05810408e-03, 0., 0., 0., 0., 0.,
          3.05810408e-03, 0., 0., 0., 0., 0., 0., 0., 3.05810408e-03,
          3.05810408e-03, 0., 0., 0., 0., 0., 0., 0., 0., 2.34113708e-02,
          6.68896316e-03, 0., 3.01003344e-02, 7.69230798e-02,
          6.68896316e-03, 7.02341124e-02, 0., 6.68896316e-03, 0.,
          6.68896316e-03, 3.34448158e-03, 1.00334445e-02, 6.68896316e-03,
          0., 0., 3.34448144e-02, 0., 0., 6.68896316e-03, 0.,
          2.34113708e-02, 7.35785961e-02, 2.00668890e-02, 0.,
          2.34113708e-02, 1.33779263e-02, 0., 2.34113708e-02,
          6.68896316e-03, 0., 3.34448158e-03, 1.33779263e-02,
          5.35117052e-02, 3.34448158e-03, 0., 0., 2.34113708e-02, 0.,
          1.33779263e-02, 6.68896316e-03, 2.67558526e-02, 6.68896316e-03,
          3.34448158e-03, 6.68896316e-03, 6.68896316e-03, 3.34448158e-03,
          2.34113708e-02, 0., 3.34448158e-03, 1.00334445e-02,
          6.68896316e-03, 0., 1.00334445e-02, 1.00334445e-02,
          1.00334445e-02, 1.00334445e-02, 6.68896316e-03, 3.34448158e-03,
          0., 1.00334445e-02, 3.34448158e-03, 1.00334445e-02,
          3.34448158e-03, 2.67558526e-02, 0., 0., 0., 6.68896316e-03,
          6.68896316e-03, 6.68896316e-03, 3.34448158e-03, 0., 0.,
          3.34448158e-03, 0., 0., 1.00334445e-02, 3.34448158e-03, 0.,
          3.34448158e-03, 1.00334445e-02, 0., 6.68896316e-03, 0., 0., 0.,
          1.00334445e-02, 3.34448158e-03, 0., 0., 3.34448158e-03,
          3.34448158e-03, 1.33779263e-02, 0., 2.00668890e-02, 0.,
          2.67558526e-02, 3.34448158e-03, 6.68896316e-03, 0., 0., 0.,
          2.34113708e-02, 0., 1.67224072e-02, 6.68896316e-03, 0., 0., 0.,
          0., 0., 0., 3.34448158e-03, 0., 0., 0., 0., 0., 0., 0., 0., 0.,
          0., 0., 0., 0., 0., 0., 0., 0., 0., 0., 0., 0., 0.,
          6.68896316e-03, 0., 0., 0., 0., 3.34448158e-03, 0., 0., 0., 0.,
          0., 0., 0., 0., 0., 3.74064855e-02, 1.74563602e-02,
          2.49376567e-03, 1.24688279e-02, 0., 4.98753134e-03,
          7.48129701e-03, 2.49376567e-03, 1.24688279e-02, 0.,
          2.49376567e-03, 2.49376567e-03, 2.24438906e-02, 2.74314228e-02,
          7.48129701e-03, 2.49376567e-03, 5.98503761e-02, 1.24688279e-02,
          9.97506268e-03, 4.98753134e-03, 2.99251880e-02, 7.48129701e-03,
          1.49625940e-02, 1.24688279e-02, 0., 4.98753134e-03,
          9.97506268e-03, 4.98753134e-03, 3.74064855e-02, 2.99251880e-02,
          1.74563602e-02, 0., 2.49376567e-03, 0., 2.49376567e-03,
          2.74314228e-02, 2.49376567e-03, 1.24688279e-02, 1.99501254e-02,
          0., 1.49625940e-02, 2.49376567e-03, 2.49376567e-03, 0., 0.,
          2.24438906e-02, 1.49625940e-02, 1.24688279e-02, 2.74314228e-02,
          2.49376567e-03, 0., 0., 9.97506268e-03, 1.24688279e-02,
          4.98753134e-03, 0., 0., 7.48129701e-03, 9.97506268e-03,
          9.97506268e-03, 4.98753134e-03, 2.49376558e-02, 2.49376567e-03,
          1.49625940e-02, 9.97506268e-03, 4.98753134e-03, 4.98753134e-03,
          7.48129701e-03, 0., 4.98753134e-03, 2.49376567e-03,
          1.24688279e-02, 3.24189551e-02, 0., 7.48129701e-03,
          1.24688279e-02, 0., 0., 9.97506268e-03, 0., 0., 0.,
          2.49376567e-03, 9.97506268e-03, 0., 0., 9.97506268e-03,
          2.49376558e-02, 0., 1.74563602e-02, 2.49376567e-03,
          1.74563602e-02, 4.98753134e-03, 0., 2.49376558e-02,
          9.97506268e-03, 0., 0., 0., 1.49625940e-02, 1.24688279e-02,
          4.98753134e-03, 0., 4.98753134e-03, 2.49376567e-03, 0.,
          4.98753134e-03, 9.97506268e-03, 2.49376567e-03, 4.98753134e-03,
          0., 2.49376567e-03, 0., 0., 0., 0., 2.49376567e-03, 0., 0., 0.,
          2.49376567e-03, 0., 0., 0., 0., 0., 2.49376567e-03, 0., 0., 0.,
          0., 2.49376567e-03, 0., 0., 0., 2.49376567e-03, 0., 0., 0., 0.,
          0., 0., 0., 0., 0., 0., 0., 0., 0., 2.23642178e-02,
          2.23642178e-02, 6.38977624e-03, 0., 5.11182100e-02,
          9.58466437e-03, 2.55591050e-02, 3.19488812e-03, 9.58466437e-03,
          6.38977624e-03, 3.19488812e-03, 0., 1.91693287e-02, 0., 0.,
          3.19488812e-03, 2.23642178e-02, 0., 1.27795525e-02,
          6.38977624e-03, 0., 1.27795525e-02, 6.38977587e-02,
          1.27795525e-02, 0., 0., 9.58466437e-03, 0., 1.91693287e-02,
          9.58466437e-03, 3.19488812e-03, 6.38977624e-03, 0.,
          2.87539922e-02, 0., 9.58466437e-03, 0., 0., 1.91693287e-02,
          1.27795525e-02, 1.15015969e-01, 9.26517546e-02, 1.27795525e-02,
          6.38977624e-03, 3.19488812e-03, 0., 3.19488812e-03,
          1.27795525e-02, 6.38977624e-03, 0., 3.19488812e-03, 0., 0.,
          6.38977624e-03, 3.19488812e-03, 1.59744397e-02, 6.38977624e-03,
          0., 3.51437703e-02, 2.23642178e-02, 3.19488812e-03,
          6.38977624e-03, 0., 1.27795525e-02, 2.87539922e-02,
          9.58466437e-03, 3.19488812e-03, 0., 0., 0., 6.38977624e-03,
          6.38977624e-03, 0., 0., 1.27795525e-02, 0., 0., 0.,
          1.59744397e-02, 0., 0., 0., 3.19488812e-03, 3.19488812e-03,
          6.38977624e-03, 0., 0., 0., 0., 0., 9.58466437e-03,
          6.38977624e-03, 1.91693287e-02, 1.59744397e-02, 0.,
          1.27795525e-02, 9.58466437e-03, 0., 0., 0., 0., 0., 0., 0., 0.,
          6.38977624e-03, 0., 0., 0., 3.19488812e-03, 0., 3.19488812e-03,
          9.58466437e-03, 0., 0., 0., 0., 0., 0., 0., 0., 3.19488812e-03,
          0., 6.38977624e-03, 0., 0., 0., 0., 0., 0., 0., 0., 0., 0., 0.,
          0., 0., 0., 0., 0., 0., 0., 0., 0., 0., 0., 0., 0., 0., 0.,
          2.10084040e-02, 1.47058833e-02, 6.30252156e-03, 0.,
          1.89075638e-02, 2.10084044e-03, 3.15126069e-02, 0.,
          1.68067235e-02, 2.10084044e-03, 6.30252156e-03, 1.68067235e-02,
          0., 1.26050431e-02, 0., 0., 6.30252156e-03, 8.40336177e-03,
          1.68067235e-02, 3.57142873e-02, 1.26050431e-02, 2.52100863e-02,
          8.40336177e-03, 1.26050431e-02, 2.10084044e-03, 6.30252156e-03,
          1.26050431e-02, 2.10084040e-02, 1.05042020e-02, 1.05042020e-02,
          2.10084044e-03, 6.30252156e-03, 4.20168089e-03, 2.52100863e-02,
          0., 0., 3.36134471e-02, 2.73109265e-02, 2.73109265e-02,
          1.05042020e-02, 0., 0., 8.40336177e-03, 6.30252156e-03,
          8.40336177e-03, 0., 1.89075638e-02, 1.89075638e-02,
          6.30252156e-03, 1.26050431e-02, 2.10084044e-03, 2.10084044e-03,
          1.68067235e-02, 2.10084040e-02, 2.73109265e-02, 6.30252156e-03,
          2.10084040e-02, 0., 1.89075638e-02, 1.68067235e-02,
          1.26050431e-02, 1.05042020e-02, 0., 1.47058833e-02,
          2.10084044e-03, 6.30252156e-03, 0., 2.10084044e-03,
          6.30252156e-03, 0., 1.26050431e-02, 2.10084040e-02,
          8.40336177e-03, 0., 2.10084044e-03, 2.10084044e-03,
          8.40336177e-03, 0., 6.30252156e-03, 6.30252156e-03,
          1.05042020e-02, 2.10084044e-03, 0., 1.47058833e-02,
          1.68067235e-02, 0., 0., 1.26050431e-02, 1.05042020e-02,
          2.10084044e-03, 1.89075638e-02, 4.20168089e-03, 1.68067235e-02,
          0., 4.20168089e-03, 2.10084044e-03, 8.40336177e-03,
          4.20168089e-03, 0., 0., 2.10084044e-03, 1.05042020e-02,
          2.10084044e-03, 0., 0., 1.05042020e-02, 2.10084044e-03,
          2.10084044e-03, 0., 1.26050431e-02, 0., 6.30252156e-03,
          4.20168089e-03, 2.10084044e-03, 0., 2.10084044e-03,
          2.10084044e-03, 0., 0., 0., 0., 0., 2.10084044e-03, 0., 0., 0.,
          0., 2.10084044e-03, 0., 0., 0., 0., 0., 0., 0., 0., 0., 0., 0.,
          0., 0., 0., 0., 0., 0., 0., 0., 0., 0., 0., 1.21580549e-02,
          2.73556225e-02, 0., 3.03951371e-03, 3.34346518e-02,
          3.03951371e-03, 1.82370823e-02, 3.03951371e-03, 6.07902743e-03,
          1.21580549e-02, 3.03951371e-03, 1.21580549e-02, 0.,
          6.07902743e-03, 1.21580549e-02, 3.03951371e-02, 6.07902743e-03,
          6.99088126e-02, 3.03951371e-03, 6.07902743e-03, 9.11854114e-03,
          6.68693036e-02, 0., 9.11854114e-03, 0., 3.03951371e-03,
          6.07902743e-03, 3.64741646e-02, 1.51975686e-02, 3.03951371e-03,
          0., 0., 0., 1.51975686e-02, 0., 0., 3.03951371e-03,
          2.12765969e-02, 2.43161097e-02, 0., 9.11854114e-03,
          3.64741646e-02, 1.51975686e-02, 0., 9.11854114e-03,
          6.07902743e-03, 0., 0., 6.07902743e-03, 2.43161097e-02,
          3.03951371e-03, 9.11854114e-03, 0., 6.07902743e-03,
          1.51975686e-02, 2.12765969e-02, 3.95136774e-02, 0.,
          3.34346518e-02, 1.82370823e-02, 0., 3.03951371e-03, 0.,
          3.03951371e-03, 0., 0., 6.07902743e-03, 0., 3.64741646e-02,
          6.07902743e-03, 9.11854114e-03, 3.03951371e-03, 0., 0., 0., 0.,
          2.43161097e-02, 0., 6.07902743e-03, 0., 0., 0., 0.,
          3.03951371e-03, 3.03951371e-03, 0., 0., 6.07902743e-03, 0.,
          2.73556225e-02, 6.07902743e-03, 0., 6.07902743e-03,
          3.03951371e-03, 0., 0., 0., 3.03951371e-03, 0., 0.,
          3.03951371e-03, 3.03951371e-03, 3.03951371e-03, 0.,
          3.03951371e-03, 1.21580549e-02, 0., 0., 6.07902743e-03,
          2.12765969e-02, 3.03951371e-03, 0., 4.86322194e-02, 0., 0., 0.,
          0., 0., 0., 0., 0., 3.03951371e-03, 3.03951371e-03,
          3.03951371e-03, 0., 0., 0., 0., 0., 0., 0., 0., 0., 0., 0., 0.,
          0., 0., 0., 0., 0., 0., 0., 0., 0., 0., 0., 0., 0., 0.,
          1.92307692e-03, 2.69230772e-02, 0., 0., 1.92307699e-02,
          1.34615386e-02, 0., 3.84615399e-02, 5.76923089e-03,
          1.15384618e-02, 1.15384618e-02, 0., 0., 2.30769236e-02,
          1.73076931e-02, 1.73076931e-02, 0., 1.53846154e-02,
          3.84615385e-03, 1.73076931e-02, 0., 9.61538497e-03,
          2.11538468e-02, 1.34615386e-02, 7.69230770e-03, 0.,
          1.92307692e-03, 0., 1.92307692e-03, 2.50000004e-02,
          2.30769236e-02, 7.69230770e-03, 0., 3.84615385e-03, 0.,
          5.76923089e-03, 1.92307699e-02, 1.92307692e-03, 9.61538497e-03,
          5.76923089e-03, 8.46153870e-02, 1.82692304e-01, 0.,
          5.76923089e-03, 0., 1.92307692e-03, 3.07692308e-02,
          1.92307692e-03, 5.76923089e-03, 9.61538497e-03, 5.76923089e-03,
          0., 5.76923089e-03, 9.61538497e-03, 0., 0., 0., 0.,
          1.15384618e-02, 1.92307692e-03, 1.92307699e-02, 3.84615385e-03,
          3.84615385e-03, 1.15384618e-02, 0., 1.15384618e-02,
          3.84615385e-03, 9.61538497e-03, 1.34615386e-02, 0.,
          3.84615385e-03, 3.84615385e-03, 1.15384618e-02, 0.,
          1.92307692e-03, 0., 0., 0., 3.84615385e-03, 0., 0., 0.,
          1.15384618e-02, 5.76923089e-03, 0., 0., 0., 0., 9.61538497e-03,
          0., 0., 7.69230770e-03, 1.92307692e-03, 2.69230772e-02, 0.,
          4.23076935e-02, 5.76923089e-03, 0., 0., 1.92307692e-03,
          1.73076931e-02, 3.84615385e-03, 0., 0., 1.92307692e-03,
          1.92307692e-03, 0., 0., 5.76923089e-03, 0., 5.76923089e-03,
          1.92307692e-03, 1.92307692e-03, 0., 0., 0., 0., 1.92307692e-03,
          1.92307692e-03, 0., 0., 0., 0., 0., 0., 0., 0., 0., 0., 0., 0.,
          0., 1.92307692e-03, 0., 0., 0., 0., 0., 0., 0., 0., 0., 0., 0.,
          0., 0., 0., 0., 0., 0., 2.38663494e-03, 3.10262535e-02, 0., 0.,
          2.38663498e-02, 1.19331749e-02, 0., 2.14797147e-02,
          2.38663494e-03, 2.38663494e-03, 1.43198092e-02, 0., 0.,
          4.77326987e-03, 3.81861590e-02, 1.90930795e-02, 0.,
          3.10262535e-02, 4.77326987e-03, 1.67064443e-02, 2.38663494e-03,
          4.05727923e-02, 9.54653975e-03, 4.77326987e-03, 4.77326987e-03,
          0., 2.38663494e-03, 0., 2.38663494e-03, 5.48926033e-02,
          7.15990458e-03, 2.14797147e-02, 0., 2.38663494e-03, 0.,
          2.38663494e-03, 1.67064443e-02, 2.38663494e-03, 9.54653975e-03,
          9.54653975e-03, 1.38424829e-01, 1.00238666e-01, 0.,
          2.38663494e-03, 0., 0., 3.10262535e-02, 0., 1.19331749e-02,
          9.54653975e-03, 7.15990458e-03, 0., 2.38663494e-03,
          7.15990458e-03, 0., 4.77326987e-03, 0., 0., 1.19331749e-02,
          1.43198092e-02, 9.54653975e-03, 2.38663494e-03, 7.15990458e-03,
          2.38663494e-03, 9.54653975e-03, 4.77326987e-03, 4.77326987e-03,
          4.77326987e-03, 1.19331749e-02, 2.38663494e-03, 2.38663494e-03,
          0., 4.77326987e-03, 0., 4.77326987e-03, 2.38663494e-03,
          7.15990458e-03, 0., 0., 0., 0., 0., 4.77326987e-03, 0.,
          2.38663494e-03, 0., 0., 0., 7.15990458e-03, 0., 1.90930795e-02,
          2.38663494e-03, 0., 3.57995257e-02, 0., 1.43198092e-02, 0., 0.,
          0., 0., 3.10262535e-02, 4.77326987e-03, 4.77326987e-03, 0.,
          2.38663494e-03, 0., 0., 0., 1.43198092e-02, 2.38663494e-03,
          2.38663494e-03, 0., 4.77326987e-03, 0., 0., 0., 0., 0., 0., 0.,
          0., 0., 0., 0., 0., 0., 0., 4.77326987e-03, 2.38663494e-03, 0.,
          0., 0., 0., 0., 0., 0., 0., 0., 0., 0., 0., 0., 0., 0., 0., 0.,
          0., 0., 0., 0., 3.94477323e-02, 7.88954645e-03, 0.,
          5.52268252e-02, 1.77514795e-02, 1.97238661e-03, 2.95857992e-02,
          0., 9.86193307e-03, 0., 1.97238661e-03, 0., 0., 3.35305706e-02,
          0., 7.88954645e-03, 1.18343197e-02, 1.97238661e-03,
          2.36686394e-02, 5.91715984e-03, 3.94477323e-03, 9.86193307e-03,
          3.94477323e-03, 5.91715984e-03, 0., 2.36686394e-02,
          1.77514795e-02, 1.97238661e-03, 1.97238661e-03, 3.94477323e-03,
          0., 1.97238661e-02, 1.97238661e-03, 3.55029590e-02,
          3.94477323e-03, 0., 1.77514795e-02, 1.97238661e-02,
          1.18343197e-02, 3.94477323e-03, 2.95857992e-02, 2.16962527e-02,
          7.88954645e-03, 3.94477323e-03, 5.91715984e-03, 2.36686394e-02,
          2.95857992e-02, 3.94477323e-03, 3.94477323e-03, 7.88954645e-03,
          2.16962527e-02, 7.88954645e-03, 7.88954645e-03, 1.57790929e-02,
          7.88954645e-03, 5.91715984e-03, 5.91715984e-03, 3.94477323e-02,
          1.38067063e-02, 5.91715984e-03, 1.57790929e-02, 3.94477323e-03,
          0., 1.97238661e-03, 1.97238661e-03, 5.91715984e-03, 0.,
          1.97238661e-03, 1.38067063e-02, 0., 1.18343197e-02,
          1.97238661e-03, 3.94477323e-03, 0., 5.91715984e-03,
          9.86193307e-03, 0., 1.18343197e-02, 1.57790929e-02,
          1.97238661e-03, 3.94477323e-03, 0., 0., 0., 0., 0., 0.,
          1.97238661e-03, 3.94477323e-03, 9.86193307e-03, 1.38067063e-02,
          0., 0., 1.57790929e-02, 3.94477323e-03, 9.86193307e-03,
          5.91715984e-03, 2.16962527e-02, 3.94477323e-03, 0.,
          1.57790929e-02, 1.77514795e-02, 3.94477323e-03, 3.94477323e-03,
          9.86193307e-03, 0., 0., 0., 0., 1.97238661e-03, 0.,
          3.94477323e-03, 3.94477323e-03, 3.94477323e-03, 0., 0., 0.,
          1.97238661e-03, 0., 0., 0., 0., 0., 3.94477323e-03,
          3.94477323e-03, 0., 0., 9.86193307e-03, 0., 0., 0., 0.,
          1.97238661e-03, 0., 0., 0., 0., 0., 0., 0., 0., 3.94477323e-03,
          0., 0., 0., 0., 0., 0., 0., 0., 1.26126129e-02, 2.34234240e-02,
          0., 1.80180185e-03, 2.70270277e-02, 0., 1.62162166e-02, 0.,
          1.80180185e-02, 0., 1.26126129e-02, 7.20720738e-03, 0.,
          2.16216221e-02, 0., 1.80180185e-02, 1.44144148e-02, 0.,
          3.60360369e-03, 1.26126129e-02, 1.44144148e-02, 3.60360369e-03,
          1.26126129e-02, 2.34234240e-02, 0., 0., 1.08108111e-02,
          1.80180185e-03, 3.60360369e-03, 5.40540554e-03, 0.,
          3.60360369e-03, 0., 4.14414406e-02, 0., 2.34234240e-02,
          9.00900923e-03, 1.08108111e-02, 1.98198203e-02, 9.00900923e-03,
          1.02702707e-01, 7.20720738e-02, 5.40540554e-03, 1.44144148e-02,
          5.40540554e-03, 0., 2.34234240e-02, 0., 1.80180185e-03,
          2.88288295e-02, 1.26126129e-02, 1.62162166e-02, 7.20720738e-03,
          1.26126129e-02, 7.20720738e-03, 4.50450480e-02, 0.,
          7.20720738e-03, 0., 1.08108111e-02, 2.16216221e-02, 0., 0.,
          1.26126129e-02, 1.80180185e-03, 1.80180185e-03, 3.60360369e-03,
          3.60360369e-03, 2.70270277e-02, 0., 0., 0., 5.40540554e-03, 0.,
          1.08108111e-02, 3.60360369e-03, 0., 0., 1.26126129e-02,
          1.80180185e-03, 0., 0., 0., 7.20720738e-03, 1.80180185e-03, 0.,
          0., 3.60360369e-03, 1.80180185e-03, 3.60360369e-03,
          5.40540554e-03, 1.80180185e-03, 3.60360369e-03, 2.34234240e-02,
          0., 3.60360369e-03, 3.60360369e-03, 1.80180185e-03, 0., 0., 0.,
          1.26126129e-02, 0., 1.80180185e-03, 1.80180185e-03,
          1.26126129e-02, 0., 1.80180185e-03, 0., 7.20720738e-03,
          3.60360369e-03, 0., 1.08108111e-02, 0., 0., 1.80180185e-03, 0.,
          0., 0., 0., 9.00900923e-03, 3.60360369e-03, 0., 1.80180185e-03,
          0., 0., 0., 1.80180185e-03, 1.80180185e-03, 0., 0., 0., 0., 0.,
          0., 0., 1.80180185e-03, 0., 0., 0., 0., 3.60360369e-03, 0., 0.,
          0., 0., 0., 0., 0., 0., 3.08788605e-02, 2.13776734e-02, 0.,
          6.41330183e-02, 1.42517816e-02, 4.75059403e-03, 2.13776734e-02,
          0., 1.42517816e-02, 0., 7.12589081e-03, 0., 0., 4.03800495e-02,
          0., 2.37529702e-03, 1.90023761e-02, 0., 7.12589081e-03,
          9.50118806e-03, 2.61282679e-02, 1.90023761e-02, 2.37529702e-03,
          4.75059403e-03, 0., 1.18764853e-02, 1.42517816e-02,
          2.13776734e-02, 1.18764853e-02, 2.37529702e-03, 0.,
          4.75059403e-03, 0., 9.50118806e-03, 4.75059403e-03, 0.,
          4.75059403e-03, 3.08788605e-02, 2.37529702e-03, 1.42517816e-02,
          9.50118806e-03, 2.37529702e-03, 2.13776734e-02, 7.12589081e-03,
          1.66270789e-02, 9.50118806e-03, 2.37529706e-02, 4.75059403e-03,
          2.37529702e-03, 0., 4.75059403e-03, 4.27553467e-02,
          2.37529702e-03, 1.66270789e-02, 7.12589081e-03, 3.32541578e-02,
          1.18764853e-02, 2.13776734e-02, 1.66270789e-02, 2.37529702e-03,
          7.12589081e-03, 4.75059403e-03, 0., 7.12589081e-03,
          2.37529702e-03, 2.37529702e-03, 0., 4.75059403e-03,
          2.37529702e-03, 0., 9.50118806e-03, 0., 2.37529706e-02, 0.,
          1.42517816e-02, 4.75059403e-03, 0., 4.75059403e-03,
          1.18764853e-02, 0., 2.37529702e-03, 0., 0., 2.37529702e-03,
          2.37529702e-03, 0., 0., 2.37529702e-03, 4.75059403e-03,
          6.41330183e-02, 2.37529702e-03, 0., 7.12589081e-03,
          4.75059403e-03, 0., 0., 0., 4.75059403e-03, 0., 0., 0.,
          4.75059403e-03, 4.75059403e-03, 1.90023761e-02, 1.18764853e-02,
          1.42517816e-02, 0., 0., 2.37529702e-03, 7.12589081e-03,
          4.75059403e-03, 2.37529702e-03, 0., 1.18764853e-02, 0.,
          4.75059403e-03, 0., 0., 0., 0., 0., 0., 0., 0., 2.37529702e-03,
          0., 0., 7.12589081e-03, 2.37529702e-03, 2.37529702e-03, 0.,
          2.37529702e-03, 0., 0., 0., 0., 0., 0., 0., 0., 0., 0., 0., 0.,
          0., 0., 0., 0., 0., 0., 2.13464703e-02, 1.97044332e-02,
          1.64203614e-03, 0., 2.62725782e-02, 6.56814454e-03,
          2.95566507e-02, 0., 2.29885057e-02, 1.64203614e-03,
          1.47783253e-02, 4.92610829e-03, 0., 1.80623978e-02, 0.,
          4.92610829e-03, 4.76190485e-02, 0., 1.47783253e-02,
          1.47783253e-02, 1.80623978e-02, 1.64203614e-03, 3.44827585e-02,
          1.47783253e-02, 0., 4.92610829e-03, 1.80623978e-02,
          3.94088663e-02, 8.21018033e-03, 3.28407227e-03, 0.,
          1.14942528e-02, 1.64203614e-03, 3.94088663e-02, 1.64203614e-03,
          0., 1.47783253e-02, 2.13464703e-02, 6.56814454e-03,
          6.56814454e-03, 8.21018070e-02, 2.13464703e-02, 3.28407227e-03,
          8.21018033e-03, 1.14942528e-02, 3.28407227e-03, 1.97044332e-02,
          3.28407227e-03, 3.28407227e-03, 1.47783253e-02, 4.92610829e-03,
          4.92610829e-03, 6.56814454e-03, 1.64203607e-02, 2.95566507e-02,
          1.47783253e-02, 1.80623978e-02, 1.64203614e-03, 0.,
          3.28407227e-03, 1.14942528e-02, 1.14942528e-02, 1.64203614e-03,
          4.92610829e-03, 6.56814454e-03, 1.47783253e-02, 0.,
          6.56814454e-03, 1.47783253e-02, 0., 9.85221658e-03,
          1.64203614e-03, 6.56814454e-03, 0., 1.14942528e-02,
          1.64203614e-03, 1.64203614e-03, 0., 6.56814454e-03, 0.,
          1.64203614e-03, 0., 0., 8.21018033e-03, 1.64203614e-03,
          1.64203614e-03, 0., 1.64203614e-03, 0., 3.11986860e-02, 0., 0.,
          0., 4.92610829e-03, 1.64203614e-03, 1.31362891e-02,
          3.28407227e-03, 3.28407227e-03, 0., 0., 0., 3.28407227e-03,
          1.64203614e-03, 3.28407227e-03, 0., 8.21018033e-03, 0., 0.,
          1.64203614e-03, 4.92610829e-03, 1.64203614e-03, 4.92610829e-03,
          0., 1.64203614e-03, 0., 1.64203614e-03, 0., 0., 0., 0., 0., 0.,
          0., 6.56814454e-03, 3.28407227e-03, 0., 0., 4.92610829e-03, 0.,
          0., 0., 0., 0., 0., 0., 0., 0., 0., 1.64203614e-03, 0., 0., 0.,
          0., 0., 0., 0., 0., 0., 0., 0., 2.38532107e-02, 9.17431153e-03,
          1.83486240e-03, 1.83486240e-03, 2.20183488e-02, 9.17431153e-03,
          1.65137611e-02, 1.83486240e-03, 5.50458720e-03, 1.83486240e-03,
          2.01834869e-02, 0., 0., 1.10091744e-02, 0., 1.28440373e-02,
          1.65137611e-02, 5.50458720e-03, 2.93577984e-02, 1.65137611e-02,
          2.56880745e-02, 2.93577984e-02, 3.66972480e-03, 1.10091744e-02,
          0., 3.66972480e-03, 1.10091744e-02, 0., 9.17431153e-03,
          2.38532107e-02, 0., 1.10091744e-02, 0., 2.75229365e-02, 0., 0.,
          1.10091744e-02, 1.10091744e-02, 5.50458720e-03, 7.33944960e-03,
          1.15596332e-01, 6.78899065e-02, 1.65137611e-02, 5.50458720e-03,
          1.83486240e-03, 0., 2.38532107e-02, 1.46788992e-02, 0.,
          7.33944960e-03, 1.10091744e-02, 1.83486231e-02, 1.28440373e-02,
          9.17431153e-03, 5.50458720e-03, 7.33944960e-03, 0.,
          1.83486240e-03, 1.46788992e-02, 2.01834869e-02, 5.50458720e-03,
          1.10091744e-02, 9.17431153e-03, 7.33944960e-03, 3.66972480e-03,
          1.10091744e-02, 0., 1.83486240e-03, 1.10091744e-02, 0.,
          7.33944960e-03, 1.83486240e-03, 2.01834869e-02, 0.,
          5.50458720e-03, 3.66972480e-03, 1.83486240e-03, 0.,
          1.10091744e-02, 1.83486240e-03, 0., 0., 0., 1.83486240e-03,
          1.83486240e-03, 0., 0., 1.83486240e-03, 0., 1.83486240e-03,
          5.50458720e-03, 1.83486240e-03, 7.33944960e-03, 2.93577984e-02,
          0., 5.50458720e-03, 3.66972480e-03, 1.83486240e-03, 0., 0.,
          9.17431153e-03, 3.66972480e-03, 0., 1.28440373e-02,
          3.66972480e-03, 3.66972480e-03, 0., 1.83486240e-03,
          1.83486240e-03, 7.33944960e-03, 7.33944960e-03, 3.66972480e-03,
          1.83486240e-03, 0., 0., 3.66972480e-03, 0., 0., 0., 0., 0., 0.,
          0., 0., 7.33944960e-03, 0., 0., 5.50458720e-03, 0., 0., 0., 0.,
          0., 0., 0., 0., 0., 0., 0., 0., 0., 0., 0., 0., 0., 0., 0., 0.,
          0., 0., 1.07913669e-02, 1.43884895e-02, 0., 7.19424477e-03,
          2.15827338e-02, 1.07913669e-02, 7.19424477e-03, 0.,
          1.25899287e-02, 0., 2.33812947e-02, 0., 0., 2.51798574e-02, 0.,
          5.39568346e-03, 4.49640304e-02, 0., 2.33812947e-02,
          3.23741026e-02, 2.33812947e-02, 1.79856122e-02, 7.19424477e-03,
          0., 0., 1.79856119e-03, 7.19424477e-03, 0., 1.97841730e-02,
          5.39568346e-03, 0., 2.15827338e-02, 0., 2.69784182e-02, 0., 0.,
          2.87769791e-02, 7.19424477e-03, 3.59712238e-03, 1.61870513e-02,
          9.53237414e-02, 5.03597148e-02, 5.39568346e-03, 3.59712238e-03,
          0., 1.79856119e-03, 3.41726616e-02, 1.79856122e-02,
          5.39568346e-03, 1.79856119e-03, 1.79856122e-02, 7.19424477e-03,
          7.19424477e-03, 1.61870513e-02, 1.79856122e-02, 3.59712238e-03,
          7.19424477e-03, 5.39568346e-03, 1.79856119e-03, 1.79856119e-03,
          1.25899287e-02, 1.43884895e-02, 0., 7.19424477e-03,
          8.99280608e-03, 1.25899287e-02, 5.39568346e-03, 1.43884895e-02,
          3.59712238e-03, 0., 1.07913669e-02, 1.79856119e-03,
          5.39568346e-03, 0., 7.19424477e-03, 1.79856119e-03, 0.,
          1.79856119e-03, 1.61870513e-02, 3.59712238e-03, 3.59712238e-03,
          0., 0., 7.19424477e-03, 1.79856119e-03, 0., 0., 0., 0., 0.,
          1.79856119e-03, 5.39568346e-03, 5.39568346e-03, 1.97841730e-02,
          0., 3.59712238e-03, 5.39568346e-03, 1.79856119e-03, 0., 0.,
          5.39568346e-03, 2.15827338e-02, 0., 0., 1.25899287e-02,
          1.79856119e-03, 0., 5.39568346e-03, 0., 1.79856119e-03, 0.,
          1.79856119e-03, 7.19424477e-03, 0., 0., 3.59712238e-03, 0.,
          5.39568346e-03, 0., 0., 0., 0., 0., 3.59712238e-03, 0., 0., 0.,
          7.19424477e-03, 1.79856119e-03, 3.59712238e-03, 0., 0.,
          3.59712238e-03, 0., 0., 0., 0., 0., 1.79856119e-03, 0., 0., 0.,
          0., 0., 0., 0., 0., 0., 0., 0., 6.63349917e-03, 6.63349917e-03,
          6.63349917e-03, 2.15588715e-02, 5.14096171e-02, 4.97512426e-03,
          2.98507456e-02, 6.63349917e-03, 4.31177430e-02, 1.65837479e-03,
          6.63349917e-03, 3.31674959e-03, 0., 8.29187408e-03,
          1.65837479e-03, 0., 2.48756222e-02, 1.65837479e-03,
          1.32669983e-02, 6.63349917e-03, 2.15588715e-02, 9.95024852e-03,
          3.31674959e-03, 1.65837479e-03, 0., 2.15588715e-02,
          1.99004970e-02, 4.31177430e-02, 9.95024852e-03, 1.32669983e-02,
          0., 4.97512426e-03, 1.16086239e-02, 5.63847423e-02,
          3.31674959e-03, 0., 8.29187408e-03, 1.16086239e-02,
          1.65837479e-03, 3.31674959e-03, 2.98507456e-02, 3.48258689e-02,
          4.31177430e-02, 6.63349917e-03, 1.32669983e-02, 1.16086239e-02,
          1.65837482e-02, 1.65837479e-03, 1.65837479e-03, 1.65837479e-03,
          8.29187408e-03, 2.81923711e-02, 8.29187408e-03, 1.32669983e-02,
          6.63349917e-03, 2.15588715e-02, 1.32669983e-02, 1.32669983e-02,
          3.31674959e-03, 3.31674959e-03, 6.63349917e-03, 4.97512426e-03,
          3.31674959e-03, 1.65837479e-03, 0., 0., 1.65837479e-03,
          6.63349917e-03, 1.16086239e-02, 3.31674959e-03, 3.31674959e-03,
          1.65837479e-03, 9.95024852e-03, 0., 8.29187408e-03, 0., 0.,
          6.63349917e-03, 3.31674959e-03, 1.65837479e-03, 1.65837479e-03,
          0., 1.65837479e-03, 3.31674959e-03, 0., 1.65837479e-03, 0.,
          6.63349917e-03, 3.31674959e-03, 6.63349917e-03, 0.,
          1.65837479e-03, 4.97512426e-03, 4.97512426e-03, 6.63349917e-03,
          1.49253728e-02, 0., 1.16086239e-02, 0., 0., 0., 0.,
          1.65837479e-03, 1.32669983e-02, 1.65837479e-03, 1.49253728e-02,
          0., 3.31674959e-03, 0., 0., 0., 1.65837479e-03, 0.,
          3.15091200e-02, 1.65837479e-03, 3.31674959e-03, 0., 0., 0.,
          3.31674959e-03, 0., 0., 0., 0., 0., 0., 0., 0., 1.65837479e-03,
          0., 0., 0., 0., 0., 0., 0., 0., 0., 0., 0., 3.31674959e-03,
          3.31674959e-03, 0., 0., 0., 0., 0., 0., 0., 0., 4.02684603e-03,
          2.81879213e-02, 2.68456386e-03, 0., 1.47651015e-02,
          9.39597376e-03, 2.01342292e-02, 0., 3.48993316e-02,
          2.68456386e-03, 5.36912773e-03, 1.47651015e-02, 2.68456386e-03,
          2.95302030e-02, 0., 1.34228193e-03, 8.05369206e-03,
          1.34228193e-03, 2.41610743e-02, 2.55033560e-02, 2.55033560e-02,
          2.14765109e-02, 8.05369206e-03, 1.47651015e-02, 0., 0.,
          2.14765109e-02, 5.36912773e-03, 2.81879213e-02, 2.01342292e-02,
          0., 2.28187926e-02, 0., 4.02684603e-03, 0., 0., 2.14765109e-02,
          6.71140943e-03, 6.71140943e-03, 2.81879213e-02, 0.,
          2.01342292e-02, 1.87919475e-02, 6.71140943e-03, 1.34228193e-03,
          0., 3.62416133e-02, 5.36912773e-03, 1.74496658e-02,
          1.47651015e-02, 6.71140943e-03, 1.87919475e-02, 2.01342292e-02,
          4.29530218e-02, 1.87919475e-02, 1.34228189e-02, 1.34228193e-03,
          0., 2.28187926e-02, 1.34228189e-02, 1.34228189e-02,
          2.28187926e-02, 0., 1.07382555e-02, 5.36912773e-03,
          8.05369206e-03, 2.68456386e-03, 1.74496658e-02, 9.39597376e-03,
          0., 4.02684603e-03, 1.07382555e-02, 6.71140943e-03,
          1.34228193e-03, 1.07382555e-02, 4.02684603e-03, 0., 0.,
          2.68456386e-03, 4.02684603e-03, 4.02684603e-03, 2.68456386e-03,
          0., 5.36912773e-03, 4.02684603e-03, 0., 0., 1.34228193e-03, 0.,
          1.34228193e-03, 6.71140943e-03, 1.34228193e-03, 6.71140943e-03,
          9.39597376e-03, 0., 0., 6.71140943e-03, 0., 0., 0.,
          4.02684603e-03, 1.47651015e-02, 4.02684603e-03, 0.,
          4.02684603e-03, 5.36912773e-03, 0., 2.68456386e-03,
          4.02684603e-03, 1.34228193e-03, 0., 1.34228193e-03,
          2.68456386e-03, 1.34228193e-03, 0., 1.34228193e-03, 0.,
          5.36912773e-03, 0., 0., 0., 2.68456386e-03, 0., 4.02684603e-03,
          0., 0., 0., 4.02684603e-03, 0., 1.34228193e-03, 0., 0.,
          2.68456386e-03, 0., 0., 0., 0., 1.34228193e-03, 0.,
          2.68456386e-03, 0., 0., 1.34228193e-03, 0., 0., 0., 0., 0., 0.,
          0., 2.86944043e-02, 1.00430418e-02, 2.86944048e-03, 0.,
          1.72166433e-02, 1.72166433e-02, 2.86944048e-03, 0.,
          7.17360107e-03, 0., 1.14777619e-02, 1.86513625e-02, 0.,
          1.29124820e-02, 0., 7.17360107e-03, 1.72166433e-02,
          1.43472024e-03, 1.29124820e-02, 2.00860836e-02, 1.00430418e-02,
          1.43472021e-02, 3.44332866e-02, 2.86944048e-03, 0.,
          4.30416083e-03, 1.86513625e-02, 1.43472024e-03, 1.72166433e-02,
          1.14777619e-02, 0., 2.72596851e-02, 0., 4.87804897e-02, 0., 0.,
          8.60832166e-03, 1.57819223e-02, 5.73888095e-03, 1.14777619e-02,
          7.17360154e-02, 3.73027250e-02, 5.73888095e-03, 7.17360107e-03,
          2.86944048e-03, 0., 3.01291253e-02, 5.73888095e-03,
          1.00430418e-02, 2.86944048e-03, 7.17360107e-03, 7.17360107e-03,
          2.15208028e-02, 2.43902449e-02, 3.44332866e-02, 1.43472024e-03,
          0., 0., 4.30416083e-03, 2.86944048e-03, 1.57819223e-02,
          2.72596851e-02, 1.43472024e-03, 5.73888095e-03, 1.43472021e-02,
          4.30416083e-03, 1.43472024e-03, 1.43472021e-02, 2.86944048e-03,
          0., 8.60832166e-03, 1.14777619e-02, 1.43472021e-02, 0.,
          2.86944048e-03, 1.43472024e-03, 0., 0., 1.57819223e-02, 0.,
          8.60832166e-03, 0., 0., 1.00430418e-02, 0., 4.30416083e-03, 0.,
          4.30416083e-03, 5.73888095e-03, 0., 5.73888095e-03,
          4.30416083e-03, 5.73888095e-03, 2.43902449e-02, 1.43472024e-03,
          7.17360107e-03, 5.73888095e-03, 0., 0., 0., 1.43472024e-03,
          1.57819223e-02, 2.86944048e-03, 1.43472024e-03, 4.30416083e-03,
          5.73888095e-03, 0., 4.30416083e-03, 0., 1.43472024e-03, 0.,
          1.43472024e-03, 2.86944048e-03, 0., 0., 0., 0., 4.30416083e-03,
          0., 0., 0., 0., 0., 0., 2.86944048e-03, 0., 0., 1.00430418e-02,
          0., 2.86944048e-03, 0., 1.43472024e-03, 4.30416083e-03, 0., 0.,
          0., 0., 1.43472024e-03, 0., 0., 0., 1.43472024e-03,
          2.86944048e-03, 0., 0., 0., 0., 0., 0., 0., 5.51876379e-03,
          2.42825598e-02, 0., 0., 5.51876379e-03, 1.21412799e-02,
          9.93377529e-03, 2.20750552e-03, 2.09713019e-02, 7.72626931e-03,
          2.20750552e-03, 1.98675506e-02, 0., 3.75275947e-02,
          3.31125828e-03, 9.93377529e-03, 1.10375276e-03, 2.75938194e-02,
          1.98675506e-02, 3.20088305e-02, 3.53200883e-02, 1.54525386e-02,
          9.93377529e-03, 1.10375276e-02, 0., 0., 6.62251655e-03,
          1.87637974e-02, 3.75275947e-02, 1.21412799e-02, 6.62251655e-03,
          2.42825598e-02, 0., 6.62251655e-03, 0., 0., 3.31125818e-02,
          4.41501103e-03, 1.10375276e-02, 1.21412799e-02, 1.10375276e-03,
          4.41501103e-03, 2.31788084e-02, 7.72626931e-03, 1.10375276e-02,
          0., 2.53863130e-02, 4.41501103e-03, 1.10375276e-03,
          1.32450331e-02, 6.62251655e-03, 1.10375276e-03, 2.09713019e-02,
          3.42163369e-02, 1.21412799e-02, 1.21412799e-02, 0., 0.,
          1.10375276e-03, 7.72626931e-03, 1.54525386e-02, 1.21412799e-02,
          7.72626931e-03, 1.32450331e-02, 1.32450331e-02, 1.87637974e-02,
          4.41501103e-03, 1.76600441e-02, 9.93377529e-03, 0.,
          1.10375276e-02, 7.72626931e-03, 1.32450331e-02, 3.31125828e-03,
          5.51876379e-03, 3.31125828e-03, 3.31125828e-03, 0.,
          4.41501103e-03, 0., 2.20750552e-03, 0., 0., 1.21412799e-02,
          8.83002207e-03, 0., 0., 2.20750552e-03, 7.72626931e-03,
          1.10375276e-03, 5.51876379e-03, 6.62251655e-03, 4.41501103e-03,
          2.20750552e-03, 0., 0., 1.10375276e-02, 0., 0., 0.,
          3.31125828e-03, 3.31125818e-02, 4.41501103e-03, 0.,
          4.41501103e-03, 4.41501103e-03, 0., 3.31125828e-03,
          6.62251655e-03, 1.10375276e-03, 2.20750552e-03, 1.10375276e-03,
          4.41501103e-03, 0., 0., 4.41501103e-03, 0., 5.51876379e-03, 0.,
          0., 0., 3.31125828e-03, 0., 2.20750552e-03, 3.31125828e-03, 0.,
          0., 6.62251655e-03, 0., 1.10375276e-03, 0., 0., 1.10375276e-03,
          0., 0., 0., 0., 0., 0., 0., 0., 0., 1.10375276e-03, 0., 0., 0.,
          0., 0., 0., 0., 3.44827585e-02, 1.29310340e-02, 0.,
          4.31034481e-03, 8.62068962e-03, 4.31034481e-03, 1.07758623e-02,
          0., 1.29310340e-02, 0., 1.50862066e-02, 6.46551698e-03, 0.,
          1.93965510e-02, 0., 0., 2.80172415e-02, 0., 1.29310340e-02,
          1.07758623e-02, 1.72413792e-02, 1.72413792e-02, 2.15517241e-03,
          1.07758623e-02, 0., 2.58620679e-02, 8.62068962e-03,
          4.31034481e-03, 8.62068962e-03, 6.46551698e-03, 0.,
          1.07758623e-02, 0., 4.74137925e-02, 0., 2.15517241e-03,
          1.50862066e-02, 4.52586189e-02, 1.72413792e-02, 8.62068962e-03,
          4.31034490e-02, 1.50862066e-02, 2.37068962e-02, 1.50862066e-02,
          2.58620679e-02, 2.15517241e-03, 2.37068962e-02, 6.46551698e-03,
          4.31034481e-03, 8.62068962e-03, 8.62068962e-03, 3.87931019e-02,
          1.29310340e-02, 1.72413792e-02, 1.07758623e-02, 1.93965510e-02,
          6.46551698e-03, 4.31034481e-03, 1.07758623e-02, 2.15517241e-03,
          1.93965510e-02, 1.07758623e-02, 0., 6.46551698e-03, 0.,
          8.62068962e-03, 0., 8.62068962e-03, 2.15517245e-02, 0.,
          8.62068962e-03, 4.31034481e-03, 8.62068962e-03, 0.,
          4.31034481e-03, 2.15517241e-03, 0., 2.15517241e-03,
          1.93965510e-02, 0., 0., 0., 0., 8.62068962e-03, 4.31034481e-03,
          0., 0., 0., 2.15517241e-03, 0., 2.15517241e-03, 4.31034481e-03,
          2.15517241e-03, 1.29310340e-02, 2.15517241e-03, 1.07758623e-02,
          2.15517241e-03, 1.29310340e-02, 0., 0., 4.31034481e-03,
          1.50862066e-02, 0., 6.46551698e-03, 0., 4.31034481e-03, 0.,
          2.15517241e-03, 2.15517241e-03, 6.46551698e-03, 2.15517241e-03,
          2.15517241e-03, 4.31034481e-03, 2.15517241e-03, 0.,
          4.31034481e-03, 0., 0., 0., 0., 0., 0., 0., 2.15517241e-03, 0.,
          0., 0., 6.46551698e-03, 0., 0., 0., 0., 0., 0., 0., 0., 0., 0.,
          0., 0., 0., 1.72413792e-02, 0., 0., 0., 0., 0., 0., 0., 0.,
          1.12866815e-02, 2.03160271e-02, 4.51467279e-03, 0.,
          1.80586912e-02, 4.51467279e-03, 0., 2.25733640e-03,
          4.51467279e-03, 4.51467279e-03, 6.77200919e-03, 0.,
          4.51467279e-03, 2.03160271e-02, 0., 6.77200919e-03,
          2.25733640e-03, 4.51467279e-03, 1.12866815e-02, 2.70880368e-02,
          9.02934559e-03, 2.93453727e-02, 9.02934559e-03, 1.58013552e-02,
          4.51467279e-03, 2.25733640e-03, 4.51467279e-03, 0.,
          4.51467279e-03, 2.70880368e-02, 2.25733640e-03, 1.12866815e-02,
          0., 6.77200919e-03, 0., 0., 2.03160271e-02, 0., 1.12866815e-02,
          4.51467279e-03, 1.39954850e-01, 1.03837475e-01, 0.,
          1.12866815e-02, 4.51467279e-03, 0., 2.93453727e-02,
          1.35440184e-02, 2.25733640e-03, 4.06320542e-02, 9.02934559e-03,
          4.51467279e-03, 1.35440184e-02, 2.25733630e-02, 2.25733640e-03,
          2.25733640e-03, 0., 2.25733640e-03, 2.25733640e-03,
          9.02934559e-03, 1.35440184e-02, 4.51467279e-03, 1.58013552e-02,
          9.02934559e-03, 2.25733640e-03, 1.12866815e-02, 2.25733640e-03,
          1.35440184e-02, 2.70880368e-02, 0., 6.77200919e-03,
          2.25733640e-03, 1.58013552e-02, 0., 2.25733640e-03,
          4.51467279e-03, 0., 0., 1.80586912e-02, 0., 0., 0.,
          2.25733640e-03, 0., 0., 0., 0., 0., 0., 0., 9.02934559e-03,
          4.51467279e-03, 4.51467279e-03, 6.77200919e-03, 0.,
          2.25733640e-03, 1.58013552e-02, 0., 0., 0., 1.58013552e-02,
          6.77200919e-03, 4.51467279e-03, 0., 6.77200919e-03,
          6.77200919e-03, 0., 6.77200919e-03, 2.25733640e-03,
          2.25733640e-03, 4.51467279e-03, 2.25733640e-03, 6.77200919e-03,
          0., 0., 2.25733640e-03, 0., 0., 0., 0., 0., 2.25733640e-03, 0.,
          0., 4.51467279e-03, 0., 0., 0., 0., 0., 0., 0., 0., 0., 0., 0.,
          0., 0., 2.25733640e-03, 0., 0., 0., 0., 0., 0., 0., 0., 0., 0.,
          0., 4.32432443e-02, 1.35135138e-02, 0., 7.83783793e-02,
          1.89189203e-02, 5.40540554e-03, 8.10810830e-03, 0.,
          2.70270277e-03, 0., 3.51351351e-02, 0., 0., 2.16216221e-02, 0.,
          5.40540554e-03, 2.43243240e-02, 2.70270277e-03, 1.35135138e-02,
          1.62162166e-02, 5.40540554e-03, 8.10810830e-03, 8.10810830e-03,
          2.70270277e-03, 0., 2.97297314e-02, 1.62162166e-02,
          2.70270277e-03, 2.70270277e-03, 0., 2.70270277e-03,
          8.10810830e-03, 2.70270277e-03, 3.51351351e-02, 2.70270277e-03,
          0., 1.89189203e-02, 1.08108111e-02, 5.40540554e-03,
          1.62162166e-02, 5.40540554e-02, 1.08108111e-02, 1.35135138e-02,
          5.40540554e-03, 8.10810830e-03, 2.70270277e-03, 1.62162166e-02,
          8.10810830e-03, 5.40540554e-03, 8.10810830e-03, 5.40540554e-03,
          1.08108111e-02, 5.40540554e-03, 8.10810830e-03, 5.40540554e-03,
          5.40540554e-03, 8.10810830e-03, 1.62162166e-02, 2.70270277e-03,
          5.40540554e-03, 1.35135138e-02, 2.70270277e-03, 0.,
          1.62162166e-02, 8.10810830e-03, 1.35135138e-02, 0.,
          1.35135138e-02, 2.70270277e-03, 0., 1.62162166e-02,
          2.70270277e-03, 1.08108111e-02, 0., 2.16216221e-02,
          2.70270277e-03, 0., 1.62162166e-02, 3.24324332e-02,
          2.70270277e-03, 8.10810830e-03, 0., 0., 1.08108111e-02,
          2.70270277e-03, 0., 0., 0., 5.40540554e-03, 1.89189203e-02,
          5.40540554e-03, 5.40540554e-03, 8.10810830e-03, 2.70270277e-03,
          0., 1.35135138e-02, 5.40540554e-03, 1.08108111e-02,
          2.70270277e-03, 0., 2.70270277e-03, 0., 0., 8.10810830e-03,
          2.70270277e-03, 2.70270277e-03, 0., 2.70270277e-03,
          2.70270277e-03, 5.40540554e-03, 0., 2.70270277e-03, 0.,
          8.10810830e-03, 0., 0., 0., 2.70270277e-03, 0., 0., 0.,
          2.70270277e-03, 0., 0., 0., 2.70270277e-03, 0., 2.70270277e-03,
          0., 0., 0., 0., 0., 0., 0., 0., 0., 2.70270277e-03, 0., 0., 0.,
          0., 0., 0., 0., 0., 0., 0., 0., 0., 7.73694413e-03,
          3.67504843e-02, 0., 0., 1.16054164e-02, 7.73694413e-03,
          1.93423603e-03, 1.93423610e-02, 2.12765969e-02, 3.86847206e-03,
          3.86847206e-03, 0., 1.35396523e-02, 2.51450688e-02,
          1.35396523e-02, 7.73694413e-03, 7.73694413e-03, 2.90135406e-02,
          1.54738883e-02, 2.32108328e-02, 1.16054164e-02, 1.93423610e-02,
          1.35396523e-02, 1.16054164e-02, 1.93423603e-03, 0.,
          3.86847206e-03, 0., 5.80270821e-03, 1.16054164e-02,
          9.67118051e-03, 7.73694413e-03, 0., 5.80270821e-03, 0., 0.,
          3.48162502e-02, 5.80270821e-03, 7.73694413e-03, 2.12765969e-02,
          5.02901375e-02, 3.09477765e-02, 0., 1.54738883e-02, 0., 0.,
          1.54738883e-02, 1.54738883e-02, 1.16054164e-02, 1.35396523e-02,
          9.67118051e-03, 9.67118051e-03, 1.16054164e-02, 2.12765969e-02,
          1.16054164e-02, 5.80270821e-03, 3.86847206e-03, 0.,
          1.93423603e-03, 1.16054164e-02, 1.93423610e-02, 1.35396523e-02,
          1.93423610e-02, 3.86847206e-03, 9.67118051e-03, 9.67118051e-03,
          5.80270821e-03, 9.67118051e-03, 7.73694413e-03, 5.80270821e-03,
          7.73694413e-03, 5.80270821e-03, 1.35396523e-02, 1.93423603e-03,
          1.93423603e-03, 0., 3.86847206e-03, 0., 1.93423603e-03, 0.,
          3.86847206e-03, 0., 1.35396523e-02, 5.80270821e-03,
          5.80270821e-03, 0., 0., 0., 3.48162502e-02, 1.93423603e-03,
          7.73694413e-03, 5.80270821e-03, 0., 5.80270821e-03, 0.,
          7.73694413e-03, 9.67118051e-03, 0., 0., 0., 1.93423610e-02,
          9.67118051e-03, 5.80270821e-03, 0., 3.86847206e-03,
          7.73694413e-03, 0., 0., 3.86847206e-03, 1.93423603e-03,
          3.86847206e-03, 0., 3.86847206e-03, 1.93423603e-03, 0.,
          1.93423603e-03, 0., 0., 1.93423603e-03, 0., 0., 1.93423603e-03,
          1.93423603e-03, 0., 3.86847206e-03, 0., 0., 9.67118051e-03, 0.,
          0., 0., 0., 3.86847206e-03, 1.93423603e-03, 0., 0.,
          3.86847206e-03, 0., 0., 0., 0., 0., 1.93423603e-03, 0., 0., 0.,
          0., 0., 0., 0., 1.96936540e-02, 1.96936540e-02, 0.,
          6.56455150e-03, 2.40700226e-02, 0., 4.81400453e-02,
          2.18818383e-03, 2.40700226e-02, 1.09409187e-02, 8.75273533e-03,
          0., 4.37636767e-03, 2.18818374e-02, 2.18818383e-03,
          1.09409187e-02, 1.53172873e-02, 6.56455150e-03, 1.09409187e-02,
          6.56455150e-03, 2.18818383e-03, 8.75273533e-03, 4.59518619e-02,
          4.37636767e-03, 1.53172873e-02, 1.53172873e-02, 1.31291030e-02,
          6.56455150e-03, 8.75273533e-03, 1.31291030e-02, 0.,
          6.56455150e-03, 0., 2.40700226e-02, 2.18818383e-03, 0.,
          1.09409187e-02, 1.09409187e-02, 2.18818383e-03, 1.75054707e-02,
          9.84682739e-02, 8.09627995e-02, 1.53172873e-02, 8.75273533e-03,
          2.18818383e-03, 0., 1.96936540e-02, 6.56455150e-03,
          8.75273533e-03, 6.56455150e-03, 2.18818374e-02, 2.62582060e-02,
          2.18818383e-03, 4.37636767e-03, 6.56455150e-03, 1.09409187e-02,
          6.56455150e-03, 8.75273533e-03, 2.18818383e-03, 1.53172873e-02,
          4.37636767e-03, 4.37636767e-03, 2.18818383e-03, 8.75273533e-03,
          8.75273533e-03, 6.56455150e-03, 0., 0., 0., 0., 4.37636767e-03,
          2.18818383e-03, 1.09409187e-02, 0., 4.37636767e-03, 0., 0., 0.,
          2.18818383e-03, 2.18818383e-03, 0., 0., 2.18818383e-03,
          4.37636767e-03, 8.75273533e-03, 4.37636767e-03, 0.,
          2.18818383e-03, 1.31291030e-02, 2.18818383e-03, 2.18818383e-03,
          0., 1.09409187e-02, 8.75273533e-03, 6.56455150e-03, 0., 0., 0.,
          0., 0., 1.53172873e-02, 2.18818383e-03, 0., 8.75273533e-03,
          1.09409187e-02, 1.75054707e-02, 0., 2.18818383e-03, 0., 0., 0.,
          0., 2.18818383e-03, 6.56455150e-03, 0., 0., 0., 0., 0.,
          2.18818383e-03, 0., 0., 0., 0., 0., 0., 0., 2.18818383e-03, 0.,
          0., 0., 0., 0., 0., 0., 0., 0., 0., 0., 0., 0., 0., 0., 0., 0.,
          0., 0., 0., 0., 0., 3.01418435e-02, 1.77304959e-03,
          3.54609918e-03, 4.25531901e-02, 2.65957434e-02, 5.31914877e-03,
          2.12765951e-02, 1.06382975e-02, 5.31914877e-03, 1.24113467e-02,
          2.12765951e-02, 0., 5.31914877e-03, 1.77304959e-03, 0., 0.,
          2.83687934e-02, 3.54609918e-03, 1.77304959e-03, 7.09219836e-03,
          1.77304959e-03, 3.54609918e-03, 1.59574468e-02, 1.77304959e-03,
          1.06382975e-02, 3.90070900e-02, 1.06382975e-02, 5.31914877e-03,
          5.31914877e-03, 5.31914877e-03, 0., 8.86524841e-03,
          1.24113467e-02, 5.49645387e-02, 1.06382975e-02, 3.54609918e-03,
          7.09219836e-03, 8.86524841e-03, 0., 1.59574468e-02,
          7.80141801e-02, 7.44680837e-02, 5.31914877e-03, 1.06382975e-02,
          8.86524841e-03, 8.86524841e-03, 3.54609918e-03, 3.54609918e-03,
          1.77304959e-03, 5.31914877e-03, 1.59574468e-02, 8.86524841e-03,
          0., 5.31914877e-03, 3.54609918e-03, 1.77304959e-03,
          1.06382975e-02, 2.65957434e-02, 8.86524841e-03, 7.09219836e-03,
          7.09219836e-03, 3.54609918e-03, 5.31914877e-03, 3.54609918e-03,
          5.31914877e-03, 1.24113467e-02, 1.77304959e-03, 1.77304959e-03,
          3.54609918e-03, 0., 3.54609918e-03, 1.77304959e-03,
          5.31914877e-03, 0., 3.54609918e-03, 3.54609918e-03,
          5.31914877e-03, 1.59574468e-02, 1.06382975e-02, 3.54609918e-03,
          0., 3.54609918e-03, 7.09219836e-03, 0., 0., 0., 0.,
          5.31914877e-03, 5.31914877e-03, 1.77304968e-02, 7.09219836e-03,
          0., 0., 7.09219836e-03, 8.86524841e-03, 1.95035450e-02,
          1.77304959e-03, 1.77304968e-02, 0., 0., 5.31914877e-03,
          1.77304959e-03, 0., 1.06382975e-02, 1.77304959e-03,
          3.54609918e-03, 0., 1.77304959e-03, 0., 0., 0., 0.,
          5.31914877e-03, 1.24113467e-02, 0., 0., 0., 0., 0.,
          5.31914877e-03, 0., 0., 0., 0., 0., 0., 3.54609918e-03,
          1.77304959e-03, 0., 0., 0., 0., 1.77304959e-03, 0., 0., 0., 0.,
          0., 3.54609918e-03, 0., 0., 3.54609918e-03, 0., 0., 0., 0., 0.,
          0., 0., 0., 1.63132139e-02, 8.15660693e-03, 4.89396416e-03,
          3.09951063e-02, 3.75203937e-02, 3.26264277e-03, 3.91517133e-02,
          3.26264277e-03, 3.58890705e-02, 6.52528554e-03, 1.63132139e-03,
          3.26264277e-03, 0., 1.30505711e-02, 3.26264277e-03, 0.,
          2.61011422e-02, 0., 9.78792831e-03, 4.89396416e-03,
          4.40456793e-02, 3.26264277e-03, 6.52528554e-03, 0.,
          1.63132139e-03, 2.28384994e-02, 2.77324636e-02, 1.95758566e-02,
          1.63132139e-02, 1.63132139e-03, 0., 3.26264277e-03,
          1.30505711e-02, 4.56769988e-02, 1.30505711e-02, 0.,
          1.14192497e-02, 1.14192497e-02, 1.63132139e-03, 6.52528554e-03,
          3.09951063e-02, 4.89396416e-02, 3.26264277e-02, 8.15660693e-03,
          6.52528554e-03, 4.89396416e-03, 1.63132139e-02, 9.78792831e-03,
          1.63132139e-03, 1.63132139e-03, 1.14192497e-02, 2.12071780e-02,
          3.26264277e-03, 1.30505711e-02, 6.52528554e-03, 8.15660693e-03,
          3.26264277e-03, 2.12071780e-02, 1.63132139e-03, 3.26264277e-03,
          9.78792831e-03, 1.14192497e-02, 1.63132139e-03, 8.15660693e-03,
          0., 3.26264277e-03, 0., 9.78792831e-03, 1.63132139e-03, 0.,
          4.89396416e-03, 0., 1.30505711e-02, 0., 9.78792831e-03,
          3.26264277e-03, 0., 3.26264277e-03, 8.15660693e-03,
          4.89396416e-03, 0., 3.26264277e-03, 0., 1.63132139e-03,
          1.63132139e-03, 3.26264277e-03, 0., 8.15660693e-03,
          3.26264277e-03, 4.89396416e-03, 0., 0., 4.89396416e-03,
          4.89396416e-03, 3.26264277e-03, 8.15660693e-03, 1.63132139e-03,
          6.52528554e-03, 1.63132139e-03, 0., 1.63132139e-03,
          9.78792831e-03, 3.26264277e-03, 4.89396416e-03, 1.63132139e-03,
          2.44698208e-02, 1.63132139e-03, 0., 0., 0., 0., 0., 0.,
          2.28384994e-02, 0., 3.26264277e-03, 0., 0., 0., 4.89396416e-03,
          0., 3.26264277e-03, 0., 4.89396416e-03, 0., 0., 1.63132139e-03,
          3.26264277e-03, 0., 0., 0., 0., 1.63132139e-03, 0., 0., 0., 0.,
          0., 0., 1.63132139e-03, 0., 1.63132139e-03, 0., 1.63132139e-03,
          0., 0., 0., 0., 0., 0., 1.49532715e-02, 1.68224312e-02,
          3.73831787e-03, 0., 1.68224312e-02, 3.73831787e-03,
          3.17757018e-02, 1.86915894e-03, 7.47663574e-03, 0.,
          1.12149538e-02, 7.47663574e-03, 0., 9.34579503e-03,
          1.86915894e-03, 7.47663574e-03, 3.73831787e-03, 7.47663574e-03,
          1.30841127e-02, 2.42990665e-02, 0., 3.73831787e-03,
          1.49532715e-02, 1.30841127e-02, 0., 0., 3.73831787e-03,
          3.73831787e-03, 5.60747692e-03, 2.05607489e-02, 1.86915894e-03,
          3.36448625e-02, 0., 1.49532715e-02, 0., 3.73831787e-03,
          1.49532715e-02, 1.30841127e-02, 1.12149538e-02, 1.30841127e-02,
          1.38317764e-01, 1.08411215e-01, 5.60747692e-03, 3.73831787e-03,
          1.86915894e-03, 0., 2.42990665e-02, 1.12149538e-02,
          1.49532715e-02, 1.49532715e-02, 7.47663574e-03, 1.86915894e-03,
          1.30841127e-02, 1.30841127e-02, 1.12149538e-02, 0., 0.,
          5.60747692e-03, 3.73831787e-03, 9.34579503e-03, 1.49532715e-02,
          7.47663574e-03, 7.47663574e-03, 7.47663574e-03, 7.47663574e-03,
          7.47663574e-03, 1.86915894e-03, 5.60747692e-03, 1.12149538e-02,
          1.86915894e-03, 5.60747692e-03, 7.47663574e-03, 5.60747692e-03,
          3.73831787e-03, 3.73831787e-03, 5.60747692e-03, 0., 0.,
          1.30841127e-02, 1.86915894e-03, 0., 0., 0., 0., 3.73831787e-03,
          0., 0., 0., 5.60747692e-03, 1.86915894e-03, 1.12149538e-02,
          1.30841127e-02, 1.86915894e-03, 2.42990665e-02, 0.,
          9.34579503e-03, 0., 0., 0., 0., 2.24299077e-02, 1.12149538e-02,
          1.86915894e-03, 0., 3.73831787e-03, 3.73831787e-03, 0.,
          1.86915894e-03, 3.73831787e-03, 0., 1.86915894e-03, 0.,
          3.73831787e-03, 0., 0., 3.73831787e-03, 0., 0., 0., 0., 0., 0.,
          0., 0., 0., 0., 1.86915894e-03, 0., 0., 1.86915894e-03, 0., 0.,
          1.86915894e-03, 0., 0., 0., 1.86915894e-03, 0., 0., 0., 0., 0.,
          0., 0., 0., 0., 0., 0., 0., 0. ]
   responses: !!opencv-matrix
      rows: 40
      cols: 1
      dt: f
      data: [ 0., 0., 0., 0., 0., 0., 0., 0., 0., 0., 0., 0., 0., 0., 0.,
          0., 0., 0., 0., 0., 1., 1., 1., 1., 1., 1., 1., 1., 1., 1., 1.,
          1., 1., 1., 1., 1., 1., 1., 1., 1. ]
