%YAML:1.0
---
opencv_ml_knn:
   format: 3
   is_classifier: 1
   default_k: 2
   samples: !!opencv-matrix
      rows: 40
      cols: 150
      dt: f
      data: [ 1.32450331e-02, 2.64900662e-02, 3.31125818e-02,
          1.32450331e-02, 0., 0., 0., 0., 1.32450331e-02, 0.,
          6.62251655e-03, 2.64900662e-02, 1.32450331e-02, 1.98675506e-02,
          0., 0., 5.29801324e-02, 0., 6.62251655e-03, 6.62251655e-03,
          3.97351012e-02, 6.62251655e-03, 3.31125818e-02, 6.62251655e-03,
          6.62251655e-03, 3.31125818e-02, 1.98675506e-02, 0.,
          2.64900662e-02, 1.32450331e-02, 1.98675506e-02, 6.62251655e-03,
          0., 0., 1.32450331e-02, 0., 0., 1.98675506e-02, 2.64900662e-02,
          0., 6.62251655e-03, 0., 2.64900662e-02, 0., 0., 6.62251655e-03,
          1.32450331e-02, 1.98675506e-02, 1.98675506e-02, 1.32450331e-02,
          1.98675506e-02, 6.62251655e-03, 1.98675506e-02, 0., 0.,
          6.62251655e-03, 0., 3.97351012e-02, 0., 1.98675506e-02, 0., 0.,
          1.32450331e-02, 1.32450331e-02, 0., 0., 1.32450331e-02, 0.,
          6.62251655e-03, 6.62251655e-03, 1.98675506e-02, 0., 0.,
          1.32450331e-02, 0., 1.98675506e-02, 3.31125818e-02,
          1.98675506e-02, 1.32450331e-02, 0., 0., 6.62251655e-03, 0., 0.,
          1.32450331e-02, 0., 1.32450331e-02, 0., 0., 0., 0., 0., 0., 0.,
          6.62251655e-03, 0., 6.62251655e-03, 0., 0., 0., 0.,
          6.62251655e-03, 0., 0., 6.62251655e-03, 0., 0., 0., 0., 0., 0.,
          0., 0., 0., 6.62251655e-03, 1.32450331e-02, 0., 0.,
          6.62251655e-03, 0., 0., 0., 0., 0., 0., 0., 0., 0., 0.,
          1.32450331e-02, 0., 0., 0., 0., 0., 6.62251655e-03, 0., 0., 0.,
          0., 0., 0., 0., 0., 0., 0., 0., 0., 0., 0., 3.92156886e-03,
          1.56862754e-02, 3.92156886e-03, 7.84313772e-03, 1.17647070e-02,
          0., 0., 3.92156886e-03, 1.17647070e-02, 0., 1.56862754e-02,
          1.17647070e-02, 1.17647070e-02, 2.35294141e-02, 1.56862754e-02,
          3.92156886e-03, 2.74509825e-02, 1.96078438e-02, 1.17647070e-02,
          3.13725509e-02, 1.17647070e-02, 1.17647070e-02, 5.49019650e-02,
          1.96078438e-02, 1.96078438e-02, 7.84313772e-03, 1.17647070e-02,
          1.17647070e-02, 7.84313772e-03, 7.84313772e-03, 3.92156886e-03,
          7.84313772e-03, 3.92156886e-03, 7.84313772e-03, 0., 0., 0.,
          3.92156877e-02, 1.56862754e-02, 0., 7.84313772e-03,
          3.92156886e-03, 7.84313772e-03, 0., 3.92156886e-03,
          3.92156877e-02, 1.17647070e-02, 1.17647070e-02, 7.84313772e-03,
          3.92156886e-03, 3.92156886e-03, 2.35294141e-02, 1.56862754e-02,
          7.84313772e-03, 0., 7.84313772e-03, 3.92156886e-03,
          2.74509825e-02, 3.92156886e-03, 0., 1.56862754e-02,
          3.92156886e-03, 3.92156886e-03, 0., 3.92156886e-03, 0.,
          3.92156886e-03, 3.92156886e-03, 7.84313772e-03, 7.84313772e-03,
          0., 1.17647070e-02, 0., 1.56862754e-02, 1.56862754e-02, 0.,
          1.56862754e-02, 7.84313772e-03, 1.17647070e-02, 1.56862754e-02,
          3.92156886e-03, 1.56862754e-02, 7.84313772e-03, 1.17647070e-02,
          3.92156886e-03, 3.92156886e-03, 0., 2.35294141e-02,
          3.92156886e-03, 3.92156886e-03, 3.92156886e-03, 3.92156886e-03,
          1.17647070e-02, 3.92156886e-03, 7.84313772e-03, 0.,
          3.92156886e-03, 3.92156886e-03, 7.84313772e-03, 0.,
          3.92156886e-03, 0., 0., 0., 7.84313772e-03, 3.92156886e-03, 0.,
          0., 7.84313772e-03, 0., 7.84313772e-03, 3.92156886e-03, 0., 0.,
          3.92156886e-03, 0., 0., 3.92156886e-03, 0., 0., 0., 0.,
          3.92156886e-03, 3.92156886e-03, 0., 3.92156886e-03, 0., 0., 0.,
          0., 3.92156886e-03, 0., 0., 0., 0., 0., 0., 0., 0., 0., 0., 0.,
          0., 0., 3.92156886e-03, 0., 0., 0., 0., 0., 0., 3.96825410e-02,
          7.93650839e-03, 0., 0., 7.93650839e-03, 7.93650839e-03, 0., 0.,
          0., 0., 3.17460336e-02, 7.93650839e-03, 0., 7.93650839e-03, 0.,
          6.34920672e-02, 7.93650839e-03, 0., 0., 2.38095261e-02, 0.,
          9.52381045e-02, 7.93650839e-03, 3.17460336e-02, 1.58730168e-02,
          7.93650839e-03, 0., 0., 0., 1.58730168e-02, 3.96825410e-02, 0.,
          0., 1.58730168e-02, 7.93650839e-03, 0., 1.58730168e-02,
          2.38095261e-02, 7.93650839e-03, 0., 7.93650839e-03,
          7.93650839e-03, 0., 0., 7.14285746e-02, 1.58730168e-02, 0., 0.,
          0., 0., 2.38095261e-02, 2.38095261e-02, 0., 3.96825410e-02,
          2.38095261e-02, 0., 4.76190522e-02, 0., 0., 0., 0., 0., 0., 0.,
          0., 7.93650839e-03, 0., 2.38095261e-02, 0., 0., 0., 0.,
          7.93650839e-03, 1.58730168e-02, 2.38095261e-02, 3.17460336e-02,
          7.93650839e-03, 0., 7.93650839e-03, 7.93650839e-03, 0., 0.,
          1.58730168e-02, 0., 0., 0., 1.58730168e-02, 1.58730168e-02, 0.,
          0., 1.58730168e-02, 7.93650839e-03, 7.93650839e-03, 0., 0., 0.,
          0., 0., 0., 0., 0., 0., 0., 0., 0., 0., 0., 0., 0., 0., 0., 0.,
          0., 0., 7.93650839e-03, 0., 0., 0., 0., 0., 0., 0.,
          7.93650839e-03, 7.93650839e-03, 0., 0., 0., 0., 7.93650839e-03,
          0., 0., 0., 0., 0., 0., 0., 0., 0., 0., 0., 0., 0., 0., 0., 0.,
          0., 0., 0., 0., 3.43642617e-03, 1.37457047e-02, 1.37457047e-02,
          6.87285233e-03, 1.37457047e-02, 1.71821304e-02, 6.87285233e-03,
          6.87285233e-03, 3.43642617e-03, 0., 1.03092790e-02,
          3.43642607e-02, 2.40549836e-02, 6.87285233e-03, 2.74914093e-02,
          1.03092790e-02, 2.74914093e-02, 3.43642617e-03, 6.87285233e-03,
          1.37457047e-02, 4.12371159e-02, 6.87285233e-03, 3.78006883e-02,
          6.87285233e-03, 1.03092790e-02, 2.06185579e-02, 0.,
          6.87285233e-03, 1.03092790e-02, 1.37457047e-02, 1.03092790e-02,
          1.71821304e-02, 1.03092790e-02, 1.37457047e-02, 1.03092790e-02,
          3.43642617e-03, 3.43642617e-03, 1.37457047e-02, 3.43642617e-03,
          0., 1.03092790e-02, 1.37457047e-02, 1.03092790e-02, 0.,
          3.43642617e-03, 3.78006883e-02, 1.03092790e-02, 0.,
          3.43642617e-03, 3.43642617e-03, 6.87285233e-03, 0.,
          1.03092790e-02, 3.43642617e-03, 6.87285233e-03, 3.09278350e-02,
          1.03092790e-02, 1.71821304e-02, 1.37457047e-02, 3.43642617e-03,
          0., 0., 1.03092790e-02, 6.87285233e-03, 1.37457047e-02, 0.,
          1.03092790e-02, 0., 0., 3.43642617e-03, 3.43642617e-03,
          3.43642617e-03, 3.43642617e-03, 0., 6.87285233e-03, 0.,
          1.71821304e-02, 1.03092790e-02, 6.87285233e-03, 1.03092790e-02,
          6.87285233e-03, 3.09278350e-02, 3.43642617e-03, 3.43642617e-03,
          3.43642617e-03, 0., 3.43642617e-03, 3.78006883e-02, 0.,
          6.87285233e-03, 3.43642617e-03, 6.87285233e-03, 0., 0.,
          2.06185579e-02, 3.43642617e-03, 3.43642617e-03, 3.43642617e-03,
          0., 0., 3.43642617e-03, 0., 3.43642617e-03, 3.43642617e-03,
          3.43642617e-03, 1.37457047e-02, 3.43642617e-03, 0.,
          6.87285233e-03, 0., 3.43642617e-03, 0., 3.43642617e-03,
          3.43642617e-03, 3.43642617e-03, 0., 0., 0., 0., 0., 0., 0.,
          3.43642617e-03, 0., 3.43642617e-03, 3.43642617e-03, 0., 0., 0.,
          0., 0., 0., 0., 0., 0., 6.87285233e-03, 0., 0., 0., 0., 0., 0.,
          0., 0., 0., 0., 0., 0., 0., 0., 0., 6.32911408e-03,
          1.26582282e-02, 6.32911408e-03, 6.32911408e-03, 0., 0., 0.,
          6.32911408e-03, 6.32911408e-03, 0., 0., 0., 1.89873427e-02,
          6.32911408e-03, 3.16455700e-02, 0., 0., 1.26582282e-02,
          2.53164563e-02, 1.89873427e-02, 1.26582282e-02, 1.13924056e-01,
          1.89873427e-02, 1.26582282e-02, 0., 6.32911408e-03,
          1.89873427e-02, 1.26582282e-02, 0., 1.26582282e-02,
          2.53164563e-02, 0., 6.32911408e-03, 6.32911408e-03,
          1.26582282e-02, 0., 9.49367136e-02, 2.53164563e-02,
          6.32911408e-03, 6.32911408e-03, 6.32911408e-03, 3.16455700e-02,
          6.32911408e-03, 0., 1.26582282e-02, 1.26582282e-02,
          1.26582282e-02, 1.26582282e-02, 6.32911408e-03, 1.26582282e-02,
          1.26582282e-02, 1.26582282e-02, 0., 1.26582282e-02, 0.,
          6.32911408e-03, 6.32911408e-03, 1.26582282e-02, 6.32911408e-03,
          6.32911408e-03, 6.32911408e-03, 0., 0., 6.32911408e-03,
          1.26582282e-02, 0., 0., 1.26582282e-02, 0., 0., 6.32911408e-03,
          6.32911408e-03, 0., 6.32911408e-03, 2.53164563e-02, 0., 0., 0.,
          6.32911408e-03, 6.32911408e-03, 6.32911408e-03, 0., 0., 0.,
          6.32911408e-03, 0., 0., 6.32911408e-03, 6.32911408e-03, 0., 0.,
          0., 0., 1.89873427e-02, 6.32911408e-03, 1.26582282e-02, 0., 0.,
          0., 6.32911408e-03, 0., 6.32911408e-03, 0., 0., 0., 0.,
          6.32911408e-03, 0., 0., 1.26582282e-02, 0., 6.32911408e-03, 0.,
          0., 6.32911408e-03, 1.26582282e-02, 0., 0., 0., 0., 0.,
          1.89873427e-02, 0., 0., 0., 0., 0., 0., 0., 0., 0.,
          1.26582282e-02, 0., 0., 6.32911408e-03, 0., 0., 0., 0., 0., 0.,
          0., 0., 6.32911408e-03, 0., 0., 0., 0., 0., 0., 0., 0., 0., 0.,
          1.08695654e-02, 2.17391308e-02, 0., 0., 0., 0., 2.17391308e-02,
          0., 2.17391308e-02, 2.17391308e-02, 0., 0., 0., 1.08695654e-02,
          0., 2.17391308e-02, 3.26086953e-02, 2.17391308e-02, 0.,
          1.08695654e-02, 0., 0., 1.08695654e-02, 0., 2.17391308e-02, 0.,
          0., 0., 4.34782617e-02, 0., 1.08695654e-02, 0., 4.34782617e-02,
          1.08695654e-02, 1.08695654e-02, 1.08695654e-02, 0.,
          1.08695654e-02, 2.17391308e-02, 1.08695654e-02, 1.08695654e-02,
          8.69565234e-02, 2.17391308e-02, 4.34782617e-02, 0.,
          1.08695654e-02, 0., 1.08695654e-02, 1.08695654e-02,
          2.17391308e-02, 1.08695654e-02, 2.17391308e-02, 1.08695654e-02,
          0., 0., 1.08695654e-02, 0., 0., 0., 0., 0., 2.17391308e-02, 0.,
          1.08695654e-02, 0., 2.17391308e-02, 0., 2.17391308e-02, 0., 0.,
          0., 0., 0., 0., 1.08695654e-02, 1.08695654e-02, 1.08695654e-02,
          0., 0., 0., 0., 0., 0., 1.08695654e-02, 2.17391308e-02,
          1.08695654e-02, 1.08695654e-02, 0., 0., 1.08695654e-02, 0., 0.,
          2.17391308e-02, 1.08695654e-02, 0., 0., 0., 0., 0., 0.,
          3.26086953e-02, 0., 0., 0., 0., 0., 0., 0., 2.17391308e-02, 0.,
          0., 0., 0., 0., 2.17391308e-02, 0., 0., 0., 0., 1.08695654e-02,
          0., 0., 1.08695654e-02, 0., 0., 0., 0., 0., 0., 0.,
          1.08695654e-02, 0., 1.08695654e-02, 0., 0., 0., 0., 0., 0., 0.,
          0., 0., 0., 0., 0., 1.72910653e-02, 4.03458215e-02,
          2.88184430e-03, 8.64553265e-03, 1.44092217e-02, 5.76368859e-03,
          2.88184430e-03, 0., 2.30547544e-02, 0., 1.72910653e-02,
          2.59365980e-02, 8.64553265e-03, 1.72910653e-02, 1.15273772e-02,
          1.44092217e-02, 2.59365980e-02, 0., 1.44092217e-02,
          8.64553265e-03, 1.72910653e-02, 5.76368859e-03, 4.89913523e-02,
          1.15273772e-02, 1.72910653e-02, 1.44092217e-02, 5.76368859e-03,
          0., 0., 2.88184430e-03, 2.01729108e-02, 5.76368859e-03,
          2.88184430e-03, 2.88184430e-03, 2.88184430e-03, 2.88184430e-03,
          2.59365980e-02, 5.18731959e-02, 2.88184430e-03, 1.72910653e-02,
          5.76368859e-03, 5.76368859e-03, 1.72910653e-02, 2.88184430e-03,
          5.76368859e-03, 2.01729108e-02, 4.61095087e-02, 8.64553265e-03,
          8.64553265e-03, 1.72910653e-02, 1.44092217e-02, 2.88184430e-03,
          5.76368859e-03, 0., 1.15273772e-02, 5.76368859e-03,
          8.64553265e-03, 2.01729108e-02, 2.88184434e-02, 5.76368859e-03,
          8.64553265e-03, 0., 8.64553265e-03, 2.88184430e-03,
          8.64553265e-03, 5.76368859e-03, 5.76368859e-03, 0., 0.,
          8.64553265e-03, 0., 0., 2.88184430e-03, 5.76368859e-03,
          2.88184430e-03, 5.76368859e-03, 1.15273772e-02, 2.88184430e-03,
          5.76368859e-03, 5.76368859e-03, 0., 8.64553265e-03, 0., 0.,
          1.15273772e-02, 8.64553265e-03, 8.64553265e-03, 0.,
          2.88184430e-03, 8.64553265e-03, 1.15273772e-02, 5.76368859e-03,
          2.88184430e-03, 2.88184430e-03, 5.76368859e-03, 0.,
          8.64553265e-03, 2.88184430e-03, 0., 0., 0., 5.76368859e-03, 0.,
          0., 1.15273772e-02, 2.88184430e-03, 0., 0., 0., 0.,
          2.88184430e-03, 0., 0., 0., 5.76368859e-03, 5.76368859e-03, 0.,
          0., 0., 0., 0., 0., 0., 2.88184430e-03, 0., 0., 0.,
          5.76368859e-03, 0., 0., 0., 0., 5.76368859e-03, 0., 0., 0., 0.,
          0., 5.76368859e-03, 2.88184430e-03, 0., 0., 0., 0., 0., 0., 0.,
          0., 0., 0., 8.54700897e-03, 1.70940179e-02, 2.56410278e-02, 0.,
          8.54700897e-03, 0., 0., 1.70940179e-02, 8.54700897e-03, 0., 0.,
          4.27350439e-02, 1.70940179e-02, 1.70940179e-02, 8.54700897e-03,
          8.54700897e-03, 8.54700897e-03, 1.70940179e-02, 8.54700897e-03,
          0., 6.83760718e-02, 0., 5.12820557e-02, 1.70940179e-02,
          1.70940179e-02, 0., 8.54700897e-03, 0., 8.54700897e-03,
          3.41880359e-02, 8.54700897e-03, 1.70940179e-02, 8.54700897e-03,
          4.27350439e-02, 0., 0., 0., 1.70940179e-02, 1.70940179e-02, 0.,
          0., 0., 0., 0., 0., 8.54700897e-03, 8.54700897e-03,
          8.54700897e-03, 8.54700897e-03, 0., 1.70940179e-02,
          8.54700897e-03, 8.54700897e-03, 0., 1.70940179e-02,
          1.70940179e-02, 0., 4.27350439e-02, 0., 8.54700897e-03, 0., 0.,
          0., 0., 0., 0., 0., 0., 1.70940179e-02, 0., 8.54700897e-03, 0.,
          8.54700897e-03, 2.56410278e-02, 0., 8.54700897e-03,
          8.54700897e-03, 0., 8.54700897e-03, 0., 0., 8.54700897e-03, 0.,
          0., 8.54700897e-03, 0., 8.54700897e-03, 8.54700897e-03,
          8.54700897e-03, 0., 0., 1.70940179e-02, 8.54700897e-03, 0.,
          8.54700897e-03, 1.70940179e-02, 0., 8.54700897e-03, 0., 0., 0.,
          8.54700897e-03, 0., 0., 8.54700897e-03, 3.41880359e-02, 0., 0.,
          0., 0., 0., 0., 0., 1.70940179e-02, 0., 0., 8.54700897e-03, 0.,
          8.54700897e-03, 0., 0., 0., 0., 0., 0., 0., 0., 0.,
          8.54700897e-03, 0., 8.54700897e-03, 8.54700897e-03, 0., 0., 0.,
          8.54700897e-03, 0., 0., 8.54700897e-03, 0., 0., 0., 0., 0., 0.,
          0., 0., 0., 0., 0., 3.05084735e-02, 1.35593219e-02,
          1.01694912e-02, 1.01694912e-02, 1.35593219e-02, 0., 0., 0.,
          1.69491526e-02, 0., 2.37288140e-02, 6.77966094e-03,
          3.38983047e-03, 1.01694912e-02, 1.01694912e-02, 6.77966094e-03,
          1.01694912e-02, 2.37288140e-02, 1.35593219e-02, 1.01694912e-02,
          0., 1.01694912e-02, 8.47457647e-02, 2.03389823e-02,
          1.35593219e-02, 6.77966094e-03, 1.35593219e-02, 3.38983047e-03,
          0., 2.03389823e-02, 3.38983047e-03, 6.77966094e-03, 0.,
          3.38983047e-03, 1.01694912e-02, 6.77966094e-03, 2.37288140e-02,
          5.08474559e-02, 3.38983047e-03, 1.69491526e-02, 6.77966094e-03,
          1.01694912e-02, 1.35593219e-02, 0., 6.77966094e-03,
          1.01694912e-02, 4.40677963e-02, 3.38983047e-03, 1.35593219e-02,
          2.37288140e-02, 3.38983047e-03, 0., 0., 2.03389823e-02,
          3.38983047e-03, 1.69491526e-02, 1.01694912e-02, 0.,
          1.35593219e-02, 0., 3.38983047e-03, 3.38983047e-03,
          2.03389823e-02, 3.38983047e-03, 6.77966094e-03, 0.,
          1.35593219e-02, 0., 1.69491526e-02, 1.01694912e-02, 0., 0.,
          1.01694912e-02, 0., 1.01694912e-02, 1.01694912e-02,
          1.69491526e-02, 3.38983047e-03, 0., 6.77966094e-03, 0., 0., 0.,
          0., 1.01694912e-02, 0., 3.38983047e-03, 0., 6.77966094e-03,
          3.38983047e-03, 6.77966094e-03, 0., 0., 0., 3.38983047e-03, 0.,
          1.69491526e-02, 1.35593219e-02, 6.77966094e-03, 3.38983047e-03,
          0., 3.38983047e-03, 0., 3.38983047e-03, 3.38983047e-03,
          6.77966094e-03, 3.38983047e-03, 1.01694912e-02, 0., 0., 0., 0.,
          0., 0., 0., 6.77966094e-03, 3.38983047e-03, 0., 0.,
          3.38983047e-03, 0., 0., 6.77966094e-03, 0., 0., 6.77966094e-03,
          0., 0., 0., 3.38983047e-03, 3.38983047e-03, 0., 3.38983047e-03,
          0., 0., 0., 3.38983047e-03, 0., 6.77966094e-03, 0., 0., 0., 0.,
          0., 0., 0., 0., 0., 0., 0., 4.21940908e-03, 8.43881816e-03,
          2.10970454e-02, 4.21940908e-03, 8.43881816e-03, 1.26582272e-02,
          8.43881816e-03, 0., 8.43881816e-03, 0., 4.21940908e-03,
          3.79746817e-02, 1.68776363e-02, 2.10970454e-02, 2.10970454e-02,
          8.43881816e-03, 5.06329089e-02, 0., 4.21940908e-03,
          1.26582272e-02, 1.26582272e-02, 4.21940908e-03, 1.09704636e-01,
          0., 8.43881816e-03, 8.43881816e-03, 4.21940908e-03,
          4.21940908e-03, 1.26582272e-02, 2.10970454e-02, 4.21940908e-03,
          4.21940908e-03, 4.21940908e-03, 2.10970454e-02, 4.21940908e-03,
          8.43881816e-03, 1.26582272e-02, 3.37552726e-02, 0., 0.,
          4.21940908e-03, 1.26582272e-02, 4.21940908e-03, 0., 0.,
          2.10970454e-02, 2.95358635e-02, 1.68776363e-02, 4.21940908e-03,
          8.43881816e-03, 1.68776363e-02, 4.21940908e-03, 2.10970454e-02,
          8.43881816e-03, 3.79746817e-02, 2.53164545e-02, 4.21940908e-03,
          2.10970454e-02, 1.26582272e-02, 8.43881816e-03, 0.,
          4.21940908e-03, 0., 0., 8.43881816e-03, 4.21940908e-03, 0., 0.,
          4.21940908e-03, 8.43881816e-03, 4.21940908e-03, 4.21940908e-03,
          4.21940908e-03, 0., 8.43881816e-03, 8.43881816e-03,
          8.43881816e-03, 4.21940908e-03, 8.43881816e-03, 8.43881816e-03,
          4.21940908e-03, 4.21940908e-03, 0., 0., 8.43881816e-03, 0.,
          2.10970454e-02, 8.43881816e-03, 0., 0., 0., 4.21940908e-03,
          4.21940908e-03, 0., 0., 0., 4.21940908e-03, 4.21940908e-03, 0.,
          0., 0., 0., 0., 0., 4.21940908e-03, 0., 0., 0., 8.43881816e-03,
          0., 0., 0., 0., 0., 0., 0., 4.21940908e-03, 0., 4.21940908e-03,
          0., 0., 0., 0., 0., 4.21940908e-03, 0., 4.21940908e-03,
          4.21940908e-03, 0., 4.21940908e-03, 4.21940908e-03, 0., 0., 0.,
          4.21940908e-03, 0., 0., 0., 4.21940908e-03, 0., 0., 0., 0., 0.,
          4.21940908e-03, 0., 0., 0., 0., 0., 1.04895104e-02,
          4.89510484e-02, 6.99300691e-03, 6.99300691e-03, 6.99300691e-03,
          3.49650346e-03, 3.49650346e-03, 0., 1.39860138e-02, 0.,
          1.04895104e-02, 1.39860138e-02, 1.74825173e-02, 1.39860138e-02,
          3.49650346e-03, 1.39860138e-02, 1.04895104e-02, 1.04895104e-02,
          0., 6.99300691e-03, 8.04195777e-02, 3.49650346e-03,
          4.19580415e-02, 0., 1.04895104e-02, 1.39860138e-02, 0.,
          3.49650346e-03, 3.49650346e-03, 1.39860138e-02, 3.49650346e-02,
          1.04895104e-02, 0., 1.39860138e-02, 0., 0., 1.39860138e-02,
          5.94405606e-02, 1.04895104e-02, 1.74825173e-02, 3.49650346e-03,
          0., 1.39860138e-02, 0., 6.99300691e-03, 0., 2.09790207e-02,
          1.04895104e-02, 3.49650346e-03, 0., 6.99300691e-03,
          3.49650346e-03, 1.39860138e-02, 6.99300691e-03, 0.,
          5.59440553e-02, 0., 2.44755242e-02, 3.49650346e-03,
          6.99300691e-03, 0., 3.49650346e-03, 1.39860138e-02, 0.,
          3.49650346e-03, 6.99300691e-03, 0., 0., 3.49650346e-03,
          1.39860138e-02, 0., 0., 6.99300691e-03, 6.99300691e-03,
          3.49650346e-03, 6.99300691e-03, 1.04895104e-02, 1.74825173e-02,
          0., 0., 3.49650346e-03, 1.39860138e-02, 0., 0., 3.49650346e-03,
          0., 1.04895104e-02, 3.84615362e-02, 3.49650346e-03, 0.,
          3.49650346e-03, 6.99300691e-03, 3.49650346e-03, 0.,
          3.49650346e-03, 0., 0., 3.49650346e-03, 3.49650346e-03, 0.,
          3.49650346e-03, 3.49650346e-03, 0., 0., 6.99300691e-03,
          3.49650346e-03, 0., 3.49650346e-03, 0., 0., 6.99300691e-03,
          6.99300691e-03, 0., 3.49650346e-03, 6.99300691e-03,
          3.49650346e-03, 3.49650346e-03, 0., 0., 0., 0., 3.49650346e-03,
          3.49650346e-03, 0., 3.49650346e-03, 0., 0., 3.49650346e-03, 0.,
          0., 3.49650346e-03, 0., 1.04895104e-02, 0., 0., 6.99300691e-03,
          0., 0., 0., 0., 0., 0., 0., 0., 0., 0., 0., 0., 0., 0.,
          3.44827585e-02, 0., 0., 1.72413792e-02, 1.72413792e-02, 0., 0.,
          1.72413792e-02, 5.17241359e-02, 0., 0., 1.72413792e-02, 0., 0.,
          0., 0., 0., 1.72413792e-02, 0., 1.72413792e-02, 0.,
          6.89655170e-02, 0., 0., 0., 1.72413792e-02, 0., 5.17241359e-02,
          0., 0., 0., 0., 0., 0., 1.72413792e-02, 0., 0., 6.89655170e-02,
          0., 3.44827585e-02, 1.72413792e-02, 0., 1.72413792e-02, 0.,
          1.72413792e-02, 5.17241359e-02, 6.89655170e-02, 0.,
          3.44827585e-02, 1.72413792e-02, 0., 0., 0., 1.72413792e-02,
          1.72413792e-02, 3.44827585e-02, 0., 0., 3.44827585e-02, 0., 0.,
          0., 1.72413792e-02, 0., 0., 0., 1.72413792e-02, 0., 0., 0.,
          1.72413792e-02, 1.72413792e-02, 0., 0., 1.72413792e-02, 0., 0.,
          0., 0., 0., 1.72413792e-02, 0., 1.72413792e-02, 0., 0., 0., 0.,
          0., 0., 0., 0., 0., 0., 0., 0., 0., 1.72413792e-02, 0., 0., 0.,
          0., 0., 0., 0., 1.72413792e-02, 0., 0., 0., 1.72413792e-02, 0.,
          0., 1.72413792e-02, 1.72413792e-02, 0., 0., 0., 0., 0., 0., 0.,
          0., 0., 0., 0., 0., 0., 0., 0., 0., 0., 0., 0., 0., 0., 0.,
          1.72413792e-02, 0., 0., 0., 0., 0., 0., 0., 0., 0., 0., 0., 0.,
          0., 0., 4.25531901e-02, 0., 2.12765951e-02, 0., 0., 0., 0., 0.,
          2.12765951e-02, 0., 0., 4.25531901e-02, 0., 2.12765951e-02,
          6.38297871e-02, 0., 0., 0., 0., 4.25531901e-02, 1.27659574e-01,
          0., 2.12765951e-02, 0., 0., 0., 0., 0., 0., 0., 2.12765951e-02,
          0., 0., 2.12765951e-02, 0., 0., 2.12765951e-02, 2.12765951e-02,
          0., 0., 0., 0., 0., 0., 0., 2.12765951e-02, 4.25531901e-02, 0.,
          8.51063803e-02, 0., 4.25531901e-02, 0., 0., 0., 0.,
          4.25531901e-02, 0., 2.12765951e-02, 4.25531901e-02,
          4.25531901e-02, 2.12765951e-02, 0., 0., 0., 2.12765951e-02, 0.,
          0., 0., 0., 0., 0., 0., 0., 0., 2.12765951e-02, 0., 0.,
          2.12765951e-02, 4.25531901e-02, 0., 0., 0., 0., 0., 0., 0., 0.,
          0., 0., 0., 0., 0., 0., 0., 0., 0., 0., 0., 0., 0., 0., 0., 0.,
          0., 0., 0., 0., 0., 0., 0., 0., 0., 0., 0., 2.12765951e-02, 0.,
          0., 0., 0., 2.12765951e-02, 0., 0., 0., 0., 0., 0., 0., 0., 0.,
          0., 0., 0., 0., 0., 0., 0., 0., 0., 0., 0., 0., 0., 0., 0., 0.,
          0., 0., 0., 0., 0., 7.46268639e-03, 1.49253728e-02,
          1.49253728e-02, 0., 0., 1.49253728e-02, 0., 1.49253728e-02, 0.,
          0., 7.46268639e-03, 5.22388034e-02, 1.49253728e-02, 0.,
          7.46268639e-03, 0., 3.73134315e-02, 7.46268639e-03,
          1.49253728e-02, 1.49253728e-02, 2.98507456e-02, 0.,
          3.73134315e-02, 0., 4.47761193e-02, 2.23880596e-02,
          7.46268639e-03, 0., 1.49253728e-02, 7.46268639e-03,
          7.46268639e-03, 2.23880596e-02, 0., 2.23880596e-02, 0.,
          7.46268639e-03, 7.46268639e-03, 2.98507456e-02, 7.46268639e-03,
          1.49253728e-02, 7.46268639e-03, 7.46268639e-03, 7.46268639e-03,
          0., 1.49253728e-02, 0., 5.97014911e-02, 0., 0., 0.,
          1.49253728e-02, 0., 7.46268639e-03, 0., 2.23880596e-02,
          2.98507456e-02, 0., 1.49253728e-02, 7.46268639e-03, 0.,
          7.46268639e-03, 0., 0., 7.46268639e-03, 0., 0., 1.49253728e-02,
          0., 7.46268639e-03, 7.46268639e-03, 1.49253728e-02,
          7.46268639e-03, 1.49253728e-02, 1.49253728e-02, 0., 0.,
          1.49253728e-02, 0., 0., 2.23880596e-02, 7.46268639e-03,
          7.46268639e-03, 0., 0., 0., 0., 7.46268639e-03, 1.49253728e-02,
          7.46268639e-03, 7.46268639e-03, 7.46268639e-03, 7.46268639e-03,
          7.46268639e-03, 0., 2.23880596e-02, 0., 7.46268639e-03, 0.,
          7.46268639e-03, 0., 0., 7.46268639e-03, 0., 0., 0., 0., 0., 0.,
          0., 0., 0., 0., 0., 0., 0., 0., 0., 1.49253728e-02, 0., 0., 0.,
          0., 0., 7.46268639e-03, 7.46268639e-03, 0., 0., 0., 0., 0.,
          7.46268639e-03, 0., 7.46268639e-03, 0., 0., 0., 0., 0., 0., 0.,
          0., 0., 0., 0., 0., 0., 0., 0., 0., 0., 3.44827585e-02, 0.,
          1.72413792e-02, 2.87356321e-02, 5.74712642e-03, 5.74712642e-03,
          1.14942528e-02, 0., 5.74712642e-03, 0., 0., 5.74712642e-02,
          3.44827585e-02, 1.14942528e-02, 1.14942528e-02, 0.,
          2.87356321e-02, 0., 0., 1.14942528e-02, 4.59770113e-02, 0.,
          9.19540226e-02, 5.74712642e-03, 5.74712642e-03, 5.17241359e-02,
          0., 1.14942528e-02, 5.74712642e-03, 1.14942528e-02,
          5.74712642e-03, 5.74712642e-03, 5.74712642e-03, 1.14942528e-02,
          5.74712642e-03, 5.74712642e-03, 0., 4.02298868e-02, 0.,
          5.74712642e-03, 5.74712642e-03, 1.72413792e-02, 1.14942528e-02,
          0., 5.74712642e-03, 5.74712642e-03, 5.74712642e-03,
          2.29885057e-02, 0., 0., 2.29885057e-02, 0., 1.14942528e-02,
          5.74712642e-03, 2.29885057e-02, 1.14942528e-02, 5.74712642e-03,
          4.02298868e-02, 0., 5.74712642e-03, 0., 5.74712642e-03, 0., 0.,
          5.74712642e-03, 0., 0., 0., 5.74712642e-03, 0., 1.14942528e-02,
          5.74712642e-03, 5.74712642e-03, 5.74712642e-03, 0.,
          5.74712642e-03, 5.74712642e-03, 5.74712642e-03, 5.74712642e-03,
          1.14942528e-02, 0., 5.74712642e-03, 0., 5.74712642e-03,
          1.14942528e-02, 0., 5.74712642e-03, 1.14942528e-02, 0., 0., 0.,
          2.29885057e-02, 0., 0., 0., 0., 0., 1.14942528e-02,
          1.14942528e-02, 5.74712642e-03, 0., 5.74712642e-03, 0.,
          5.74712642e-03, 1.14942528e-02, 0., 0., 0., 0., 0., 0., 0., 0.,
          5.74712642e-03, 5.74712642e-03, 0., 0., 0., 0., 0., 0.,
          5.74712642e-03, 0., 0., 0., 0., 0., 0., 0., 0., 0., 0.,
          5.74712642e-03, 0., 0., 0., 0., 0., 0., 0., 0., 0., 0., 0., 0.,
          0., 0., 0., 0., 0., 0., 0., 1.04166670e-02, 4.16666679e-02,
          5.20833349e-03, 0., 0., 1.56250000e-02, 0., 0., 1.56250000e-02,
          2.60416679e-02, 2.08333340e-02, 1.04166670e-02, 2.08333340e-02,
          1.04166670e-02, 4.16666679e-02, 5.20833349e-03, 1.04166670e-02,
          3.12500000e-02, 3.12500000e-02, 5.20833349e-03, 6.77083358e-02,
          0., 2.08333340e-02, 1.04166670e-02, 0., 2.60416679e-02, 0.,
          5.20833349e-03, 0., 0., 1.56250000e-02, 2.08333340e-02,
          5.20833349e-03, 5.20833349e-03, 0., 1.04166670e-02, 0., 0.,
          1.04166670e-02, 1.56250000e-02, 5.20833349e-03, 0., 0.,
          1.56250000e-02, 0., 0., 1.04166670e-02, 5.20833349e-03,
          5.20833349e-03, 0., 5.20833349e-03, 1.04166670e-02,
          2.08333340e-02, 1.04166670e-02, 0., 2.60416679e-02,
          5.20833349e-03, 1.04166670e-02, 5.20833349e-03, 0.,
          5.20833349e-03, 3.12500000e-02, 5.20833349e-03, 0.,
          1.56250000e-02, 0., 0., 0., 5.20833349e-03, 1.56250000e-02, 0.,
          5.20833349e-03, 5.20833349e-03, 0., 3.64583358e-02,
          1.04166670e-02, 0., 1.56250000e-02, 5.20833349e-03,
          1.04166670e-02, 0., 5.20833349e-03, 1.04166670e-02, 0., 0.,
          2.60416679e-02, 0., 1.56250000e-02, 0., 0., 0., 0.,
          5.20833349e-03, 0., 0., 0., 0., 0., 1.04166670e-02, 0., 0., 0.,
          3.12500000e-02, 5.20833349e-03, 0., 1.56250000e-02, 0., 0.,
          1.56250000e-02, 1.04166670e-02, 0., 0., 1.04166670e-02, 0., 0.,
          5.20833349e-03, 0., 5.20833349e-03, 0., 5.20833349e-03,
          5.20833349e-03, 0., 0., 0., 0., 0., 0., 0., 0., 0., 0., 0., 0.,
          0., 0., 0., 0., 0., 0., 0., 0., 0., 0., 0., 0., 0., 0., 0., 0.,
          1.09890113e-02, 1.09890113e-02, 2.19780225e-02, 2.19780225e-02,
          0., 5.49450563e-03, 5.49450563e-03, 1.64835174e-02, 0.,
          5.49450563e-03, 2.19780225e-02, 5.49450563e-03, 0.,
          2.74725277e-02, 1.09890113e-02, 1.09890113e-02, 5.49450563e-03,
          1.09890113e-02, 1.64835174e-02, 1.64835174e-02, 0.,
          6.59340695e-02, 5.49450563e-03, 5.49450563e-03, 5.49450563e-03,
          1.64835174e-02, 5.49450563e-03, 2.74725277e-02, 1.64835174e-02,
          5.49450563e-03, 0., 1.64835174e-02, 0., 5.49450563e-03,
          2.19780225e-02, 2.19780225e-02, 1.64835174e-02, 5.49450563e-03,
          3.29670347e-02, 1.09890113e-02, 5.49450563e-03, 5.49450563e-03,
          0., 0., 5.49450563e-03, 8.79120901e-02, 1.09890113e-02,
          1.09890113e-02, 1.09890113e-02, 1.09890113e-02, 0., 0.,
          5.49450563e-03, 5.49450563e-03, 2.74725277e-02, 5.49450563e-03,
          1.64835174e-02, 1.09890113e-02, 0., 0., 0., 5.49450563e-03,
          5.49450563e-03, 0., 5.49450563e-03, 1.09890113e-02, 0.,
          1.09890113e-02, 1.64835174e-02, 5.49450563e-03, 5.49450563e-03,
          5.49450563e-03, 5.49450563e-03, 2.19780225e-02, 2.74725277e-02,
          5.49450563e-03, 0., 0., 0., 0., 5.49450563e-03, 0., 0., 0., 0.,
          0., 5.49450563e-03, 0., 0., 5.49450563e-03, 0., 5.49450563e-03,
          1.09890113e-02, 0., 0., 5.49450563e-03, 1.09890113e-02,
          1.09890113e-02, 0., 0., 0., 0., 1.09890113e-02, 5.49450563e-03,
          0., 0., 0., 0., 0., 0., 5.49450563e-03, 0., 0., 5.49450563e-03,
          1.09890113e-02, 0., 0., 0., 5.49450563e-03, 1.09890113e-02, 0.,
          0., 0., 5.49450563e-03, 5.49450563e-03, 0., 0., 0., 0., 0., 0.,
          0., 0., 0., 0., 0., 0., 5.49450563e-03, 0., 0., 0., 0., 0., 0.,
          5.49450563e-03, 0., 0., 0., 0., 0., 9.90098994e-03, 0., 0., 0.,
          9.90098994e-03, 0., 9.90098994e-03, 0., 0., 0., 0., 0.,
          9.90098994e-03, 2.97029689e-02, 9.90098994e-03, 1.98019799e-02,
          3.96039598e-02, 0., 9.90098994e-03, 0., 1.98019799e-02,
          4.95049506e-02, 9.90098994e-03, 1.98019799e-02, 1.98019799e-02,
          1.98019799e-02, 0., 0., 9.90098994e-03, 0., 9.90098994e-03,
          9.90098994e-03, 0., 0., 0., 4.95049506e-02, 6.93069324e-02, 0.,
          9.90098994e-03, 0., 1.98019799e-02, 1.98019799e-02, 0.,
          1.98019799e-02, 2.97029689e-02, 1.98019799e-02, 9.90098994e-03,
          2.97029689e-02, 0., 9.90098994e-03, 9.90098994e-03,
          9.90098994e-03, 0., 0., 9.90098994e-03, 0., 1.98019799e-02, 0.,
          0., 9.90098994e-03, 0., 0., 1.98019799e-02, 9.90098994e-03, 0.,
          9.90098994e-03, 0., 9.90098994e-03, 0., 0., 0., 9.90098994e-03,
          9.90098994e-03, 0., 9.90098994e-03, 5.94059378e-02, 0., 0.,
          9.90098994e-03, 1.98019799e-02, 0., 0., 2.97029689e-02, 0., 0.,
          0., 1.98019799e-02, 0., 0., 9.90098994e-03, 0., 0., 0.,
          9.90098994e-03, 0., 0., 9.90098994e-03, 9.90098994e-03, 0., 0.,
          0., 0., 0., 0., 1.98019799e-02, 0., 0., 0., 0., 1.98019799e-02,
          0., 0., 0., 0., 0., 9.90098994e-03, 0., 0., 0., 0., 0., 0., 0.,
          0., 0., 0., 0., 0., 9.90098994e-03, 0., 0., 1.98019799e-02, 0.,
          0., 0., 0., 0., 0., 0., 0., 0., 0., 0., 0., 0., 0., 0., 0., 0.,
          0., 2.80373823e-02, 1.86915882e-02, 0., 0., 2.80373823e-02, 0.,
          4.67289705e-03, 9.34579410e-03, 0., 2.33644843e-02,
          6.07476607e-02, 1.40186911e-02, 1.86915882e-02, 9.34579410e-03,
          0., 5.60747646e-02, 1.40186911e-02, 9.34579410e-03,
          4.67289705e-03, 1.86915882e-02, 9.34579410e-03, 1.40186911e-02,
          4.67289705e-03, 9.34579410e-03, 9.34579410e-03, 4.67289705e-03,
          1.86915882e-02, 9.34579410e-03, 1.40186911e-02, 4.67289705e-03,
          4.67289705e-03, 1.86915882e-02, 1.40186911e-02, 1.40186911e-02,
          0., 9.34579410e-03, 1.86915882e-02, 1.86915882e-02,
          1.86915882e-02, 2.33644843e-02, 0., 4.67289705e-03, 0.,
          9.34579410e-03, 1.40186911e-02, 1.40186911e-02, 0.,
          9.34579410e-03, 4.67289705e-03, 0., 0., 9.34579410e-03, 0.,
          4.67289705e-03, 9.34579410e-03, 0., 4.67289686e-02,
          4.67289705e-03, 4.67289705e-03, 0., 0., 1.40186911e-02, 0.,
          4.67289705e-03, 4.67289705e-03, 9.34579410e-03, 0., 0., 0.,
          4.67289705e-03, 9.34579410e-03, 0., 0., 0., 0., 1.40186911e-02,
          4.67289705e-03, 9.34579410e-03, 4.67289705e-03, 4.67289705e-03,
          4.67289705e-03, 0., 4.67289705e-03, 4.67289705e-03, 0.,
          9.34579410e-03, 1.86915882e-02, 4.67289705e-03, 9.34579410e-03,
          0., 7.47663528e-02, 4.67289705e-03, 0., 4.67289705e-03,
          4.67289705e-03, 0., 3.27102803e-02, 0., 0., 4.67289705e-03,
          4.67289705e-03, 0., 0., 0., 0., 9.34579410e-03, 0.,
          9.34579410e-03, 0., 0., 4.67289705e-03, 0., 0., 0., 0., 0., 0.,
          0., 0., 0., 0., 0., 4.67289705e-03, 0., 4.67289705e-03, 0., 0.,
          0., 4.67289705e-03, 0., 0., 0., 0., 0., 0., 0., 0., 0., 0., 0.,
          0., 0., 0., 0., 0., 0., 0., 0., 0., 1.44927539e-02,
          1.44927539e-02, 0., 0., 0., 0., 0., 0., 5.79710156e-02, 0.,
          1.44927539e-02, 4.34782617e-02, 0., 0., 0., 0., 0.,
          1.44927539e-02, 0., 1.44927539e-02, 1.44927539e-02,
          1.44927539e-02, 1.44927539e-02, 0., 1.44927539e-02,
          5.79710156e-02, 0., 0., 0., 0., 4.34782617e-02, 0., 0., 0., 0.,
          0., 1.44927539e-02, 1.44927531e-01, 2.89855078e-02,
          1.44927539e-02, 0., 0., 2.89855078e-02, 0., 0., 1.44927539e-02,
          5.79710156e-02, 0., 2.89855078e-02, 4.34782617e-02, 0., 0., 0.,
          0., 1.44927539e-02, 1.44927539e-02, 0., 0., 2.89855078e-02, 0.,
          0., 0., 1.44927539e-02, 1.44927539e-02, 0., 0., 0.,
          2.89855078e-02, 0., 0., 0., 0., 0., 0., 1.44927539e-02, 0.,
          2.89855078e-02, 1.44927539e-02, 0., 0., 0., 0., 0., 0., 0.,
          1.44927539e-02, 0., 0., 0., 1.44927539e-02, 0., 0., 0., 0., 0.,
          1.44927539e-02, 1.44927539e-02, 0., 0., 0., 0., 0., 0., 0.,
          1.44927539e-02, 0., 0., 0., 0., 0., 0., 2.89855078e-02, 0., 0.,
          0., 0., 0., 0., 0., 0., 0., 0., 0., 0., 0., 0., 0.,
          1.44927539e-02, 0., 0., 0., 0., 0., 0., 0., 0., 0., 0., 0., 0.,
          0., 0., 0., 0., 0., 0., 0., 0., 0., 0., 1.36054419e-02,
          6.80272095e-03, 1.13378689e-02, 1.58730168e-02, 2.04081628e-02,
          1.13378689e-02, 9.07029491e-03, 4.53514745e-03, 1.13378689e-02,
          2.26757373e-03, 1.36054419e-02, 9.07029491e-03, 1.13378689e-02,
          1.36054419e-02, 2.04081628e-02, 1.13378689e-02, 2.72108838e-02,
          1.13378689e-02, 6.80272095e-03, 1.13378689e-02, 2.04081628e-02,
          1.13378689e-02, 2.94784587e-02, 9.07029491e-03, 4.53514745e-03,
          1.36054419e-02, 0., 1.58730168e-02, 1.81405898e-02,
          2.26757377e-02, 1.58730168e-02, 2.04081628e-02, 9.07029491e-03,
          6.80272095e-03, 2.26757373e-03, 9.07029491e-03, 1.13378689e-02,
          2.94784587e-02, 4.53514745e-03, 2.49433108e-02, 1.36054419e-02,
          4.53514745e-03, 1.13378689e-02, 1.13378689e-02, 6.80272095e-03,
          1.13378689e-02, 1.81405898e-02, 4.53514745e-03, 2.72108838e-02,
          1.13378689e-02, 4.53514745e-03, 4.53514745e-03, 4.53514745e-03,
          1.13378689e-02, 1.36054419e-02, 1.13378689e-02, 4.53514745e-03,
          1.13378689e-02, 4.53514745e-03, 0., 4.53514745e-03,
          1.13378689e-02, 9.07029491e-03, 2.26757373e-03, 4.53514745e-03,
          6.80272095e-03, 9.07029491e-03, 4.53514745e-03, 4.53514745e-03,
          4.53514745e-03, 9.07029491e-03, 4.53514745e-03, 2.26757373e-03,
          0., 1.13378689e-02, 4.53514745e-03, 4.53514745e-03,
          6.80272095e-03, 4.53514745e-03, 6.80272095e-03, 2.26757373e-03,
          2.26757373e-03, 2.26757373e-03, 4.53514745e-03, 2.26757373e-03,
          9.07029491e-03, 4.53514745e-03, 2.26757373e-03, 2.26757373e-03,
          6.80272095e-03, 9.07029491e-03, 0., 2.26757373e-03,
          2.26757373e-03, 4.53514745e-03, 2.26757373e-03, 6.80272095e-03,
          2.26757373e-03, 4.53514745e-03, 2.26757373e-03, 6.80272095e-03,
          2.26757373e-03, 2.26757373e-03, 0., 0., 0., 2.26757373e-03,
          2.26757373e-03, 9.07029491e-03, 0., 4.53514745e-03, 0., 0.,
          2.26757373e-03, 4.53514745e-03, 4.53514745e-03, 2.26757373e-03,
          2.26757373e-03, 0., 4.53514745e-03, 4.53514745e-03, 0., 0.,
          4.53514745e-03, 6.80272095e-03, 0., 2.26757373e-03,
          2.26757373e-03, 0., 2.26757373e-03, 2.26757373e-03, 0.,
          1.36054419e-02, 0., 0., 0., 4.53514745e-03, 2.26757373e-03, 0.,
          0., 0., 0., 0., 0., 2.26757373e-03, 0., 0., 0., 0., 0.,
          8.82352982e-03, 0., 2.94117653e-03, 8.82352982e-03,
          8.82352982e-03, 5.88235306e-03, 1.17647061e-02, 2.94117653e-03,
          1.47058824e-02, 2.94117653e-03, 2.05882359e-02, 0.,
          8.82352982e-03, 5.88235306e-03, 1.47058824e-02, 1.47058824e-02,
          5.88235306e-03, 1.17647061e-02, 5.88235306e-03, 2.94117653e-03,
          0., 5.88235306e-03, 0., 1.47058824e-02, 1.76470596e-02,
          2.94117653e-03, 0., 5.88235306e-03, 1.17647061e-02,
          1.47058824e-02, 2.94117648e-02, 1.47058824e-02, 1.47058824e-02,
          0., 5.88235306e-03, 5.88235306e-03, 1.76470596e-02,
          8.23529437e-02, 8.82352982e-03, 1.47058824e-02, 1.47058824e-02,
          5.88235306e-03, 3.23529430e-02, 2.35294122e-02, 8.82352982e-03,
          3.23529430e-02, 2.05882359e-02, 1.47058824e-02, 5.88235306e-03,
          8.82352982e-03, 8.82352982e-03, 2.94117653e-03, 8.82352982e-03,
          8.82352982e-03, 2.94117653e-03, 2.94117653e-03, 5.88235306e-03,
          8.82352982e-03, 0., 5.88235306e-03, 1.17647061e-02,
          2.94117653e-03, 8.82352982e-03, 1.47058824e-02, 8.82352982e-03,
          0., 1.17647061e-02, 2.94117653e-03, 2.64705885e-02,
          1.17647061e-02, 5.88235306e-03, 5.88235306e-03, 5.88235306e-03,
          2.94117653e-03, 1.17647061e-02, 2.94117653e-03, 8.82352982e-03,
          8.82352982e-03, 2.94117653e-03, 2.94117653e-03, 2.94117653e-03,
          5.88235306e-03, 0., 2.94117653e-03, 2.94117653e-03, 0.,
          8.82352982e-03, 5.88235306e-03, 5.88235306e-03, 5.88235306e-03,
          8.82352982e-03, 2.94117653e-03, 2.94117653e-03, 0.,
          1.47058824e-02, 0., 0., 1.17647061e-02, 0., 5.88235306e-03,
          2.94117653e-03, 0., 0., 5.88235306e-03, 1.17647061e-02, 0., 0.,
          1.17647061e-02, 5.88235306e-03, 0., 0., 0., 2.94117653e-03, 0.,
          0., 8.82352982e-03, 5.88235306e-03, 2.94117653e-03, 0.,
          2.94117653e-03, 2.94117653e-03, 0., 8.82352982e-03,
          2.94117653e-03, 5.88235306e-03, 0., 0., 5.88235306e-03, 0.,
          2.94117653e-03, 0., 0., 2.94117653e-03, 0., 0., 0.,
          2.94117653e-03, 0., 5.88235306e-03, 0., 0., 0., 0., 0., 0., 0.,
          0., 0., 0., 0., 1.70542635e-02, 3.10077518e-03, 2.17054263e-02,
          1.08527131e-02, 2.01550387e-02, 1.39534883e-02, 1.86046511e-02,
          0., 6.20155036e-03, 3.10077518e-03, 1.55038759e-02,
          1.86046511e-02, 2.01550387e-02, 2.01550387e-02, 7.75193796e-03,
          7.75193796e-03, 3.25581394e-02, 1.55038759e-03, 6.20155036e-03,
          7.75193796e-03, 2.17054263e-02, 0., 2.79069766e-02,
          6.20155036e-03, 7.75193796e-03, 2.79069766e-02, 6.20155036e-03,
          9.30232555e-03, 2.17054263e-02, 9.30232555e-03, 2.32558139e-02,
          2.48062015e-02, 7.75193796e-03, 2.01550387e-02, 1.08527131e-02,
          1.08527131e-02, 7.75193796e-03, 9.30232555e-03, 1.24031007e-02,
          4.65116277e-03, 1.39534883e-02, 6.20155036e-03, 6.20155036e-03,
          4.65116277e-03, 0., 1.70542635e-02, 2.48062015e-02,
          1.55038759e-02, 0., 9.30232555e-03, 6.20155036e-03,
          3.10077518e-03, 1.24031007e-02, 0., 1.08527131e-02,
          1.55038759e-03, 0., 2.79069766e-02, 4.65116277e-03,
          4.65116277e-03, 4.65116277e-03, 1.70542635e-02, 3.10077518e-03,
          9.30232555e-03, 6.20155036e-03, 3.10077518e-03, 4.65116277e-03,
          0., 4.65116277e-03, 6.20155036e-03, 1.39534883e-02,
          6.20155036e-03, 4.65116277e-03, 1.08527131e-02, 3.10077518e-03,
          1.24031007e-02, 9.30232555e-03, 4.65116277e-03, 1.08527131e-02,
          1.55038759e-03, 1.55038759e-03, 7.75193796e-03, 0.,
          3.10077518e-03, 3.10077518e-03, 1.55038759e-03, 7.75193796e-03,
          6.20155036e-03, 1.55038759e-03, 6.20155036e-03, 3.10077518e-03,
          9.30232555e-03, 1.24031007e-02, 7.75193796e-03, 7.75193796e-03,
          9.30232555e-03, 1.55038759e-03, 1.55038759e-03, 1.55038759e-03,
          3.10077518e-03, 1.55038759e-03, 3.10077518e-03, 0.,
          1.55038759e-03, 7.75193796e-03, 4.65116277e-03, 0.,
          4.65116277e-03, 1.55038759e-03, 0., 1.55038759e-03,
          1.55038759e-03, 1.55038759e-03, 1.55038759e-03, 7.75193796e-03,
          6.20155036e-03, 1.55038759e-03, 0., 1.55038759e-03,
          1.55038759e-03, 1.55038759e-03, 0., 1.55038759e-03,
          3.10077518e-03, 3.10077518e-03, 1.55038759e-03, 4.65116277e-03,
          0., 1.55038759e-03, 1.55038759e-03, 1.55038759e-03, 0.,
          1.55038759e-03, 0., 1.55038759e-03, 1.55038759e-03, 0., 0.,
          1.55038759e-03, 0., 0., 0., 0., 0., 0., 0., 0., 0., 0., 0.,
          1.21145369e-02, 4.40528616e-03, 1.98237877e-02, 1.98237877e-02,
          1.21145369e-02, 1.43171800e-02, 1.32158585e-02, 1.10132154e-03,
          9.91189387e-03, 7.70925079e-03, 2.20264308e-03, 9.91189387e-03,
          1.10132154e-02, 1.54185016e-02, 4.40528616e-03, 1.87224671e-02,
          1.76211447e-02, 5.50660770e-03, 2.09251083e-02, 1.65198222e-02,
          9.91189387e-03, 7.70925079e-03, 3.30396462e-03, 8.81057233e-03,
          6.60792924e-03, 1.10132154e-03, 3.63436118e-02, 1.10132154e-02,
          2.09251083e-02, 1.43171800e-02, 1.43171800e-02, 4.84581478e-02,
          1.43171800e-02, 1.43171800e-02, 1.43171800e-02, 1.32158585e-02,
          1.10132154e-03, 2.20264308e-03, 1.76211447e-02, 1.10132154e-03,
          2.09251083e-02, 3.30396462e-03, 1.43171800e-02, 2.20264308e-03,
          4.40528616e-03, 4.40528616e-03, 1.43171800e-02, 1.21145369e-02,
          1.10132154e-03, 3.30396462e-03, 2.09251083e-02, 1.21145369e-02,
          1.65198222e-02, 3.30396462e-03, 0., 3.30396462e-03, 0.,
          7.70925079e-03, 4.40528616e-03, 1.98237877e-02, 1.98237877e-02,
          6.60792924e-03, 0., 7.70925079e-03, 3.30396462e-03, 0.,
          5.50660770e-03, 0., 5.50660770e-03, 2.20264308e-03,
          1.76211447e-02, 9.91189387e-03, 1.21145369e-02, 2.42290739e-02,
          6.60792924e-03, 1.54185016e-02, 4.40528616e-03, 5.50660770e-03,
          3.30396462e-03, 2.20264308e-03, 6.60792924e-03, 3.30396462e-03,
          0., 1.10132154e-03, 4.40528616e-03, 2.20264308e-03,
          1.21145369e-02, 8.81057233e-03, 6.60792924e-03, 5.50660770e-03,
          0., 2.20264308e-03, 3.30396462e-03, 1.10132154e-03,
          8.81057233e-03, 1.10132154e-03, 7.70925079e-03, 5.50660770e-03,
          2.20264308e-03, 2.20264308e-03, 2.20264308e-03, 0., 0.,
          1.10132154e-03, 3.30396462e-03, 2.20264308e-03, 0.,
          7.70925079e-03, 6.60792924e-03, 0., 0., 3.30396462e-03,
          2.20264308e-03, 1.10132154e-03, 8.81057233e-03, 7.70925079e-03,
          1.10132154e-03, 1.10132154e-03, 2.20264308e-03, 5.50660770e-03,
          0., 1.10132154e-03, 9.91189387e-03, 7.70925079e-03,
          6.60792924e-03, 0., 3.30396462e-03, 1.10132154e-03,
          2.20264308e-03, 2.20264308e-03, 1.10132154e-03, 1.10132154e-03,
          0., 0., 0., 2.20264308e-03, 1.10132154e-03, 0., 1.10132154e-03,
          0., 0., 0., 0., 0., 0., 0., 0., 0., 0., 0., 1.56250000e-02,
          6.25000000e-02, 1.56250000e-02, 0., 2.08333340e-02,
          5.20833349e-03, 2.60416674e-03, 7.81250000e-03, 1.56250000e-02,
          2.60416674e-03, 1.04166670e-02, 1.56250000e-02, 7.81250000e-03,
          1.04166670e-02, 5.20833349e-03, 2.34375000e-02, 1.04166670e-02,
          1.04166670e-02, 1.04166670e-02, 7.81250000e-03, 2.60416679e-02,
          7.81250000e-03, 1.04166670e-02, 1.30208340e-02, 7.81250000e-03,
          2.34375000e-02, 2.60416674e-03, 5.20833349e-03, 7.81250000e-03,
          5.20833349e-03, 7.81250000e-03, 7.81250000e-03, 7.81250000e-03,
          0., 2.60416674e-03, 1.56250000e-02, 7.81250000e-03,
          3.38541679e-02, 7.81250000e-03, 3.64583358e-02, 1.04166670e-02,
          2.60416674e-03, 1.56250000e-02, 5.20833349e-03, 3.12500000e-02,
          2.08333340e-02, 3.12500000e-02, 2.60416674e-03, 7.81250000e-03,
          2.08333340e-02, 2.60416679e-02, 7.81250000e-03, 1.04166670e-02,
          5.20833349e-03, 0., 2.60416674e-03, 2.60416674e-03,
          1.04166670e-02, 7.81250000e-03, 7.81250000e-03, 7.81250000e-03,
          2.60416674e-03, 5.20833349e-03, 2.60416674e-03, 5.20833349e-03,
          2.60416674e-03, 2.60416674e-03, 0., 2.60416674e-03,
          1.04166670e-02, 7.81250000e-03, 2.60416674e-03, 7.81250000e-03,
          7.81250000e-03, 0., 1.04166670e-02, 1.30208340e-02,
          5.20833349e-03, 5.20833349e-03, 5.20833349e-03, 7.81250000e-03,
          2.60416674e-03, 2.60416674e-03, 0., 7.81250000e-03, 0.,
          7.81250000e-03, 2.60416674e-03, 5.20833349e-03, 2.60416674e-03,
          5.20833349e-03, 0., 2.60416674e-03, 0., 1.56250000e-02,
          7.81250000e-03, 5.20833349e-03, 0., 2.60416674e-03,
          5.20833349e-03, 5.20833349e-03, 0., 0., 2.60416674e-03,
          2.60416674e-03, 0., 0., 1.04166670e-02, 0., 0., 0., 0., 0., 0.,
          7.81250000e-03, 0., 0., 2.60416674e-03, 5.20833349e-03,
          2.60416674e-03, 2.60416674e-03, 2.60416674e-03, 2.60416674e-03,
          0., 5.20833349e-03, 0., 0., 5.20833349e-03, 5.20833349e-03,
          5.20833349e-03, 0., 2.60416674e-03, 5.20833349e-03, 0., 0., 0.,
          2.60416674e-03, 0., 0., 2.60416674e-03, 0., 0., 2.60416674e-03,
          0., 0., 0., 0., 0., 0., 0., 4.80769249e-03, 1.92307699e-02,
          1.44230779e-02, 7.21153896e-03, 4.80769249e-03, 4.80769249e-03,
          2.40384620e-02, 7.21153896e-03, 9.61538497e-03, 2.40384624e-03,
          1.44230779e-02, 4.80769249e-03, 9.61538497e-03, 1.44230779e-02,
          2.40384624e-03, 1.92307699e-02, 2.16346160e-02, 1.68269239e-02,
          9.61538497e-03, 1.20192310e-02, 1.68269239e-02, 1.44230779e-02,
          4.56730798e-02, 7.21153896e-03, 4.80769249e-03, 4.80769249e-03,
          9.61538497e-03, 7.21153896e-03, 4.80769249e-03, 1.20192310e-02,
          1.44230779e-02, 1.20192310e-02, 1.20192310e-02, 1.20192310e-02,
          2.40384624e-03, 9.61538497e-03, 3.12500000e-02, 4.56730798e-02,
          9.61538497e-03, 7.21153896e-03, 4.80769249e-03, 7.21153896e-03,
          7.21153896e-03, 7.21153896e-03, 0., 0., 7.21153896e-03,
          1.20192310e-02, 9.61538497e-03, 4.80769249e-03, 4.80769249e-03,
          9.61538497e-03, 4.80769249e-03, 2.40384624e-03, 0., 0.,
          9.61538497e-03, 1.20192310e-02, 1.20192310e-02, 9.61538497e-03,
          2.40384624e-03, 9.61538497e-03, 1.20192310e-02, 9.61538497e-03,
          1.20192310e-02, 1.20192310e-02, 9.61538497e-03, 0.,
          2.40384624e-03, 0., 7.21153896e-03, 4.80769249e-03,
          9.61538497e-03, 1.44230779e-02, 9.61538497e-03, 1.20192310e-02,
          0., 9.61538497e-03, 4.80769249e-03, 4.80769249e-03,
          9.61538497e-03, 2.40384624e-03, 0., 7.21153896e-03,
          1.20192310e-02, 0., 7.21153896e-03, 2.40384624e-03,
          4.80769249e-03, 4.80769249e-03, 0., 4.80769249e-03, 0.,
          4.80769249e-03, 1.44230779e-02, 2.40384624e-03, 4.80769249e-03,
          7.21153896e-03, 4.80769249e-03, 7.21153896e-03, 4.80769249e-03,
          0., 0., 0., 7.21153896e-03, 4.80769249e-03, 2.40384624e-03,
          1.20192310e-02, 2.40384624e-03, 0., 7.21153896e-03,
          2.40384624e-03, 2.40384624e-03, 0., 4.80769249e-03,
          2.40384624e-03, 4.80769249e-03, 0., 0., 2.40384624e-03,
          4.80769249e-03, 0., 2.40384624e-03, 2.40384624e-03,
          1.20192310e-02, 2.40384624e-03, 0., 0., 7.21153896e-03,
          2.40384624e-03, 0., 0., 1.20192310e-02, 0., 0., 7.21153896e-03,
          0., 0., 4.80769249e-03, 0., 0., 0., 0., 0., 2.40384624e-03, 0.,
          0., 0., 0., 0., 2.29885057e-02, 5.74712642e-03, 1.14942528e-02,
          0., 1.72413792e-02, 8.62068962e-03, 1.14942528e-02,
          2.87356321e-03, 1.14942528e-02, 2.87356321e-03, 8.62068962e-03,
          2.87356321e-03, 1.14942528e-02, 2.58620679e-02, 1.72413792e-02,
          1.14942528e-02, 8.62068962e-03, 8.62068962e-03, 2.01149434e-02,
          5.74712642e-03, 2.87356321e-03, 1.14942528e-02, 5.45977019e-02,
          1.14942528e-02, 1.14942528e-02, 6.03448264e-02, 2.87356321e-03,
          1.43678160e-02, 2.01149434e-02, 2.01149434e-02, 5.74712642e-03,
          1.14942528e-02, 2.87356321e-03, 8.62068962e-03, 2.87356321e-03,
          8.62068962e-03, 2.01149434e-02, 2.29885057e-02, 2.87356321e-03,
          1.43678160e-02, 1.14942528e-02, 1.14942528e-02, 1.43678160e-02,
          5.74712642e-03, 5.74712642e-03, 5.74712642e-03, 2.58620679e-02,
          5.74712642e-03, 1.72413792e-02, 1.43678160e-02, 2.87356321e-03,
          0., 0., 1.43678160e-02, 1.14942528e-02, 0., 1.72413792e-02,
          2.87356321e-03, 1.14942528e-02, 2.87356321e-03, 8.62068962e-03,
          2.87356321e-03, 2.87356321e-03, 2.87356321e-03, 2.58620679e-02,
          8.62068962e-03, 8.62068962e-03, 0., 5.74712642e-03,
          5.74712642e-03, 5.74712642e-03, 1.14942528e-02, 5.74712642e-03,
          0., 2.87356321e-03, 2.87356321e-03, 5.74712642e-03,
          8.62068962e-03, 2.87356321e-03, 1.14942528e-02, 0., 0., 0., 0.,
          0., 5.74712642e-03, 5.74712642e-03, 5.74712642e-03, 0.,
          1.43678160e-02, 5.74712642e-03, 0., 5.74712642e-03,
          2.87356321e-03, 5.74712642e-03, 2.87356321e-03, 5.74712642e-03,
          1.43678160e-02, 2.87356321e-03, 8.62068962e-03, 0., 0., 0., 0.,
          8.62068962e-03, 0., 0., 2.87356321e-03, 0., 0., 2.87356321e-03,
          5.74712642e-03, 0., 0., 0., 0., 2.87356321e-03, 0.,
          2.87356321e-03, 5.74712642e-03, 0., 0., 2.87356321e-03,
          5.74712642e-03, 2.87356321e-03, 2.87356321e-03, 2.87356321e-03,
          0., 2.87356321e-03, 2.87356321e-03, 2.87356321e-03, 0.,
          1.43678160e-02, 0., 0., 0., 2.87356321e-03, 0., 0., 0.,
          2.87356321e-03, 0., 0., 0., 0., 0., 0., 0., 0., 0.,
          1.76600441e-02, 8.83002207e-03, 6.62251655e-03, 5.07726260e-02,
          1.32450331e-02, 8.83002207e-03, 6.62251655e-03, 2.20750552e-03,
          2.20750552e-02, 0., 1.32450331e-02, 6.62251655e-03,
          1.10375276e-02, 8.83002207e-03, 1.54525386e-02, 1.32450331e-02,
          2.20750552e-02, 1.32450331e-02, 1.10375276e-02, 1.76600441e-02,
          1.10375276e-02, 6.62251655e-03, 8.83002207e-03, 6.62251655e-03,
          1.54525386e-02, 4.41501103e-03, 4.41501103e-03, 0.,
          8.83002207e-03, 8.83002207e-03, 2.20750552e-02, 6.62251655e-03,
          6.62251655e-03, 1.10375276e-02, 1.10375276e-02, 6.62251655e-03,
          1.32450331e-02, 3.09050772e-02, 1.10375276e-02, 1.10375276e-02,
          1.32450331e-02, 1.10375276e-02, 1.32450331e-02, 6.62251655e-03,
          1.76600441e-02, 8.83002207e-03, 8.83002207e-03, 4.41501103e-03,
          0., 1.10375276e-02, 1.76600441e-02, 8.83002207e-03,
          4.41501103e-03, 4.41501103e-03, 0., 0., 2.86975726e-02,
          8.83002207e-03, 1.32450331e-02, 6.62251655e-03, 6.62251655e-03,
          0., 6.62251655e-03, 6.62251655e-03, 2.20750552e-03,
          8.83002207e-03, 4.41501103e-03, 0., 1.32450331e-02,
          4.41501103e-03, 8.83002207e-03, 8.83002207e-03, 4.41501103e-03,
          6.62251655e-03, 8.83002207e-03, 3.97351012e-02, 8.83002207e-03,
          4.41501103e-03, 4.41501103e-03, 1.54525386e-02, 1.10375276e-02,
          1.10375276e-02, 0., 6.62251655e-03, 0., 0., 6.62251655e-03, 0.,
          4.41501103e-03, 6.62251655e-03, 0., 4.41501103e-03,
          2.20750552e-03, 4.41501103e-03, 4.41501103e-03, 0.,
          6.62251655e-03, 2.20750552e-03, 2.20750552e-03, 2.20750552e-03,
          4.41501103e-03, 0., 0., 0., 0., 1.10375276e-02, 2.20750552e-02,
          0., 0., 0., 0., 0., 2.20750552e-03, 0., 0., 6.62251655e-03,
          4.41501103e-03, 0., 2.20750552e-03, 0., 2.20750552e-03, 0.,
          1.32450331e-02, 4.41501103e-03, 6.62251655e-03, 0., 0., 0., 0.,
          0., 2.20750552e-03, 2.20750552e-03, 1.10375276e-02, 0.,
          2.20750552e-03, 0., 2.20750552e-03, 0., 0., 0., 0., 0., 0., 0.,
          0., 0., 0., 0., 0., 0., 1.22324163e-02, 9.17431246e-03,
          1.22324163e-02, 9.17431246e-03, 9.17431246e-03, 1.52905202e-02,
          1.22324163e-02, 3.05810408e-03, 1.52905202e-02, 6.11620815e-03,
          9.17431246e-03, 0., 3.05810408e-03, 6.11620815e-03,
          1.52905202e-02, 1.52905202e-02, 1.22324163e-02, 9.17431246e-03,
          3.05810403e-02, 1.52905202e-02, 0., 1.52905202e-02,
          3.05810408e-03, 9.17431246e-03, 3.05810408e-03, 9.17431246e-03,
          9.17431246e-03, 1.83486249e-02, 3.05810408e-03, 1.83486249e-02,
          6.11620815e-03, 9.17431246e-03, 3.05810408e-03, 1.22324163e-02,
          3.05810408e-03, 0., 1.22324163e-02, 2.75229365e-02,
          9.17431246e-03, 9.17431246e-03, 6.11620815e-03, 1.22324163e-02,
          1.52905202e-02, 9.17431246e-03, 9.17431246e-03, 1.83486249e-02,
          1.52905202e-02, 1.52905202e-02, 1.22324163e-02, 1.52905202e-02,
          1.22324163e-02, 3.05810408e-03, 1.52905202e-02, 6.11620815e-03,
          0., 3.05810408e-03, 2.75229365e-02, 6.11620815e-03,
          6.11620815e-03, 6.11620815e-03, 0., 3.05810408e-03,
          1.52905202e-02, 1.52905202e-02, 3.36391442e-02, 9.17431246e-03,
          1.22324163e-02, 0., 1.52905202e-02, 9.17431246e-03,
          3.05810408e-03, 3.05810408e-03, 9.17431246e-03, 3.05810408e-03,
          1.22324163e-02, 1.22324163e-02, 6.11620815e-03, 9.17431246e-03,
          3.05810408e-03, 9.17431246e-03, 6.11620815e-03, 6.11620815e-03,
          0., 3.05810408e-03, 6.11620815e-03, 0., 0., 6.11620815e-03,
          1.22324163e-02, 9.17431246e-03, 9.17431246e-03, 3.05810408e-03,
          0., 6.11620815e-03, 3.05810408e-03, 3.05810408e-03,
          2.14067288e-02, 6.11620815e-03, 6.11620815e-03, 0.,
          6.11620815e-03, 0., 0., 3.05810408e-03, 9.17431246e-03, 0., 0.,
          6.11620815e-03, 6.11620815e-03, 0., 3.05810408e-03, 0.,
          3.05810408e-03, 0., 3.05810408e-03, 3.05810408e-03,
          1.22324163e-02, 0., 3.05810408e-03, 6.11620815e-03,
          3.05810408e-03, 3.05810408e-03, 0., 0., 9.17431246e-03, 0., 0.,
          0., 0., 6.11620815e-03, 0., 0., 6.11620815e-03, 0., 0., 0., 0.,
          0., 0., 0., 3.05810408e-03, 0., 0., 0., 0., 0., 0., 0., 0., 0.,
          2.18487401e-02, 2.35294122e-02, 2.52100844e-02, 1.00840339e-02,
          2.52100844e-02, 1.34453783e-02, 1.17647061e-02, 3.36134457e-03,
          8.40336177e-03, 6.72268914e-03, 1.68067235e-02, 1.00840339e-02,
          3.36134457e-03, 1.34453783e-02, 3.36134457e-03, 1.68067235e-02,
          2.35294122e-02, 6.72268914e-03, 0., 5.04201697e-03,
          2.52100844e-02, 1.68067229e-03, 4.53781523e-02, 1.68067235e-02,
          1.17647061e-02, 1.68067229e-03, 1.17647061e-02, 1.17647061e-02,
          1.17647061e-02, 1.17647061e-02, 1.84873957e-02, 2.85714287e-02,
          1.84873957e-02, 8.40336177e-03, 1.34453783e-02, 1.34453783e-02,
          1.00840339e-02, 1.68067235e-02, 1.34453783e-02, 8.40336177e-03,
          8.40336177e-03, 0., 5.04201697e-03, 0., 5.04201697e-03,
          3.36134457e-03, 1.00840339e-02, 1.00840339e-02, 1.68067229e-03,
          5.04201697e-03, 1.68067235e-02, 1.00840339e-02, 1.00840339e-02,
          8.40336177e-03, 8.40336177e-03, 1.68067229e-03, 1.68067229e-03,
          1.84873957e-02, 1.68067229e-03, 5.04201697e-03, 8.40336177e-03,
          3.36134457e-03, 3.36134457e-03, 8.40336177e-03, 3.36134457e-03,
          6.72268914e-03, 5.04201697e-03, 1.68067229e-03, 1.00840339e-02,
          3.36134457e-03, 6.72268914e-03, 3.36134457e-03, 1.34453783e-02,
          1.00840339e-02, 6.72268914e-03, 1.17647061e-02, 1.84873957e-02,
          1.34453783e-02, 6.72268914e-03, 6.72268914e-03, 1.00840339e-02,
          5.04201697e-03, 0., 0., 5.04201697e-03, 0., 0., 8.40336177e-03,
          5.04201697e-03, 3.36134457e-03, 3.36134457e-03, 1.68067229e-03,
          3.36134457e-03, 3.36134457e-03, 6.72268914e-03, 5.04201697e-03,
          6.72268914e-03, 6.72268914e-03, 3.36134457e-03, 0.,
          1.68067229e-03, 1.68067229e-03, 0., 3.36134457e-03,
          1.84873957e-02, 0., 0., 8.40336177e-03, 5.04201697e-03, 0., 0.,
          0., 1.68067229e-03, 1.68067229e-03, 1.68067229e-03,
          6.72268914e-03, 0., 1.68067229e-03, 1.68067229e-03, 0., 0.,
          5.04201697e-03, 0., 1.68067229e-03, 5.04201697e-03, 0.,
          1.68067229e-03, 0., 1.68067229e-03, 0., 3.36134457e-03,
          1.68067229e-03, 1.34453783e-02, 0., 1.68067229e-03, 0.,
          1.68067229e-03, 0., 0., 1.68067229e-03, 0., 0., 0., 0., 0., 0.,
          0., 0., 0., 0., 5.49450563e-03, 1.92307699e-02, 1.37362638e-02,
          2.74725282e-03, 1.64835174e-02, 1.09890113e-02, 1.09890113e-02,
          8.24175868e-03, 1.64835174e-02, 2.74725282e-03, 2.74725277e-02,
          8.24175868e-03, 1.09890113e-02, 8.24175868e-03, 5.49450563e-03,
          1.09890113e-02, 1.37362638e-02, 2.74725282e-03, 1.09890113e-02,
          5.49450563e-03, 0., 1.09890113e-02, 1.92307699e-02,
          1.37362638e-02, 1.09890113e-02, 2.74725282e-03, 0.,
          2.74725282e-03, 1.37362638e-02, 2.74725282e-03, 1.37362638e-02,
          2.19780225e-02, 1.64835174e-02, 5.49450563e-03, 5.49450563e-03,
          8.24175868e-03, 1.64835174e-02, 2.19780225e-02, 5.49450563e-03,
          1.92307699e-02, 1.37362638e-02, 2.74725282e-03, 1.09890113e-02,
          1.09890113e-02, 5.49450563e-03, 2.74725282e-03, 1.37362638e-02,
          5.49450563e-03, 2.74725282e-03, 8.24175868e-03, 8.24175868e-03,
          2.74725282e-03, 8.24175868e-03, 5.49450563e-03, 5.49450563e-03,
          0., 5.49450563e-03, 8.24175868e-03, 5.49450563e-03,
          1.92307699e-02, 2.74725282e-03, 1.09890113e-02, 1.09890113e-02,
          1.92307699e-02, 1.09890113e-02, 8.24175868e-03, 1.64835174e-02,
          5.49450563e-03, 2.47252751e-02, 1.92307699e-02, 5.49450563e-03,
          1.37362638e-02, 1.09890113e-02, 1.09890113e-02, 8.24175868e-03,
          1.64835174e-02, 8.24175868e-03, 8.24175868e-03, 2.74725282e-03,
          2.74725282e-03, 0., 5.49450563e-03, 0., 2.74725282e-03,
          2.19780225e-02, 2.74725282e-03, 5.49450563e-03, 5.49450563e-03,
          0., 1.64835174e-02, 8.24175868e-03, 2.74725282e-03,
          2.74725282e-03, 2.74725282e-03, 1.09890113e-02, 2.74725282e-03,
          5.49450563e-03, 0., 0., 1.37362638e-02, 5.49450563e-03,
          2.74725282e-03, 0., 2.74725282e-03, 1.09890113e-02,
          2.74725282e-03, 0., 0., 8.24175868e-03, 0., 0., 2.74725282e-03,
          5.49450563e-03, 0., 0., 1.92307699e-02, 8.24175868e-03, 0., 0.,
          2.74725282e-03, 2.74725282e-03, 5.49450563e-03, 0., 0., 0., 0.,
          2.74725282e-03, 2.74725282e-03, 0., 0., 0., 0., 5.49450563e-03,
          0., 2.74725282e-03, 0., 5.49450563e-03, 0., 5.49450563e-03, 0.,
          0., 0., 0., 0., 0., 0., 0., 0., 0., 0., 7.86516815e-03,
          2.24719103e-03, 5.61797759e-03, 1.12359552e-02, 2.35955063e-02,
          8.98876414e-03, 1.34831462e-02, 6.85393289e-02, 1.12359552e-03,
          5.05617969e-02, 3.37078655e-03, 4.49438207e-03, 1.34831462e-02,
          3.14606726e-02, 1.23595502e-02, 1.01123601e-02, 1.79775283e-02,
          6.74157310e-03, 1.01123601e-02, 2.58426964e-02, 7.86516815e-03,
          5.61797759e-03, 5.73033728e-02, 8.98876414e-03, 1.57303363e-02,
          2.24719103e-03, 4.71910127e-02, 1.12359552e-03, 5.61797759e-03,
          6.74157310e-03, 3.37078655e-03, 1.91011243e-02, 4.49438207e-03,
          8.98876414e-03, 7.86516815e-03, 1.01123601e-02, 0.,
          1.12359552e-02, 3.37078655e-03, 1.12359552e-03, 1.79775283e-02,
          3.37078655e-03, 2.24719103e-03, 2.24719103e-03, 1.12359552e-03,
          3.37078655e-03, 6.74157310e-03, 5.61797759e-03, 6.74157310e-03,
          0., 8.98876414e-03, 3.37078655e-03, 6.74157310e-03,
          2.24719103e-03, 8.98876414e-03, 2.24719103e-03, 0.,
          3.37078655e-03, 4.49438207e-03, 1.01123601e-02, 2.13483144e-02,
          1.01123601e-02, 2.24719103e-03, 1.23595502e-02, 4.49438207e-03,
          6.74157310e-03, 1.12359552e-03, 3.93258445e-02, 2.24719103e-03,
          0., 4.49438207e-03, 1.12359552e-03, 6.74157310e-03,
          7.86516815e-03, 5.61797759e-03, 4.49438207e-03, 2.24719103e-03,
          4.49438207e-03, 5.61797759e-03, 0., 1.12359552e-03, 0., 0.,
          1.12359552e-02, 1.12359552e-03, 0., 3.37078655e-03,
          5.61797759e-03, 1.12359552e-03, 1.12359552e-03, 0.,
          3.37078655e-03, 6.74157310e-03, 3.37078655e-03, 2.92134844e-02,
          1.12359552e-03, 0., 2.47191004e-02, 1.12359552e-03,
          3.37078655e-03, 0., 1.12359552e-03, 2.58426964e-02, 0.,
          7.86516815e-03, 1.12359552e-03, 1.12359552e-03, 1.12359552e-03,
          5.61797759e-03, 0., 2.24719103e-03, 0., 4.49438207e-03, 0.,
          5.61797759e-03, 1.12359552e-03, 1.12359552e-03, 1.12359552e-03,
          4.49438207e-03, 4.49438207e-03, 0., 5.61797759e-03,
          1.12359552e-03, 2.24719103e-03, 1.12359552e-03, 1.12359552e-03,
          2.24719103e-03, 0., 1.12359552e-03, 4.49438207e-03, 0.,
          2.24719103e-03, 6.74157310e-03, 0., 0., 1.12359552e-03,
          1.12359552e-03, 1.12359552e-03, 0., 0., 0., 2.24719103e-03, 0.,
          0., 0., 0., 0., 0., 0., 0., 1.36986300e-02, 2.39726026e-02,
          3.42465751e-03, 1.02739725e-02, 3.42465751e-02, 0.,
          1.02739725e-02, 0., 3.42465751e-02, 3.42465751e-03,
          2.05479451e-02, 1.36986300e-02, 6.84931502e-03, 3.42465751e-03,
          6.84931502e-03, 6.84931502e-03, 6.84931502e-03, 2.73972601e-02,
          1.02739725e-02, 3.42465751e-03, 3.42465751e-03, 6.84931502e-03,
          6.84931502e-03, 6.84931502e-03, 6.84931502e-03, 2.05479451e-02,
          1.71232875e-02, 3.42465751e-03, 3.42465751e-03, 2.39726026e-02,
          1.71232875e-02, 2.73972601e-02, 1.02739725e-02, 0.,
          6.84931502e-03, 6.84931502e-03, 1.36986300e-02, 1.36986300e-02,
          1.02739725e-02, 3.42465751e-02, 1.02739725e-02, 3.42465751e-03,
          1.36986300e-02, 1.36986300e-02, 1.02739725e-02, 1.02739725e-02,
          2.39726026e-02, 3.42465751e-03, 3.42465751e-03, 6.84931502e-03,
          6.84931502e-03, 1.02739725e-02, 3.42465751e-03, 0.,
          3.42465751e-03, 3.42465751e-03, 2.05479451e-02, 1.02739725e-02,
          3.42465751e-03, 1.02739725e-02, 0., 0., 1.36986300e-02,
          1.02739725e-02, 1.36986300e-02, 3.42465751e-03, 3.42465751e-03,
          0., 6.84931502e-03, 0., 3.42465751e-03, 6.84931502e-03,
          6.84931502e-03, 6.84931502e-03, 1.36986300e-02, 1.71232875e-02,
          1.02739725e-02, 1.71232875e-02, 1.02739725e-02, 0.,
          6.84931502e-03, 0., 0., 1.02739725e-02, 6.84931502e-03, 0.,
          6.84931502e-03, 0., 6.84931502e-03, 3.42465751e-03,
          2.05479451e-02, 0., 6.84931502e-03, 1.71232875e-02,
          3.42465751e-03, 3.42465751e-03, 3.42465751e-03, 6.84931502e-03,
          3.42465751e-03, 1.36986300e-02, 6.84931502e-03, 3.42465751e-03,
          0., 1.02739725e-02, 3.42465751e-03, 0., 0., 6.84931502e-03, 0.,
          0., 0., 3.42465751e-03, 3.42465751e-03, 0., 3.42465751e-03,
          3.42465751e-03, 0., 0., 0., 3.42465751e-03, 3.42465751e-03, 0.,
          0., 0., 1.02739725e-02, 0., 0., 0., 3.42465751e-03, 0.,
          6.84931502e-03, 0., 3.42465751e-03, 0., 0., 0., 3.42465751e-03,
          0., 6.84931502e-03, 0., 0., 0., 0., 0., 0., 0., 0., 0., 0., 0.,
          3.65168527e-02, 3.65168527e-02, 5.61797759e-03, 8.42696615e-03,
          1.68539323e-02, 8.42696615e-03, 5.61797759e-03, 2.80898879e-03,
          1.68539323e-02, 0., 1.40449442e-02, 8.42696615e-03,
          5.61797759e-03, 0., 1.12359552e-02, 1.68539323e-02,
          1.12359552e-02, 1.96629222e-02, 5.61797759e-03, 5.61797759e-03,
          1.12359552e-02, 8.42696615e-03, 1.96629222e-02, 5.61797759e-03,
          8.42696615e-03, 1.12359552e-02, 2.80898879e-03, 0.,
          1.96629222e-02, 2.80898884e-02, 1.12359552e-02, 1.12359552e-02,
          0., 2.80898879e-03, 8.42696615e-03, 1.12359552e-02, 0.,
          4.49438207e-02, 5.61797759e-03, 3.08988765e-02, 2.80898879e-03,
          5.61797759e-03, 1.40449442e-02, 1.68539323e-02, 1.40449442e-02,
          1.68539323e-02, 5.05617969e-02, 5.61797759e-03, 2.80898879e-03,
          1.96629222e-02, 1.68539323e-02, 1.12359552e-02, 5.61797759e-03,
          5.61797759e-03, 5.61797759e-03, 8.42696615e-03, 1.12359552e-02,
          0., 2.80898879e-03, 5.61797759e-03, 2.80898879e-03,
          2.80898879e-03, 5.61797759e-03, 8.42696615e-03, 1.12359552e-02,
          1.96629222e-02, 2.80898879e-03, 2.80898879e-03, 8.42696615e-03,
          1.96629222e-02, 8.42696615e-03, 2.80898879e-03, 5.61797759e-03,
          5.61797759e-03, 5.61797759e-03, 1.40449442e-02, 1.68539323e-02,
          1.12359552e-02, 5.61797759e-03, 2.80898879e-03, 5.61797759e-03,
          0., 0., 2.80898879e-03, 0., 2.80898879e-03, 2.80898879e-03, 0.,
          5.61797759e-03, 2.80898879e-03, 5.61797759e-03, 0.,
          2.80898879e-03, 5.61797759e-03, 2.80898879e-03, 2.80898879e-03,
          5.61797759e-03, 2.80898879e-03, 2.80898879e-03, 2.80898879e-03,
          0., 0., 0., 2.80898879e-03, 2.80898879e-03, 2.80898879e-03, 0.,
          0., 2.80898879e-03, 0., 0., 0., 0., 0., 2.80898879e-03,
          2.80898879e-03, 0., 2.80898879e-03, 0., 0., 2.80898879e-03,
          5.61797759e-03, 0., 2.80898879e-03, 8.42696615e-03, 0.,
          2.80898879e-03, 0., 5.61797759e-03, 2.80898879e-03, 0., 0.,
          2.52808984e-02, 0., 0., 0., 2.80898879e-03, 0., 0., 0., 0., 0.,
          0., 0., 2.80898879e-03, 0., 0., 0., 0., 0., 3.68421078e-02,
          3.42105292e-02, 7.89473765e-03, 1.05263162e-02, 5.26315812e-03,
          7.89473765e-03, 1.05263162e-02, 5.26315812e-03, 2.10526325e-02,
          5.26315812e-03, 1.31578948e-02, 5.26315812e-03, 7.89473765e-03,
          2.89473701e-02, 1.57894753e-02, 5.26315812e-03, 5.26315812e-03,
          1.05263162e-02, 2.63157897e-02, 7.89473765e-03, 2.63157906e-03,
          1.31578948e-02, 1.31578948e-02, 5.26315812e-03, 7.89473765e-03,
          1.84210539e-02, 5.26315812e-03, 1.05263162e-02, 2.63157906e-03,
          5.26315812e-03, 7.89473765e-03, 2.63157906e-03, 5.26315812e-03,
          0., 1.05263162e-02, 1.05263162e-02, 1.05263162e-02,
          6.84210584e-02, 5.26315812e-03, 2.63157897e-02, 7.89473765e-03,
          5.26315812e-03, 2.10526325e-02, 2.36842111e-02, 5.26315812e-03,
          2.63157897e-02, 3.15789506e-02, 1.05263162e-02, 1.84210539e-02,
          2.36842111e-02, 0., 2.63157906e-03, 2.63157906e-03, 0.,
          1.05263162e-02, 7.89473765e-03, 5.26315812e-03, 0.,
          7.89473765e-03, 1.05263162e-02, 2.63157906e-03, 0.,
          5.26315812e-03, 1.05263162e-02, 1.84210539e-02, 2.63157906e-03,
          2.63157906e-03, 0., 1.05263162e-02, 7.89473765e-03, 0., 0.,
          7.89473765e-03, 5.26315812e-03, 1.05263162e-02, 0.,
          5.26315812e-03, 0., 7.89473765e-03, 7.89473765e-03,
          2.63157906e-03, 2.63157906e-03, 2.63157906e-03, 5.26315812e-03,
          7.89473765e-03, 2.63157906e-03, 2.63157906e-03, 0., 0.,
          1.31578948e-02, 2.63157906e-03, 0., 2.63157906e-03,
          7.89473765e-03, 5.26315812e-03, 2.63157906e-03, 5.26315812e-03,
          5.26315812e-03, 5.26315812e-03, 5.26315812e-03, 0., 0., 0.,
          2.63157906e-03, 5.26315812e-03, 2.63157906e-03, 0.,
          7.89473765e-03, 7.89473765e-03, 0., 0., 2.63157906e-03,
          5.26315812e-03, 0., 1.05263162e-02, 5.26315812e-03,
          2.63157906e-03, 0., 0., 7.89473765e-03, 0., 0., 2.63157906e-03,
          0., 2.63157906e-03, 0., 2.63157906e-03, 0., 0., 5.26315812e-03,
          2.63157906e-03, 0., 0., 0., 0., 5.26315812e-03, 5.26315812e-03,
          0., 2.63157906e-03, 0., 0., 0., 0., 0., 0., 0., 0., 0., 0., 0.,
          3.81679391e-03, 7.63358781e-03, 7.63358781e-03, 1.52671756e-02,
          3.81679391e-03, 7.63358781e-03, 1.14503819e-02, 7.63358781e-03,
          1.14503819e-02, 0., 3.81679391e-03, 1.52671756e-02,
          1.52671756e-02, 1.52671756e-02, 1.14503819e-02, 1.14503819e-02,
          7.63358781e-03, 3.81679391e-03, 7.63358781e-03, 1.14503819e-02,
          3.81679391e-03, 1.52671756e-02, 7.63358781e-03, 0.,
          1.90839693e-02, 7.63358781e-03, 7.63358781e-03, 7.63358781e-03,
          2.29007639e-02, 1.90839693e-02, 3.81679391e-03, 1.52671756e-02,
          1.90839693e-02, 7.63358781e-03, 0., 3.81679391e-03,
          1.90839693e-02, 2.29007639e-02, 7.63358781e-03, 1.14503819e-02,
          7.63358781e-03, 1.52671756e-02, 1.14503819e-02, 3.05343512e-02,
          0., 7.63358781e-03, 6.10687025e-02, 1.14503819e-02,
          1.52671756e-02, 3.81679391e-03, 7.63358781e-03, 0.,
          7.63358781e-03, 7.63358781e-03, 0., 7.63358781e-03,
          1.52671756e-02, 0., 1.14503819e-02, 7.63358781e-03,
          1.14503819e-02, 3.81679391e-03, 0., 7.63358781e-03,
          3.05343512e-02, 0., 1.14503819e-02, 0., 0., 3.81679391e-03, 0.,
          7.63358781e-03, 0., 1.14503819e-02, 1.14503819e-02,
          3.81679391e-03, 1.14503819e-02, 3.81679391e-03, 7.63358781e-03,
          3.81679391e-03, 7.63358781e-03, 3.81679391e-03, 0., 0., 0.,
          1.14503819e-02, 1.14503819e-02, 7.63358781e-03, 3.81679391e-03,
          2.29007639e-02, 3.81679391e-03, 7.63358781e-03, 0.,
          1.14503819e-02, 1.14503819e-02, 3.81679391e-03, 7.63358781e-03,
          1.14503819e-02, 0., 7.63358781e-03, 1.52671756e-02,
          3.81679391e-03, 0., 3.81679391e-03, 1.14503819e-02, 0., 0., 0.,
          7.63358781e-03, 0., 3.81679391e-03, 3.81679391e-03, 0., 0., 0.,
          0., 0., 0., 0., 1.14503819e-02, 0., 0., 1.14503819e-02, 0.,
          7.63358781e-03, 3.81679391e-03, 0., 1.52671756e-02, 0., 0.,
          3.81679391e-03, 0., 3.81679391e-03, 0., 0., 0., 0., 0., 0., 0.,
          0., 0., 0., 0., 0., 0., 0., 0., 0., 0., 3.33333341e-03,
          1.66666675e-02, 1.33333337e-02, 0., 3.33333341e-03,
          1.33333337e-02, 6.66666683e-03, 0., 3.99999991e-02, 0.,
          1.99999996e-02, 6.66666683e-03, 1.33333337e-02, 1.33333337e-02,
          0., 2.33333334e-02, 2.33333334e-02, 2.33333334e-02,
          9.99999978e-03, 6.66666683e-03, 6.66666683e-03, 1.66666675e-02,
          0., 1.33333337e-02, 1.66666675e-02, 3.00000012e-02,
          3.33333341e-03, 1.66666675e-02, 6.66666683e-03, 0.,
          2.33333334e-02, 3.33333341e-03, 9.99999978e-03, 0.,
          1.33333337e-02, 1.33333337e-02, 3.33333351e-02, 1.33333337e-02,
          1.33333337e-02, 1.66666675e-02, 9.99999978e-03, 2.33333334e-02,
          1.66666675e-02, 9.99999978e-03, 6.66666683e-03, 0.,
          1.33333337e-02, 0., 3.33333341e-03, 3.33333341e-03,
          9.99999978e-03, 1.99999996e-02, 3.33333341e-03, 1.66666675e-02,
          0., 3.33333341e-03, 1.33333337e-02, 9.99999978e-03, 0.,
          6.66666683e-03, 9.99999978e-03, 6.66666683e-03, 9.99999978e-03,
          6.66666683e-03, 1.33333337e-02, 3.33333341e-03, 9.99999978e-03,
          0., 1.33333337e-02, 9.99999978e-03, 1.33333337e-02,
          1.33333337e-02, 3.33333341e-03, 0., 6.66666683e-03,
          6.66666683e-03, 9.99999978e-03, 6.66666683e-03, 6.66666683e-03,
          9.99999978e-03, 9.99999978e-03, 9.99999978e-03, 3.33333341e-03,
          0., 6.66666683e-03, 3.33333341e-03, 9.99999978e-03, 0.,
          3.33333341e-03, 9.99999978e-03, 3.33333341e-03, 3.33333341e-03,
          0., 3.33333341e-03, 3.33333341e-03, 3.33333341e-03,
          6.66666683e-03, 3.33333341e-03, 6.66666683e-03, 6.66666683e-03,
          3.33333341e-03, 0., 0., 9.99999978e-03, 9.99999978e-03, 0., 0.,
          0., 0., 0., 9.99999978e-03, 3.33333341e-03, 0., 0.,
          3.33333341e-03, 6.66666683e-03, 0., 0., 0., 3.33333341e-03, 0.,
          0., 0., 6.66666683e-03, 3.33333341e-03, 0., 0., 3.33333341e-03,
          3.33333341e-03, 3.33333341e-03, 0., 0., 9.99999978e-03, 0., 0.,
          3.33333341e-03, 0., 0., 0., 3.33333341e-03, 0., 0., 0., 0., 0.,
          0., 0., 0., 0., 0., 1.68918930e-02, 0., 6.75675692e-03,
          6.75675692e-03, 6.75675692e-03, 6.75675692e-03, 3.37837846e-03,
          6.75675692e-03, 1.01351356e-02, 0., 3.37837846e-03,
          1.01351356e-02, 2.02702712e-02, 6.75675692e-03, 2.36486495e-02,
          0., 6.75675692e-03, 1.35135138e-02, 2.02702712e-02,
          6.75675692e-03, 1.35135138e-02, 1.68918930e-02, 8.44594613e-02,
          1.01351356e-02, 1.68918930e-02, 3.37837860e-02, 3.37837846e-03,
          2.02702712e-02, 3.37837846e-03, 1.01351356e-02, 3.37837846e-03,
          6.75675692e-03, 1.01351356e-02, 1.01351356e-02, 0., 0.,
          2.02702712e-02, 1.01351356e-02, 0., 1.35135138e-02, 0.,
          1.35135138e-02, 1.01351356e-02, 0., 6.75675692e-03,
          1.35135138e-02, 4.05405425e-02, 1.01351356e-02, 1.01351356e-02,
          3.37837846e-03, 6.75675692e-03, 6.75675692e-03, 3.37837846e-03,
          1.01351356e-02, 6.75675692e-03, 3.37837846e-03, 3.04054059e-02,
          6.75675692e-03, 1.01351356e-02, 3.37837846e-03, 3.37837846e-03,
          3.37837846e-03, 1.68918930e-02, 3.37837846e-03, 2.36486495e-02,
          1.68918930e-02, 6.75675692e-03, 0., 6.75675692e-03,
          3.37837846e-03, 0., 3.37837846e-03, 2.02702712e-02,
          3.37837846e-03, 6.75675692e-03, 6.75675692e-03, 3.37837846e-03,
          0., 6.75675692e-03, 6.75675692e-03, 0., 1.01351356e-02,
          3.37837846e-03, 0., 6.75675692e-03, 1.35135138e-02,
          6.75675692e-03, 1.35135138e-02, 0., 3.37837846e-03,
          1.01351356e-02, 6.75675692e-03, 3.37837846e-03, 0.,
          3.37837846e-03, 6.75675692e-03, 6.75675692e-03, 3.37837846e-03,
          3.37837846e-03, 0., 0., 3.37837846e-03, 0., 3.37837846e-03,
          3.37837846e-03, 6.75675692e-03, 0., 3.37837846e-03,
          1.01351356e-02, 0., 3.37837846e-03, 0., 0., 0., 0., 0.,
          1.01351356e-02, 3.37837846e-03, 0., 3.37837846e-03, 0., 0., 0.,
          0., 3.37837846e-03, 0., 1.01351356e-02, 0., 0., 3.37837846e-03,
          6.75675692e-03, 0., 2.36486495e-02, 0., 0., 0., 0., 0., 0., 0.,
          0., 0., 0., 0., 0., 0., 0., 0., 0., 0., 1.24777183e-02,
          1.60427801e-02, 3.56506230e-03, 0., 1.24777183e-02,
          5.34759369e-03, 5.34759369e-03, 7.13012461e-03, 5.34759369e-03,
          1.06951874e-02, 1.42602492e-02, 8.91265552e-03, 1.42602492e-02,
          4.99108732e-02, 1.60427801e-02, 3.56506230e-03, 1.78253110e-02,
          1.96078420e-02, 7.13012461e-03, 4.99108732e-02, 1.24777183e-02,
          5.34759369e-03, 1.56862736e-01, 8.91265552e-03, 1.60427801e-02,
          1.78253115e-03, 1.42602492e-02, 0., 1.06951874e-02,
          1.06951874e-02, 1.60427801e-02, 1.96078420e-02, 1.78253115e-03,
          3.92156839e-02, 8.91265552e-03, 5.34759369e-03, 3.56506230e-03,
          1.60427801e-02, 3.56506230e-03, 2.49554366e-02, 3.56506230e-03,
          0., 3.56506230e-03, 8.91265552e-03, 0., 7.13012461e-03,
          1.96078420e-02, 5.34759369e-03, 5.34759369e-03, 1.06951874e-02,
          0., 3.56506230e-03, 1.78253115e-03, 7.13012461e-03,
          3.56506230e-03, 7.13012461e-03, 5.34759369e-03, 5.34759369e-03,
          5.34759369e-03, 0., 1.42602492e-02, 3.56506230e-03, 0.,
          5.34759369e-03, 1.24777183e-02, 1.06951874e-02, 1.78253115e-03,
          1.78253115e-03, 3.56506230e-03, 5.34759369e-03, 3.56506230e-03,
          3.56506230e-03, 3.56506230e-03, 7.13012461e-03, 7.13012461e-03,
          7.13012461e-03, 0., 5.34759369e-03, 5.34759369e-03, 0.,
          7.13012461e-03, 1.78253115e-03, 0., 0., 3.56506230e-03,
          1.78253115e-03, 0., 3.56506230e-03, 1.78253115e-03,
          1.78253115e-03, 8.91265552e-03, 3.56506230e-03, 5.34759369e-03,
          7.13012461e-03, 7.13012461e-03, 3.56506230e-03, 1.78253115e-03,
          0., 1.78253115e-03, 0., 1.78253115e-03, 1.78253115e-03, 0.,
          1.78253115e-03, 5.34759369e-03, 3.56506230e-03, 0.,
          5.34759369e-03, 1.78253115e-03, 0., 3.56506230e-03, 0.,
          3.56506230e-03, 0., 3.56506230e-03, 3.56506230e-03,
          3.56506230e-03, 0., 0., 5.34759369e-03, 0., 0., 0., 0.,
          7.13012461e-03, 0., 0., 3.56506230e-03, 1.78253115e-03,
          1.78253115e-03, 0., 0., 1.24777183e-02, 0., 0., 3.56506230e-03,
          1.78253115e-03, 0., 0., 1.78253115e-03, 0., 0., 0., 0., 0., 0.,
          0., 0., 0., 0., 6.02409616e-03, 9.03614424e-03, 1.20481923e-02,
          0., 1.50602404e-02, 2.71084327e-02, 3.31325307e-02,
          3.01204808e-03, 1.50602404e-02, 9.03614424e-03, 9.03614424e-03,
          3.01204808e-03, 1.80722885e-02, 1.80722885e-02, 1.50602404e-02,
          1.20481923e-02, 1.50602404e-02, 1.20481923e-02, 6.02409616e-03,
          3.01204808e-03, 1.80722885e-02, 9.03614424e-03, 1.20481923e-02,
          3.01204808e-03, 2.10843366e-02, 6.02409616e-03, 1.80722885e-02,
          1.20481923e-02, 1.20481923e-02, 9.03614424e-03, 6.02409616e-03,
          2.71084327e-02, 6.02409616e-03, 1.20481923e-02, 1.20481923e-02,
          1.20481923e-02, 9.03614424e-03, 1.20481923e-02, 2.40963846e-02,
          6.02409616e-03, 6.02409616e-03, 1.20481923e-02, 6.02409616e-03,
          3.01204808e-03, 3.01204808e-03, 6.02409616e-03, 6.02409616e-03,
          0., 1.20481923e-02, 1.20481923e-02, 2.40963846e-02,
          6.02409616e-03, 6.02409616e-03, 6.02409616e-03, 3.01204808e-03,
          9.03614424e-03, 1.50602404e-02, 1.20481923e-02, 0.,
          1.80722885e-02, 2.10843366e-02, 3.01204808e-03, 9.03614424e-03,
          0., 9.03614424e-03, 6.02409616e-03, 1.50602404e-02,
          6.02409616e-03, 6.02409616e-03, 6.02409616e-03, 0.,
          6.02409616e-03, 3.01204808e-03, 6.02409616e-03, 1.20481923e-02,
          3.01204808e-03, 1.80722885e-02, 1.20481923e-02, 6.02409616e-03,
          9.03614424e-03, 1.50602404e-02, 2.10843366e-02, 0.,
          3.01204808e-03, 3.01204808e-03, 3.01204808e-03, 0.,
          3.01204808e-03, 0., 1.20481923e-02, 3.01204808e-03,
          3.01204808e-03, 6.02409616e-03, 1.20481923e-02, 3.01204808e-03,
          3.01204808e-03, 3.01204808e-03, 1.20481923e-02, 0.,
          6.02409616e-03, 3.01204808e-03, 0., 0., 0., 9.03614424e-03, 0.,
          0., 6.02409616e-03, 0., 0., 0., 0., 0., 0., 9.03614424e-03,
          6.02409616e-03, 3.01204808e-03, 0., 0., 0., 0., 0.,
          1.20481923e-02, 0., 0., 0., 0., 3.01204808e-03, 0.,
          3.01204808e-03, 0., 0., 1.20481923e-02, 0., 0., 6.02409616e-03,
          6.02409616e-03, 0., 0., 0., 0., 0., 0., 0., 0., 0., 0., 0., 0.,
          0. ]
   responses: !!opencv-matrix
      rows: 40
      cols: 1
      dt: f
      data: [ 0., 0., 0., 0., 0., 0., 0., 0., 0., 0., 0., 0., 0., 0., 0.,
          0., 0., 0., 0., 0., 1., 1., 1., 1., 1., 1., 1., 1., 1., 1., 1.,
          1., 1., 1., 1., 1., 1., 1., 1., 1. ]
