%YAML:1.0
---
opencv_ml_knn:
   format: 3
   is_classifier: 1
   default_k: 3
   samples: !!opencv-matrix
      rows: 30
      cols: 150
      dt: f
      data: [ 5.80357164e-02, 4.46428582e-02, 8.92857183e-03,
          4.46428591e-03, 8.92857183e-03, 8.92857183e-03, 0.,
          5.35714328e-02, 3.12500000e-02, 8.92857183e-03, 0.,
          6.25000000e-02, 1.33928582e-02, 0., 0., 0., 1.78571437e-02,
          8.03571492e-02, 0., 5.35714328e-02, 0., 4.46428582e-02,
          4.46428591e-03, 0., 2.23214291e-02, 4.46428591e-03, 0., 0., 0.,
          0., 0., 0., 2.23214291e-02, 0., 0., 1.33928582e-02, 0., 0.,
          1.78571437e-02, 0., 4.46428591e-03, 0., 0., 0., 0., 0., 0., 0.,
          1.11607149e-01, 1.33928582e-02, 0., 0., 4.01785746e-02,
          4.46428591e-03, 0., 0., 0., 0., 8.92857183e-03, 1.33928582e-02,
          0., 8.03571492e-02, 0., 0., 3.57142873e-02, 0., 0., 0., 0., 0.,
          0., 0., 4.46428591e-03, 0., 0., 0., 6.25000000e-02, 0., 0., 0.,
          0., 0., 0., 0., 0., 0., 0., 0., 0., 4.46428591e-03,
          2.23214291e-02, 0., 0., 0., 0., 0., 0., 0., 0., 0., 0., 0., 0.,
          0., 0., 0., 0., 0., 0., 8.92857183e-03, 0., 0., 0., 0., 0., 0.,
          0., 0., 0., 0., 0., 0., 0., 0., 0., 0., 0., 0., 0., 0., 0., 0.,
          0., 0., 0., 0., 0., 0., 0., 0., 0., 0., 0., 0., 0., 0., 0., 0.,
          0., 0., 1.21212125e-01, 2.27272734e-02, 2.27272734e-02,
          3.40909101e-02, 1.13636367e-02, 1.13636367e-02, 0.,
          7.57575780e-02, 4.92424257e-02, 0., 0., 1.13636367e-02,
          7.57575780e-03, 0., 7.57575780e-03, 1.51515156e-02,
          7.57575780e-03, 1.89393945e-02, 3.78787890e-03, 1.09848484e-01,
          0., 1.89393945e-02, 1.13636367e-02, 3.78787890e-02,
          7.57575780e-03, 0., 3.78787890e-03, 7.57575780e-03, 0.,
          7.57575780e-03, 3.78787890e-03, 1.89393945e-02, 1.13636367e-02,
          3.78787890e-03, 0., 1.51515156e-02, 7.57575780e-03, 0.,
          7.57575780e-03, 2.27272734e-02, 0., 1.51515156e-02, 0., 0.,
          1.51515156e-02, 3.78787890e-03, 0., 7.57575780e-03, 0., 0., 0.,
          0., 1.13636367e-02, 1.51515156e-02, 3.78787890e-03,
          1.13636367e-02, 0., 0., 3.78787890e-03, 0., 3.78787890e-03,
          1.13636367e-02, 0., 5.30303046e-02, 1.13636367e-02,
          1.13636367e-02, 3.78787890e-03, 3.78787890e-03, 1.51515156e-02,
          0., 3.78787890e-03, 0., 3.78787890e-03, 1.13636367e-02,
          3.78787890e-03, 0., 7.57575780e-03, 3.78787890e-03,
          3.78787890e-03, 3.78787890e-03, 2.27272734e-02, 7.57575780e-03,
          0., 0., 0., 0., 0., 0., 0., 0., 0., 3.78787890e-03,
          7.57575780e-03, 0., 0., 0., 0., 0., 0., 0., 0., 0., 0., 0., 0.,
          0., 0., 0., 0., 0., 0., 0., 0., 0., 0., 0., 0., 0., 0., 0., 0.,
          0., 0., 0., 0., 0., 0., 0., 0., 0., 0., 0., 0., 0., 0., 0., 0.,
          0., 0., 0., 0., 0., 0., 0., 0., 0., 0., 0., 0., 0.,
          1.41141146e-01, 9.00900923e-03, 1.80180185e-02, 2.70270277e-02,
          2.10210215e-02, 1.20120123e-02, 9.00900923e-03, 1.14114121e-01,
          3.90390381e-02, 9.00900923e-03, 1.20120123e-02, 1.20120123e-02,
          9.00900923e-03, 3.00300308e-02, 6.00600615e-03, 9.00900923e-03,
          0., 6.00600615e-03, 6.00600615e-03, 9.30930972e-02,
          3.00300308e-03, 1.50150154e-02, 1.20120123e-02, 5.70570603e-02,
          0., 3.00300308e-03, 3.00300308e-03, 0., 0., 2.40240246e-02, 0.,
          0., 6.00600615e-03, 0., 3.00300308e-03, 6.00600615e-03,
          6.00600615e-03, 0., 6.00600615e-03, 1.20120123e-02,
          6.00600615e-03, 2.10210215e-02, 0., 0., 2.10210215e-02, 0., 0.,
          0., 3.00300308e-03, 0., 3.00300308e-03, 3.00300308e-03,
          1.50150154e-02, 1.50150154e-02, 0., 0., 9.00900923e-03,
          3.00300308e-03, 3.00300308e-03, 0., 3.00300308e-03,
          1.20120123e-02, 0., 1.50150154e-02, 1.20120123e-02,
          3.00300308e-02, 0., 3.00300308e-03, 0., 9.00900923e-03,
          6.00600615e-03, 0., 0., 0., 3.00300308e-03, 0., 3.00300308e-03,
          1.50150154e-02, 6.00600615e-03, 0., 6.00600615e-03,
          3.00300308e-03, 0., 0., 0., 0., 0., 0., 0., 0., 1.20120123e-02,
          3.00300308e-03, 0., 0., 3.00300308e-03, 0., 0., 0., 0.,
          9.00900923e-03, 3.00300308e-03, 0., 0., 0., 0., 0., 0., 0., 0.,
          0., 0., 0., 0., 0., 0., 0., 0., 0., 0., 0., 0., 0., 0., 0.,
          3.00300308e-03, 0., 0., 0., 0., 0., 0., 0., 0., 0., 0., 0., 0.,
          0., 0., 0., 0., 0., 0., 0., 0., 0., 0., 0., 0., 0.,
          6.57894742e-03, 2.96052638e-02, 1.64473690e-02, 2.30263155e-02,
          2.63157897e-02, 6.57894742e-03, 0., 1.31578948e-02,
          1.25000000e-01, 1.97368413e-02, 6.57894742e-03, 1.64473690e-02,
          9.86842066e-03, 1.64473690e-02, 2.30263155e-02, 0.,
          9.86842066e-03, 3.94736826e-02, 1.64473690e-02, 3.61842103e-02,
          3.28947371e-03, 1.31578948e-02, 6.57894742e-03, 0.,
          1.31578948e-02, 6.57894760e-02, 4.60526310e-02, 0.,
          2.96052638e-02, 0., 0., 9.86842066e-03, 1.31578948e-02,
          6.57894742e-03, 0., 3.28947371e-03, 0., 9.86842066e-03,
          6.57894742e-03, 3.28947371e-03, 2.30263155e-02, 6.57894742e-03,
          2.63157897e-02, 0., 0., 1.64473690e-02, 0., 1.97368413e-02, 0.,
          1.64473690e-02, 3.28947371e-03, 9.86842066e-03, 6.57894742e-03,
          3.28947371e-03, 6.57894742e-03, 0., 6.57894742e-03, 0., 0.,
          6.57894742e-03, 3.28947371e-03, 6.57894742e-03, 3.28947371e-03,
          3.28947371e-03, 3.28947371e-03, 0., 0., 6.57894742e-03,
          3.28947371e-03, 1.31578948e-02, 0., 0., 2.96052638e-02, 0.,
          3.28947371e-03, 0., 0., 0., 9.86842066e-03, 3.28947371e-03, 0.,
          0., 0., 3.28947371e-03, 0., 3.28947371e-03, 1.31578948e-02, 0.,
          0., 0., 0., 3.28947371e-03, 3.28947371e-03, 9.86842066e-03, 0.,
          0., 0., 0., 0., 0., 3.28947371e-03, 3.28947371e-03,
          3.28947371e-03, 0., 0., 0., 0., 0., 0., 6.57894742e-03, 0., 0.,
          0., 0., 0., 0., 0., 0., 0., 9.86842066e-03, 0., 2.63157897e-02,
          0., 0., 0., 0., 0., 0., 0., 0., 0., 0., 0., 0., 0., 0., 0., 0.,
          0., 0., 0., 0., 0., 0., 0., 0., 0., 0., 0., 0., 4.93827164e-02,
          4.93827164e-02, 1.23456791e-02, 0., 8.23045243e-03,
          2.88065840e-02, 4.11522621e-03, 3.70370373e-02, 2.88065840e-02,
          0., 4.11522621e-03, 9.87654328e-02, 8.23045243e-03, 0.,
          8.23045243e-03, 0., 1.64609049e-02, 3.70370373e-02,
          8.23045243e-03, 2.88065840e-02, 2.05761306e-02, 4.11522612e-02,
          4.11522621e-03, 2.05761306e-02, 7.40740746e-02, 4.11522621e-03,
          3.70370373e-02, 0., 2.88065840e-02, 8.23045243e-03,
          4.11522621e-03, 8.23045243e-03, 2.05761306e-02, 0., 0.,
          8.23045243e-03, 4.11522621e-03, 2.46913582e-02, 4.11522621e-03,
          8.23045243e-03, 0., 0., 4.11522621e-03, 4.11522621e-03, 0.,
          1.23456791e-02, 0., 0., 4.11522621e-03, 4.11522621e-03, 0.,
          4.11522621e-03, 4.11522621e-03, 2.05761306e-02, 4.11522621e-03,
          0., 0., 0., 0., 4.11522621e-03, 0., 8.64197537e-02, 0.,
          4.11522621e-03, 0., 0., 0., 4.11522621e-03, 0., 8.23045243e-03,
          0., 0., 0., 0., 4.11522621e-03, 8.23045243e-03, 8.23045243e-03,
          4.11522621e-03, 0., 0., 4.11522621e-03, 0., 0., 0., 0.,
          4.11522621e-03, 0., 0., 0., 0., 4.11522621e-03, 4.11522621e-03,
          4.11522621e-03, 0., 0., 4.11522621e-03, 4.11522621e-03,
          8.23045243e-03, 0., 0., 0., 0., 0., 4.11522621e-03, 0., 0., 0.,
          0., 0., 0., 0., 0., 0., 0., 1.64609049e-02, 0., 0., 0., 0., 0.,
          0., 0., 0., 0., 0., 0., 0., 0., 0., 0., 0., 0., 0., 0., 0., 0.,
          0., 0., 0., 0., 0., 0., 0., 0., 0., 0., 0., 0., 0., 0.,
          4.31472063e-02, 4.82233502e-02, 7.86802024e-02, 1.26903551e-02,
          3.04568522e-02, 2.53807101e-03, 2.53807101e-03, 2.53807101e-03,
          6.34517744e-02, 7.61421304e-03, 0., 2.79187821e-02,
          2.53807101e-03, 0., 2.03045681e-02, 0., 7.61421304e-03,
          3.29949223e-02, 1.77664980e-02, 2.53807101e-02, 2.03045681e-02,
          2.03045681e-02, 5.07614203e-03, 0., 3.04568522e-02,
          2.53807101e-02, 2.53807101e-02, 2.53807101e-03, 4.31472063e-02,
          0., 2.53807101e-03, 5.07614203e-03, 5.07614203e-03,
          5.07614203e-03, 0., 1.77664980e-02, 0., 2.03045681e-02, 0.,
          5.07614203e-03, 2.03045681e-02, 1.26903551e-02, 7.61421304e-03,
          0., 0., 2.28426382e-02, 2.53807101e-03, 2.79187821e-02,
          2.03045681e-02, 1.01522841e-02, 0., 5.07614203e-03,
          2.53807101e-03, 0., 1.52284261e-02, 0., 2.53807101e-03, 0.,
          2.53807101e-03, 2.53807101e-03, 5.07614203e-03, 3.29949223e-02,
          0., 3.29949223e-02, 7.61421304e-03, 0., 0., 2.53807101e-03, 0.,
          7.61421304e-03, 0., 0., 1.01522841e-02, 7.61421304e-03,
          1.26903551e-02, 2.53807101e-03, 5.07614203e-03, 0.,
          7.61421304e-03, 2.53807101e-03, 2.53807101e-03, 1.26903551e-02,
          0., 2.53807101e-03, 0., 2.53807101e-03, 0., 0., 0., 0., 0.,
          2.53807101e-03, 0., 2.53807101e-03, 0., 0., 0., 0., 0.,
          2.53807101e-03, 0., 0., 2.53807101e-03, 0., 0., 0., 0., 0., 0.,
          0., 2.53807101e-03, 0., 0., 0., 0., 0., 0., 0., 0.,
          2.53807101e-03, 0., 1.01522841e-02, 0., 0., 0., 0., 0., 0., 0.,
          0., 2.53807101e-03, 0., 0., 0., 0., 0., 0., 0., 0., 0., 0., 0.,
          0., 0., 0., 0., 0., 0., 0., 0., 3.92927304e-02, 1.57170929e-02,
          3.92927304e-02, 1.37524568e-02, 2.35756394e-02, 2.16110032e-02,
          0., 1.17878197e-02, 1.96463652e-02, 1.76817290e-02,
          7.85854645e-03, 2.75049135e-02, 1.37524568e-02, 1.96463652e-02,
          2.16110032e-02, 0., 2.16110032e-02, 1.57170929e-02,
          2.35756394e-02, 3.92927323e-03, 1.76817290e-02, 4.91159149e-02,
          1.57170929e-02, 0., 1.17878197e-02, 2.35756394e-02,
          2.94695497e-02, 1.96463661e-03, 1.57170929e-02, 0., 0., 0.,
          3.53634581e-02, 1.57170929e-02, 0., 9.82318260e-03,
          1.96463652e-02, 1.17878197e-02, 3.92927323e-03, 1.57170929e-02,
          2.35756394e-02, 1.96463652e-02, 0., 0., 0., 1.96463661e-03, 0.,
          1.57170929e-02, 2.16110032e-02, 1.76817290e-02, 5.89390984e-03,
          1.96463661e-03, 2.35756394e-02, 7.85854645e-03, 7.85854645e-03,
          0., 1.96463661e-03, 0., 1.76817290e-02, 5.89390984e-03,
          2.94695497e-02, 9.82318260e-03, 0., 3.14341858e-02,
          1.37524568e-02, 0., 7.85854645e-03, 1.17878197e-02, 0.,
          1.96463661e-03, 1.96463661e-03, 0., 0., 9.82318260e-03,
          1.96463661e-03, 3.92927323e-03, 3.92927323e-03, 0., 0.,
          1.96463661e-03, 0., 0., 7.85854645e-03, 1.96463661e-03, 0.,
          3.92927323e-03, 1.96463661e-03, 0., 0., 1.96463661e-03,
          5.89390984e-03, 1.37524568e-02, 5.89390984e-03, 0., 0., 0., 0.,
          0., 1.96463661e-03, 0., 5.89390984e-03, 3.92927323e-03, 0., 0.,
          0., 0., 0., 0., 0., 0., 0., 0., 0., 1.96463661e-03,
          3.92927323e-03, 0., 0., 0., 0., 0., 1.96463661e-03, 0., 0., 0.,
          0., 0., 0., 0., 0., 0., 0., 0., 0., 0., 0., 0., 0., 0., 0., 0.,
          0., 0., 0., 0., 0., 0., 0., 0., 0., 0., 4.33436520e-02,
          1.54798757e-02, 1.85758509e-02, 5.57275526e-02, 2.78637763e-02,
          1.23839006e-02, 2.78637763e-02, 1.02167182e-01, 0.,
          6.19195029e-03, 3.09597515e-03, 1.54798757e-02, 6.19195029e-03,
          0., 0., 2.47678012e-02, 0., 3.09597515e-03, 1.54798757e-02,
          3.71517017e-02, 6.19195029e-03, 3.09597515e-03, 1.23839006e-02,
          1.85758509e-02, 6.19195029e-02, 7.73993805e-02, 9.28792544e-03,
          6.19195029e-03, 9.28792544e-03, 0., 6.19195029e-03,
          3.09597515e-03, 3.09597515e-03, 9.28792544e-03, 0.,
          6.19195029e-03, 3.09597515e-03, 9.28792544e-03, 1.23839006e-02,
          6.19195029e-03, 0., 2.47678012e-02, 3.09597515e-03,
          6.19195029e-03, 3.09597515e-03, 3.09597515e-03, 3.09597515e-03,
          0., 0., 0., 0., 0., 9.28792544e-03, 1.54798757e-02,
          6.19195029e-03, 0., 0., 0., 3.09597515e-03, 3.09597515e-03, 0.,
          9.28792544e-03, 0., 1.54798757e-02, 3.09597515e-03, 0., 0., 0.,
          1.23839006e-02, 3.09597515e-03, 6.19195029e-03, 6.19195029e-03,
          2.16718260e-02, 0., 0., 0., 0., 2.16718260e-02, 1.54798757e-02,
          3.09597515e-03, 3.09597515e-03, 0., 0., 1.23839006e-02, 0., 0.,
          0., 6.19195029e-03, 0., 0., 6.19195029e-03, 0., 0., 0.,
          1.54798757e-02, 0., 0., 1.23839006e-02, 0., 0., 3.09597515e-03,
          0., 3.09597515e-03, 0., 0., 0., 9.28792544e-03, 0., 0., 0., 0.,
          0., 0., 0., 0., 0., 0., 0., 0., 0., 0., 4.33436520e-02, 0., 0.,
          0., 0., 0., 0., 0., 6.19195029e-03, 0., 0., 0., 0., 0., 0., 0.,
          0., 0., 0., 0., 3.09597515e-03, 0., 0., 0., 0., 0., 0., 0., 0.,
          9.70464051e-02, 3.79746817e-02, 5.06329089e-02, 1.26582272e-02,
          3.79746817e-02, 1.68776363e-02, 4.21940908e-03, 7.17299581e-02,
          4.64134999e-02, 4.21940908e-03, 4.21940908e-03, 2.10970454e-02,
          8.43881816e-03, 3.37552726e-02, 1.26582272e-02, 0.,
          4.21940908e-03, 1.26582272e-02, 8.43881816e-03, 1.30801678e-01,
          8.43881816e-03, 2.53164545e-02, 2.10970454e-02, 4.64134999e-02,
          8.43881816e-03, 0., 0., 4.21940908e-03, 0., 0., 8.43881816e-03,
          0., 0., 0., 8.43881816e-03, 2.53164545e-02, 0., 4.21940908e-03,
          8.43881816e-03, 0., 4.21940908e-03, 1.26582272e-02, 0.,
          4.21940908e-03, 0., 0., 0., 0., 1.26582272e-02, 4.21940908e-03,
          0., 0., 1.26582272e-02, 1.68776363e-02, 0., 0., 4.21940908e-03,
          4.21940908e-03, 0., 8.43881816e-03, 4.21940908e-03,
          8.43881816e-03, 0., 2.53164545e-02, 4.21940908e-03, 0.,
          4.21940908e-03, 0., 8.43881816e-03, 0., 4.21940908e-03, 0., 0.,
          8.43881816e-03, 8.43881816e-03, 0., 1.26582272e-02,
          4.21940908e-03, 1.26582272e-02, 0., 0., 0., 0., 0., 0.,
          4.21940908e-03, 0., 0., 0., 0., 4.21940908e-03, 0., 0., 0., 0.,
          0., 0., 0., 0., 4.21940908e-03, 4.21940908e-03, 0., 0.,
          4.21940908e-03, 0., 0., 0., 4.21940908e-03, 0., 0., 0., 0., 0.,
          0., 0., 0., 0., 0., 0., 0., 0., 0., 0., 0., 0., 0., 0., 0., 0.,
          0., 0., 0., 0., 0., 0., 0., 0., 0., 0., 0., 0., 0., 0., 0., 0.,
          0., 0., 0., 0., 0., 3.99999991e-02, 3.05882338e-02,
          6.35294095e-02, 9.41176433e-03, 4.70588217e-03, 1.41176470e-02,
          0., 2.35294108e-03, 4.70588207e-02, 9.41176433e-03,
          2.35294108e-03, 6.82352930e-02, 7.05882348e-03, 4.70588217e-03,
          2.82352939e-02, 0., 1.64705869e-02, 4.47058789e-02,
          7.05882348e-03, 0., 2.35294108e-03, 3.76470573e-02,
          2.35294108e-03, 0., 3.76470573e-02, 4.70588217e-03,
          2.11764704e-02, 0., 4.23529409e-02, 0., 2.35294108e-03, 0.,
          1.17647052e-02, 1.41176470e-02, 0., 3.76470573e-02,
          4.70588217e-03, 1.41176470e-02, 0., 7.05882348e-03,
          1.64705869e-02, 2.35294108e-03, 2.35294108e-03, 0., 0., 0., 0.,
          1.88235287e-02, 3.29411738e-02, 1.41176470e-02, 2.35294108e-03,
          2.35294108e-03, 1.64705869e-02, 2.35294108e-03, 2.35294108e-03,
          0., 0., 2.35294108e-03, 2.35294108e-03, 1.41176470e-02,
          4.47058789e-02, 2.82352939e-02, 0., 1.88235287e-02,
          4.70588217e-03, 0., 1.41176470e-02, 4.70588217e-03, 0., 0., 0.,
          0., 2.35294108e-03, 9.41176433e-03, 9.41176433e-03,
          4.70588217e-03, 1.17647052e-02, 0., 9.41176433e-03,
          2.35294108e-03, 0., 1.41176470e-02, 0., 7.05882348e-03, 0.,
          1.41176470e-02, 2.35294108e-03, 0., 0., 2.35294108e-03, 0., 0.,
          0., 0., 0., 0., 0., 0., 0., 4.70588217e-03, 0., 0., 0.,
          4.70588217e-03, 0., 0., 0., 0., 0., 7.05882348e-03,
          2.35294108e-03, 0., 0., 0., 2.35294108e-03, 0., 0., 0., 0., 0.,
          0., 0., 0., 0., 0., 0., 0., 2.35294108e-03, 0., 0., 0., 0., 0.,
          0., 0., 0., 0., 0., 0., 0., 0., 0., 0., 0., 0., 0., 0., 0., 0.,
          0., 0., 1.34048257e-02, 5.36193028e-02, 4.02144790e-02,
          3.21715847e-02, 2.14477219e-02, 0., 8.04289617e-03,
          9.91957113e-02, 2.68096523e-03, 0., 0., 0., 5.36193047e-03,
          2.41286866e-02, 5.36193047e-03, 8.04289617e-03, 5.36193047e-03,
          5.36193047e-03, 4.82573733e-02, 5.36193047e-03, 1.87667571e-02,
          2.68096523e-03, 2.68096523e-03, 1.34048257e-02, 7.23860636e-02,
          7.50670284e-02, 0., 2.94906180e-02, 0., 1.07238609e-02,
          5.36193047e-03, 2.68096523e-03, 8.04289617e-03, 5.36193047e-03,
          2.68096523e-03, 2.68096523e-03, 1.34048257e-02, 0.,
          2.68096523e-03, 1.60857923e-02, 2.68096523e-03, 2.68096523e-03,
          0., 0., 1.60857923e-02, 0., 3.48525494e-02, 2.68096523e-03,
          8.04289617e-03, 5.36193047e-03, 2.68096523e-03, 0.,
          2.68096523e-03, 1.34048257e-02, 0., 8.04289617e-03, 0., 0.,
          5.36193047e-03, 0., 0., 0., 3.48525494e-02, 0., 0.,
          8.04289617e-03, 0., 0., 1.87667571e-02, 0., 0., 3.21715847e-02,
          0., 1.07238609e-02, 2.68096523e-03, 0., 0., 1.87667571e-02, 0.,
          0., 0., 0., 2.68096523e-03, 5.36193047e-03, 0., 0., 0., 0., 0.,
          0., 2.68096523e-03, 2.68096523e-03, 1.87667571e-02, 0., 0., 0.,
          2.68096523e-03, 0., 0., 0., 1.07238609e-02, 0., 0., 0., 0., 0.,
          0., 0., 0., 0., 0., 0., 0., 8.04289617e-03, 0., 0., 0., 0.,
          8.04289617e-03, 0., 4.55764085e-02, 0., 0., 0., 0., 0., 0., 0.,
          0., 0., 0., 0., 0., 0., 0., 0., 0., 0., 0., 0., 0., 0., 0., 0.,
          0., 0., 0., 0., 0., 2.29885057e-02, 4.36781608e-02,
          2.52873562e-02, 1.28735632e-01, 3.44827585e-02, 0.,
          1.60919540e-02, 4.82758619e-02, 5.74712642e-02, 1.83908045e-02,
          6.89655170e-03, 1.14942528e-02, 2.52873562e-02, 4.36781608e-02,
          6.89655170e-03, 2.29885057e-03, 0., 3.21839079e-02,
          1.37931034e-02, 2.52873562e-02, 1.14942528e-02, 1.14942528e-02,
          9.19540226e-03, 2.06896551e-02, 4.36781608e-02, 9.19540226e-03,
          1.83908045e-02, 0., 1.83908045e-02, 6.89655170e-03,
          4.59770113e-03, 2.06896551e-02, 2.29885057e-03, 0.,
          4.59770113e-03, 4.59770113e-03, 2.06896551e-02, 2.29885057e-03,
          0., 9.19540226e-03, 1.14942528e-02, 4.59770113e-03,
          1.14942528e-02, 4.59770113e-03, 0., 4.13793102e-02,
          1.60919540e-02, 6.89655170e-03, 0., 4.59770113e-03,
          6.89655170e-03, 0., 2.29885057e-03, 6.89655170e-03,
          6.89655170e-03, 0., 0., 2.29885057e-03, 2.29885057e-03, 0.,
          1.14942528e-02, 0., 0., 2.29885057e-03, 6.89655170e-03,
          2.29885057e-03, 0., 0., 4.59770113e-03, 0., 4.59770113e-03,
          2.29885057e-03, 0., 2.29885057e-03, 6.89655170e-03, 0., 0.,
          9.19540226e-03, 0., 0., 0., 0., 2.29885057e-03, 2.29885057e-03,
          0., 0., 0., 2.29885057e-03, 0., 0., 1.14942528e-02, 0., 0.,
          2.29885057e-03, 2.29885057e-03, 0., 0., 0., 0., 2.29885057e-03,
          0., 0., 0., 0., 0., 0., 0., 2.29885057e-03, 0., 2.29885057e-03,
          0., 0., 0., 0., 4.59770113e-03, 0., 0., 0., 0., 0., 0.,
          2.29885057e-03, 0., 0., 0., 0., 0., 0., 0., 0., 0., 0., 0., 0.,
          0., 0., 0., 0., 0., 0., 0., 0., 0., 0., 0., 0., 0., 0., 0., 0.,
          8.43373463e-02, 6.62650615e-02, 1.80722885e-02, 1.20481923e-02,
          5.72289154e-02, 2.71084327e-02, 0., 4.21686731e-02,
          1.80722885e-02, 1.80722885e-02, 0., 1.50602404e-02,
          1.50602404e-02, 1.80722885e-02, 1.20481923e-02, 0.,
          9.03614424e-03, 2.10843366e-02, 1.80722885e-02, 6.02409616e-03,
          9.03614424e-03, 1.20481923e-02, 3.01204808e-02, 0.,
          1.20481923e-02, 1.20481923e-02, 0., 0., 0., 0., 6.02409616e-03,
          0., 1.80722885e-02, 6.02409616e-03, 6.02409616e-03,
          1.20481923e-02, 9.03614424e-03, 3.01204808e-03, 9.03614424e-03,
          2.40963846e-02, 0., 3.31325307e-02, 0., 0., 6.02409616e-03, 0.,
          0., 2.40963846e-02, 6.02409616e-03, 0., 6.02409616e-03,
          6.02409616e-03, 9.03614424e-03, 2.10843366e-02, 0., 0., 0.,
          3.01204808e-03, 6.02409616e-03, 3.01204808e-03, 1.20481923e-02,
          5.42168655e-02, 0., 3.91566232e-02, 1.50602404e-02, 0.,
          3.01204808e-03, 0., 6.02409616e-03, 0., 2.40963846e-02, 0., 0.,
          3.01204808e-03, 0., 3.01204808e-03, 3.01204808e-03,
          3.01204808e-03, 0., 3.01204808e-03, 6.02409616e-03, 0.,
          3.01204808e-03, 0., 3.01204808e-03, 6.02409616e-03,
          6.02409616e-03, 0., 0., 0., 2.10843366e-02, 3.01204808e-03, 0.,
          0., 0., 0., 0., 0., 0., 3.01204808e-03, 3.01204808e-03, 0.,
          3.01204808e-03, 0., 0., 0., 0., 9.03614424e-03, 0.,
          3.01204808e-03, 9.03614424e-03, 0., 0., 0., 0., 0., 0., 0., 0.,
          0., 0., 0., 0., 0., 0., 0., 0., 0., 0., 0., 0., 0., 0., 0., 0.,
          0., 0., 0., 0., 0., 0., 3.01204808e-03, 0., 0., 0., 0., 0., 0.,
          0., 0., 2.63565890e-02, 7.75193796e-03, 7.75193796e-03,
          2.20155030e-01, 2.17054263e-02, 0., 3.10077518e-02,
          6.35658950e-02, 3.41085270e-02, 1.70542635e-02, 4.65116277e-03,
          1.08527131e-02, 1.70542635e-02, 2.01550387e-02, 0.,
          2.79069766e-02, 4.65116277e-03, 0., 1.55038759e-03,
          8.52713138e-02, 4.65116277e-03, 4.65116277e-03, 1.08527131e-02,
          4.03100774e-02, 0., 9.30232555e-03, 4.65116277e-03,
          1.55038759e-03, 1.55038759e-03, 4.65116277e-03, 1.24031007e-02,
          1.08527131e-02, 3.10077518e-03, 1.55038759e-03, 6.20155036e-03,
          0., 1.86046511e-02, 6.20155036e-03, 2.48062015e-02,
          9.30232555e-03, 7.75193796e-03, 6.20155036e-03, 3.10077518e-03,
          1.24031007e-02, 3.10077518e-02, 0., 0., 0., 0., 1.55038759e-03,
          3.10077518e-03, 0., 4.65116277e-03, 1.08527131e-02, 0.,
          6.20155036e-03, 0., 0., 4.65116277e-03, 1.55038759e-03,
          1.55038759e-03, 1.86046511e-02, 0., 4.65116277e-03, 0.,
          6.20155036e-03, 0., 3.10077518e-03, 2.17054263e-02,
          1.55038759e-03, 1.55038759e-03, 0., 3.10077518e-03,
          1.55038759e-03, 1.55038759e-03, 1.55038759e-03, 1.55038759e-03,
          1.55038759e-02, 1.55038759e-03, 0., 0., 3.10077518e-03, 0.,
          4.65116277e-03, 0., 0., 0., 1.55038759e-03, 0., 0.,
          1.55038759e-03, 4.65116277e-03, 0., 0., 9.30232555e-03,
          3.10077518e-03, 0., 0., 0., 7.75193796e-03, 0., 0., 0., 0., 0.,
          0., 3.10077518e-03, 0., 0., 0., 1.55038759e-03, 0., 0., 0., 0.,
          0., 0., 0., 0., 0., 0., 4.65116277e-03, 0., 0., 0., 0., 0., 0.,
          0., 0., 0., 0., 0., 0., 0., 0., 0., 0., 0., 0., 0., 0., 0., 0.,
          0., 0., 0., 0., 0., 0., 6.07028753e-02, 3.51437703e-02,
          1.05431311e-01, 4.47284356e-02, 2.23642178e-02, 1.27795525e-02,
          0., 9.26517546e-02, 4.79233228e-02, 1.91693287e-02,
          3.19488812e-03, 1.27795525e-02, 0., 3.19488812e-03,
          1.27795525e-02, 3.19488812e-03, 9.58466437e-03, 0., 0.,
          3.19488794e-02, 6.38977624e-03, 1.27795525e-02, 3.19488812e-03,
          3.19488812e-03, 9.58466437e-03, 9.58466437e-03, 1.59744397e-02,
          6.38977624e-03, 9.58466437e-03, 0., 3.19488812e-03, 0.,
          9.58466437e-03, 0., 6.38977624e-03, 6.38977624e-03,
          3.19488812e-03, 6.38977624e-03, 3.19488812e-03, 1.27795525e-02,
          1.27795525e-02, 3.19488812e-03, 0., 3.19488812e-03, 0., 0., 0.,
          6.38977624e-03, 0., 3.19488812e-03, 0., 0., 2.55591050e-02,
          6.38977624e-03, 3.19488812e-03, 0., 3.19488812e-03, 0.,
          3.19488794e-02, 0., 9.58466437e-03, 4.79233228e-02, 0.,
          6.38977587e-02, 6.38977624e-03, 0., 6.38977624e-03, 0.,
          3.19488812e-03, 0., 3.19488812e-03, 0., 6.38977624e-03,
          3.19488812e-03, 0., 0., 0., 6.38977624e-03, 6.38977624e-03,
          3.19488812e-03, 0., 1.59744397e-02, 0., 3.19488812e-03, 0.,
          3.19488812e-03, 0., 3.19488812e-03, 0., 0., 3.19488812e-03,
          6.38977624e-03, 0., 3.19488812e-03, 9.58466437e-03, 0., 0., 0.,
          0., 3.19488812e-03, 0., 0., 3.19488812e-03, 3.19488812e-03, 0.,
          0., 3.19488812e-03, 0., 9.58466437e-03, 0., 3.19488812e-03, 0.,
          0., 0., 0., 0., 0., 0., 0., 3.19488812e-03, 0., 3.19488812e-03,
          0., 0., 0., 0., 0., 0., 0., 0., 0., 0., 0., 0., 0., 0., 0., 0.,
          0., 0., 0., 9.58466437e-03, 0., 0., 0., 0., 0., 0., 0., 0.,
          2.50329375e-02, 1.31752305e-02, 1.31752305e-02, 1.58102773e-02,
          2.76679844e-02, 1.97628457e-02, 0., 1.05401846e-02,
          3.16205546e-02, 2.37154160e-02, 1.31752305e-02, 2.37154160e-02,
          3.03030312e-02, 1.44927539e-02, 2.23978925e-02, 7.90513866e-03,
          1.97628457e-02, 5.27009219e-02, 2.76679844e-02, 5.27009219e-02,
          9.22266115e-03, 5.13833985e-02, 6.58761524e-03, 5.27009228e-03,
          7.90513866e-03, 2.10803691e-02, 3.42556015e-02, 5.27009228e-03,
          1.18577080e-02, 1.31752307e-03, 2.50329375e-02, 0.,
          1.44927539e-02, 6.58761524e-03, 1.31752305e-02, 3.42556015e-02,
          9.22266115e-03, 7.90513866e-03, 5.27009228e-03, 5.27009228e-03,
          1.71278007e-02, 5.27009228e-03, 0., 0., 0., 0., 0.,
          9.22266115e-03, 1.31752305e-02, 3.95256933e-03, 6.58761524e-03,
          1.31752307e-03, 1.84453223e-02, 7.90513866e-03, 1.31752307e-03,
          0., 3.95256933e-03, 0., 3.95256933e-03, 1.18577080e-02,
          3.95256933e-03, 1.84453223e-02, 0., 1.97628457e-02,
          1.05401846e-02, 0., 6.58761524e-03, 9.22266115e-03,
          3.95256933e-03, 2.63504614e-03, 1.05401846e-02, 0.,
          1.31752307e-03, 3.95256933e-03, 5.27009228e-03, 2.63504614e-03,
          3.95256933e-03, 2.63504614e-03, 1.18577080e-02, 6.58761524e-03,
          2.63504614e-03, 2.63504614e-03, 3.95256933e-03, 2.63504614e-03,
          0., 9.22266115e-03, 2.63504614e-03, 0., 0., 1.31752307e-03,
          1.31752307e-03, 7.90513866e-03, 0., 0., 0., 0., 0.,
          1.31752307e-03, 0., 2.63504614e-03, 3.95256933e-03,
          2.63504614e-03, 0., 0., 0., 0., 0., 0., 1.31752307e-03,
          1.31752307e-03, 0., 0., 0., 0., 0., 0., 0., 0., 0., 0., 0.,
          3.95256933e-03, 0., 0., 0., 0., 0., 0., 0., 0., 0., 0., 0., 0.,
          0., 0., 0., 0., 0., 0., 0., 0., 0., 0., 0., 0., 0., 0., 0., 0.,
          4.88431863e-02, 4.11311053e-02, 2.31362469e-02, 7.71208201e-03,
          2.31362469e-02, 3.08483280e-02, 0., 2.57069408e-03,
          6.68380484e-02, 2.57069413e-02, 5.14138816e-03, 2.82776356e-02,
          2.31362469e-02, 2.82776356e-02, 3.85604128e-02, 0.,
          1.54241640e-02, 1.02827763e-02, 3.59897166e-02, 1.28534706e-02,
          2.31362469e-02, 4.11311053e-02, 1.79948583e-02, 0., 0.,
          2.82776356e-02, 2.57069408e-03, 0., 4.88431863e-02,
          2.57069408e-03, 3.08483280e-02, 0., 1.28534706e-02,
          1.02827763e-02, 0., 7.71208201e-03, 1.02827763e-02, 0., 0.,
          1.28534706e-02, 2.82776356e-02, 0., 5.14138816e-03, 0., 0.,
          1.02827763e-02, 0., 5.14138816e-03, 1.28534706e-02, 0.,
          2.57069408e-03, 2.57069408e-03, 2.57069408e-03, 2.57069408e-03,
          0., 2.57069408e-03, 7.71208201e-03, 0., 0., 2.57069408e-03,
          5.14138816e-03, 1.28534706e-02, 0., 3.34190242e-02,
          7.71208201e-03, 0., 5.14138816e-03, 2.57069408e-03,
          2.57069408e-03, 1.28534706e-02, 1.02827763e-02, 0.,
          5.14138816e-03, 0., 2.05655526e-02, 2.57069408e-03,
          7.71208201e-03, 0., 2.57069408e-03, 5.14138816e-03, 0.,
          2.57069408e-03, 5.14138816e-03, 2.57069408e-03, 0.,
          7.71208201e-03, 2.57069408e-03, 0., 0., 5.14138816e-03, 0.,
          5.14138816e-03, 2.57069408e-03, 0., 0., 0., 2.57069408e-03, 0.,
          0., 2.57069408e-03, 2.57069408e-03, 0., 0., 0., 0., 0., 0.,
          2.57069408e-03, 5.14138816e-03, 2.57069408e-03, 0., 0., 0., 0.,
          7.71208201e-03, 0., 0., 0., 0., 0., 0., 2.57069408e-03, 0., 0.,
          0., 0., 0., 0., 0., 0., 0., 0., 0., 0., 0., 0., 0., 0., 0., 0.,
          0., 0., 0., 0., 0., 0., 0., 0., 0., 0., 5.91715984e-03,
          2.76134126e-02, 2.76134126e-02, 1.57790929e-02, 1.57790929e-02,
          2.56410260e-02, 0., 5.91715984e-03, 3.35305706e-02,
          2.36686394e-02, 1.77514795e-02, 1.97238661e-02, 2.56410260e-02,
          4.33925055e-02, 2.76134126e-02, 0., 1.77514795e-02,
          1.97238661e-02, 1.77514795e-02, 3.94477323e-03, 1.18343197e-02,
          1.77514795e-02, 9.86193307e-03, 0., 2.76134126e-02,
          1.38067063e-02, 2.95857992e-02, 9.86193307e-03, 6.50887564e-02,
          0., 1.57790929e-02, 5.91715984e-03, 2.36686394e-02,
          9.86193307e-03, 1.97238661e-03, 1.97238661e-02, 1.57790929e-02,
          5.91715984e-03, 0., 1.97238661e-03, 2.16962527e-02,
          5.91715984e-03, 5.91715984e-03, 0., 0., 5.91715984e-03, 0.,
          1.97238661e-02, 1.18343197e-02, 1.18343197e-02, 5.91715984e-03,
          5.91715984e-03, 9.86193307e-03, 1.97238661e-03, 5.91715984e-03,
          0., 3.94477323e-03, 0., 0., 3.94477323e-03, 3.94477323e-03,
          5.91715984e-03, 0., 5.91715984e-03, 9.86193307e-03, 0.,
          1.97238661e-03, 1.18343197e-02, 0., 1.57790929e-02, 0., 0.,
          9.86193307e-03, 9.86193307e-03, 1.77514795e-02, 1.18343197e-02,
          1.97238661e-03, 0., 9.86193307e-03, 5.91715984e-03, 0., 0.,
          9.86193307e-03, 0., 0., 1.38067063e-02, 5.91715984e-03, 0.,
          1.97238661e-03, 3.94477323e-03, 5.91715984e-03, 3.94477323e-03,
          7.88954645e-03, 7.88954645e-03, 0., 0., 0., 0., 0.,
          1.97238661e-03, 1.97238661e-03, 1.97238661e-03, 3.94477323e-03,
          1.97238661e-03, 0., 0., 0., 0., 0., 3.94477323e-03, 0., 0., 0.,
          0., 5.91715984e-03, 0., 0., 0., 0., 0., 0., 1.18343197e-02, 0.,
          0., 0., 0., 0., 0., 0., 0., 0., 0., 0., 0., 0., 1.97238661e-03,
          0., 0., 0., 0., 0., 0., 0., 0., 0., 0., 0., 0., 0., 0.,
          1.55642023e-02, 2.91828793e-02, 1.36186769e-02, 1.55642023e-02,
          1.55642023e-02, 1.36186769e-02, 1.94552529e-03, 0.,
          7.78210089e-02, 1.94552522e-02, 1.55642023e-02, 1.75097268e-02,
          4.86381315e-02, 1.75097268e-02, 3.11284047e-02, 0.,
          1.16731515e-02, 2.91828793e-02, 2.72373538e-02, 0.,
          1.16731515e-02, 3.50194536e-02, 2.52918284e-02, 0.,
          1.36186769e-02, 5.83657576e-03, 3.89105044e-02, 0.,
          4.08560298e-02, 0., 2.33463030e-02, 0., 1.36186769e-02,
          1.55642023e-02, 0., 1.55642023e-02, 1.75097268e-02,
          7.78210117e-03, 7.78210117e-03, 3.89105058e-03, 3.89105044e-02,
          9.72762611e-03, 7.78210117e-03, 0., 0., 1.36186769e-02,
          1.94552529e-03, 1.16731515e-02, 3.89105058e-03, 5.83657576e-03,
          7.78210117e-03, 1.94552529e-03, 0., 5.83657576e-03, 0., 0.,
          7.78210117e-03, 3.89105058e-03, 0., 1.94552529e-03,
          3.89105058e-03, 7.78210117e-03, 0., 2.91828793e-02,
          9.72762611e-03, 0., 0., 2.72373538e-02, 0., 1.94552529e-03,
          9.72762611e-03, 0., 3.89105058e-03, 7.78210117e-03,
          1.94552522e-02, 3.89105058e-03, 3.89105058e-03, 0.,
          1.94552529e-03, 7.78210117e-03, 0., 5.83657576e-03,
          1.16731515e-02, 0., 0., 1.16731515e-02, 0., 0., 0.,
          3.89105058e-03, 0., 3.89105058e-03, 7.78210117e-03, 0., 0., 0.,
          0., 3.89105058e-03, 0., 3.89105058e-03, 1.94552529e-03, 0., 0.,
          0., 0., 0., 0., 0., 0., 0., 3.89105058e-03, 0., 0., 0.,
          1.94552529e-03, 0., 0., 1.94552529e-03, 0., 0., 0., 0., 0., 0.,
          0., 0., 0., 0., 0., 0., 0., 0., 0., 0., 0., 0., 0., 0., 0., 0.,
          0., 0., 0., 0., 0., 0., 0., 0., 0., 0., 1.09890113e-02,
          4.39560451e-02, 9.15750954e-03, 3.66300368e-03, 5.12820520e-02,
          3.29670347e-02, 0., 2.93040294e-02, 1.42857149e-01,
          2.74725277e-02, 1.09890113e-02, 9.15750954e-03, 9.15750954e-03,
          9.15750954e-03, 1.46520147e-02, 7.32600736e-03, 9.15750954e-03,
          1.83150191e-02, 1.09890113e-02, 1.31868139e-01, 1.28205130e-02,
          1.46520147e-02, 2.01465208e-02, 3.84615399e-02, 3.66300368e-03,
          7.32600736e-03, 0., 0., 1.83150184e-03, 7.32600736e-03,
          2.01465208e-02, 0., 1.09890113e-02, 0., 0., 5.49450563e-03,
          3.66300368e-03, 0., 0., 1.09890113e-02, 5.49450563e-03,
          4.21245433e-02, 0., 0., 3.66300368e-03, 3.66300368e-03, 0.,
          5.49450563e-03, 5.49450563e-03, 0., 7.32600736e-03, 0.,
          2.56410260e-02, 1.64835174e-02, 0., 3.66300368e-03, 0.,
          1.83150184e-03, 0., 0., 0., 3.66300368e-03, 0., 1.09890113e-02,
          3.66300368e-03, 0., 1.83150184e-03, 2.38095243e-02,
          1.09890113e-02, 0., 3.66300368e-03, 0., 5.49450563e-03,
          5.49450563e-03, 0., 0., 0., 3.66300368e-03, 3.66300368e-03,
          5.49450563e-03, 0., 3.66300368e-03, 3.66300368e-03,
          1.83150184e-03, 0., 1.83150184e-03, 0., 0., 0., 0.,
          1.83150191e-02, 3.66300368e-03, 0., 0., 0., 0., 0., 0., 0.,
          1.83150184e-03, 1.83150184e-03, 0., 0., 0., 0., 0., 0., 0.,
          1.83150184e-03, 1.83150184e-03, 5.49450563e-03, 0., 0., 0., 0.,
          0., 1.83150184e-03, 0., 0., 0., 0., 3.66300368e-03,
          1.83150184e-03, 0., 0., 0., 0., 0., 0., 0., 0., 0., 0., 0., 0.,
          0., 0., 0., 0., 0., 0., 3.66300368e-03, 0., 0., 0., 0., 0., 0.,
          0., 0., 4.89396416e-03, 6.36215359e-02, 2.61011422e-02,
          3.26264277e-03, 2.12071780e-02, 8.15660693e-03, 1.63132139e-03,
          1.79445352e-02, 1.38662323e-01, 2.77324636e-02, 4.89396416e-03,
          9.78792831e-03, 1.14192497e-02, 1.46818925e-02, 1.46818925e-02,
          0., 4.89396416e-03, 3.26264277e-03, 2.61011422e-02,
          1.69657424e-01, 1.63132139e-02, 2.44698208e-02, 2.61011422e-02,
          4.89396416e-02, 3.26264277e-03, 6.52528554e-03, 1.63132139e-03,
          0., 1.63132139e-03, 0., 1.63132139e-02, 0., 6.52528554e-03,
          6.52528554e-03, 1.63132139e-03, 6.52528554e-03, 8.15660693e-03,
          4.89396416e-03, 0., 1.46818925e-02, 9.78792831e-03,
          1.14192497e-02, 0., 4.89396416e-03, 9.78792831e-03,
          1.63132139e-03, 0., 4.89396416e-03, 3.26264277e-03, 0.,
          1.63132139e-03, 0., 1.46818925e-02, 9.78792831e-03, 0.,
          1.63132139e-03, 3.26264277e-03, 3.26264277e-03, 1.63132139e-03,
          1.63132139e-03, 1.63132139e-03, 9.78792831e-03, 0.,
          1.30505711e-02, 8.15660693e-03, 0., 0., 3.26264277e-03,
          6.52528554e-03, 0., 1.30505711e-02, 0., 2.77324636e-02, 0.,
          3.26264277e-03, 0., 3.26264277e-03, 0., 4.89396416e-03,
          1.63132139e-03, 0., 4.89396416e-03, 3.26264277e-03, 0., 0.,
          3.26264277e-03, 8.15660693e-03, 0., 0., 0., 4.89396416e-03,
          4.89396416e-03, 8.15660693e-03, 0., 1.63132139e-03, 0., 0., 0.,
          0., 0., 1.63132139e-03, 1.63132139e-03, 0., 0., 0., 0.,
          1.63132139e-03, 0., 0., 0., 3.26264277e-03, 0., 0.,
          1.63132139e-03, 0., 0., 0., 0., 0., 1.63132139e-03, 0.,
          3.26264277e-03, 0., 0., 0., 0., 0., 0., 0., 0., 0., 0., 0., 0.,
          0., 0., 0., 0., 0., 0., 0., 0., 0., 0., 0., 0., 0., 0., 0., 0.,
          1.07913669e-02, 2.33812947e-02, 1.97841730e-02, 3.95683460e-02,
          7.19424477e-03, 1.43884895e-02, 0., 0., 1.47482023e-01,
          2.87769791e-02, 1.61870513e-02, 1.43884895e-02, 5.03597148e-02,
          4.31654677e-02, 1.97841730e-02, 1.79856119e-03, 1.79856122e-02,
          1.61870513e-02, 2.51798574e-02, 3.41726616e-02, 2.15827338e-02,
          2.33812947e-02, 8.99280608e-03, 0., 1.79856119e-03,
          8.99280608e-03, 3.59712238e-03, 0., 1.79856122e-02, 0.,
          1.43884895e-02, 0., 1.25899287e-02, 8.99280608e-03, 0.,
          1.61870513e-02, 3.41726616e-02, 0., 0., 5.39568346e-03,
          1.07913669e-02, 1.07913669e-02, 1.79856119e-03, 0., 0.,
          8.99280608e-03, 0., 7.19424477e-03, 0., 1.79856119e-03,
          3.59712238e-03, 8.99280608e-03, 1.79856119e-03, 5.39568346e-03,
          1.79856119e-03, 0., 5.39568346e-03, 1.79856119e-03, 0.,
          1.79856119e-03, 0., 1.07913669e-02, 0., 1.79856122e-02,
          7.19424477e-03, 0., 7.19424477e-03, 1.43884895e-02, 0.,
          3.59712238e-03, 1.79856119e-03, 0., 1.79856119e-03,
          1.07913669e-02, 3.59712243e-02, 0., 0., 0., 1.07913669e-02,
          3.59712238e-03, 1.79856119e-03, 2.87769791e-02, 8.99280608e-03,
          1.79856119e-03, 3.59712238e-03, 5.39568346e-03, 0., 0.,
          1.79856119e-03, 1.79856119e-03, 0., 1.79856119e-03,
          1.07913669e-02, 3.59712238e-03, 0., 0., 0., 0., 0.,
          1.79856119e-03, 1.79856119e-03, 1.79856119e-03, 0.,
          1.79856119e-03, 0., 0., 0., 0., 0., 1.79856119e-03,
          7.19424477e-03, 1.79856119e-03, 0., 0., 1.79856119e-03, 0.,
          1.79856119e-03, 0., 0., 0., 0., 1.79856119e-03, 0., 0., 0., 0.,
          0., 0., 0., 0., 0., 0., 0., 0., 0., 0., 0., 0., 0., 0., 0., 0.,
          0., 0., 0., 0., 0., 0., 0., 0., 2.48307008e-02, 3.38600464e-02,
          6.77200919e-03, 9.02934559e-03, 2.93453727e-02, 3.61173823e-02,
          0., 6.77200919e-03, 1.53498873e-01, 2.25733630e-02,
          2.25733640e-03, 2.93453727e-02, 2.93453727e-02, 2.03160271e-02,
          2.25733630e-02, 2.25733640e-03, 2.25733630e-02, 2.48307008e-02,
          1.35440184e-02, 7.44921044e-02, 1.35440184e-02, 2.03160271e-02,
          2.25733630e-02, 4.51467279e-03, 0., 6.77200919e-03,
          2.25733640e-03, 0., 0., 0., 2.03160271e-02, 0., 2.03160271e-02,
          1.58013552e-02, 1.35440184e-02, 2.25733640e-03, 9.02934559e-03,
          9.02934559e-03, 6.77200919e-03, 9.02934559e-03, 6.77200919e-03,
          9.02934559e-03, 0., 0., 0., 0., 0., 2.25733640e-03,
          2.03160271e-02, 2.25733640e-03, 0., 0., 2.03160271e-02,
          9.02934559e-03, 0., 2.25733640e-03, 2.25733640e-03,
          4.51467279e-03, 0., 0., 2.25733640e-03, 1.58013552e-02, 0.,
          3.83747183e-02, 1.12866815e-02, 0., 0., 6.77200919e-03,
          4.51467279e-03, 0., 9.02934559e-03, 0., 4.51467279e-03,
          2.25733640e-03, 6.77200919e-03, 0., 2.25733640e-03, 0., 0., 0.,
          4.51467279e-03, 1.12866815e-02, 6.77200919e-03, 2.25733640e-03,
          0., 0., 2.25733640e-03, 0., 0., 4.51467279e-03, 6.77200919e-03,
          6.77200919e-03, 1.12866815e-02, 0., 0., 0., 0., 2.25733640e-03,
          0., 0., 6.77200919e-03, 2.25733640e-03, 2.25733640e-03, 0., 0.,
          0., 0., 0., 0., 0., 0., 0., 0., 0., 2.25733640e-03, 0., 0., 0.,
          0., 0., 2.25733640e-03, 2.25733640e-03, 0., 0., 0., 0., 0., 0.,
          0., 0., 0., 0., 0., 0., 0., 0., 0., 0., 0., 0., 0., 0., 0., 0.,
          0., 0., 0., 0., 0., 0., 1.20481933e-02, 3.37349400e-02,
          3.61445807e-02, 1.68674700e-02, 4.81927721e-03, 2.40963865e-02,
          0., 1.20481933e-02, 1.68674707e-01, 3.61445807e-02,
          9.63855442e-03, 1.20481933e-02, 1.92771088e-02, 1.92771088e-02,
          3.37349400e-02, 0., 1.20481933e-02, 2.65060253e-02,
          2.16867477e-02, 2.65060253e-02, 1.20481933e-02, 7.22891558e-03,
          2.40963865e-02, 4.81927721e-03, 7.22891558e-03, 1.44578312e-02,
          1.20481933e-02, 0., 7.22891558e-03, 0., 2.16867477e-02, 0.,
          7.22891558e-03, 1.20481933e-02, 0., 1.68674700e-02,
          1.20481933e-02, 7.22891558e-03, 0., 4.81927721e-03,
          2.65060253e-02, 4.81927721e-03, 0., 0., 0., 2.40963860e-03, 0.,
          1.68674700e-02, 4.81927721e-03, 4.81927721e-03, 4.81927721e-03,
          0., 1.44578312e-02, 9.63855442e-03, 0., 0., 9.63855442e-03, 0.,
          0., 2.40963860e-03, 0., 7.22891558e-03, 0., 3.85542177e-02,
          7.22891558e-03, 0., 4.81927721e-03, 0., 0., 2.40963860e-03,
          7.22891558e-03, 0., 2.40963860e-03, 1.20481933e-02,
          9.63855442e-03, 1.20481933e-02, 0., 0., 7.22891558e-03, 0.,
          2.40963860e-03, 1.20481933e-02, 1.44578312e-02, 2.40963860e-03,
          0., 4.81927721e-03, 7.22891558e-03, 0., 0., 0., 4.81927721e-03,
          0., 7.22891558e-03, 2.40963860e-03, 0., 0., 0., 0., 0.,
          4.81927721e-03, 9.63855442e-03, 0., 4.81927721e-03, 0., 0., 0.,
          0., 0., 0., 0., 0., 0., 0., 0., 4.81927721e-03, 0., 0., 0., 0.,
          0., 0., 9.63855442e-03, 0., 0., 0., 0., 0., 0., 0., 0., 0., 0.,
          0., 0., 0., 0., 0., 0., 0., 0., 0., 0., 0., 0., 0., 0., 0., 0.,
          0., 0., 0., 8.25892910e-02, 1.56250000e-02, 3.57142873e-02,
          4.46428591e-03, 2.67857164e-02, 0., 6.69642910e-03,
          1.18303575e-01, 1.33928582e-02, 6.69642910e-03, 1.33928582e-02,
          3.79464291e-02, 2.00892873e-02, 2.00892873e-02, 0.,
          1.11607146e-02, 4.91071455e-02, 1.11607146e-02, 3.34821455e-02,
          4.46428591e-03, 1.11607146e-02, 8.92857183e-03, 0.,
          8.92857183e-03, 1.33928582e-02, 1.11607146e-02, 2.23214296e-03,
          2.23214291e-02, 4.46428591e-03, 1.56250000e-02, 0.,
          1.11607146e-02, 4.46428591e-03, 6.69642910e-03, 2.00892873e-02,
          1.78571437e-02, 6.69642910e-03, 0., 2.23214296e-03,
          1.56250000e-02, 2.23214296e-03, 0., 0., 0., 2.23214296e-03, 0.,
          6.69642910e-03, 4.46428591e-03, 2.23214296e-03, 1.33928582e-02,
          2.23214296e-03, 2.23214291e-02, 2.23214296e-03, 2.23214296e-03,
          0., 6.69642910e-03, 0., 0., 1.33928582e-02, 0., 4.46428591e-03,
          0., 1.78571437e-02, 1.78571437e-02, 0., 2.23214296e-03,
          1.56250000e-02, 2.23214296e-03, 1.11607146e-02, 8.92857183e-03,
          0., 8.92857183e-03, 0., 8.92857183e-03, 2.23214296e-03,
          4.46428591e-03, 4.46428591e-03, 1.11607146e-02, 4.46428591e-03,
          2.23214296e-03, 8.92857183e-03, 2.23214296e-03, 2.23214296e-03,
          0., 1.11607146e-02, 4.46428591e-03, 0., 0., 2.23214296e-03,
          6.69642910e-03, 1.33928582e-02, 4.46428591e-03, 0., 0., 0., 0.,
          0., 0., 2.23214296e-03, 4.46428591e-03, 2.23214296e-03,
          1.11607146e-02, 0., 0., 0., 0., 0., 0., 4.46428591e-03,
          4.46428591e-03, 2.23214296e-03, 0., 0., 2.23214296e-03, 0., 0.,
          0., 0., 0., 0., 8.92857183e-03, 0., 0., 0., 0., 0., 0., 0., 0.,
          0., 0., 0., 0., 0., 0., 0., 0., 0., 0., 0., 0., 0., 0., 0., 0.,
          0., 0., 0., 0., 1.28676472e-02, 1.28676472e-02, 1.10294120e-02,
          1.28676472e-02, 5.51470593e-02, 4.59558815e-02, 3.67647060e-03,
          9.19117685e-03, 1.83823537e-02, 2.20588241e-02, 1.10294120e-02,
          1.28676472e-02, 1.83823537e-02, 1.65441185e-02, 2.20588241e-02,
          0., 1.83823537e-02, 3.12500000e-02, 1.47058824e-02,
          2.20588241e-02, 7.35294120e-03, 5.14705889e-02, 2.75735296e-02,
          0., 3.67647060e-03, 1.28676472e-02, 3.67647074e-02, 0.,
          1.65441185e-02, 0., 1.65441185e-02, 3.67647060e-03,
          2.57352944e-02, 1.83823537e-02, 3.67647060e-03, 2.02205889e-02,
          1.47058824e-02, 1.47058824e-02, 5.51470602e-03, 3.67647060e-03,
          2.20588241e-02, 1.47058824e-02, 0., 0., 0., 3.67647060e-03,
          1.83823530e-03, 9.19117685e-03, 5.51470602e-03, 3.67647060e-03,
          2.02205889e-02, 1.83823530e-03, 3.12500000e-02, 1.47058824e-02,
          0., 0., 3.67647060e-03, 3.67647060e-03, 1.83823530e-03,
          1.83823530e-03, 3.67647060e-03, 9.19117685e-03, 0.,
          3.67647074e-02, 1.47058824e-02, 0., 1.83823530e-03,
          3.67647060e-03, 1.83823530e-03, 3.67647060e-03, 2.20588241e-02,
          0., 0., 1.10294120e-02, 1.83823530e-03, 1.83823530e-03,
          1.10294120e-02, 1.83823530e-03, 5.51470602e-03, 0.,
          1.83823530e-03, 0., 1.83823530e-03, 1.10294120e-02, 0.,
          1.83823530e-03, 3.67647060e-03, 0., 0., 1.83823530e-03,
          1.47058824e-02, 3.67647060e-03, 3.67647060e-03, 0., 0., 0., 0.,
          1.83823530e-03, 0., 1.83823530e-03, 1.28676472e-02,
          5.51470602e-03, 1.83823530e-03, 1.83823530e-03, 0., 0., 0., 0.,
          0., 0., 0., 0., 0., 1.83823530e-03, 1.83823530e-03, 0., 0., 0.,
          0., 0., 0., 0., 1.83823530e-03, 0., 0., 0., 0., 0., 0., 0., 0.,
          0., 0., 0., 0., 0., 0., 0., 0., 0., 0., 0., 0., 0., 0., 0., 0.,
          0., 0., 0., 1.02459006e-02, 5.94262257e-02, 4.09836043e-03,
          6.14754064e-03, 1.84426215e-02, 3.68852429e-02, 0.,
          2.04918012e-02, 1.53688520e-01, 2.66393423e-02, 0.,
          1.22950813e-02, 2.25409828e-02, 1.63934417e-02, 1.84426215e-02,
          1.02459006e-02, 1.63934417e-02, 1.43442620e-02, 2.86885239e-02,
          1.06557369e-01, 1.63934417e-02, 8.19672085e-03, 1.02459006e-02,
          1.02459006e-02, 2.04918021e-03, 6.14754064e-03, 2.04918021e-03,
          2.04918021e-03, 4.09836043e-03, 2.04918021e-03, 1.84426215e-02,
          0., 3.27868834e-02, 1.63934417e-02, 8.19672085e-03,
          1.63934417e-02, 2.45901626e-02, 0., 6.14754064e-03,
          2.04918012e-02, 1.43442620e-02, 1.22950813e-02, 0., 0., 0., 0.,
          0., 2.04918021e-03, 6.14754064e-03, 0., 4.09836043e-03, 0.,
          2.66393423e-02, 2.04918021e-03, 0., 2.04918021e-03, 0., 0., 0.,
          4.09836043e-03, 2.04918021e-03, 1.22950813e-02, 0.,
          8.19672085e-03, 6.14754064e-03, 2.04918021e-03, 0.,
          8.19672085e-03, 6.14754064e-03, 0., 6.14754064e-03, 0., 0.,
          1.43442620e-02, 4.09836043e-03, 0., 0., 2.04918021e-03,
          2.04918021e-03, 6.14754064e-03, 2.04918021e-03, 1.22950813e-02,
          2.04918021e-03, 0., 0., 4.09836043e-03, 0., 0., 0., 0.,
          4.09836043e-03, 4.09836043e-03, 1.02459006e-02, 0., 0., 0., 0.,
          0., 0., 0., 0., 0., 0., 2.04918021e-03, 0., 0., 2.04918021e-03,
          2.04918021e-03, 0., 0., 4.09836043e-03, 0., 0., 0.,
          6.14754064e-03, 0., 0., 0., 0., 0., 0., 0., 2.04918021e-03, 0.,
          0., 0., 0., 0., 0., 0., 0., 0., 0., 0., 0., 0., 0., 0., 0., 0.,
          0., 0., 0., 0., 0., 0., 0., 0., 0., 0., 1.99203193e-02,
          2.78884470e-02, 9.96015966e-03, 9.96015966e-03, 7.96812773e-03,
          2.58964151e-02, 1.99203193e-03, 7.96812773e-03, 1.55378491e-01,
          5.97609580e-03, 3.98406386e-03, 1.99203193e-02, 2.78884470e-02,
          1.79282874e-02, 1.39442235e-02, 5.97609580e-03, 1.39442235e-02,
          6.77290857e-02, 1.79282874e-02, 5.77689260e-02, 3.98406386e-03,
          9.96015966e-03, 3.98406386e-03, 3.98406386e-03, 1.79282874e-02,
          2.58964151e-02, 1.79282874e-02, 7.96812773e-03, 2.39043832e-02,
          0., 5.97609580e-03, 1.19521916e-02, 1.79282874e-02,
          1.59362555e-02, 0., 1.99203193e-03, 0., 1.79282874e-02,
          1.99203193e-03, 1.99203193e-03, 7.96812773e-03, 1.99203193e-03,
          7.96812773e-03, 0., 5.97609580e-03, 3.18725109e-02,
          3.98406386e-03, 1.19521916e-02, 1.99203193e-03, 7.96812773e-03,
          0., 0., 7.96812773e-03, 0., 1.99203193e-02, 0., 1.19521916e-02,
          0., 0., 5.97609580e-03, 1.99203193e-03, 1.39442235e-02, 0.,
          1.99203193e-02, 1.39442235e-02, 5.97609580e-03, 1.99203193e-03,
          1.99203193e-03, 3.98406386e-03, 1.99203193e-03, 1.99203193e-03,
          0., 3.98406386e-03, 1.99203193e-03, 7.96812773e-03,
          7.96812773e-03, 1.99203193e-03, 3.98406386e-03, 7.96812773e-03,
          7.96812773e-03, 0., 3.98406386e-03, 0., 3.98406386e-03,
          1.99203193e-03, 9.96015966e-03, 0., 0., 0., 0., 0.,
          5.97609580e-03, 7.96812773e-03, 1.99203193e-03, 0., 0., 0., 0.,
          0., 1.99203193e-03, 1.99203193e-03, 1.99203193e-03, 0.,
          1.99203193e-03, 0., 0., 0., 0., 0., 1.99203193e-03, 0., 0., 0.,
          0., 1.99203193e-03, 0., 0., 0., 0., 0., 0., 1.99203193e-03, 0.,
          0., 0., 0., 0., 0., 0., 0., 0., 0., 0., 0., 0., 0., 0., 0., 0.,
          0., 0., 0., 0., 0., 0., 0., 0., 0., 0., 0., 9.32400953e-03,
          3.03030312e-02, 1.39860138e-02, 4.66200477e-03, 4.66200477e-03,
          1.86480191e-02, 0., 0., 1.00233100e-01, 1.86480191e-02,
          1.16550121e-02, 3.03030312e-02, 4.66200486e-02, 2.09790207e-02,
          2.56410260e-02, 0., 1.16550121e-02, 4.89510484e-02,
          1.86480191e-02, 4.66200477e-03, 9.32400953e-03, 2.09790207e-02,
          2.33100238e-03, 0., 3.03030312e-02, 1.16550121e-02,
          4.42890450e-02, 0., 4.89510484e-02, 0., 0., 9.32400953e-03,
          2.33100238e-03, 1.39860138e-02, 0., 2.09790207e-02,
          1.63170174e-02, 3.03030312e-02, 0., 2.33100238e-03,
          1.39860138e-02, 0., 1.86480191e-02, 0., 0., 6.52680695e-02, 0.,
          9.32400953e-03, 2.33100238e-03, 3.26340348e-02, 0.,
          6.99300691e-03, 6.99300691e-03, 0., 2.56410260e-02, 0.,
          4.66200477e-03, 0., 0., 9.32400953e-03, 2.33100238e-03,
          6.99300691e-03, 0., 2.33100238e-03, 2.33100238e-03, 0., 0.,
          9.32400953e-03, 0., 9.32400953e-03, 0., 0., 4.66200477e-03, 0.,
          1.39860138e-02, 1.16550121e-02, 4.66200477e-03, 0., 0., 0.,
          2.33100238e-03, 0., 0., 0., 0., 1.86480191e-02, 0., 0., 0.,
          2.33100238e-03, 0., 2.33100238e-03, 2.33100238e-03,
          6.99300691e-03, 0., 0., 0., 2.33100238e-03, 2.33100238e-03, 0.,
          0., 0., 0., 0., 0., 0., 0., 0., 2.33100238e-03, 0.,
          2.33100238e-03, 0., 0., 0., 2.33100238e-03, 0., 0.,
          2.33100238e-03, 0., 0., 0., 4.66200477e-03, 0., 0., 0., 0., 0.,
          0., 0., 0., 0., 0., 0., 0., 0., 0., 0., 0., 0., 0., 0., 0., 0.,
          0., 0., 0., 0., 0., 0., 0., 1.21212117e-02, 2.12121196e-02,
          1.96969695e-02, 1.51515147e-02, 1.66666657e-02, 1.06060598e-02,
          0., 9.09090880e-03, 3.93939391e-02, 2.42424235e-02,
          1.36363637e-02, 2.12121196e-02, 4.09090891e-02, 1.51515147e-02,
          2.57575754e-02, 4.54545440e-03, 1.81818176e-02, 2.87878774e-02,
          1.96969695e-02, 5.60606048e-02, 2.12121196e-02, 3.63636352e-02,
          1.66666657e-02, 7.57575734e-03, 2.12121196e-02, 1.06060598e-02,
          2.42424235e-02, 3.03030293e-03, 6.06060587e-03, 1.51515147e-03,
          1.81818176e-02, 1.51515147e-03, 6.06060587e-03, 3.03030293e-03,
          9.09090880e-03, 1.96969695e-02, 6.06060587e-03, 1.21212117e-02,
          3.03030293e-03, 2.57575754e-02, 2.72727273e-02, 1.66666657e-02,
          0., 1.51515147e-03, 0., 3.03030293e-03, 0., 2.87878774e-02,
          4.54545440e-03, 1.06060598e-02, 1.06060598e-02, 0.,
          9.09090880e-03, 6.06060587e-03, 1.51515147e-03, 3.03030293e-03,
          1.36363637e-02, 3.03030293e-03, 1.21212117e-02, 1.51515147e-03,
          4.54545440e-03, 1.66666657e-02, 0., 1.06060598e-02,
          1.21212117e-02, 1.51515147e-03, 7.57575734e-03, 1.06060598e-02,
          1.51515147e-03, 3.03030293e-03, 3.03030293e-03, 0.,
          1.51515147e-03, 4.54545440e-03, 1.06060598e-02, 4.54545440e-03,
          4.54545440e-03, 4.54545440e-03, 4.54545440e-03, 4.54545440e-03,
          0., 9.09090880e-03, 9.09090880e-03, 1.51515147e-03, 0.,
          9.09090880e-03, 3.03030293e-03, 0., 0., 1.51515147e-03, 0.,
          3.03030293e-03, 7.57575734e-03, 0., 0., 1.51515147e-03, 0.,
          1.51515147e-03, 0., 0., 6.06060587e-03, 4.54545440e-03,
          3.03030293e-03, 1.51515147e-03, 0., 0., 0., 1.51515147e-03, 0.,
          1.51515147e-03, 0., 0., 0., 0., 1.51515147e-03, 0., 0., 0., 0.,
          0., 1.51515147e-03, 3.03030293e-03, 0., 0., 0., 0., 0., 0., 0.,
          0., 0., 0., 0., 0., 0., 0., 0., 0., 0., 0., 0., 0., 0., 0., 0.,
          0., 0., 0., 0., 0. ]
   responses: !!opencv-matrix
      rows: 30
      cols: 1
      dt: f
      data: [ 0., 0., 0., 0., 0., 0., 0., 0., 0., 0., 0., 0., 0., 0., 0.,
          1., 1., 1., 1., 1., 1., 1., 1., 1., 1., 1., 1., 1., 1., 1. ]
